term,v0,v1,v2,v3,v4,v5,v6,v7,v8,v9,v10,v11,v12,v13,v14,v15,v16,v17,v18,v19,v20,v21,v22,v23,v24,v25,v26,v27,v28,v29,v30,v31,v32,v33,v34,v35,v36,v37,v38,v39,v40,v41,v42,v43,v44,v45,v46,v47,v48,v49,v50,v51,v52,v53,v54,v55,v56,v57,v58,v59,v60,v61,v62,v63,v64,v65,v66,v67,v68,v69,v70,v71,v72,v73,v74,v75,v76,v77,v78,v79,v80,v81,v82,v83,v84,v85,v86,v87,v88,v89,v90,v91,v92,v93,v94,v95,v96,v97,v98,v99,v100,v101,v102,v103,v104,v105,v106,v107,v108,v109,v110,v111,v112,v113,v114,v115,v116,v117,v118,v119,v120,v121,v122,v123,v124,v125,v126,v127,v128,v129,v130,v131,v132,v133,v134,v135,v136,v137,v138,v139,v140,v141,v142,v143,v144,v145,v146,v147,v148,v149,v150,v151,v152,v153,v154,v155,v156,v157,v158,v159,v160,v161,v162,v163,v164,v165,v166,v167,v168,v169,v170,v171,v172,v173,v174,v175,v176,v177,v178,v179,v180,v181,v182,v183,v184,v185,v186,v187,v188,v189,v190,v191,v192,v193,v194,v195,v196,v197,v198,v199
chill,-0.2925441,-0.2179119,0.26221994,-0.32134938,-0.4996606,-0.22277632,-0.4858183,0.25269017,0.08779181,0.46896988,-0.013005854,-0.21900617,0.26779732,-0.2874527,0.31839332,-0.014733601,0.17558827,0.024309779,-0.43757346,0.21895178,-0.37483037,0.16555159,-0.10168837,-0.7652057,0.058664896,-0.19177337,0.022538267,-0.37696993,-0.09847961,0.06319498,-0.1469954,0.22426827,-0.14217407,-0.07958809,-0.18611734,0.26344153,0.12875749,0.15451993,-0.045207903,-0.27861,0.462771,-0.05375923,0.32116234,-0.0065941657,-0.098997876,-0.134932,0.12931193,-0.15263659,0.49107537,-0.23179932,0.21111064,0.1851723,-0.18739899,-0.24816571,-0.23150797,0.23903756,-0.32033202,0.47674498,-0.07691129,-0.24111141,0.2502464,0.31411773,-0.04385715,-0.13470268,-0.20928676,0.06132242,-0.3273506,0.1770836,0.22307737,-0.06789033,-0.43245468,-0.035745386,0.01269438,0.51678306,-0.060503956,-0.13344753,-0.22072281,-0.024573142,0.116258815,0.30711657,-0.047763843,-0.24311745,-0.41066685,-0.22761004,-0.16361882,-0.020652048,-0.26011702,0.3802739,-0.41396114,-0.22262129,-0.13562398,-0.09466171,0.22023107,0.553223,-0.01952688,0.31440914,-0.25020444,-0.81479436,-0.010494623,-0.056374654,-0.34234524,0.3129488,0.20697623,-0.23366597,0.362871,-0.42216158,0.14846425,-0.1982533,-0.19602762,-0.2837308,0.59086365,0.27821815,0.03955967,-0.03590698,0.032368585,0.17450438,0.047401287,-0.1969051,-0.018941645,-0.08536867,0.18452345,0.2179,0.66163754,0.12818007,0.3622184,0.46682084,-0.17049658,0.3062126,0.101372644,0.11935498,0.22744334,0.37151852,0.47459418,-0.22622108,-0.10876996,0.5530182,-0.0849355,-0.47467768,-0.023074515,-0.07081982,-0.14291625,-0.06408122,-0.23303157,-0.24484485,0.58967644,-0.5934093,-0.09907651,0.12624253,0.30467096,-0.23713753,-0.28909212,0.075531505,-0.17241552,0.02033031,0.24702464,-0.35993233,-0.002692901,-0.048842866,0.24519087,-0.5794509,0.117005385,-0.049189012,0.4912277,0.118026935,0.46828672,0.52923244,-0.23866665,-0.17710209,-0.2560575,0.5641722,0.37487367,0.36354673,-0.23086764,0.13686645,-0.3379951,-0.08879554,-0.008169234,-0.07087049,0.41367605,-0.21708673,0.006453435,0.2592179,-0.41826063,0.16321075,-0.24049123,-0.57557726,-0.107548006,0.0068169427,-0.20408595,-0.20688741,-0.07218148,-0.4206674,0.45222902,-0.06896695,-0.4276476,-0.160368,-0.071641035,0.44377196,-0.2941476,0.3269198
mellow,-0.25403818,0.081255324,-0.22715627,-0.12881044,-0.22988814,0.008820079,-0.5280132,0.013435373,0.20996547,0.22675617,0.25844404,-0.22566216,-0.2852923,-0.3101245,0.2619218,0.42400956,0.1118053,-0.6199362,-0.1596653,0.36330923,-0.064921364,-0.023595028,-0.30193692,0.321556,-0.28877112,-0.23406768,-0.40384182,0.086463235,-0.10536234,0.41809276,0.43753806,0.1634021,-0.16729797,-0.12039391,0.19599558,0.51705724,-0.19289364,-0.71855193,-0.12731047,-0.4654868,0.10527115,0.45570764,0.04674757,0.13684687,0.37876388,0.118150815,0.1350117,-0.18660246,0.66237396,0.13092661,-0.050049923,0.26866204,-0.09160091,0.056682523,0.39266288,0.79268354,-0.08286245,-0.021237068,-0.15949616,-0.15294668,0.13502675,0.060816176,-0.03168188,-0.20943241,-0.084163725,-0.3990324,0.22717784,0.122358896,-0.00014648293,-0.054572817,0.012336077,0.0458744,0.15277727,0.46161193,-0.16219285,-0.016862234,-0.29750714,0.42622948,-0.096471734,0.28138414,0.19416453,-0.18635063,0.008563366,-0.6840699,-0.16563453,0.3750245,-0.61069655,0.062995315,0.25359952,0.3349361,-0.5655914,0.039348874,-0.21037665,0.61649954,-0.70734537,-0.19678023,0.08872896,-0.053382073,-0.051177062,-0.11405442,0.25492647,-0.059348915,-0.1166734,-0.6255754,0.2575487,0.06380822,-0.38300383,-0.7890281,-0.28737614,0.37485594,-0.12073255,-0.12993294,0.14878011,0.010344734,-0.064319536,0.15049402,0.37727746,0.16448076,0.13120991,-0.4142856,0.37619606,-0.03220363,0.33971396,0.05799164,0.52280307,0.11573237,0.13226663,-0.35437325,0.0413622,-0.1823193,-0.028950157,0.14776966,0.17060742,-0.21181874,-0.2690186,0.3621265,0.39350867,-0.18918104,-0.06846324,-0.2252947,-0.04473365,-0.4386813,-0.47389293,-0.15273741,0.10976926,-0.47470006,0.19711766,-0.2575646,0.47331765,-0.16797528,-0.26492763,-0.04295523,0.44306594,-0.27575773,-0.08727463,0.056588743,0.12301154,-0.04205262,0.08255714,-0.29795536,-0.22498687,-0.39824045,-0.080883965,0.46670336,0.298658,0.5567028,-0.54552877,-0.41043976,-0.6208001,-0.04238905,0.38615164,-0.27689517,-0.19592382,-0.043098573,-0.27773556,-0.50207275,0.37987363,-0.49075323,-0.036524292,0.22054309,-0.60110694,-0.35160613,-0.24586578,-0.47928715,0.2859741,-0.118940234,0.09437908,-0.29776508,0.26581368,0.10099037,-0.022480005,0.013216818,0.68336,-0.18684328,0.108355224,-0.047930222,0.3125184,0.0014406701,0.018053947,0.04796857
relax,0.17152138,-0.38948873,-0.110437706,-0.34370664,-0.40770492,0.082394995,-0.18278585,0.1749799,0.36974272,0.39975724,-0.21558452,-0.31157658,-0.30007073,-0.56972593,0.42127058,0.3882485,-0.13571644,-0.33852324,0.17734753,0.12568283,-0.5794945,0.2583031,-0.24191241,0.24702506,-0.27222762,-0.6576366,-0.07552799,-0.3996151,-0.11489606,0.53112006,0.44638273,0.31554958,-0.5444626,-0.05949705,-0.41281697,0.016269019,-0.1346511,0.23945387,-0.14396498,0.40464416,0.26177168,-0.040458087,0.3176866,0.16322102,-0.3123754,0.00059397833,-0.19002554,-0.20307828,0.27750376,-0.048834708,-0.030638412,-0.061277106,0.09222163,0.016433738,-0.09428682,0.3775916,-0.3869001,0.19407164,0.33991492,-0.4248814,-0.22275636,-0.39184827,0.36910722,0.19191203,-0.22820364,-0.011116687,0.019428018,0.12818535,0.28850606,0.054910876,-0.5079313,-0.36471552,0.041513395,0.27949655,0.02340944,0.16867575,-0.28479177,-0.0012308857,-0.28165847,0.24534702,0.19008176,0.0254465,-0.39729112,0.31055677,-0.016744606,-0.028177775,-0.20965081,0.3119544,-0.20240057,-0.14222004,-0.06665744,-0.049752805,0.4349639,0.3213986,-0.47665888,-0.22504702,0.12733352,-0.18499488,0.22307368,0.10607042,-0.62395835,0.07697742,-0.14465071,-0.15852858,0.05426025,-0.19501072,-0.49533167,-0.13659687,-0.17947666,0.31165048,0.5075583,0.10814227,-0.1910667,-0.13023387,-0.25460073,0.24186912,-0.14561002,0.11371022,-0.21148898,-0.43954498,0.34717715,0.10550972,0.3879633,0.06845368,0.33879462,0.5774063,-0.1287735,-0.029264499,0.3402141,0.41686612,-0.23743078,0.5866312,0.34475145,-0.21511926,0.29006982,0.6078349,0.071448036,-0.29948688,0.20715535,0.19784464,-0.2072853,-0.47760865,0.10471132,-0.56123406,0.30226046,-0.503242,0.29777792,-0.005413259,0.047192313,-0.27123734,-0.0666704,0.2796818,-0.30945116,-0.1721409,0.24198459,-0.2005809,-0.379876,-0.027839107,-0.22048786,-0.08879062,-0.1498403,0.15812124,0.06054112,-0.257574,-0.053036172,0.3471037,-0.2725895,0.15381193,0.05626963,-0.25844783,0.21013486,0.27386865,0.2949261,-0.0864994,0.08753871,-0.17465074,0.15697165,0.20856918,-0.2008928,0.32819596,-0.27991277,-0.18026479,-0.17134911,0.4412107,-0.4239286,-0.30238762,0.07290014,-0.052989013,-0.28689772,-0.320388,0.09270193,-0.14647372,0.57851547,0.012416306,-0.14935164,-0.054486208,0.08565157,0.18272096,0.18203323,-0.29764473
upbeat,-0.17760108,-0.45507404,-0.09435892,0.018812705,0.38800082,-0.49754998,-0.10657068,-0.013657918,-0.15203084,0.24355982,0.13827403,-0.39498124,0.057155877,0.18872459,0.30245084,0.006686941,-0.1959223,-0.29841992,-0.07494868,-0.30540875,-0.34585696,-0.17459054,-0.38117975,0.11587121,0.5166979,0.11158844,-0.27257156,0.008471622,-0.1075889,0.2952771,0.009679721,0.22116417,-0.09856095,0.30387717,-0.19625956,0.46853012,-0.046745174,-0.34072575,0.008521907,-0.2962043,0.15291132,-0.33456126,-0.07748033,0.12139745,-0.24951713,0.41639692,0.11978543,0.14225824,0.49001375,0.15845715,0.018424967,-0.0069111045,-0.04837678,-0.2833897,-0.093603745,0.10050223,0.061225902,0.10241758,0.3965612,-0.08616039,0.2813614,0.52185786,-0.11769684,-0.22187315,-0.29503304,0.65033734,-0.08983552,0.50578123,0.40092736,0.0508063,-0.05287598,0.36952862,-0.10122535,0.28330415,0.3086025,0.525304,-0.51469743,0.79221886,0.005432548,-0.02997325,-0.05022474,0.44271374,0.32913256,-0.15467407,0.027662672,0.051499136,0.01544514,-0.0025115185,-0.4620665,0.13164154,-0.027568668,-0.1436676,-0.4766408,0.4407867,-0.49310637,0.19771244,0.30301788,-0.25989196,-0.09369586,-0.18539838,-0.8525572,0.18012813,0.42632216,-0.5637893,0.0756729,-0.055441126,-0.0379947,-0.39302874,-0.19973442,0.07845903,0.31489846,0.26871583,0.07840346,0.119158894,-0.040232945,0.31391123,0.074353926,0.29225954,0.051941644,-0.076207094,-0.31591308,-0.18756945,0.71987927,-0.032746565,0.25741556,0.09707433,-0.0709274,-0.17354009,0.16502137,-0.19370656,-0.103597745,0.261326,0.3222593,0.24394265,0.47654662,0.13432059,-0.06530849,-0.41870555,0.43477082,-0.006587863,-0.09524876,-0.48840487,-0.26245025,-0.54238284,0.1754562,0.2866297,0.11285809,0.21105197,-0.26471415,-0.22842556,-0.07672174,0.25633812,-0.12332019,-0.17794113,0.08982534,-0.57071376,-0.13073702,0.17243037,0.09752254,-0.08648205,-0.11076632,-0.14909405,0.16652259,-0.09839619,-0.1206456,0.43962964,0.08684111,-0.23672032,0.0020056812,-0.34877202,0.17364834,-0.025769431,-0.05756639,0.046088487,0.04810764,-0.21472305,0.07810506,0.21711448,0.14147161,0.22928503,-0.33126003,-0.007993848,-0.00014544283,-0.36498857,0.057149388,-0.38706687,0.17552531,0.19994529,-0.2964959,-0.18847105,0.4716846,-0.47937217,0.20227596,-0.57084507,0.40239802,0.08716281,0.16124558,-0.07006875,0.08862962,0.12717807
smooth,-0.3605794,-0.43649104,0.011969858,-0.53496873,-0.15645245,0.07768551,-0.38033852,-0.053785097,0.5852072,0.18518196,-0.0718581,0.25477272,0.21279272,-0.6071205,0.40287524,0.09591432,-0.4039283,-0.065977834,-0.21603368,0.16917872,-0.64910966,0.46877655,-0.41351727,0.418254,0.35733283,-0.349508,-0.32153982,0.27720657,-0.36083457,0.19168052,-0.046232354,0.5315124,-0.28781632,0.26678696,-0.026726196,0.7576046,0.2008164,0.2254878,-0.236123,0.15204698,0.46038398,-0.0838952,0.10181058,-0.19015442,-0.30740625,0.28973362,0.10559777,-0.060371947,0.7142578,-0.3133462,0.21364182,0.026385566,0.079283305,-0.18576853,0.316704,0.44873857,-0.7177204,0.075618416,-0.4387827,-0.50607514,0.48630026,0.25254282,0.55113083,-0.054698795,-0.4034177,-0.2623382,0.1642039,0.414702,0.025876798,-0.35211754,-0.015104052,-0.014547934,-0.14264372,0.63925326,-0.38728845,0.12355702,-0.42126888,-0.004001746,0.22145611,-0.23779225,0.33542278,0.20646363,0.041511506,0.37649506,0.12477061,0.07476066,-0.30301067,-0.15153095,-0.58072007,0.29562882,-0.09029265,-0.23837282,0.43242997,0.116032645,-0.11416016,-0.038343295,-0.53951514,0.11408403,0.32355917,0.20202814,0.050877143,-0.1771638,0.104057446,-0.34061238,0.39810956,0.3472702,-0.6895474,-0.48060626,-0.14083661,0.31559834,0.2139533,0.06858544,0.33661658,-0.50736165,-0.45675766,0.622157,0.02013423,0.372417,0.24790016,-0.70276713,-0.20036845,-0.022003457,0.22538768,0.056223255,-0.122165315,0.1924211,-0.19625193,-1.0002221,0.68114984,0.04444895,-0.6241629,0.14658639,0.40493065,0.15928851,-0.029007876,-0.19815297,0.77071786,-0.36960313,-0.37309977,0.313416,-0.21813825,-0.24959502,-0.09236661,-0.8238268,0.27130416,-0.32555833,0.04362902,-0.030955477,0.2668129,0.37757763,-0.24852364,-0.17161247,-0.718865,0.2265441,0.486444,-0.3409212,0.36817166,0.35566399,0.020078791,0.024699744,-0.64523876,0.3569108,0.014433288,0.13048679,-0.27742657,0.37874544,-0.2534569,-0.104428604,-0.26323417,0.14127934,0.2583082,-0.111290224,-0.28785473,-0.068470195,-0.068180345,-0.18392058,0.6035924,-0.08313118,0.24677591,0.014431628,-0.5203192,0.19629988,-0.06935574,0.42066514,0.017088654,-0.59560746,-0.37808362,-0.004152924,0.33385754,0.5895753,-0.42130747,-0.22690357,0.33640245,-0.09152002,0.20852311,-0.18799122,-0.3322223,0.42879692,-0.31758943,-0.203674
sleep,-0.15768221,-0.2203986,-0.1892285,-0.0066474327,0.35282236,0.36693603,-0.019603416,-0.030707086,0.4497633,0.5601173,-0.12114224,-0.029904269,-0.47651222,-0.0014032098,-0.4524716,0.28386307,-0.1021289,-0.2215014,0.09751249,-0.435229,-0.2887068,0.18594576,0.35089204,0.13868894,-0.21537986,-0.48874378,0.7117758,-0.38953143,0.089536175,0.654195,-0.047225196,0.28583577,-1.053817,0.03043729,-0.16285573,0.31767276,0.45004538,-0.49297708,-0.44404286,-0.014895375,0.13311873,0.14646621,0.32557923,0.57437986,-0.25871262,-0.34973162,-0.28593525,-0.05681959,0.20144238,-0.69078577,0.48260608,-0.05069884,0.15042917,-0.21555212,0.507518,0.927955,-0.071802355,0.18431023,0.121698834,0.16015999,0.24789369,-0.7527285,-0.37656203,0.63670033,-0.49308464,0.28600138,-0.4767522,-0.11952527,0.54543746,-0.5069614,-0.53973776,-0.4495567,0.57898355,0.14753284,0.34754512,-0.28815952,-0.29005715,0.29290995,-0.56110847,0.23226142,-0.23870984,-0.03786866,0.21425577,-0.18331458,0.09972433,0.04632616,-0.19354142,0.2811882,0.119358964,-0.12772118,-0.19685982,0.10202325,-0.06216574,0.7152816,-0.1948081,-0.3678198,-0.12447675,-0.83494425,-0.5418498,-0.81396407,-0.5596972,0.6950852,0.22344899,-0.10940032,0.15073642,-0.2608589,-0.18040462,-0.2082573,-0.017967585,0.11523926,-0.061717827,-0.14947271,0.4260627,-0.032016933,-0.03332343,0.25956976,0.94938123,-0.46611014,0.1373039,-0.50717914,0.32407618,0.029440641,0.27560142,-0.106670395,0.29214096,0.14192434,0.46721762,-0.44562957,-0.30039585,-0.3933039,-0.299305,0.52067155,-0.29628864,-0.44885367,0.49604124,0.30883294,-0.06145993,-0.67975837,-0.33007264,0.2170058,-0.07889593,-0.3614473,-0.58431554,0.10501525,0.37405905,-0.47533923,5.867451e-05,-0.08973211,-0.32150707,-1.4095798,-0.39020252,-0.1806706,-0.42702258,-0.0037199669,-0.5193888,0.05705806,-0.33913285,-0.19961414,0.069095545,0.26422057,0.34728414,0.6345939,0.24269497,-0.18207654,0.57007957,0.63907576,0.28373396,0.3895787,-0.24841087,-0.084009685,0.3032326,-0.11314921,-0.23368053,-0.5429069,-0.27445897,0.5388394,0.038735032,0.593556,0.28695005,-0.21688163,-0.28474796,-0.42435032,0.034245793,0.09696117,0.021167016,0.09241681,-0.12675157,0.15280013,-0.41252682,0.085645325,0.06952011,0.26502973,0.29231912,-0.1601966,0.35457727,-0.07564327,-0.38515055,-0.35458934,0.27118197,-0.37065846
sexy,-0.055993125,-0.07261512,0.07520767,-0.5038442,-0.23543197,-0.03225403,-0.042995956,0.1454358,0.097602665,0.2671446,-0.31132564,0.34770015,0.09565168,-0.4003661,-0.15047455,0.13604923,-0.18812475,-0.18614921,-0.31537047,0.058457963,-0.66589636,0.5459773,-0.6548427,0.46731243,-0.08647101,0.21435085,-0.2389107,0.20037338,-0.31154835,0.047208782,0.06505896,0.6611981,-0.28137973,0.19616874,0.18819883,0.31319976,-0.0360177,-0.33352265,0.022919921,-0.17440793,0.027269736,-0.3541946,-0.62175536,0.33421218,-0.28146043,0.046562694,-0.15082286,-0.011197632,0.112535454,-0.040510856,-0.19597937,-0.16539569,-0.3845552,0.31815282,0.7377196,0.8299138,-0.6157788,-0.023180736,0.19118589,-0.08661764,0.3241049,0.23154236,-0.09165699,-0.11313059,-0.5001546,0.2606253,0.07386914,-0.12066112,0.5275954,-0.39742693,-0.06429895,0.0035242718,-0.26627994,0.5495949,0.47234568,0.15481907,0.026209168,0.18638946,-0.35638642,0.104559414,0.068852864,-0.24128465,-0.11264465,0.15323335,0.124596335,0.6184615,0.14102888,0.43872005,0.20402342,0.007615272,-0.2508121,0.12246139,0.026992626,0.11808131,-0.44996855,-0.15182227,-0.7518038,-0.57179487,0.17340009,-0.23274337,0.122615516,-0.1170311,-0.36794996,-0.13217993,0.4128154,0.3584266,-0.046209283,-0.33100823,-0.49822828,-0.56639373,0.14276195,-0.029388234,-0.49771628,-0.35424033,0.068654075,-0.009178114,0.46376747,-0.1116274,-0.09089704,-0.06824981,-0.18940414,0.18831515,0.316602,-0.30112398,-0.308199,-0.41905075,0.15651008,-0.053968605,0.40375257,-0.006735539,-0.17697027,0.21540155,0.16166288,0.28829503,0.30013537,-0.20317921,0.38542628,-0.006270821,0.2152394,0.19893886,-0.014710952,-0.14034764,-0.058373697,-0.3980708,-0.06089171,-0.24619555,-0.0076452247,0.02624242,-0.16605799,-0.55491394,0.8301063,0.07113929,-0.5826759,-0.45319584,0.047143895,0.28661802,0.33725503,0.018509882,-0.06310228,-0.23826234,-0.4531852,0.052731626,0.22049609,0.40033886,0.08723342,0.8774709,-0.093753085,-0.06452077,-0.5582811,-0.02499628,-0.15690377,0.23312645,0.12530234,-0.0961765,-0.18251768,-0.09243235,-0.09651193,0.35965392,0.20760913,0.14424062,-0.04162008,-0.30999097,-0.38747814,0.081926145,-0.19453567,-0.592248,-0.110038504,-0.05867343,-0.1376098,-0.20204538,-0.26390198,-0.3007617,0.16737972,-0.41336015,-0.051934928,-0.3827548,-0.20737928,0.6335716,0.53988016,0.1387047
happy,0.045008216,-0.1873398,0.19968732,0.28722882,-0.28466266,-0.09272903,0.05819639,0.47776866,0.23952912,-0.38841632,0.19454554,-0.22986014,0.25207484,-0.31069493,0.07271305,0.30910262,0.010682251,-0.41891953,0.15796895,-0.31775683,-0.9583772,0.0016518724,0.16582361,0.16703105,0.031552188,0.08839686,0.050914533,0.0036680086,-0.08139055,0.23795469,0.04126799,0.39638886,-0.2785481,0.42699903,0.31055847,0.48967484,0.24029055,0.22001408,-0.35931247,-0.02528847,0.386469,-0.24495983,-0.2670654,0.23912919,-0.063233964,-0.2044066,-0.4810707,0.3283329,0.6489952,-0.08507092,-0.01155693,0.4551881,-0.22692247,-0.3520879,0.094174385,0.35893586,-0.43177292,-0.41689208,-0.0656988,0.20559585,0.3445483,0.49878538,0.36703986,0.12400617,-0.20210081,0.596807,-0.16608942,0.07042445,0.47254092,-0.028080378,-0.050915435,-0.09583158,0.16666104,0.24399625,-0.2490018,0.11147614,0.073732264,-0.123549744,0.18416269,0.5156626,-0.66811234,0.22879927,0.56311554,0.46826252,-0.55232614,0.41893676,-0.5468824,0.16051011,-0.7322107,0.19731839,-0.27643168,0.15966126,-0.53900164,0.13290004,-0.43356526,0.024617342,0.39034215,-0.00867329,0.2835599,-0.034256514,-0.58936286,0.535665,-0.15748906,-0.43898368,1.0515925,-0.08434105,0.4175813,-0.23967421,-0.1873452,-0.08495436,0.16546272,0.13121231,-0.18552668,0.5316314,-0.44262865,0.38349888,0.31527677,0.12222644,-0.15542492,-0.24744709,-0.027478507,-0.18376139,0.37658465,-0.3844133,0.48246703,0.06959726,-0.6281234,-0.59526265,0.090663075,-0.396736,0.3265871,0.36427742,0.056251284,-0.43723717,0.29037148,-0.030113168,-0.22811888,-0.18205465,0.097196385,-0.3275955,0.17687334,-0.23893844,-0.4640359,-0.6477647,0.42292255,0.28996974,0.13865519,-0.24177189,0.014406025,-0.19998136,0.0029218304,0.46830887,0.29437432,-0.60049057,-0.42127225,0.16820134,0.19982918,-0.47927824,-0.039415743,0.20166525,0.24087253,0.6477686,-0.30447894,-0.27550206,0.42940623,-0.062365618,0.13688502,-0.42208982,-0.37536314,-0.7627346,0.24842778,0.47741872,0.09805928,0.20400634,-0.27844062,0.0401614,-0.008738809,-0.09616531,0.5592487,-0.07756791,-0.049697842,0.3258886,0.35452873,-0.06776329,-0.048662405,-0.55965,0.22060934,-0.0806959,-0.3256262,0.21563847,-0.44088694,-0.39402586,0.41290012,-0.6480725,-0.16636764,-0.08861451,0.67064124,0.045001052,0.062514395,0.27950665
party,-0.43857643,-0.049623434,0.5719652,-0.015030906,0.050992955,0.07632652,-0.19685237,-0.3189941,0.5300066,-0.18937247,0.59723717,-0.4865405,-0.11447316,-0.45881566,-0.08035461,-0.018717915,0.09375738,-0.25845888,-0.23032835,-0.42873925,-0.3247195,0.08834603,-0.7141897,-0.07764445,-0.20030852,-0.3721835,-0.14839317,-0.2379533,-0.35906604,-0.112301454,0.10889391,0.19163886,0.0015586348,0.13550724,0.45350605,-0.23605137,-0.49234456,0.16904774,-0.6087818,-0.19683233,0.43301833,-0.6770086,0.3403961,-0.120628044,0.11561427,0.14085686,-0.094340816,0.08608075,0.3284667,0.16822876,-0.32412484,0.59973127,-0.14355145,0.06945705,0.006813127,0.19506666,-0.558667,0.15022817,-0.0032425008,-0.3026624,-0.21173465,0.18130615,-0.5039298,0.16785522,-0.5939726,-0.04843447,-0.40953115,0.25336957,0.12182042,0.64688635,-0.9897313,0.67071664,0.2204206,0.2579023,0.018530052,0.06487445,0.16768835,0.08103383,-0.06852062,-0.1085538,0.1969411,-0.013943101,0.45055223,-0.13833795,-0.40122843,-0.24092309,0.045717712,0.4637398,0.08280838,-0.2826371,-0.6915148,-0.34348562,-0.42095515,-0.023894979,-0.41339585,0.22550249,-0.39592895,-0.3416444,0.69205177,-0.5121685,0.22494158,-0.009841121,-0.12343339,-0.5155799,0.12485128,0.5193808,-0.36153167,-0.61263335,-0.7087879,0.34006307,-0.011851456,0.38830683,-0.2775366,0.49495924,-0.104422145,0.24777374,0.14520465,0.022863014,-0.11722242,0.11055357,0.25733772,0.40197292,0.141943,0.042426866,0.62077457,0.15843561,0.1388581,0.045921013,-0.13709071,-0.2980789,-0.31722468,0.2850856,0.12646073,0.24968794,0.8210327,0.6512346,-0.19006109,-0.13926268,-0.021120373,-0.3784367,0.017439568,-0.30635238,-0.5132978,-0.03611421,0.015606251,0.36927345,0.3661854,-0.2008612,0.25686753,-0.67502934,0.2272981,0.3279746,-0.2900304,-0.22822742,-0.16913673,0.12217313,0.21165241,0.45851183,0.14723273,-0.27132654,-0.069799595,-0.34213436,-0.10064591,0.39989263,0.22587559,-0.12817591,0.03913009,-0.5793198,-0.6768557,-0.4351489,0.009558961,-0.09858188,0.4524364,-0.67125696,0.20719382,-0.2598865,-0.043360483,0.3019704,-0.2255959,-0.16966583,0.08488995,-0.6305672,0.22580804,-0.17144607,0.3303684,-0.0636482,0.44677317,0.1973202,-0.04175078,0.061154053,-0.4199961,0.22960117,0.08575365,-0.4828048,-0.28725097,-0.0817866,-0.22815196,0.26529446,-0.033315714,0.17971955
moody,-0.11066029,-0.09075394,-0.011441948,-0.09661888,0.040408324,0.13551715,-0.014704393,-0.13427366,-0.20825672,0.22654682,-0.072766066,-0.2132489,0.4983949,-0.38286912,-0.49663064,-0.0106252115,0.18973827,-0.1820126,-0.64599067,0.15440996,-0.3368933,-0.27911782,0.24913603,0.23549373,0.43181786,-0.3548617,0.7645133,-0.40054598,0.110000156,0.5887368,0.4436629,0.2489383,-0.36970145,0.34595853,0.17068546,-0.07796266,-0.59151196,0.58522815,0.13424747,-0.040251862,-0.06349948,0.27692163,0.24645321,-0.5525641,0.2688917,-0.25735968,0.25233644,-0.048136584,0.2547687,-0.6179209,-0.10172718,-0.114901885,-0.20628574,-0.4679441,0.15986706,0.7291393,-0.26769847,0.24040577,0.36368454,-0.4334328,0.6543011,-0.06606241,-0.34711227,-0.08261068,-0.30880755,-0.17543341,-0.2057415,0.0024556809,-0.2337786,0.012724943,-0.5404841,-0.330499,0.21431237,0.15299946,-0.51888806,0.097697385,-0.40920693,-0.032428462,-0.71028656,0.14925943,0.41704994,0.4709842,0.14620282,-0.09416516,-0.19994093,-0.4715588,-0.047013424,0.4678609,-0.42494118,0.08238485,-0.26362368,-0.20481148,-0.42212507,0.71723735,-0.008096314,0.02973635,-0.22414173,-0.7501123,0.30176207,-0.5417152,-0.48398256,-0.21031149,0.7438735,-0.5489501,0.2644318,-0.2749639,-0.49594674,-0.28482258,-0.33768,-0.38609293,0.43100715,0.2871391,0.26700756,-0.33987108,-0.21887867,0.0818127,0.22307286,0.0017718935,-0.15713032,-0.40457618,-0.51502335,-0.16519453,-0.034846548,-0.39657903,-0.19640958,0.16809376,0.31274232,0.33412373,-0.13220735,0.054520607,0.06955442,0.53475785,0.19252895,0.009763293,0.17447715,0.018696247,0.05456745,-0.8095707,-0.061590362,-0.27806655,0.4540446,-0.6380515,-0.4214896,-0.32125324,0.14061807,-0.4092007,-0.0072543095,-0.22122693,-0.12609896,-0.31289703,-0.11193223,0.18888973,-0.52176213,-0.21573213,0.076337434,0.4471987,-0.19154328,-0.17125769,0.19782996,-0.07234192,-0.00076809956,-0.27133995,0.31007653,-0.15366341,-0.1924967,0.3328154,-0.33549026,-0.12920842,0.19157605,0.087699056,0.04141341,-0.038856123,-0.36964944,0.23720475,-0.64883006,0.030113041,0.20191202,0.35114318,-0.6747322,-0.6173805,-0.083851576,-0.084084556,-0.60952926,-0.32686397,0.48007476,-0.6821612,0.8454432,-0.10961569,-0.3122281,-0.4645907,-0.30728915,-0.11502037,0.013164408,-0.10328938,0.008581274,0.30734992,-0.033792622,0.33558086,0.07834755,0.3456355
romantic,0.22019127,-0.38454902,0.34520787,-0.27272978,-0.49519128,0.4468555,-0.26588535,-0.82631856,-0.083034895,-0.040995855,0.2333244,0.053213842,-0.2509336,-0.62342393,0.30621728,0.057783403,0.029371394,-0.51938814,-0.26218545,-0.070953175,-0.50809985,0.23391777,-0.351613,0.5055946,-0.36050522,0.010553502,0.1151416,0.25298098,-0.6114559,0.68796587,0.07664818,0.25442898,-0.32590044,0.12849827,-0.851997,0.008138384,-0.04932025,0.3687649,0.2025519,0.20886816,-0.3592912,-0.21802248,0.14551663,-0.04088911,-0.6457979,-0.021950724,0.1526497,0.45376626,0.64738184,-0.020757558,-0.052089296,-0.1667808,0.09451134,-0.21605685,0.6111941,0.19599198,0.13382268,-0.40284917,-0.17366889,-0.20280844,-0.1410437,-0.24048537,0.046241928,-0.169664,-0.25467688,-0.1096736,0.11234306,0.37272316,0.44712543,-0.50081295,-0.29365483,-0.09972589,-0.12344574,0.009758024,-0.008074622,0.2056685,-0.3789274,0.029913723,0.3259097,0.40056708,0.38242996,-0.21085693,-0.25276822,-0.20919858,0.19225973,0.12307451,-0.37985992,0.1895217,0.17238101,0.009625394,-0.07694474,-0.2181047,-0.043753117,-0.09081451,-0.15574299,0.15747802,0.2871501,-0.32499698,-0.0835743,0.067227565,-0.9128131,0.47640136,0.31761476,-0.5730102,0.53493565,-0.10598528,-0.077858634,-0.21491916,0.0821369,-0.33853987,0.58785665,-0.16531774,0.22055471,0.0025578556,-0.17413229,-0.06734213,-0.06742394,-0.050180003,-0.18593115,-0.4042207,-0.74837387,-0.12631296,-0.20468378,-0.22613937,0.376713,-0.0117609035,-0.21652855,-0.52107435,0.23478833,0.28528926,0.00674729,-0.43744522,0.1872717,0.2309507,-0.44653636,0.034344114,-0.036146365,-0.20863928,0.23032545,0.30418712,0.23707749,-0.20222916,-0.34337094,-0.73450077,0.2597628,-0.31685057,-0.09399244,-0.043518044,-0.12962924,-0.46580258,-0.06732637,0.68648505,-0.28313214,0.09286495,-0.5334625,0.08521952,-0.34938815,0.33144435,0.023642259,0.20473672,0.19779038,-0.21382828,-0.08464793,0.063228525,0.16608779,0.5461003,-0.14749204,-0.082079075,0.10566334,-0.46502048,0.040653754,0.08163114,0.01328573,0.11932047,0.14690442,-0.383632,0.28740746,-0.008133246,0.22101636,-0.14398481,-0.11161673,-0.17600332,0.1767878,-0.19936381,0.24059106,-0.13166507,0.066793375,0.251093,-0.53488356,0.44334456,0.1383458,-0.26169202,0.56987077,0.536841,0.046298582,0.4063364,-0.39836085,0.2342465,0.17943917,0.120844655
sweet,0.12007002,0.2075039,0.11399895,-0.70630705,0.43868268,-0.3019659,-0.51255614,-0.28958184,0.38103747,0.12364804,-0.40791306,-0.27269107,-0.021690683,-0.9035679,0.28936744,-0.075289704,-0.1833701,-0.30316785,-0.4171404,-0.19393243,-0.7831406,-0.06431243,0.014806527,-0.19361691,0.36252704,0.021864455,0.12071633,0.5356025,-0.07671565,0.7681802,-0.59053296,-0.16831593,-1.1202464,-0.9325457,0.15385689,0.2352523,0.78403443,-0.18536678,-0.25449947,0.17403108,-0.40391657,0.22540756,-0.38079387,0.43599898,-0.52011096,0.049419247,-0.50787514,-0.11471937,-0.16438922,0.011673006,-0.3313918,-0.29752934,-0.5328823,0.052618545,0.67173105,0.36982936,-0.12200854,-0.080761805,0.07527739,-0.2310882,0.14094453,-0.77824205,-0.101301104,-0.0029653532,-0.46849686,-0.07311832,-0.34037018,0.4057691,0.31644067,-0.18348849,-0.75679415,-0.0513078,-0.1711464,0.41200462,-0.034541477,0.07408826,-0.32777786,-0.28001547,-0.18397823,0.19992937,-0.09662791,-0.37381724,0.52118945,-0.13167727,-0.13332738,0.013740633,-0.38664544,0.32591018,0.29252318,0.12538593,-0.22179927,-0.00718694,0.16893359,-0.23788737,-0.31330958,-0.10323868,-0.22349995,-0.096584685,0.26448792,0.29113856,-0.93954045,0.2924788,0.38234392,-0.2743499,0.13742435,0.12753592,0.09937273,-0.7262318,-0.104169756,-0.06378404,-0.12446483,0.33332515,-0.17570324,-0.4331397,0.38389704,0.14210968,0.3767579,0.09866895,0.47624573,0.043791186,-0.5140336,-0.14894377,1.0404449,0.16397616,0.26260978,0.6316021,0.2978524,-0.36537042,0.28075737,0.42992607,0.5730887,-0.15683049,0.6272942,-0.32411945,0.18963657,-0.40921816,0.266167,-0.34071147,0.01581127,-0.1536312,-0.13417912,-0.30481023,-0.5052855,-0.6716645,-0.09982807,0.008975739,0.34642616,0.38351077,0.10376723,-0.46582368,0.106026754,-0.2992362,0.5578496,0.060390413,0.037780665,-0.5718062,-0.43769687,0.12401215,-0.0979175,-0.14650689,0.26709333,-0.011222515,-0.01801018,0.0455068,0.05845013,0.4394178,0.25737423,-0.2610002,-0.15691672,-0.251105,-0.09910536,0.3641917,0.241815,-0.46214706,-0.45788023,0.0843775,-0.09894912,-0.32763436,0.19861028,0.25297374,-0.57777447,0.27714,0.3436053,0.32537648,0.47596595,-0.062146515,0.08482562,-0.42548284,0.29630554,0.03442779,0.29543394,0.048596498,0.038541585,0.063242,-0.37980106,0.16015944,-0.34561703,0.12184407,0.23958854,-0.0605158
dancing,0.20873784,-0.15031445,0.66541696,0.382464,0.80963624,0.06636854,-0.21609697,-0.79999125,-0.37309986,-0.1433642,0.32551768,-0.17222509,0.121070094,-0.4961356,-0.6354779,-0.6804818,0.204356,-0.10232919,0.09052229,-0.30648035,-0.24694121,0.52160275,-0.15419246,0.56485575,-0.014523973,-0.7547594,0.013670991,0.10197946,-0.09346524,0.20471227,-1.1112096,0.4698726,-0.6781054,0.30035055,0.5849444,0.09192223,-0.5227935,-0.3468465,-0.2480141,0.4204213,0.33609092,-0.30663815,-0.25473556,0.35335374,-0.37768173,1.169219,-0.024558583,0.5637402,0.04989106,-0.42303243,0.119095795,-0.26561427,-0.15454441,-0.74738204,0.20393948,0.61182475,-0.26202968,-0.08918789,0.20892324,-0.1518142,0.18986663,0.97459257,-0.004471139,0.71156335,-0.055335708,-0.21215712,0.5592297,-0.51447666,0.23943457,0.38001844,0.21607883,0.37026876,-0.107819505,0.46304372,-0.03557388,0.54435,-0.12457094,0.5140723,1.0369502,-0.880524,0.13752206,0.15795031,0.35157907,0.07822949,-0.069528915,-0.1514587,-0.39145997,0.677062,-0.3706482,0.24182348,-0.81528085,0.2245089,-0.1420447,0.80613965,0.15344155,0.22818446,-0.92754215,-0.27721742,-0.20634244,-0.17921653,-0.31018266,-0.12828895,-0.47040284,-0.08805878,-0.193548,0.14448647,-0.42936146,0.19948892,-0.41765356,-0.58899754,0.44914505,0.098078355,0.70957506,1.2474409,0.31540704,0.2820939,0.7759495,-0.4400204,0.18853694,-0.05010889,0.10636034,-0.3865167,0.4829868,-0.31586987,-0.17853943,0.19778465,-0.5933325,-0.64151835,-0.6710189,0.14178291,0.5676539,0.088195376,-0.23613141,-0.28342563,0.46268618,0.054423325,-0.275032,-0.82623416,-0.44093752,-0.015004184,-0.3609155,-0.08410995,-0.26854563,-0.45423713,0.31031674,0.39281893,-0.43574765,0.04153005,-0.4554407,-0.52719384,-0.003423923,0.34363374,-0.5414771,-0.0066342014,-0.34243384,-0.33005127,-0.17289676,0.03805865,-0.22217222,-0.061549038,-0.23925416,0.31135505,-0.024890307,-0.61160976,0.042505987,0.16759229,-0.576701,-0.30538046,0.25695544,-0.50222665,-0.22670615,0.41286582,0.18699151,-0.42602867,0.031178141,-0.0043908376,0.4195375,0.08197372,0.39819327,0.045292117,-0.40742669,0.19187771,0.011302116,0.85804945,-0.28647858,-0.12834048,0.34799713,0.0823764,-0.8648011,-0.014232862,-0.8839806,0.033240557,-0.028645827,-0.5316088,-0.5653306,-0.22082599,0.08953444,0.023136305,0.12559733,-0.57990026
fun,0.18080881,-0.080586,0.3418081,0.36506763,-0.1467121,-0.313647,-0.051950376,0.3448048,-0.16277003,-0.040029347,0.4781591,-0.054399688,0.5267096,-0.14654106,0.115675665,0.30312836,0.10442424,0.1759264,-0.20898522,-0.11947201,-0.30951494,0.18814649,-0.3048698,0.42178982,0.30051225,0.2798114,0.17904396,-0.14432701,-0.4253377,-0.022864275,0.18898565,0.08744815,-0.1261627,0.1590731,-0.087035686,0.38699245,-0.2381716,-0.21694976,-0.22628804,-0.22543675,0.20992677,-0.7386913,-0.19908458,0.22412589,0.12356728,-0.014032736,0.1377148,0.42457917,0.5502253,-0.082274914,-0.016656835,-0.00037547178,-0.036450613,-0.28342718,0.20876037,0.5860263,-0.24008107,0.24359939,0.5970786,0.28422633,-0.08025412,0.04901584,-0.24947456,0.17856549,0.076638974,0.48805344,0.02252532,0.42431435,0.23402832,-0.4488842,-0.26211265,-0.18468487,0.4572508,-0.0003510276,0.6531175,0.005167191,-1.0035746,0.13627884,-0.33071965,-0.1901818,0.003962084,0.17910081,0.11727399,0.25298083,-0.4342525,0.22080193,0.2960185,0.52462906,0.21671684,0.69115806,-0.7016026,-0.7682636,-0.36775523,0.12646425,-0.107873626,0.2831754,0.048709042,0.2032628,0.2974288,-0.35706583,-0.3719424,-0.2686542,0.30735978,-0.22663449,0.19546214,0.49470583,-0.16940486,-0.17149925,-0.2824407,-0.632161,-0.16546997,0.26562497,-0.17208575,-0.038511008,0.21571755,0.2953072,0.3356205,-0.084408335,-0.26450846,-0.36328384,0.085198894,0.2897312,0.5756567,-0.1323643,0.18006234,0.0017760297,0.10637981,-0.123718455,-0.051401842,0.093201675,0.25256923,0.16024607,-0.4148435,0.09783639,0.5667716,-0.15600042,-0.019961178,-0.23536143,0.41574743,-0.29522023,0.0060853944,-0.106415786,-0.7062268,0.082305446,-0.017689915,-0.051783837,0.24096552,0.20202774,0.15633516,-0.40329108,-0.22002044,0.2943927,-0.10367684,-0.20623197,-0.27599588,-0.082662694,-0.11230769,0.0018678874,-0.3100279,-0.089117005,0.17200664,0.37741968,0.27398527,-0.3429301,0.42506316,0.26679888,0.06704166,-0.06552104,-0.23730429,-0.08331881,0.25177214,-0.37581232,-0.0975418,-0.03452353,0.15755345,-0.061895084,0.2816471,0.2962967,-0.26578477,0.37219286,-0.22678871,-0.02999712,0.061998848,-0.047305204,0.29767916,-0.48434356,0.39100948,-0.04965498,-0.24995711,0.018011251,0.12029751,-0.47608712,0.77784646,-0.5288553,0.5751877,-0.27622226,-0.12207841,0.37339854,0.04977121,0.3283888
uplifting,-0.013085267,-0.09331466,0.19671479,-0.26064986,0.0068888036,-0.060953036,-0.11010152,0.40272,-0.3488355,0.3324521,0.07348336,-0.022046495,-0.13503005,-0.4029649,0.2589852,0.35318708,-0.20586917,0.06391636,0.2164947,0.14315178,0.0065397574,0.26483002,-0.2519641,0.59283364,0.02249794,-0.24403195,-0.20484692,0.19732192,0.37744784,0.17142639,-0.23936898,0.04243868,-0.4985613,-0.18770152,0.08623871,0.42410728,-0.024179254,-0.014419773,-0.4196558,-0.3310769,0.43225232,0.08726279,0.09932345,0.36132136,-0.17748521,-0.107738346,0.47184303,-0.07052889,0.37962174,-0.14166474,-0.3369594,0.13327476,-0.18337981,0.0819726,0.0976431,0.27278236,0.04488736,0.17415078,0.036522396,-0.42920956,0.06115628,-0.22634333,0.01065326,-0.31418064,-0.25151315,0.2923968,0.25395846,0.19399913,0.10800021,0.021189258,0.18755749,0.15501668,0.095433325,0.21697643,0.15071337,0.3771776,-0.4427666,0.34456378,-0.1252854,0.12647511,0.073206075,0.47205797,0.48348182,0.35569048,-0.36475185,0.2968961,-0.016780904,-0.24016531,0.069218814,0.7109531,-0.46723,0.21876428,-0.20332474,0.33136573,0.049099352,-0.11430036,0.6683663,-0.20364296,-0.0007583827,-0.44246173,-0.43769744,-0.08177353,-0.07294686,-0.71471715,0.024897328,0.16852024,-0.4779443,-0.55453557,-0.36198628,-0.3231225,0.123234876,-0.02028166,0.27218342,0.099986486,0.12352573,0.21580504,0.060255032,-0.63324475,-0.52430075,-0.07238886,-0.14268309,0.33496267,-0.16253851,-0.47803837,0.44764394,-0.21770385,-0.1936806,-0.10993465,0.10859821,-0.024434524,-0.015131047,0.7831068,0.5831229,-0.31834698,-0.10488943,0.20096743,0.68610644,-0.14922927,-0.12159659,-0.15494156,-0.034457885,0.03255261,-0.12677221,-0.5906965,0.07985411,-0.0032695567,0.03420848,0.14648338,0.1986409,-0.415456,0.33514813,0.3720382,0.063140996,-0.2996946,-0.22586732,-0.38614812,0.074399486,0.2076343,-0.42604452,-0.22798966,0.04443523,0.2542174,0.321121,-0.41146833,0.30773932,-0.07002217,0.019097503,-0.07012733,-0.124853544,0.26855883,0.26472026,0.016011959,0.30573577,-0.31404194,-0.59998834,-0.022988811,0.5068863,0.41340613,0.06888306,-0.06252016,-0.2777182,0.008305896,0.68129987,-0.81301254,-0.18854073,-0.4833714,0.030831674,-0.0014527276,-0.2935629,-0.15389743,-0.032181237,0.24002679,0.6497337,-0.40473676,0.278217,0.28795674,0.19884133,0.326346,0.13823277,0.2908866
pleasure,-0.62102944,-0.3509907,0.18837157,-0.26631102,-0.6345553,-0.3220601,-0.0050232434,-0.15656367,0.3598195,0.7096717,0.26063704,-0.039087325,-0.14379925,-0.1822498,0.1718519,-0.2198366,0.24846584,-0.4508944,0.028547516,0.11871738,-0.25862703,0.24525855,-0.25517935,0.55192655,-0.20934968,-0.5372313,0.2927642,0.37330055,-0.27084202,0.07671053,0.34839165,0.14106809,-0.05624013,-0.1338637,0.033398796,0.75487614,0.24441513,0.2053337,-0.26630434,0.3838934,-0.11263781,-0.36735493,-0.21428438,0.072357,0.18725477,0.25524756,0.763778,0.56377685,-0.18053024,0.60549736,-0.38338885,0.25578412,-0.3435747,-0.26557428,-0.6827686,0.71501243,-0.015359289,0.16286871,0.037972588,0.48024485,-0.19283071,-0.113445275,-0.74310327,-0.17345855,0.29079837,0.36288807,-0.5916773,0.3081893,0.07518598,-0.41752774,-0.07190838,0.42881727,0.058935024,-0.11903409,0.19211657,0.06531055,-0.9348901,0.59842736,0.4481194,-0.12928623,0.79833716,-0.23791444,0.22399603,0.42021924,0.29893988,0.1843689,0.069163576,0.56972224,0.088092595,-0.25763693,0.035007037,0.2140306,-0.033925906,-0.21236368,0.44820967,0.2586617,0.640537,0.043429334,-0.16359316,-0.1412753,-0.19891876,-0.29125056,0.09279737,-0.02708851,-0.037924014,0.29745093,-0.13779078,-0.42150688,0.1008251,-0.02452442,0.1556772,0.27210495,-0.62448406,-0.67651725,-0.03868181,0.2698055,0.81919575,0.33958843,0.24848238,-0.750565,-0.3717175,0.16839296,0.5491764,-0.010567527,0.063236095,0.07449429,-0.12458196,0.28449398,0.30378446,0.04486822,0.50718176,0.23401909,-0.3366696,0.39896446,0.14348647,0.3754538,0.34918502,-0.21791974,-0.025025973,0.010095045,-0.25522202,-0.5587771,-0.039217547,-0.38795754,0.053807564,-0.12174343,0.17085329,0.107777506,0.05882977,-0.4603434,0.031310786,-0.054777473,-0.3477076,0.32403722,0.112013325,-0.113773495,0.1455627,0.12738457,-0.14183582,-0.21370433,0.04178978,-0.17063075,-0.44668975,-0.42190078,0.34289488,0.2966549,-0.0024148815,-0.3705423,-0.012903933,-0.35834712,-0.16599625,0.013514676,0.42973286,-0.12532113,0.33437458,0.4892132,0.004901289,-0.14805615,0.14913344,-0.34087637,-0.3608534,-0.29111844,0.029764235,0.10291633,0.6107162,-0.87915677,-0.35724354,0.1204595,-0.73030984,0.070025295,-0.06999883,0.2232271,0.64477694,-0.2569651,-0.5641446,-0.2605742,0.53474534,0.41683125,-0.24236266,-0.18030483
aggressive,-0.39427963,0.38822725,-0.4142866,0.19305877,0.25448662,-0.268147,-0.4646033,-0.3049972,0.05838575,-0.028326087,-0.20011641,0.29484656,0.031484812,-0.0740468,-0.35521775,-0.1610897,0.10544081,-0.50938666,-0.15028605,0.15333039,0.117605545,0.31263092,-0.43673483,0.60851556,-0.0567827,0.11696631,0.06043553,-0.48694336,-0.10670529,0.4917667,0.2681875,-0.041593757,0.25489202,-0.23060855,-0.4197276,0.31212226,0.08336816,0.1719823,-0.4094949,0.3368813,0.039304145,-0.029634269,-0.75426406,-0.19442217,0.27239025,0.42530134,0.83468354,-0.30911446,-0.08900109,0.2976386,0.12735105,0.28934735,-0.37113366,-0.48287934,-0.21651304,0.82193893,-0.14285672,-0.27061236,-0.022736099,0.014241934,0.05224547,-0.72192675,-0.26265597,-0.34152275,-0.23035707,0.5231522,-0.6170804,-0.47182724,0.35846266,0.13678965,-0.53260374,0.49897814,0.2421235,0.06769412,0.12684649,0.06450386,0.11567954,0.23071344,0.1612069,0.5648603,0.20697194,0.34698385,0.25720313,-0.4198312,0.62506545,-0.32975495,0.4010344,0.09818069,0.017210217,0.50625366,-0.2902348,-0.10113939,-0.6403725,0.038111094,-0.23274827,-0.09965769,-0.10410801,-0.06145984,-0.2281349,-0.24843925,-0.35310197,-0.2473643,-0.19285722,-0.46697408,-0.07271962,0.37423378,-0.27332363,0.20518197,-0.67683375,-0.05845465,0.12642743,0.03147071,-0.55458415,0.29793543,0.028075302,-0.2942861,0.3732146,-0.033018295,-0.035778172,-0.42093098,0.21824975,0.074678026,0.5195284,-0.46009728,0.16885121,-0.47135028,0.040865574,0.21402451,-0.23464327,-0.705666,-0.19083907,0.46941411,0.17954567,-0.1990217,-0.22511539,-0.31273037,0.61267775,-0.677501,0.19781174,-0.2837861,0.06598257,0.3316879,-0.4724484,-0.36984596,-0.21540846,-0.2995352,-0.32218003,0.5983021,0.02767069,-0.14263095,-0.17248769,0.3725758,0.16359174,-0.120867595,0.17726384,-0.0773766,0.06944719,-0.030071488,0.18807346,-0.2657709,-0.4898317,-0.51903826,0.7331007,-0.024261415,-0.14422242,0.066891484,0.42652056,-0.21033883,-0.6542856,-0.3078073,-0.26771712,0.2661214,0.28611273,0.2965308,-0.5543519,-0.11544022,0.1809909,0.46386054,0.26961896,0.0009395508,-0.9760764,0.23366426,0.29248112,-0.06552076,0.05157759,-0.02488865,-0.22521201,0.30321768,0.023879558,-0.09770337,-0.7390415,-0.15879919,0.54108894,-0.4100005,0.10782625,-0.318726,-0.18822232,-0.12712392,0.5560654,1.0082778
angry,-0.101345204,-0.31140867,-0.19648477,0.39271745,-0.0060337665,0.0070810355,-0.155932,0.04579458,0.049362063,-0.25227904,-0.4123664,0.06902818,-0.028786264,-0.19912836,-0.09470779,0.15930742,-0.24135491,0.10321278,-0.2696738,-0.33655098,0.07624599,-0.17420556,0.025032524,0.22526503,-0.010768225,0.006653336,0.5918936,0.1656975,-0.28421828,0.6673756,0.118668996,0.25750992,-0.2393812,0.18628143,-0.5154473,0.6003789,0.41887686,0.008814804,-0.17585158,0.39314857,0.16795991,-0.100095846,-0.7398411,-0.017762227,0.3350515,0.46609512,-0.051764566,-0.046547987,0.3194533,0.13545386,0.43535364,0.43237284,0.020500578,0.11342098,-0.2173602,0.59001213,-0.46306503,-0.060729418,0.48287216,0.13925786,-0.06685214,-0.35052246,-0.20418575,-0.3037448,-0.2534665,-0.060784668,-0.32268304,-0.12129226,0.21895409,-0.35172358,-0.99207366,-0.18290575,0.29840404,0.42932126,0.013436866,-0.26830572,0.39808828,-0.21451925,0.24761803,0.25776744,0.121472426,-0.15473258,0.19289657,-0.16832903,-0.022355018,-0.39878133,0.003442606,0.0077529787,-0.43889728,-0.030547203,-0.29373926,-0.2904166,0.057624746,0.68158925,-0.76160514,-0.0928589,-0.5255292,0.1729117,0.11846076,-0.54552096,-0.39371473,-0.0009004099,0.2886419,-0.41277075,-0.07217924,-0.1863304,-0.025133848,0.31558684,-0.48605412,0.19673306,0.19196784,-0.07669397,0.16540293,-0.13047563,-0.06644536,-0.06356934,0.38447413,-0.1339683,-0.49767038,-0.6025498,0.096269645,-0.4805541,0.63474464,-0.18109837,0.28659022,-0.13387555,-0.23998903,0.2759495,0.2018842,-0.4373554,0.06716623,0.034352146,0.091238454,0.5738152,-0.3870847,-0.2667003,0.19578254,-0.87513745,0.3281913,-0.4409636,0.08132405,-0.38036054,-0.6473758,-0.18527968,0.39372125,-0.07684428,-0.10879461,0.3935032,-0.33601102,-0.26433894,-0.42419168,0.46381104,-0.37242872,-0.042896762,0.022952177,-0.5268014,0.28482148,-0.08939828,-0.7324346,-0.084379666,-0.21446793,0.63199264,-0.10352003,-0.44585088,-0.118012264,-0.41838688,-0.19244325,-0.32598194,-0.3073701,-0.39005247,0.016545512,-0.31446767,0.051652778,0.4494279,-0.046706278,-0.4530244,-0.21590659,-0.0036502744,0.5029919,0.22258085,-0.24656132,-0.26297817,-0.6140204,-0.06829114,0.18991445,-0.27716458,0.07716032,-0.66946304,-0.4149382,0.58464694,0.12807944,-0.061392322,0.071702935,-0.2109745,-0.36458993,-0.025740277,0.12070787,-0.25073817,-0.040471632,0.51555663
haunting,0.007666576,-0.1704902,-0.0020944772,-0.13378648,0.1391371,-0.5521419,-0.04209991,-0.17960586,0.1899669,0.4823886,0.15744072,0.104375966,0.13487114,-0.34706998,0.33965617,0.21984541,-0.019762833,-0.38869792,0.066232674,-0.36021706,0.11187443,0.29853988,-0.16343887,0.13030525,0.0008227309,0.052009158,-0.078607865,0.14604841,-0.60946643,0.36731032,-0.042646986,-0.04789075,-0.7709867,0.03437829,-0.39922288,0.21853074,0.23512685,-0.13394894,0.19319625,-0.04850583,-0.37823907,-0.31283596,-0.26738745,0.1346544,-0.19297905,-0.10893088,0.65155905,0.069316,0.79024214,-0.019066356,-0.01935536,-0.22888826,-0.3049825,-0.33626845,-0.08075246,0.14176294,-0.13461752,0.23882897,-0.1812751,0.05463796,0.3366051,-0.042197447,0.4684057,-0.52718073,-0.43061173,0.4328533,0.46503475,0.2101561,0.21601646,-0.47633505,-0.50338596,-0.24566492,0.38386297,0.1428709,-0.21564604,-0.32077435,0.05899962,0.07787859,0.17187966,0.3634591,-0.047240674,-0.00093876646,0.12949105,-0.05569691,-0.086650014,-0.075924456,-0.23391007,0.2938843,-0.22072007,-0.46372315,-0.43912908,-0.20628726,0.018528726,0.44497842,-0.16595283,-0.24556105,0.1995441,-0.69875896,-0.08158917,-0.19194405,-0.2926358,-0.19783153,-0.20931068,-0.24930578,-0.16295575,-0.27804258,-0.63674575,-0.21604392,-0.11181201,-0.20696716,-0.42866015,-0.1492371,0.5281505,-0.25767204,-0.20655225,0.039566986,0.24286583,-0.06165077,0.25133458,-0.33835122,-0.44571978,-0.3027829,0.012906081,0.06012939,-0.19558261,0.52814436,0.35701594,-0.71958953,0.30240571,-0.0005789806,0.17331937,0.016695747,0.8049833,0.21011616,-0.13918507,0.49759388,0.08942531,-0.4454394,0.16503243,-0.07409318,-0.12760293,-0.4816238,-0.1571012,-0.5611614,0.033814568,-0.0366413,-0.027615419,-0.0029762324,0.40227056,-0.34669235,0.21369496,-0.22624646,-0.30959436,-0.22979023,-0.013886951,-0.13658357,0.109871626,0.28461134,-0.21217676,-0.14520939,-0.016890176,-0.17318936,-0.18805729,-1.0221455,-0.19701236,0.35982823,0.11120508,-0.33922806,-0.5404165,0.06276957,0.21873032,-0.053654257,0.47265717,-0.16793205,-0.04405666,-0.0047480534,-0.14021972,0.15354194,-0.093716115,0.103086784,-0.05401124,-0.04848656,-0.34390423,0.24637087,-0.024267083,-0.31574658,0.09567234,-0.442144,-0.6143572,-0.470655,-0.03177247,0.04086936,0.0937631,-0.043572616,-0.016954254,0.0016132778,0.15563232,0.083795175,0.5590009,0.27408087
soothing,0.1023773,-0.73310834,-0.10765781,-0.009321985,0.0075697666,-0.7475811,-0.1321533,-0.13205956,0.15387242,-0.03142881,0.42690268,0.23079981,-0.3342889,-0.44634953,0.011746371,0.6576214,-0.44921222,-0.27547708,-0.034374926,0.17597555,-0.2678851,0.14057122,0.32045406,0.48829174,0.2149088,-0.018664949,-0.4055135,0.059830226,-0.13169362,0.6842424,-0.17525491,-0.2177713,-0.7336712,-0.25321656,-0.111311845,-0.26113206,-0.021354496,0.037842937,0.34097615,-0.14445728,-0.057645258,-0.103718765,-0.012926079,0.29199237,-0.7732316,-0.20084298,-0.10930394,-0.05493798,0.5626733,-0.05744409,-0.32414848,-0.34185618,0.14708722,0.048467543,-0.28693262,0.19638996,-0.3299534,-0.11923389,-0.106302306,0.072237656,0.18199389,-0.20291738,0.3688076,-0.22041352,-0.3224588,-0.15779677,-0.15581474,0.123810604,0.07912329,-0.050872512,-0.9077048,-0.12001212,-0.06788288,0.3961956,-0.16500118,-0.011471222,-0.34430614,0.4881716,-0.21720636,0.36375916,0.054569125,-0.40475693,-0.083349735,0.10596198,-0.29833198,-0.021775048,-0.5647062,0.2931223,-0.19237828,0.051271122,-0.27023375,0.061470736,0.3433144,0.28526253,-0.33868796,-0.20727901,0.17339982,0.053465802,0.30232382,0.24844554,-0.30293489,-0.16581969,-0.08463865,-0.37643468,-0.45668235,0.20352201,-0.29075778,-0.090062216,-0.19831233,0.19329984,-0.122803695,0.15148869,0.35889053,-0.20270656,-0.4001255,0.4198487,0.025458455,0.034607887,0.45906034,-0.011124398,0.03586192,-0.18581262,0.6402748,-0.34738407,0.1866747,0.25880495,0.53560674,-0.5848102,0.23391038,0.16389862,0.48896927,0.7218034,0.5238339,0.042390857,-0.54632264,0.01703655,0.033094842,-0.7249741,0.06597773,0.557528,0.036399152,-0.17033634,-0.43673983,-0.72507775,0.5938227,-0.37883496,-0.21289444,0.532563,-0.049838327,-0.807132,0.05375581,-0.06084331,-0.25563583,-0.13688919,-0.38248414,-0.3347354,0.27798402,0.07598123,-0.2837903,-0.08665282,0.40974584,-0.22632293,0.33955762,0.034818593,-0.42775378,0.44542533,-0.1546186,-0.32890943,-0.26252425,0.11226088,0.41525084,0.4198076,-0.04727326,-0.0756038,-0.11368186,-0.1171913,0.14754392,0.3577899,0.009036569,-0.2878154,-0.10776507,0.16753164,-0.12462016,-0.2356472,0.34058172,-0.53588045,-0.06994996,0.08492332,-0.05410264,-0.21710876,-0.17302634,-0.0756312,0.02005174,0.29231042,-0.6561445,0.13860653,0.2003182,0.5201129,0.46143362,0.14275213
peaceful,-0.12176831,-0.5662923,0.07252001,0.04511313,-0.17853062,-0.5494055,-0.072890796,-0.46778303,-0.060781077,0.28635693,-0.025085935,0.1744967,-0.44821647,-0.4698827,0.19682613,0.15832612,-0.36931607,-0.17856897,0.47529534,-0.08313619,-0.542409,0.23969929,0.07644672,0.55072784,-0.2844642,0.028418414,0.04497974,-0.6904973,-0.29495308,0.24361104,0.08887617,0.16584718,-0.17390026,0.09302858,-0.06643151,0.53088593,0.1624735,-0.033014167,0.24225157,0.4640325,0.48679593,-0.4088506,0.8259524,0.3055775,-0.6380667,0.15275995,-0.28351787,-0.3370049,0.36443055,0.03200296,-0.51376605,-0.2422023,-0.380734,0.16036226,0.077543244,0.24777338,-0.27860484,0.5329418,-0.10987602,-0.2586365,0.6152839,0.114116564,-0.22604235,0.12719575,-0.14993092,-0.09694083,-0.19254759,-0.007678683,0.36916524,0.08004248,-0.11504798,0.35973006,0.027126245,0.7710532,-0.17786628,0.051628713,-0.28731862,-0.018543215,-0.2524,0.35385424,0.06747796,-0.1567941,0.13349907,-0.20413622,-0.44398284,0.31835836,-0.46928123,0.125564,-0.2027461,-0.32907215,0.15847714,-0.009774993,0.5174744,0.37360367,-0.3246281,0.06322582,0.37483397,0.1279734,-0.4882396,0.08792836,-0.5343308,-0.26651633,-0.38040426,-0.1185684,0.20853855,0.04629171,-0.39774197,-0.3981697,-0.20680286,0.20715722,-0.07269548,0.07854666,0.730258,-0.20073543,0.18662718,0.79474574,-0.24924503,-0.32320112,0.28290644,-0.1578452,-0.36092103,0.14131428,0.117330395,-0.08723175,-0.015875172,0.28244498,-0.016519895,-0.61596316,0.030381294,-0.0025500837,-0.10359887,0.50834745,-0.007722553,-0.34293854,-0.78086984,0.26561216,-0.07961198,-0.50635487,-0.52421206,0.27235276,-0.21247286,-0.46830976,-0.38283372,-0.5978416,0.09281873,-0.28015056,-0.74974126,0.4214773,0.3031864,-0.7904263,-0.10585879,0.007048392,-0.004448446,0.22508354,0.0759817,-0.14526631,-0.24976553,0.5810468,-0.10050437,0.5930758,0.37277836,-0.5688815,-0.25205353,-0.47695976,-0.08570571,0.71157104,-0.40908727,-0.033214692,-0.070202366,-0.37748978,0.06825548,0.15673155,0.09359496,-0.4196603,-0.047863614,0.22118005,0.35900754,0.026216993,0.12741055,-0.2976662,-0.21803474,-0.07097472,-0.13161291,-0.032889087,0.3193948,-0.3679674,0.33479133,0.042601384,-0.4807245,0.018646514,-0.0014187371,0.012747531,0.09991709,-0.04477865,-0.18747,0.057405088,-0.08358525,0.24245125,0.26399326,0.3745405
joy,-0.2978029,0.51084673,-0.23883992,0.21867356,-0.04406475,-0.24271953,-1.218915,0.23994939,-0.3486255,0.005903372,0.6724875,0.07062217,0.5890238,0.32344994,0.66807795,0.35508668,-0.6409826,-0.3967677,-0.17349772,-0.20029949,-0.29890198,-0.037458096,0.013745225,-0.024402604,-0.41409394,0.029342372,0.78661126,0.42220128,-0.4462405,-0.40497825,-0.13135141,0.16568758,0.42667502,0.10564799,0.6310349,1.177719,0.26473075,0.61212796,-0.47424904,0.16456288,0.2416639,0.38721123,0.24165487,0.059173625,0.15752241,0.2543906,-0.38892215,0.06672932,0.4760599,0.08161989,-0.30160162,0.44826418,0.07126776,-0.14617494,0.20267397,-0.0146801835,-0.3217205,-0.14062287,-0.024312159,-0.4824451,0.4204888,-0.4105229,-0.153032,-0.036263913,-1.1573422,-0.06790016,-0.42691016,0.54489374,0.15730897,-0.29582095,0.15610024,0.6845617,-0.4593762,0.08705145,-0.8687438,0.022805236,0.02957153,0.337234,0.4009809,-0.6148869,-0.24987176,0.074559055,0.62005013,0.76838315,-0.39042172,0.7774675,-0.36160603,-0.14979173,-0.0013464035,-0.9828828,0.14034647,-0.40829998,-0.11026573,0.44127744,-0.08847987,0.8788564,0.8809252,-0.81293845,0.7867798,0.63177514,-0.5090806,0.6228355,0.16717292,0.4261492,-0.5047622,0.33102763,-0.44733626,-0.81002975,-1.0582578,-0.65372884,-0.1729615,-1.0330182,0.19601527,0.5624406,0.13500611,0.84648895,0.5796805,0.5405912,-0.13457935,-0.40961996,0.60611624,0.2556628,0.28036156,-0.9445561,-0.0051678256,0.46737275,-0.32154438,-0.80790645,0.8272746,0.36433274,0.27136478,-0.11070507,0.21367261,-0.19693647,-0.21277536,0.41199926,0.28624105,-0.6590261,-0.09420562,0.2250392,-0.051344052,-0.36009362,-0.58465546,-0.13914187,0.19529182,0.31126106,0.3582785,-0.08834767,0.6283587,-0.578099,-0.72362596,0.4376962,0.44903702,0.11267502,-0.8261944,-0.01127364,0.45605373,-0.6945467,-0.27787316,-0.262118,0.24403511,0.42623731,-0.078986,-0.27121407,1.0363456,-0.015089909,-0.13650121,0.59620506,-0.082800046,-0.9946859,-0.7950661,-0.08320851,0.63730985,0.5434886,0.93217015,-0.003976506,0.94569206,-0.4116593,0.8660735,0.1643084,-0.91216874,0.055450164,0.16759306,-0.30917346,0.7377609,-0.9250887,0.32166666,-0.2463713,-0.30210862,-0.50598633,-1.0571367,0.17629835,0.034180004,-0.3321697,0.19992457,-0.10618081,-0.17001855,0.0017564249,-0.08905221,0.19385366
nostalgia,-0.31734437,-0.023701224,-0.14747544,-0.09059206,-0.34969997,-0.21129067,-0.21733378,-0.20730714,-0.102022916,0.49248216,0.12334417,-0.163593,0.06402746,-0.40706292,0.38650313,-0.1754828,-0.19827236,-0.36280653,-0.16746193,-0.31994042,-0.016400961,-0.028393915,-0.186987,-0.08369867,0.19306225,-0.15348971,-0.25967667,-0.01509731,-0.35909328,0.16711086,0.4975432,0.3880651,-0.27306977,-0.12915128,-0.32084864,0.8555264,0.31596172,-0.06849372,0.1253851,0.040406484,-0.36097068,-0.42315516,0.06308997,-0.110605896,-0.033995483,0.09768536,-0.30243236,0.488692,0.939295,0.022551442,-0.22779997,-0.13064323,0.04884282,0.3753068,-0.04803795,-0.106067695,-0.7065789,-0.21761958,-0.22056238,-0.20859993,-0.00963735,0.21212615,-0.5976715,0.12873097,0.55965483,0.33068332,0.16784838,0.060993224,0.24320574,-0.1439805,-0.2581993,0.5244111,0.07621614,0.19000132,-0.1383263,-0.1665731,-0.27089345,-0.05367569,0.084742144,0.40825287,0.5717336,0.24940977,0.18049373,0.13165917,-0.3510382,-0.088557325,0.23162846,-0.01874532,-0.57952553,0.012959281,-0.06397689,-0.14434384,-0.020495245,0.06737433,0.022601422,0.07540828,-0.0024756454,-0.18271524,-0.1485066,0.20433569,-0.48965034,0.1387371,0.06433045,-0.3164247,0.10172316,0.22256988,-0.19249727,-0.38681218,-0.18477836,-0.20894374,-0.11816586,-0.38139722,0.1969635,0.14118394,0.31849107,0.6480886,-0.3415899,0.23305665,0.10188465,-0.023896202,0.16176961,-0.17665872,0.19277617,0.12719601,0.048195455,0.5105979,0.36745784,0.15035929,0.041029006,-0.008203879,-0.1561526,-0.064397484,0.37898207,-0.76755047,-0.10749606,0.34698555,0.31590387,-0.44241998,-0.32286102,0.09413268,0.038142152,-0.0060081263,-0.08002188,-0.3155995,0.43140724,-0.23425631,-0.30540386,0.31827208,0.21730645,0.013924152,0.11175229,-0.32096058,0.079949796,0.20184077,0.19536251,-0.2994382,0.1528871,0.18813582,0.1255467,-0.29250273,-0.57177734,0.1621427,-0.031723987,-0.5125207,-0.099589705,0.26198786,0.18871087,-0.45970157,0.0077604316,-0.66218275,-0.4528908,-0.30710372,0.2673233,0.34045467,-0.032617643,0.88531864,0.053966906,0.16497527,0.24145812,0.10858634,0.017677076,-0.15123342,-0.13479716,-0.2781044,0.06564503,-0.39530098,0.25475374,0.21511564,-0.58934724,0.33489183,-0.16204356,0.09511063,0.2303018,-0.3581454,0.4707136,-0.2179418,-0.14463785,0.19291544,0.2266383,-0.19408616
funk,-0.3972283,-0.24197017,-0.32621193,-0.76329976,0.09109781,-0.37225977,-0.22520483,-0.6745835,0.020543842,-0.30149665,0.38241872,0.6946518,0.24036968,-0.029747862,-0.43455386,-0.7354519,0.3991666,-0.4091407,-0.13282567,0.49109814,0.02237291,-0.053959794,-0.49913448,0.10274697,0.12612148,-0.4531031,-0.67086476,0.11916951,-0.39079246,0.27352443,-0.22219524,0.57538897,0.40719706,-0.0071491413,-0.48336497,0.8210553,0.20399977,0.28737277,-0.25061244,0.015907751,-0.16434424,0.081226245,-0.025818298,0.12584056,0.42035875,-0.11158985,-0.028068637,-0.021023514,0.4785277,-0.08951619,-0.39766595,0.30552012,0.042165462,0.17251736,0.09842442,-0.07671923,-0.22845769,-0.107043736,-0.16655208,-0.034224488,0.2565819,0.5819219,-0.10151037,0.22280212,-0.41533563,0.47857445,-0.28748208,0.78323704,0.32546368,-0.10944799,-0.15435377,-0.2209275,-0.36906448,-0.0375535,0.05790569,-0.37636834,0.10213647,0.16377285,0.5584174,0.058062926,0.02256604,0.14608413,-0.030349597,-0.111706376,-0.27618352,-0.05102715,-0.24317676,-0.06564229,-0.3044794,0.054473728,-0.17769264,-0.115479395,-0.463615,0.9322697,0.057447795,0.014342084,-0.39233384,0.12704009,0.1641438,-0.61973256,-0.42666888,-0.3460633,0.12207406,-0.97155863,0.29291356,0.4097979,-0.12703404,-0.5341051,-0.3680945,-0.62954724,0.56351423,0.3866267,-0.21109134,-0.3941505,0.20166773,0.32353234,0.4544779,0.101504385,0.25195882,-0.08794131,0.037881438,-0.00026623678,0.110982634,0.012639058,0.8616278,-0.21352857,0.1984344,-0.06690696,-0.32357928,0.5244183,-0.18447626,0.02173245,-0.49091288,0.6007749,-0.21859035,0.18752737,0.15357916,-0.8308638,-0.12726358,-0.3752057,0.42500782,0.28094125,0.10794456,-0.26429993,-0.20685576,-0.21236067,0.36136267,0.020700121,-0.5019903,0.12708196,0.6467194,0.21116027,0.18723819,0.14730628,0.09567764,-0.8373288,0.27281076,-0.4760596,-0.082964726,-0.16411632,0.026033165,0.17135209,-0.71277916,0.046760064,0.20572875,0.13809825,0.27745813,-0.15779005,-0.7481836,0.16474959,0.107365675,0.090155,0.2456941,0.508541,0.024093004,-0.4462145,0.36592108,0.37946495,0.49253628,-0.24877538,-0.038132694,-0.43964905,0.23867975,0.085581504,-0.31650895,-0.4363573,0.10368468,-0.059686705,-0.13900267,-0.095670715,-0.68250775,-0.40936133,-0.05034037,-0.14414598,0.3668014,0.44759876,-0.5400818,0.60770315,-0.07772416,-0.46321994
sad,-0.25142768,-0.13108212,-0.034538183,0.20284717,-0.5707727,0.23600353,0.2564041,0.22309676,0.050914627,0.15951829,-0.31612825,-0.26918915,0.049288485,-0.5384754,0.027777776,0.004856467,0.0052097393,-0.06744028,0.052862637,-0.33332014,-0.15177089,-0.046202607,0.49480432,0.2533806,0.5133619,-0.0041783936,0.08828492,-0.08734454,-0.49001154,0.65039253,0.56444407,0.45507425,-0.75194824,-0.036581263,-0.19745582,-0.06713196,0.4538052,0.013274845,0.3066849,0.17470229,0.18518235,-0.3455727,-0.42910495,0.1795793,0.13115829,0.14929491,0.32263768,-0.2666097,0.053610716,0.029941306,-0.03441763,0.42529762,-0.14044239,-0.25616977,0.21129455,0.45290378,-0.3643415,-0.03250352,-0.08623071,-0.054148648,0.61281586,-0.24740914,-0.46173066,-0.44978338,-0.09031743,0.17297798,-0.096002914,0.5230441,0.13756207,-0.18061358,-0.81177926,0.10424957,-0.34084794,0.2839183,-0.00888537,-0.15209118,0.21335627,-0.047095083,0.26332605,0.7691146,-0.22320099,-0.20397922,0.29542032,0.17787343,-0.5690859,-0.17674987,-0.24982284,0.010637967,-0.15920293,0.19926511,-0.4321667,-0.10003771,0.016687958,0.30958566,-0.31858435,-0.058753327,0.05994857,-0.60813725,-0.1539894,-0.14965068,-0.06868731,0.27311444,-0.061329957,-0.013713763,0.5677564,-0.5443902,-0.14220355,-0.24441408,-0.55928695,-0.2956671,0.27301618,0.28271705,0.08535517,-0.22487722,-0.29373318,-0.12384951,0.6666601,-0.023263447,-0.3851248,-0.13931277,-0.14284322,0.25684923,0.3154222,-0.50579876,0.2948605,0.40098563,-0.27104104,-0.5016018,0.2044775,0.23651925,0.13965994,0.13374224,0.010734461,-0.33146527,0.14517134,0.11882158,0.3387476,-0.46784073,-0.0013839189,0.5046393,0.35463744,-0.55311257,-0.4462266,-0.52790135,-0.052552763,0.014376181,-0.32264584,-0.15092768,0.019919962,-0.09122964,-0.06681353,0.20771778,-0.22771999,-0.37844932,-0.28994432,0.31803912,0.12142313,0.024149464,-0.512919,0.29341263,-0.19004998,0.18348539,-0.02412809,-0.049644675,0.088476256,0.27699217,-0.44248503,0.090618305,-0.040666196,-0.43352947,0.12153275,-0.26561156,0.06564992,0.022470068,-0.44725522,0.07521672,-0.20408103,0.050138105,0.15457772,0.1762899,-0.353027,-0.27671656,-0.18066248,-0.08056522,0.26816174,-0.0651514,0.3660235,0.092886314,-0.043183863,-0.05691934,-0.16144776,0.07147382,0.20508288,-0.30816865,0.30896753,-0.21515039,0.35190395,-0.19465238,0.31334645,0.25765517
dreamy,-0.29688668,-0.068635836,-0.17174031,-0.2634394,-0.28253025,-0.00850892,0.04265615,0.11947458,-0.2309905,0.621822,0.13173364,-0.039505962,-0.026833555,-0.70568347,-0.18536921,0.3575658,-0.1389494,-0.3606613,0.14963001,-0.11880757,0.10605848,0.04815266,-0.11510065,0.25724775,0.26880145,0.059145715,-0.22415942,0.22699982,-0.3830626,0.4207718,-0.43467423,-0.14220794,-0.6925951,-0.022972487,-0.24016555,-0.26629415,-0.30039334,0.11067476,0.02643801,0.18816365,0.20927623,-0.055581696,0.19608998,-0.23037589,-0.6203359,-0.17939806,0.04104394,-0.083039895,0.39286065,-0.1153346,-0.13326097,-0.15964827,-0.022843057,-0.014562623,-0.19449136,0.41213992,-0.16078685,-0.120649956,-0.19184019,-0.15768503,0.59663355,0.017108355,0.18786094,-0.16899218,-0.57098955,0.36418268,0.09947939,0.15378758,-0.20143265,0.07442339,-0.25761572,-0.1282112,-0.2102319,0.35545394,-0.5779796,-0.403617,-0.43780163,0.41677687,-0.11454999,0.43416908,0.05523378,0.014161985,0.079862095,-0.14323252,-0.2655096,0.013552847,-0.111191824,0.6303264,0.08515107,-0.31841198,-0.45959455,-0.045885462,-0.033779897,0.16599356,-0.19701698,-0.048725538,0.018024025,-0.32936245,-0.10590636,-0.0058348556,-0.3199539,0.031269256,-0.026287796,-0.17165866,0.11194104,-0.20427914,0.07123605,0.15144786,-0.0793048,0.25277698,0.102011904,-0.03395444,-0.028375296,0.16809267,0.4097792,0.4073321,0.21997462,-0.06959862,0.052175324,-0.6176203,0.011825521,-0.09641717,-0.013755581,0.19144899,-0.07202841,0.002855475,0.34019852,-1.0340452,0.4152755,0.1499792,0.21144259,0.3179381,0.24643144,-0.40363082,-0.025153054,0.3441828,0.21027394,-0.6942289,0.022754056,0.1906121,0.07340878,-0.31412485,-0.47327983,-0.6177219,0.20569071,-0.3241177,-0.19405487,0.24841206,0.2203073,-0.36999258,-0.1659417,0.079661734,0.20104828,0.053374708,-0.21335034,-0.6175469,0.377502,0.43329567,-0.07410156,-0.02553493,-0.21366133,-0.31380337,0.23148641,-0.5961363,-0.036203485,0.22195011,-0.12139945,-0.3430877,-0.11847689,0.22229649,0.13784012,0.044923063,0.26667428,-0.05575156,-0.23799573,0.13418421,0.24412106,0.12471753,-0.10780332,-0.21771492,0.009744552,-0.09630229,-0.112340406,0.2213469,0.43879914,-0.3839095,0.045588218,-0.36915606,-0.48888135,0.20670362,0.5887717,-0.2274775,0.19414957,-0.21648788,0.22285387,0.014717803,-0.10090042,0.36507788,0.24704295,-0.351741
calm,-0.11315977,-0.38871124,-0.094306074,-0.55656195,-0.12330552,-0.45379817,-0.47321567,-0.18072937,0.34809336,0.3503606,0.47836292,-0.32040593,0.07318986,-0.27779174,0.3230154,0.5817456,-0.11526792,-0.49958962,0.13739984,0.19571723,-0.18441008,-0.43996587,0.00074574567,0.3149127,-0.35583776,-0.23678471,0.11093279,-0.90301067,-0.24342756,0.82242817,0.6173469,0.13964595,-0.6113689,0.1114753,0.07468005,0.2502694,0.25962508,0.21803027,0.18526363,0.17337282,0.11905293,-0.4785819,-0.0049930033,0.08599215,-0.38374925,0.15894796,0.39889142,-0.34447703,0.02219466,-0.08008783,-0.26524073,-0.24757428,-0.302816,-0.3399538,-0.099230886,0.8053217,-0.36395162,-0.30476856,-0.07525378,-0.38039508,-0.22302955,-0.71378124,-0.08234619,0.35229224,-0.27480784,-0.20236994,0.34015766,0.39725715,-0.19836065,0.05642167,-0.18609665,0.09609433,0.13583806,0.20245181,-0.20640619,-0.39509404,-0.3195469,-0.3775357,-0.40793455,0.26699886,-0.062630594,-0.24025449,0.18563241,-0.61219424,-0.55096287,0.51699305,-0.45686042,0.6712399,-0.45166573,-0.011835755,-0.19787832,0.3729277,0.13111195,-0.11749549,-0.23090363,0.0833626,0.046190076,-0.34138075,-0.26452643,-0.7042146,-0.4496048,-0.20567502,-0.21166849,-0.2940605,0.2987628,0.10061875,-0.35583714,-0.06837866,0.25452903,0.16580507,0.2994176,-0.18850943,0.043375157,-0.17141452,-0.19819379,0.21318765,-0.072055146,0.0051286737,-0.3826737,-0.19698739,-0.18655436,0.19119057,0.46428955,-0.07139814,0.40404442,0.5544846,0.19274701,-0.62340695,0.4528959,0.033862427,0.060473155,0.07254693,0.5054742,0.14134447,-0.09077384,-0.17498422,0.18546224,-0.45558542,0.024543809,-0.081942424,-0.28744227,-0.030208128,-0.5363049,-0.5167437,0.27513397,-0.47976935,0.41856828,0.4999006,0.16101712,-0.47805157,-0.29164,0.12937802,-0.16351604,0.010763959,-0.081533246,-0.3257845,0.2785719,0.4958571,-0.08647675,0.12772627,0.5218139,-0.29534003,0.01672583,-0.13192952,0.41964945,0.6190725,-0.43875074,0.2053846,-0.1525023,0.033196002,-0.350645,0.0073219673,0.14200154,-0.2118654,-0.23785274,-0.36888248,0.29491234,0.38852233,0.063248724,-0.10436282,-0.111049145,0.22247225,0.049133603,0.34361392,0.18170132,-0.16893621,0.30553925,-0.16487776,0.1500485,0.08186678,-0.009394895,-0.02189029,0.42441985,-0.032820497,-0.19197938,-0.26622579,0.07176777,0.030128717,-0.37357372,0.04984316
melancholy,0.014034683,0.07976885,-0.35069817,-0.08232385,-0.22933482,-0.22727776,-0.025600279,-0.34736773,0.11297269,0.30386022,0.30497453,-0.17804669,-0.013894732,-0.6368159,0.5349121,0.045739207,-0.29164642,-0.7288294,-0.14702776,-0.3138665,-0.10986477,0.22497739,-0.06713176,0.29732433,0.09065504,0.17939343,-0.12512676,-0.090300515,-0.42137837,0.56967425,-0.21617888,-0.26331028,-0.5173024,-0.18405846,-0.23444109,0.09751377,-0.13792391,-0.032544356,0.664268,-0.22281292,0.23159058,-0.09850716,-0.049108084,-0.09651013,-0.25889623,0.027904354,0.16965847,-0.053573143,0.41580892,-0.6024449,-0.08398716,0.08671324,-0.5709551,0.040785294,-0.16060273,0.32121947,-0.19672072,-0.33097488,-0.20823571,-0.54456484,0.75843877,-0.32688126,-0.2708189,-0.23436344,-0.16517247,0.6488815,-0.07453705,0.06896769,0.25713083,-0.22105218,-0.7092807,0.17968538,-0.17501307,0.073934525,0.05940804,-0.60484064,0.081204146,0.23604587,-0.05373043,0.56491977,0.21109165,-0.22861713,0.55054694,-0.27922782,0.09699018,0.34265876,-0.18334363,0.2515626,-0.18865316,-0.38214153,-0.111803636,-0.6277577,0.18218648,0.20381212,0.3596816,-0.33707693,-0.18885855,-0.24450487,0.00069939496,-0.101529606,-0.29434165,-0.13860781,-0.10274933,-0.5549349,0.29756397,-0.15648064,0.08723312,-0.45673355,-0.64257103,0.15868127,0.20413321,-0.045173872,0.17542134,0.16488782,0.25162682,-0.01432585,-0.08407844,-0.05931706,0.4746265,-0.232436,-0.41608566,0.018054964,-0.039330132,0.3162633,0.27680004,0.0877536,0.04193599,-0.65627396,0.5340064,0.23549458,0.13875529,0.106549844,0.15343407,-0.45606637,-0.076310165,0.033338517,0.19878908,-0.11553194,-0.092877336,-0.10749253,0.032697152,-0.3329874,-0.3365875,-0.70578635,0.37818864,-0.6031718,0.062329046,-0.008401473,0.042475436,-0.45682,-0.30935505,0.16005124,-0.063647285,-0.18807328,-0.05871669,-0.15314125,0.09662406,-0.32475886,-0.08844214,-0.027085697,0.11767533,-0.102673784,-0.23089054,-0.5242356,-0.1806834,0.09932614,-0.16820605,0.2549984,-0.2951643,0.11318851,-0.09678633,0.1184574,-0.02530619,-0.26107842,-0.25526026,0.09220111,0.23133607,0.1708136,0.103321105,-0.28292084,-0.24884878,-0.031238154,-0.036489196,-0.20061266,0.1716467,-0.3315674,0.24405317,-0.38760167,0.14898936,-0.0050413148,-0.2297626,-0.31736597,-0.038544282,-0.24728025,0.12489185,-0.19851528,-0.057109974,0.5091388,0.2134816,-0.04867672
quirky,-0.568754,0.0733179,0.21157712,0.39458814,-0.18489358,-0.033799555,-0.21756585,0.049823888,0.21483086,-0.19411983,0.40955546,-0.9579433,0.36772287,0.0936959,0.34676304,-0.36027268,-0.26032788,-0.05334762,-0.27610007,-0.5992079,-0.36027074,0.10434008,0.1592758,-0.072874255,0.4941357,-0.29027116,0.0023796875,0.18630669,-0.20637506,0.1654824,0.14664829,0.38112837,-0.32085717,-0.18618743,-0.37668604,0.45772812,0.06577106,0.2734205,0.20072612,-0.09639578,0.5002097,0.06380599,0.22433786,0.19170158,-0.15097162,0.38774487,-0.014407586,0.5549275,0.15739708,-0.6560577,-0.3708045,-0.38064474,0.017511908,-0.6450121,0.09185789,1.027545,0.19821598,0.38213873,0.3539166,-0.15957306,-0.053751305,0.4260413,-0.14457902,-0.27146956,-0.83162445,-0.32373175,0.06270655,0.43140268,0.47321588,-0.35048553,-0.26324186,0.015924454,0.04057496,0.217886,-0.2412835,0.5869341,-0.96498334,0.08792518,-0.37372378,0.503869,-0.46113056,0.5373512,0.092670865,-0.048388675,-0.229455,0.0485502,-0.21638481,-0.11779782,-0.34848323,-0.24653919,-0.6752541,-0.107615285,0.15506847,0.073054075,-0.7916694,0.26020682,-0.23116465,-0.29330185,0.33084634,-0.34456614,-0.71661144,0.0024171157,0.2946946,-0.45647818,0.33429572,-0.24154606,-0.17079258,-0.446307,-0.32391697,0.08546559,-0.08518109,0.11895182,-0.3143116,-0.104303956,0.24966574,0.31933287,0.768733,0.29513848,-0.37237373,-0.75034934,0.052677006,0.00459866,0.11139765,-0.3686917,-0.12095046,0.3279102,0.124122314,0.06376009,0.07902227,0.09091323,-0.45232546,-0.056046247,-0.17984214,-0.52625537,0.43776587,-0.090596765,-0.058191564,-0.50934356,0.025225678,-0.124162175,0.52443653,-0.8824593,-0.39982456,-0.012066365,-0.25988078,-0.25021726,0.5431111,0.29393923,0.54649204,-0.50530475,-0.44289374,0.5863474,0.55253196,0.18565224,-0.28387883,-0.46535268,0.17957105,0.021180052,-0.3079878,-0.5980846,0.14247128,0.16951199,0.3558394,-0.48216864,0.03552225,0.48366642,0.2403172,0.071711,-0.13054423,-0.19062702,0.1722281,0.17641872,0.6500463,0.22085851,0.06667425,0.2207605,-0.29839888,0.1909738,-0.31448758,-0.1527188,0.092685714,-0.42507645,-0.8613653,-0.2873306,0.020156031,-0.2982072,-0.28609362,-0.21229206,0.041920602,-0.36595678,-0.09718628,0.25635985,-0.20293346,-0.4014341,0.24457392,-0.40786,-0.12100267,0.2357016,0.41836983,0.1230183
desperate,0.43042445,0.24019632,-0.3808578,0.70225495,0.067583695,-0.7619299,-0.09006655,-0.46708202,-0.76565605,0.5385826,0.40470666,0.46355468,-0.3034436,-1.1689976,-0.6572424,-0.2426728,0.09894973,-1.0754305,-0.38185632,-0.03970642,-0.62955,0.04381375,-0.20640726,0.7120124,-0.3257447,0.3829226,0.22925374,-0.12528746,-0.15545782,-0.00018363449,0.024843706,0.6999712,-0.4595634,0.268783,0.34499046,0.42773366,0.7375634,0.05999518,0.9463119,-0.51247436,-0.77598286,0.5416105,-0.15445006,-0.47140703,0.09010381,-0.31799743,0.44475615,0.15044634,0.67015123,-0.89163375,-0.6924776,0.8335477,-0.23805118,-0.37408444,-0.039612506,-0.02541665,-0.5722807,0.22794853,0.33268386,1.4325678,0.0018594823,-0.31667563,-0.6231308,-0.024800515,0.28556272,-0.17412142,0.36973736,0.569584,0.9992591,-0.5497713,-0.64876825,-0.47536978,0.7480676,0.2549539,-0.22453535,-0.2709779,-0.52170056,0.40598956,0.75373614,0.80943567,0.6309292,0.07995479,0.35627952,-0.18728241,0.5087303,0.3495571,-0.5070872,0.09956731,0.17744549,0.26948658,-0.19559933,0.033791974,0.78840935,0.047293294,-0.47885606,0.32619226,0.39501938,-0.20894913,-0.056019932,-0.6454653,-0.31357163,0.43106592,0.19630188,-0.33112714,-0.21695913,0.047534853,0.32659474,-0.07551402,-0.76567924,-0.07102277,0.7123882,-0.4079128,0.36865136,-0.0108872065,-0.21485826,0.5943206,0.27241537,-1.0891343,-0.73964864,0.42365253,-0.26396048,-0.32988232,0.29813373,-0.4210388,-0.3402915,0.24244128,0.21716025,-0.27905372,0.17808224,0.34876066,0.7023986,0.5832274,-0.50152045,-0.6152438,-0.28144142,-0.34612972,-0.7160722,0.5290556,0.230015,-0.15150928,1.1453694,0.28039202,-0.39389566,-0.5161764,0.27821273,-0.54210293,-0.07508989,0.5916103,0.23959012,0.78502935,-0.51866996,0.19436026,-0.35047275,0.5487575,0.10559531,0.1851854,0.5587119,-0.7573093,-0.57253605,-0.66893345,-1.53172,0.73642844,0.18041039,-0.57116663,-0.22379276,-0.43394455,-0.049732495,-0.38770697,-0.42168736,-0.6055976,-0.52537733,-0.2806806,0.32337952,0.27128884,-0.057173684,-0.014190846,0.74594396,0.3624686,-0.5066125,0.4499907,-0.2609757,-0.32028046,-0.11061619,-0.37401092,0.030511906,-0.789106,0.26659852,-0.67239046,0.03561356,0.1013718,0.3164367,-0.13348459,0.5966504,0.15796886,-0.3623975,0.021847384,-0.16057006,0.22384731,0.6477133,-0.16594812
emotional,-0.057124417,-0.055327248,-0.054960407,-0.13500944,-0.42992938,0.05773642,-0.41294408,-0.10967676,0.12526213,0.9422356,0.008938226,0.10574947,-0.87359166,-0.22039859,0.12815385,0.4158848,-0.35616595,-0.027270677,0.3288584,-0.28027272,-0.06450811,-0.014103573,-0.15761119,0.37012392,0.025394557,0.23472005,0.25316852,0.13018881,-0.58874494,0.61187977,-0.16583642,0.2724776,0.047566514,-0.15106443,0.01927796,0.34998202,0.35627946,0.19871764,0.26938438,0.28223467,0.052563775,0.099829994,0.011657544,-0.30199164,0.33374226,0.0642991,0.6809313,0.08058414,0.23048171,-0.23069407,-0.16530621,0.15535986,-0.09509358,0.16083474,0.07811752,0.33539227,-0.0031496442,-0.05491546,-0.040472247,-0.42050192,0.5947013,0.06199208,-0.03820551,0.010511967,-0.36707968,0.008063734,0.5896071,0.46112442,0.51670283,-0.26973346,-0.5386632,0.027215214,0.37780076,0.1429177,-0.2651472,0.02305622,0.10501014,-0.15388939,-0.18038991,0.19205277,0.2250097,-0.0062833726,0.17672269,-0.69471073,-0.02832718,0.49952766,-0.53023475,0.22526635,-0.36449748,-0.46556246,0.28158107,-0.18332662,-0.0675387,0.21032856,-0.2297107,-0.22849232,-0.20020795,-0.2888792,0.042836003,-0.2560116,-0.37105954,0.18529053,0.23357607,-0.010914809,0.032643914,-0.018939175,0.4610951,-0.072005674,-0.5652546,-0.32753608,0.29028788,0.3310816,0.23481768,0.1555566,0.08257669,0.6019056,-0.108089015,-0.36203507,-0.057806358,-0.318456,-0.73393595,0.04949491,0.09406926,-0.06797272,-0.29719195,-0.25586024,-0.31664237,0.24088809,0.44246778,0.06948167,-0.5181983,0.72211313,-0.13368428,-0.26934087,-0.21453084,-0.11845868,0.27271897,-0.27264434,-0.6361572,0.22063032,-0.25957817,-0.36193553,0.26979068,-0.54360265,0.0011141762,-0.4541861,-0.45758542,0.09641194,0.32900602,-0.22863176,-0.41299367,0.20223628,0.06930654,-0.16917652,-0.09394487,-0.33327207,0.0023118234,0.081594445,-0.45261022,0.25697133,-0.21873921,-0.19302206,-0.122289024,-0.6598543,0.15821064,0.2905116,0.10527407,-0.5002902,0.13855685,-0.63386935,-0.048972934,0.2733871,0.014714688,-0.1543308,-0.3011629,0.5444475,0.20122802,0.31038553,0.56987375,-0.050387584,-0.15783331,0.01181287,-0.1400581,0.27851027,-0.09436925,-0.23004793,-0.17460994,0.03515353,-0.17064022,0.01912785,-0.50229955,-0.13332823,0.13101536,-0.38831273,-0.4849777,-0.29178336,0.32837453,0.072244816,0.31411707,0.25622356
inspired,-0.36595514,-0.6064104,0.6941372,0.1204119,0.50154275,-0.022437805,-1.1574523,-0.3954974,-0.68494564,0.4935284,0.27717987,0.41266868,0.25390437,-0.30677897,0.84119457,0.24553105,0.18687236,-0.20575756,-0.44657063,0.634972,-1.1033162,-0.009691551,-0.20255217,0.21053633,0.07134888,-0.44892865,0.29145515,0.48607948,-1.0344363,0.6505886,-0.6130245,-0.4551409,-0.32546335,0.4294068,0.05641498,-0.24529648,-0.030009648,-0.34670383,-0.7354043,0.26471573,-0.12988266,0.73847336,-0.60245985,0.286748,0.80491734,-0.6770512,-0.12695576,1.3492182,0.3046607,0.11780732,-0.26629624,0.3848472,-0.25668207,0.2724876,0.8940091,0.033929456,0.10368443,0.12629485,0.4583744,-0.51593494,1.1761659,-0.45480388,0.19048949,-0.35665756,-1.2596412,0.7599361,-0.4417359,0.17050599,0.03179264,-0.25779223,0.3893341,-0.58662164,0.49413535,0.40097192,0.50718766,0.22312796,-0.2158674,0.26699176,0.27981442,0.5216964,0.50938845,0.27807945,-0.3724922,-0.70226103,0.5478663,-0.51612854,-0.75179774,-0.76352745,0.27549526,-0.5455334,-0.7786448,-0.14641382,-0.32567775,0.76135564,-0.10680288,-0.07242183,0.357292,0.4245092,0.20230284,0.19243269,-0.8013324,0.01584268,0.050616734,-1.145573,-0.2870546,-0.016109426,-0.12070898,-1.1050671,-0.7778309,-1.2983437,0.53039277,-0.09239772,-0.43176562,-0.6119741,-0.096790835,0.4993266,-0.56684893,-0.5577596,-0.29527885,-0.3434573,0.5871666,-0.015317899,-0.26937342,-0.6658031,0.732819,-0.2825475,-0.4460618,-0.6961401,-0.8708472,0.06084867,-0.03140145,-0.38031974,-1.2480446,0.43377185,0.28257126,0.23799579,-0.43970835,-0.16175027,0.5805635,-1.3858738,0.09234914,0.16137373,-0.08186843,-0.4566878,-0.58305216,-0.5901917,-1.4209821,-0.29758862,0.34900734,-0.03699687,-0.34204012,0.4114377,0.0084401965,0.08194529,-0.5350467,0.12052046,-0.41616935,-0.10416147,-0.2570421,0.02075837,-0.59666073,0.5790089,-0.21306059,0.63660896,-0.243199,0.19587876,-0.021033213,-0.3216273,0.077326514,1.1397403,-0.24753779,0.2946787,1.0891004,0.13879493,0.7379487,-0.1101308,-0.5304089,-0.2991955,0.45743665,-0.42005026,-0.29773918,-0.471163,-0.3310354,-0.6781003,0.41524988,0.29842505,-0.06508985,0.065896764,-1.0446367,0.057102352,-0.74050504,-0.5147571,-0.98469466,0.21481425,-0.14731035,0.46487796,0.4698698,0.9594953,0.6961079,-1.2070194
bittersweet,0.104891956,0.09214567,-0.32076764,-0.18800393,-0.18402752,-0.34714568,-0.10576487,-0.10413605,0.41728327,0.03893476,0.24732734,0.14682782,-0.1768181,-0.38354328,-0.12713823,0.24024484,0.14178781,-0.11119226,0.20575067,-0.011401605,-0.4959275,0.010544783,-0.55830634,-0.12107123,0.12510462,-0.011948369,0.30237943,0.30608657,-0.20560066,0.20394206,0.2757187,-0.029919999,-0.36325774,-0.26620448,0.007122351,0.53166306,-0.010799322,-0.2589804,0.24303456,-0.07045041,-0.22141898,-0.032003272,-0.048256047,-0.3981058,0.13276045,0.00015986347,-0.27688372,0.38198426,0.18189791,-0.25392798,-0.29949737,0.20425761,-0.024939856,-0.36853263,-0.11398858,0.47219762,0.12530021,-0.24709694,-0.09668015,0.25341785,0.17219622,-0.17451034,0.28645805,-0.31319067,-0.008731588,0.22017793,0.47101444,0.27042922,0.8667557,-0.1371809,-0.18900098,0.16197965,0.1538477,0.20145962,-0.53634185,-0.058352474,-0.81384104,0.03148176,0.19987002,0.28286436,0.6685602,-0.0633046,0.36629245,-0.8264983,-0.35303387,0.3268903,-0.3633291,0.045799732,-0.38130113,0.35913125,0.25711685,-0.32419097,-0.073007934,0.38072947,0.1018097,0.15401255,0.64251596,-0.46674496,-0.30571076,0.020481758,0.06612388,-0.12825152,-0.06895657,0.1364496,-0.07730898,-0.43252298,-0.4420099,-0.6929466,-0.40824705,-0.22158608,-0.2542273,0.057557445,-0.3363126,0.029948216,0.1440452,0.328925,0.11764867,-0.032082535,-0.3090941,-0.21357186,-0.12366625,-0.27513266,0.3611067,-0.42192516,0.053963374,0.14902297,-0.078507274,-0.3187654,0.46934158,0.15594648,0.16630335,0.18177846,0.1651604,0.052228596,-0.49908757,0.57075953,-0.0024323945,-0.5970467,-0.18152638,0.2323467,-0.093343996,-0.6612866,-0.30784366,0.17475732,-0.06866779,-0.74508256,0.2976879,0.030843377,-0.35550836,-0.21930754,0.38504735,0.38791752,0.37305483,-0.36764613,-0.61350554,-0.0075223655,-0.12098711,-0.5178188,0.04964182,-0.060399234,-0.04610796,-0.15131333,-0.30612114,-0.16121845,-0.13414669,0.24936944,-0.61084676,-0.2700385,-0.025183562,-0.2576976,0.085538365,-0.09331288,-0.007963351,-0.62852734,-0.81411743,0.14567181,-0.033846702,-0.23853138,-0.0801628,0.46533147,-0.4654171,-0.18361878,-0.5236,-0.29202932,0.7156166,-0.41389665,0.3677979,-0.34032878,-0.2285825,-0.0972397,0.07917774,0.21879648,0.2379395,0.13606063,0.22801277,0.27960962,0.10813063,-0.15469448,-0.011971125,-0.22576818
black,-0.7745539,0.214758,0.6189322,-0.41192612,-0.17302409,-0.54733276,-0.49845243,0.5173576,0.71194625,0.34497857,0.34203947,0.050598316,0.7890732,-0.71047765,-0.033137403,-0.14849612,0.07803832,-0.3072064,0.016197577,-0.22920641,-0.43066597,0.16682895,0.43371835,0.7083457,-0.21096614,-0.2622567,0.23900399,-0.51360345,0.48549783,0.6289089,0.15507677,-0.24987255,0.030503158,0.43206123,-0.44750395,0.11086251,0.03663005,-0.6194174,-0.91282684,0.19944528,0.16748683,0.5043292,-0.29828507,-0.18264097,0.22012128,0.15712816,-0.03206918,-0.85457486,0.6714913,0.14931051,-0.53482133,0.077052906,0.2817469,0.26070055,-0.07564428,0.5328076,-0.8021387,-0.38777635,0.15616663,-0.02087207,0.3213796,-0.7665455,-0.38464636,0.27718312,-0.118522264,-0.11937026,-0.33475417,0.5463442,0.67173326,-0.019462315,-0.1786151,0.05462527,0.45158705,0.48619136,0.70393294,0.38480985,-0.11087706,-0.20385334,0.884109,0.3096255,-0.13399917,-0.06294748,0.07642378,-0.10125133,0.53059965,-0.02269163,-0.28536707,-0.050200485,0.12029441,-0.1483497,0.33133665,-1.2065517,0.18012284,0.4166687,-0.4801984,0.03390961,-0.28178158,0.004326776,0.25143233,-0.10704092,-0.04606818,-0.28374925,-0.14606649,0.68485296,-0.2542072,0.7705638,-0.25965786,0.35460433,0.27608156,-0.17074041,-0.17940325,-0.19960208,0.5731109,-0.009584765,0.17956291,0.025199246,0.43570274,-0.091063306,-0.44940147,-0.15497363,-0.17701079,-0.18826161,-0.078939795,0.0074702213,-0.3263692,0.22505441,0.05530237,-0.5084243,0.9546751,0.8789123,0.0061968006,0.2242024,-0.13699159,0.4422545,-0.48645666,0.40403187,0.28304705,-0.38085136,0.06153154,0.020659013,0.53890115,-0.65374684,-0.49750662,0.012930116,0.30562943,-0.001420702,-0.84356594,0.65920943,-0.12181716,-0.079004854,0.19757426,0.3115874,0.59162134,-0.55795896,0.16423684,0.3822623,-0.1974242,-0.683803,-0.3877015,-0.3568496,-0.3191645,0.065797165,0.31887093,-0.52561855,-0.07877216,-0.025000794,0.87270576,-0.868602,-0.6899326,-0.4971717,-0.4837465,0.107362576,0.302318,-0.25339693,-0.70342743,-0.32450762,0.35799637,0.19907938,0.3878485,-0.053864338,-0.6971238,-0.6238262,-0.30472043,0.2580381,0.62352663,0.022469288,-0.47903743,-0.03583188,-0.9697262,-0.4312445,-0.6594043,0.24753548,-0.30691984,-0.65665627,0.18809928,0.038126674,-0.38142285,0.2394935,-0.6923732,-0.12867965
depressive,-0.623488,0.15203437,0.3451348,-0.43143108,-0.28345138,-0.17831165,-0.07626088,-0.56443757,0.48219186,0.19198418,-0.16298579,0.022689521,0.009674612,-0.020020125,0.056929793,-0.116685644,0.4675814,0.06494681,-0.004942863,0.12524675,-0.28986287,-0.4358325,0.33806208,0.84307075,0.17275031,-0.046280585,-0.22517028,-0.36993554,-0.3383412,0.9774203,0.19680613,0.14079969,-0.98858494,0.5418759,0.38146102,0.22938536,0.06955682,-0.11810479,0.35099357,-0.3069818,0.012388731,0.11586959,-0.63355577,-0.2942129,0.8104968,-0.11662448,-0.23276779,-0.020203676,0.10379915,1.0093806,0.13289087,0.76203334,-0.10809523,-0.4471109,-0.19201712,0.13327225,-0.5466525,-0.32239267,0.19493584,-0.50931853,-0.21495596,-0.5719984,-0.37182721,-0.66328794,0.27139375,0.4994953,-0.5041971,0.48862925,-0.17579314,-0.1248924,-0.89210373,0.0022009998,0.5666919,0.25913277,0.224068,0.298218,-0.045624234,0.26103756,-0.2467098,0.41480806,-0.36674705,0.31271943,0.62818,-0.37537178,0.30441114,-0.08066323,0.076538935,0.0005061645,-0.48537856,-0.17302608,-0.22850934,-0.28582925,0.6297665,0.50512147,-0.24317771,-0.199724,-0.33735877,-0.39563698,0.05937197,-0.85961866,-0.38327286,0.55814326,-0.44380003,0.16855639,0.4068026,0.065926,-0.23186292,-0.0264916,0.116682924,0.06632272,0.703702,-0.125585,-0.07701824,-0.3662179,0.033048857,-0.35084638,0.18300694,0.25494784,-0.7526072,-0.67719567,0.038651887,0.22173727,0.1631741,0.07552238,-0.27398002,0.6237742,0.1457619,-0.18977769,0.6097058,0.65430903,-0.1846128,0.08902669,-0.0832271,0.16372626,-0.6562562,0.5943581,0.37664306,-0.6687306,0.19357626,-0.0040039774,0.016922073,-0.07027319,-0.32458684,-0.38795134,-0.16163303,-0.14316438,-0.6896378,0.16339411,0.09988509,-0.35782626,-0.7755153,0.35800883,0.20463769,-0.11810659,-0.4887704,-0.08277742,-0.6583339,-0.7203676,-0.09755888,0.6800346,-0.50935423,-0.13728258,-0.22220013,-0.22459935,-0.033072844,0.45939595,-0.2197886,0.46067387,-0.53595954,-0.45013422,-0.6239195,-0.0009156293,0.40255937,0.2147168,0.048827942,0.16060334,0.7207239,0.23959439,-0.55944777,0.03777093,-0.38749242,-0.47736758,-0.4100014,-0.14602122,0.5251249,-0.67703044,-0.034003925,-0.64625907,-0.5978523,-0.012599307,-0.8844752,-0.069557674,0.35765225,-0.47582978,-0.27405447,-0.046932142,0.113280244,-0.3242252,0.086085014,-0.075641744
brutal,-0.4797386,0.3162197,-0.16359192,-0.73898125,-0.6159678,-0.5771673,-0.2522421,-0.29154378,0.053339303,0.43609822,0.58572876,0.61448896,-0.12850025,-0.2723351,0.028813288,-0.055035383,0.7187845,-0.7195276,0.10032462,-0.06809563,-0.2387599,0.007332197,-0.33198836,0.8636473,-0.2210391,0.3583169,-0.009627229,-0.5675818,0.29861835,0.08311201,0.043007854,-0.102647975,-0.35085264,-0.18537113,-0.22719662,-0.1345913,0.0017439227,-0.2740356,-0.85774666,0.4145971,0.034558974,0.5274985,-0.15894237,-0.2424863,-0.17524129,0.44004908,0.687413,-0.1196683,-0.16095659,-0.50669134,0.036180373,-0.36962098,-0.24017641,-0.33680162,0.44898787,-0.09622642,-0.922526,-0.56158674,0.068390325,0.3102995,0.49650282,-0.24588455,-0.7317424,-0.2111245,-0.03303162,0.63218313,-0.5756234,0.6642395,0.9042808,-0.4385221,-0.46734577,0.10637116,0.23867367,-0.041625604,0.7965516,0.13220225,-0.36569557,-0.64921784,0.23386185,0.028054787,0.17524049,0.29166257,0.8985282,0.5081831,0.090353206,-0.35455686,-0.14971606,0.16274415,-0.36327934,-0.31393895,-0.6811192,-0.65624166,0.45943275,0.6214423,-0.10981839,0.2594375,0.06660024,-0.25544462,-0.029688738,-0.04888926,-0.6053865,-0.6968555,0.98786205,-0.15380487,0.8350943,0.28253102,-0.07088419,0.22414744,0.28643525,-0.5762099,-0.30135286,-0.48231426,0.19918147,0.31652483,0.12213646,0.44005284,0.5823918,0.45374882,0.3345734,-0.25506482,-0.23771836,-0.24201493,0.27070418,0.025564607,-0.12174471,0.25793585,0.025175665,0.06861551,0.040002976,0.05601492,0.46514073,0.26281515,0.029538658,0.62470883,-0.1955224,-0.09803777,-0.31711152,-0.284128,-0.28259704,-0.5833217,-0.107015595,-0.3292421,-0.6250533,-0.7217041,0.1708415,-0.14053677,-1.024318,0.4047501,-0.10649015,-0.0034804314,0.27904993,0.118136406,0.28738278,-0.062841214,-0.11821626,0.033546932,-0.22695789,-0.16578498,0.19712912,-0.22066565,-0.2870528,0.6621773,0.014732956,-0.37461212,0.33646873,-0.3889849,0.2483593,0.24304129,-0.37916622,-0.2164153,-0.34768558,0.6919003,0.8111313,0.06521005,-1.2216699,-0.15185513,-0.39822507,0.7668421,0.22849865,0.16543463,0.14719783,0.07120165,-0.3873417,0.3597515,0.48862943,-0.4246576,0.10322553,-0.52879345,0.01966437,0.6354492,-0.2575832,-0.75058836,0.21509236,-0.46308666,-0.235049,0.34180787,-0.081484385,0.33603984,-0.6282948,0.34515813
trippy,-0.4157275,0.1971269,-0.03429233,-0.50938684,0.04160276,-0.5783731,-0.18287848,-0.33557338,0.11872278,0.52552056,0.16652423,0.32603094,-0.18275605,-0.018231692,-0.42715988,0.00834019,-0.1400857,-0.09186086,0.07945556,-0.04443938,-0.22183472,-0.37024912,0.22363545,-0.12957492,-0.24510445,-0.6692272,0.059046715,0.053093098,-0.3663942,0.45033953,-0.17717643,0.60552657,-0.06098993,-0.5204125,0.120422326,0.21608621,0.1664364,-0.3624936,0.01924465,0.26521507,-0.059348866,0.527154,-0.18746631,-0.04813593,-0.0414571,-0.37118563,-0.4123975,-0.085414626,0.030134957,-0.15640444,-0.13500623,0.055258285,-0.28329846,-0.22091657,0.17457907,0.15018153,-0.10087186,0.034111243,-0.20329647,-0.8025296,0.61739004,0.23973237,0.0023407228,-0.22821926,-0.23165882,0.4639365,0.22955285,0.5170847,0.20941871,-0.13558862,-0.23996274,0.30193195,-0.2390245,-0.39063445,-0.6735243,0.12803404,-0.69046295,-0.5274044,0.09416372,0.30698067,-0.26684132,0.24132128,0.27250284,-0.30300373,-0.781125,0.1538724,-0.14161427,0.33922023,-0.40475702,0.0648198,-0.5075377,-0.23374367,0.2667325,0.42288512,-0.6985423,0.16459548,-0.21596637,0.014029271,0.16077977,-0.14203258,0.045636125,0.16254653,-0.041024774,-0.55419433,0.1651859,0.06867803,0.5568678,-0.09820323,-0.7513663,0.09913939,-0.32937834,-0.6775288,0.04575665,0.02491863,0.4729466,0.55426455,0.10517327,-0.10845308,-0.36607572,-0.75935453,-0.099777624,-0.048311673,0.045740783,-0.029282121,-0.25530675,-0.676647,-0.050585847,-0.2411616,-0.7438434,-0.1606598,0.41402403,0.24744262,0.30365795,-0.41462985,-0.008005391,0.404021,-0.09616538,-0.32525775,0.23893213,-0.33534473,-0.2852795,-0.40105736,-0.48345017,-0.13196976,0.12264447,0.18839571,0.0950982,0.19037057,-0.14330208,-0.49961206,0.0850689,0.78592944,-0.41309917,0.5259124,-0.4672107,-0.62557256,0.17764479,-0.21406136,0.0780462,-0.072009556,-0.16666701,0.03390162,-0.48806813,-0.5640919,-0.06660516,0.47188613,0.5233355,-0.11603372,0.02254501,0.43605703,0.35053506,0.3450654,0.47258043,-0.16620022,-0.25345466,0.23291656,0.38078502,-0.021415716,-0.14331943,-0.3382942,-0.2747375,0.57226497,-0.31618467,-0.16792916,0.58168805,-0.0995028,0.23363398,-0.066459715,-0.19813326,0.30301052,-0.032342825,-0.37013367,0.37016228,-0.2550607,-0.27760085,-0.45639402,-0.15428531,0.2002832,0.14709151,-0.18888646
dark,-0.6226988,-0.21209835,-0.034699634,-0.5099704,0.033768345,0.26478985,-0.44975367,-0.5469595,-0.32137585,0.1964071,0.58189785,0.1215484,-0.023908561,-0.4669518,0.8863938,-0.19878007,-0.1516593,-0.9110404,-0.07086188,-0.3689802,0.4328896,0.049318064,0.620439,0.27141762,-0.5160342,0.15913686,0.03329844,-0.35979292,-0.5089369,0.38838747,0.26468506,0.37152812,-0.5458047,0.3274827,0.4081616,0.13271263,-0.27484965,-0.44099274,0.047161847,-0.48163658,0.19520098,-0.30350727,-0.44639745,-0.01589263,0.016988419,-0.19525266,0.030769117,0.23919713,0.03550594,-0.022636108,-0.11742786,0.069337666,0.2798888,0.108686104,-0.06016858,0.60249615,-0.48917425,-0.11855421,-0.3104911,-1.0383179,-0.05107013,-0.08410161,-0.5374845,0.06524703,-0.3090638,0.59542125,0.05003915,0.45870334,0.8076484,0.27604866,-0.1823372,0.30962417,0.3442832,0.4056046,-0.4187274,0.2858535,-0.32835022,-0.24514127,-0.09087188,0.99944323,0.03890989,0.29032207,-0.26610288,-0.3930033,0.3035469,0.34117073,-0.597346,0.69441044,0.61276674,0.5469684,-0.35437816,-0.6158842,0.4289305,0.2501074,0.23777927,0.4810937,0.09113252,-0.62502223,-0.14192694,0.10475268,-0.36347675,-0.1251993,-0.29780617,-0.3643191,0.5239766,-0.14943154,-0.4504939,0.12693216,-0.7180288,-0.7047143,0.12905139,-0.13700329,-0.24131571,-0.39264777,-0.19152664,-0.0616632,0.70894235,-0.6734259,0.103126585,-0.4527371,-0.82692903,-0.41343996,-0.6328973,-0.65131694,0.39148062,0.46899536,0.4856755,-0.5254279,-0.1086844,0.35167313,0.13666208,0.27599683,0.32940054,0.4415868,0.11450128,0.15839149,0.06959036,-0.38709077,0.38357913,-0.021673765,-0.29748476,-0.4668681,-0.24101925,0.33692104,-0.05848735,0.064238496,-0.5144429,0.7444217,-0.32484326,-0.560664,-0.37040213,0.96297544,-0.13788168,0.2811553,-0.33751217,0.054518953,-0.062308747,-0.3378959,0.3183653,0.63102776,-0.81597483,0.28627664,0.119082354,-0.2689814,-0.46348375,-0.7044642,0.28229338,-0.34683505,-0.18045862,-0.18325879,0.1388065,0.2421488,-0.012733095,-0.08940469,-0.22261088,0.35974813,0.008564499,-0.492664,0.4430299,-0.0077096946,0.18495786,0.32877117,-0.29207605,0.6303838,-0.19809309,-0.819959,0.44461864,-0.09267412,-0.22717227,-0.26953268,-0.7564906,-0.17949478,0.59361446,-0.30565208,0.34333622,0.42055145,0.19743447,0.18318959,0.32383654,0.08479988
lonely,0.42223346,-0.49655464,-0.5456785,0.22545238,-0.12864152,0.024171239,-0.8142711,-0.44785798,0.20553072,-0.27883282,0.6124662,0.17031647,-0.22934547,-0.38384774,-0.06451123,0.1266706,-0.23297377,-0.48226935,0.062163327,-0.14508271,-0.16650493,0.052070893,-0.31160423,0.1169412,0.59867406,-0.7979976,-0.12807976,0.39307612,-0.1451787,0.16839963,0.008824226,0.5436205,-1.1347471,0.14694123,0.16385996,-0.04883119,0.13897426,0.14274566,0.07731639,0.022667568,0.5847815,-0.36625355,-0.38507682,0.08005439,0.52477294,-0.051950358,0.35315576,0.19119234,-0.09392271,0.2817998,0.4921711,0.47970745,-0.722943,-0.47636393,0.64269954,0.33905068,-0.7361859,-0.71222126,-0.10786059,-0.28376296,0.085375994,-0.048518404,-0.7669932,-0.34348962,-0.46382222,-0.0066600633,-0.22786988,0.025538001,-0.34176868,-0.5784574,-1.711212,-0.15655665,-0.004724689,0.5231944,-0.55848,-0.09222436,-0.25437158,-0.44970682,-0.35788947,0.7252883,0.0019862547,-0.3458172,-0.050290138,0.11460363,-1.0000511,0.3039316,0.21118836,0.5750477,-0.77159804,-0.4703507,0.7475684,-1.0077131,-0.31410712,0.05308978,-0.31941503,-0.20361152,0.07858336,-0.2777333,0.09334996,-0.34717953,-0.047101878,0.3006799,0.01791126,-0.79213566,0.014478092,-0.7504524,-0.40331647,-0.046295542,0.081195675,0.69182456,-0.020169476,-0.35740343,0.62537163,0.39184707,0.8906973,-0.31542397,0.26894078,-0.16048425,0.5599749,-0.2740268,-0.16633593,0.079370566,0.52196616,-0.12145623,-0.25905022,-0.21608166,-0.36942416,-0.95338124,-0.61852604,-0.13408156,0.18965435,0.14015348,0.28028584,-0.39278728,0.0038322138,-0.2695279,0.25957572,-0.3567846,0.29940742,-0.055981684,-0.011501662,-0.4664153,-0.87675446,-0.47659683,0.7657491,-0.81169003,0.01732515,0.27076066,-0.96289444,-0.34721696,-0.19134715,0.56189966,-0.2386842,0.05919533,0.4134074,0.11257812,-0.2385105,0.5809883,0.273778,-0.22528434,-0.6137929,0.061092038,-0.15515324,-0.24401878,-0.026049819,0.37618893,-0.30830052,0.21334541,0.09144732,-0.5838019,-0.48426512,-0.065282166,-0.13697825,-0.47482407,0.1047568,-0.4646822,-0.39023453,0.26487875,0.5946432,-0.21785419,-0.14867805,-0.5849701,-0.70554656,-0.026354233,0.1379297,-0.28700867,-0.35607788,-0.32145718,-0.09523935,-0.1532131,-0.25065592,0.2972412,0.53765416,0.19195215,-0.19194417,0.28212786,0.48139885,-0.37481725,0.8675297,0.0010549356
quiet,-0.35810158,-0.35654926,-0.8422864,-0.0391199,0.020291338,-0.18605503,-0.13696158,-0.55467093,0.15478186,0.5185015,0.9211979,-0.20096584,0.050991904,-0.19868991,0.13286221,0.79969674,-0.3048776,-0.21115713,0.40609735,-0.25760618,0.15053253,0.0031451513,-0.46975917,1.42923,-0.081195004,0.635758,-0.2952569,-0.29982373,-0.3945003,0.26929665,-1.0833495,0.2888069,-0.47999406,0.34688303,0.09722066,0.56464547,0.5338259,0.05030732,-0.24299042,0.27806032,0.056124948,-0.15702483,-0.13767192,-0.29302987,-0.26427826,0.02785541,0.5209892,0.33393422,0.58687645,0.4922125,0.1428344,0.13372645,-0.54988647,-0.34638453,0.19459006,-0.19887139,-0.42612994,0.35706022,-0.14990884,0.13123575,0.34036505,-0.44076708,-0.05434428,0.47514036,0.30138,-0.2482263,0.19257754,0.353916,0.19500256,-0.19402541,-0.29314584,-0.18738398,-0.42168874,0.48414811,-0.56854576,-0.35989186,0.60169715,0.06472876,-0.15010871,0.025846358,0.026016759,-0.08156397,-0.1387886,-0.017363992,-0.13649195,0.016795672,-0.86242527,0.46402514,0.009416923,-0.40840656,-0.17337923,0.09065942,0.5997968,0.7830179,0.072743125,0.40954378,-0.07426574,-0.2234891,0.17391528,-0.2968077,-0.3571278,-0.16743116,0.11203614,-0.1693771,0.41502777,-0.24379614,-0.45548692,-0.4442499,-0.39299434,0.03923138,-0.059495073,0.04082149,-0.10016984,0.23557559,0.57564116,0.16294585,0.27737686,0.19320692,0.49893132,-0.7739714,-0.53360826,0.31232926,0.14899449,-0.6030004,0.1541513,0.66937405,0.34420905,-1.0628941,0.22019506,-0.24205674,-0.29110548,0.03300426,0.68083507,-0.5599114,-0.22314468,-0.13944554,0.51465935,-0.3941238,0.061732568,0.28444028,0.69455457,-0.68520474,-0.10814744,-0.49112165,0.5220866,-0.58269393,0.53142273,-0.02419951,-0.013397496,-0.4429636,-0.16741818,-0.471878,0.384789,-0.39484572,-0.8749949,-0.40072942,0.3683335,-0.053364966,0.13336727,-0.1109887,0.09513595,0.3089708,0.20202303,-0.41694814,0.4551207,0.5118105,-0.22767504,0.13425542,0.27908888,0.24603127,0.22755967,-0.48787355,-0.22726639,0.16354536,0.05953525,0.13312732,0.14353335,0.5950014,0.13831164,-0.016872462,-0.6546926,-0.12545377,-0.65568227,0.20456511,-0.43160528,-0.22949481,-0.18283486,-0.082028,-0.06337139,-0.55162376,-0.17025785,-0.33213264,0.12919556,0.5411812,-0.66969573,0.19786556,-0.7991795,-0.0007244345,0.3648474,-0.5524425
tired,-0.45056966,0.11498645,-0.26514006,-0.61147094,0.04443426,0.34948575,-0.8232332,0.09317533,1.2421731,0.09337101,-0.6847812,1.2763282,-1.1174746,-0.3423287,0.29104456,0.5071465,0.32813245,-1.3093171,-0.6160428,-0.08934878,-0.14980392,0.82664204,-0.8553925,0.9834101,-0.2003336,-0.78283864,0.038324147,-0.19531994,-0.35534033,1.2426445,0.3644834,-0.14549023,-1.3663223,0.3439019,-0.13072418,0.9739889,-0.08326773,0.0361541,-0.16839555,-0.66665184,-0.28959757,-0.7267662,-0.07732547,-0.5103849,0.38123757,-0.28745887,1.2125238,-0.12791818,0.06136952,-0.5072722,1.3165348,0.6988176,-0.024075288,-0.55367446,0.5259673,0.43357426,-0.5246173,0.13826934,0.4799414,0.13254832,0.19333464,-0.18105802,-0.6764011,0.26183176,-0.586004,0.6915711,-0.61187404,-0.73288184,0.59586596,-1.0252011,-1.003888,-0.19446057,0.42164108,-0.21875383,0.052095868,0.46679536,-0.91345745,0.59865606,-0.058204904,0.27099532,0.06134164,-0.21237779,-0.12025016,-0.41308364,-0.22392365,0.28189006,-1.0116662,0.090143576,-0.61914337,0.5549878,-0.5515957,-0.71034265,0.7534944,0.20807803,-0.67750555,0.4790625,-0.18940254,-0.5368003,0.20846526,-0.49691188,-0.45152682,0.07334168,0.1456249,-0.4725725,-0.3432231,-1.5334113,0.42399037,-0.44600818,0.035353094,-0.041001327,0.7453968,-0.20111832,-0.016094828,0.56476057,-0.4885572,0.24962914,0.7234236,-1.0505242,-0.3674012,0.10434086,0.20152813,-0.083779186,1.1735791,0.39800495,-0.10681913,-0.5069449,0.0071412832,-0.9958307,0.055273905,-0.73139745,-0.48041272,0.8171931,0.3227202,-0.56750846,0.440445,-0.4400867,0.43407297,-0.52120924,-0.3989705,0.21733831,-0.49630865,-0.173038,0.12651986,-0.22204968,0.13576703,-0.2923171,-0.14219598,-0.46611318,-0.46102187,-1.644143,0.4142597,0.36153165,0.34594318,0.430567,0.01036183,-0.97195745,-0.6244907,-0.19952011,-1.0300452,0.85177803,0.12162516,1.1778436,-1.0005049,-0.4904537,0.67338973,0.9020257,-0.4498827,0.9573155,-0.38981882,-0.23719291,0.17477633,0.8719303,0.079700895,-0.2015236,-0.44949323,0.85758036,-0.35957053,0.12616295,0.45182753,-0.75259346,-0.4522897,0.49523813,0.043216985,1.0359108,-0.010710958,0.4860147,-0.6828951,0.4111598,0.29530385,0.3477341,-1.2398831,-0.05838234,-0.5355935,-0.7509258,0.123850845,-0.8466876,-0.6914277,-0.53014565,0.14984457,-0.4192596
gloomy,-0.34941247,0.453999,-0.3125389,-0.4448699,-0.05873871,-0.26264507,-0.46569225,-0.43222138,-0.015764045,0.27652034,0.36324158,-0.5618901,-0.008148175,-0.5918378,0.013654559,-0.2431154,0.20544516,-0.59989655,0.41595736,0.4034532,-0.29374185,0.35051516,-0.04867428,-0.06157586,0.07711063,0.3444665,0.16743124,0.12963338,-0.84009683,1.0352911,0.3228548,0.42712647,-0.5909097,-0.27719122,0.25000155,0.47122106,-0.2862549,-0.31983742,0.3162665,0.6219002,0.48086718,0.53778315,-0.20128462,0.122034416,-0.5506681,-0.3949261,-0.56466806,0.6159613,0.08245869,-1.1275009,-0.018624116,-0.023802478,-0.23054951,-0.41451657,0.21140313,0.19108166,0.065080196,-0.48556694,-0.5054982,-0.08914762,0.24673453,-0.6980258,-0.53998137,0.77439344,-0.3423951,0.8797255,0.12961957,0.10751431,0.39899874,0.7440181,-0.634532,0.07103611,0.8025098,0.48481566,-0.43719032,-0.14962368,0.22505127,0.0472237,0.8437364,0.60460114,0.83230436,0.3640611,0.3285825,-0.0638153,-0.2828066,-0.4491529,0.16208762,0.0070964633,0.046191346,-0.24924016,-0.55556136,-0.75786865,0.7046954,1.1759276,-0.4750668,0.22888368,-0.38450024,-0.1326656,0.5658792,-0.5091915,0.17770395,0.21807863,0.118978865,-0.56833935,0.07386152,-0.5642603,-0.38971278,0.09724319,-0.48656455,-0.21343762,-0.04645364,0.43159345,0.96532404,-0.9668524,-0.8346899,0.5855757,-0.04926946,0.043818798,0.51033753,-0.11927914,-0.5518237,-0.593296,-0.34053102,-0.6174487,-0.22997111,0.46182078,0.06508368,-0.36879385,0.16055794,-0.5131773,-0.12386843,0.33432597,0.06844677,0.47247636,-0.5430343,0.3788965,-0.08554765,-0.53713405,0.081772305,0.36483282,0.4083375,-0.6003872,-0.17059703,-0.40241387,-0.25026497,-0.19375864,-1.1674408,0.29089627,-0.26234397,0.09987348,0.64747834,0.5440192,0.06999204,0.22487165,-0.41708937,-0.2760489,0.5850114,0.28836244,0.6060599,0.35834616,-0.04148877,-0.52437246,0.3404584,-0.4673922,0.6382155,-0.368053,0.24518454,-0.016830737,-0.31334427,0.0041163242,0.36073512,-0.34720936,0.6795631,-0.4904754,-0.12622666,0.62586796,0.6129944,0.096012,0.017054364,0.7557643,-0.62457377,0.15352285,-0.7747715,0.020711347,-0.07749776,0.22565895,0.33157104,-0.7957117,0.37104884,-0.7292809,-0.23068866,-0.41947937,0.39224502,-0.2656214,-0.23277181,0.26786983,0.4592093,-0.29525277,-0.1791451,0.05858427
loud,-0.3684201,0.21706714,0.050216936,0.37305385,0.5387872,-0.42415082,-0.2383371,-0.19091406,0.19125348,0.22390889,0.96213585,0.076523595,0.63922,-0.12311514,0.09640526,0.06821137,-0.05193061,0.60635483,0.2597336,0.26757443,0.08600372,0.10748598,-0.36198303,0.61316496,0.6394201,0.52834046,-0.26972497,-0.0416244,-0.15836753,-0.03867052,-0.11295778,0.4641739,-0.5826672,-0.027767925,0.05747342,0.80458736,-0.08377093,-0.24172431,-0.27380678,0.021935519,0.052170713,0.1530241,-0.576881,0.36817315,-0.47062156,-0.35124445,0.5542787,0.27312416,0.090253554,0.4849137,0.29186282,0.12763686,-0.84545636,-0.029115455,0.34472513,0.32513434,-0.20863874,0.6213592,0.022093104,0.47088924,-0.13342758,-0.67750734,-0.281859,0.5564288,0.12318134,0.17784587,-0.5572062,-0.10727005,0.7196467,-0.42267418,-0.6862125,0.6513755,-0.07003406,0.35666808,0.18330011,-0.3993602,0.50515556,-0.15912142,0.20952693,-0.13815215,0.533251,-0.024680458,0.49039325,-0.2383905,0.10623282,0.22622244,-0.18852003,0.008400441,-0.34607613,-0.39304185,-0.3953161,-0.008789195,0.082869634,0.41720182,0.06892832,0.16371475,-0.19683874,-0.16144918,0.5241325,-0.64779216,-0.93768805,0.158038,0.24982911,0.27700156,-0.06987976,-0.52123475,0.017753694,0.09666558,-0.39106074,-0.3088054,-0.0100522665,-0.27854097,-0.34699827,-0.038239926,0.12883559,0.63205004,0.67839414,0.127653,0.034469858,-0.42478058,-0.042241387,0.059677303,0.018861188,-0.57928395,0.91442996,0.6319338,0.30903903,0.36693382,0.12778689,-0.81757414,0.30832863,0.5284821,0.1754117,0.14789794,0.33398354,0.14286928,-0.034294106,-0.9070601,-0.32031018,0.45224738,-0.39004412,-0.5565261,-0.31368423,-0.5215265,0.23736061,0.027342243,0.22918847,0.53827095,0.19883956,-0.25492153,-0.06270091,0.14874765,0.08697266,0.31543955,0.09655543,-0.45339057,0.3280953,0.28092873,-0.28156656,-0.0030843953,-0.3230658,0.4319096,0.79602575,-0.21239668,-0.8375095,-0.025939269,0.21050203,-0.04612155,-0.03678659,-0.2750715,-0.23826794,-0.49097848,0.20125303,0.5394232,-0.26534918,-0.17142968,0.30679366,-0.34231314,0.19412175,-0.5263553,-0.175075,0.7935663,-0.11673202,-0.758067,-0.61689055,0.5414528,-0.30357742,0.17854951,-0.12234173,-0.07097763,-0.1714392,-0.48922744,0.06853613,-0.035522413,0.1645299,-0.07577196,-0.67150545,0.45353594,0.055492897,0.39039934
