term,v0,v1,v2,v3,v4,v5,v6,v7,v8,v9,v10,v11,v12,v13,v14,v15,v16,v17,v18,v19,v20,v21,v22,v23,v24,v25,v26,v27,v28,v29,v30,v31,v32,v33,v34,v35,v36,v37,v38,v39,v40,v41,v42,v43,v44,v45,v46,v47,v48,v49,v50,v51,v52,v53,v54,v55,v56,v57,v58,v59,v60,v61,v62,v63,v64,v65,v66,v67,v68,v69,v70,v71,v72,v73,v74,v75,v76,v77,v78,v79,v80,v81,v82,v83,v84,v85,v86,v87,v88,v89,v90,v91,v92,v93,v94,v95,v96,v97,v98,v99
chill,0.3216469,-0.074622154,-0.19615433,-0.16044669,-0.5916154,-0.13855155,-0.49299198,-1.0727543,-0.13261613,-0.17895555,0.22729294,0.055426404,0.13515994,-0.5072648,-0.33264557,-0.24753559,-0.8114458,0.2902678,-0.0755965,0.18270345,-0.07172946,-0.0421048,0.43607256,-0.17914736,-0.6326335,0.5203508,-0.681734,-0.3992518,-0.22720945,0.21040969,-0.5370049,-0.030480124,-0.10679135,0.058898665,-0.12267163,-0.17159545,-0.64857453,0.13844325,-0.5493821,-0.28809565,-0.30475125,0.4092157,0.021210302,-0.09849109,-0.28221065,0.0071467035,-0.27718103,-0.7967964,0.49414745,-0.0072672307,-0.018254573,0.44482848,0.67676127,0.29821295,-0.4803912,-0.2186098,0.17779401,-0.20256342,0.005853285,0.09638813,-0.28667185,0.22122982,0.401854,-0.9811441,-0.35827902,-0.25703385,0.32281843,0.06865969,-0.6438396,-0.5228646,0.18699796,0.2267368,0.29570982,0.04723607,0.033762425,0.12848414,0.5580528,-0.4527401,-0.21836543,-0.28192818,0.08776175,0.04042087,-0.09054441,0.32280096,0.3903584,-0.18901692,0.5150887,0.05644922,-0.4275521,0.10153524,-0.76618093,-0.27174884,0.3632148,0.501155,1.0983852,-0.64710134,-0.4399892,-0.33929554,-0.42753717,-0.26230773
mellow,-0.17696492,0.63203716,-0.50737435,0.31450367,-0.14170231,0.28555486,0.13041571,-0.1615947,0.38782838,-0.022055438,0.05056323,-0.07053245,0.22259432,-0.034514535,-0.043976866,-0.61833185,-0.9533218,0.66138697,0.35790288,0.72340417,-0.07452929,-0.41144562,0.50103307,-0.61155987,0.123349115,0.20410176,-0.21029985,-0.8702071,-0.18853347,0.19274622,-0.5867131,-0.2316961,-0.33863443,0.047747858,0.05281783,-0.04234874,-0.8893813,0.32419395,0.08952591,-0.571167,-0.21280195,0.3561999,-0.063760206,-0.37290093,0.29219276,-0.27435988,-0.2598857,-0.13374291,1.1587464,0.2137646,-0.26215774,-0.17518814,0.8542899,-0.20467423,-0.18717377,0.47428942,0.29262358,-0.6106685,0.60876435,0.09590627,0.08349665,0.0006701104,0.012238791,-0.35142082,-0.5107826,-0.26330552,0.12698139,0.20529759,0.24849133,-0.3763397,0.4632578,-0.30607074,0.57054,-0.19885819,-0.5404411,-0.10935913,-0.5475271,-0.6380039,1.1362542,-0.017105246,-0.42957944,-0.053676017,0.18630113,0.3880209,0.8718626,-0.80172515,0.04932732,0.00029636436,0.64556134,0.9083623,0.28823575,0.33337295,0.24393961,-0.14020778,0.47054455,-0.04502917,-0.4728625,0.45268825,-0.33836046,-0.3535302
relax,-0.33283022,0.26630768,-0.09349667,-0.35420454,-0.17654094,-0.04482616,0.031995814,-0.84800977,0.23004654,0.40499952,0.39653376,0.42723122,0.40545171,-0.149841,-0.15440887,-0.90218204,-0.4077073,0.16734476,-0.2668154,0.070317894,0.048940256,0.22171558,0.116713114,0.25632903,-0.28071004,-0.24143231,-0.69454247,-0.73191065,0.14585523,0.5344159,-1.1014992,-0.44825506,0.026489858,-0.22493957,-0.2086096,-0.13446501,-0.3372259,0.2756001,-0.20953223,-0.639478,-0.14767489,-0.019879697,-0.2325552,-0.36133528,0.03818697,0.06492449,0.07716186,-0.52276397,0.38330343,-0.26873538,-0.6899191,0.40534887,0.44482988,0.3287509,0.18499254,0.12866472,0.12339904,0.14046238,0.31373376,0.2874783,-0.25399753,-0.24964432,0.10739429,-0.47528586,-0.3581742,-0.26207462,0.95896804,-0.1444764,-0.2053178,-0.6006457,0.16309841,0.095770545,0.1306965,-0.11990841,-0.57005405,-0.4282431,0.13466978,-0.25319222,-0.19094037,-0.25734803,0.22784698,-0.1602245,0.2022848,0.37878737,0.12273985,-0.59219027,0.89312077,-0.07661732,-0.7830003,-0.49137434,-0.39754638,0.51221013,-0.08175135,-0.13055947,0.071541294,0.12755996,0.22982284,0.07214215,-1.0207644,-0.2440542
upbeat,0.26493937,0.3728682,-0.5708868,-0.73305553,-0.123799585,0.6065557,-0.04030159,-0.6048739,-0.08412022,-0.35153183,-0.51113427,0.9775982,0.2140333,-0.03693011,-0.120553605,-0.9001924,-0.3309124,0.055709492,-0.097859204,0.25305083,-0.18311827,0.121802956,-0.747609,-0.4633108,-0.167413,0.083515204,0.21664721,-0.4718571,0.24180534,0.30762467,0.13589047,0.27928993,-0.2495874,-0.14353038,-0.43658915,-0.27326864,-1.0776616,-0.148451,-0.5902359,-0.13656078,-0.3000278,0.713016,-0.66261286,0.061485313,-0.038118016,-0.26973116,-0.1484122,-1.1134913,0.042538583,0.46736288,0.29376423,0.49899182,0.9807488,0.23514047,0.06279327,0.11829184,-0.023207536,-0.6590981,-0.1766963,-0.20329145,-0.3294524,-0.41296205,0.58036643,-0.46012846,-0.09336059,0.43110004,0.39327058,-0.11887947,0.10923796,-0.16573721,-0.12235914,-0.26303446,-0.19414535,-0.4189361,-0.018352294,-0.056094162,0.39334425,-0.3721697,0.19073948,-0.1603674,0.32026517,-0.3545137,-0.22709733,0.36772552,0.14519969,-0.30327797,0.13484325,-0.33531928,0.59069765,0.4524227,-0.31505248,0.24562682,-0.28061008,0.12801135,0.28893042,0.019661518,0.27559364,0.6633567,-0.28159273,-0.58779746
smooth,0.048957925,0.23655345,-0.48389482,-0.3890561,-0.27433026,0.26826867,-0.5870878,-0.59109783,-0.13278244,0.6870371,-0.14602685,-0.024132643,0.31637314,-0.25044245,-0.2759657,-0.6312707,-0.6071723,-0.87689865,-0.6526395,0.39760342,0.6480156,-0.72546595,0.36122924,0.018557638,-0.2504858,0.36692554,-0.16808009,-0.70448095,0.28725845,-0.12496754,-0.4604012,-0.2675485,-0.20040211,-0.40304857,0.19551124,-0.0761013,-0.64650184,0.06802089,-0.27440965,-0.6135352,0.2660451,1.1621126,0.06940122,-0.43849224,0.25667283,-0.46059483,0.41849923,-0.2040687,0.72961235,-0.11733482,-0.6522018,0.7109169,0.7535339,0.50226945,0.15236889,-0.18403642,-0.11686171,-0.60254735,0.8858454,-0.0049855397,-0.46948373,0.4100645,0.9767888,0.4183549,-0.33987045,-0.4118547,0.74218917,-0.2134774,-0.42620975,0.11042874,0.24135713,0.2726258,-0.15144521,-0.7565298,-0.59139884,0.32590705,0.23065029,0.10387867,0.8625658,0.13221616,0.9339847,0.7866555,0.24710831,0.64044356,0.76174694,-0.6614354,0.85872483,0.03897202,0.19214183,0.16027668,0.09592215,0.2594708,-0.2334557,-0.37284148,0.34007663,-0.18429731,-0.46122354,-0.10689185,-0.5900004,0.94183445
sleep,-0.37068647,0.49485338,0.07866319,-0.041050207,0.8109131,0.55260676,-0.5139688,-0.32033184,-0.03096635,0.07155666,0.26875654,0.37292546,0.28695014,-0.5114739,-0.3297579,-0.15161279,-0.8422956,0.62676215,-0.24218331,0.46864656,-0.3889261,0.5312383,-0.2069594,-0.45918545,0.16023734,-0.35987392,-0.31463334,0.07520332,-0.8598425,0.24465074,-0.65002996,-0.6998043,-0.40256125,-0.42624718,-0.25622624,0.5853454,-0.027856601,0.8431917,-0.412091,-0.74242014,-0.037244532,-0.14013071,0.08389006,-1.053795,0.054020796,-0.9052753,-0.135206,-0.70478404,0.68433136,-0.42529982,-0.055328224,0.229333,-0.33060962,0.15150853,-0.15104863,-0.33818898,-0.16661714,-1.1204927,0.3124403,0.5616277,0.34135595,0.013308594,-0.40719247,-0.08707376,-1.1909562,-1.025567,0.3794394,-0.1642568,-0.829188,-0.035772055,0.115790196,0.10107663,-0.00065037067,-0.12829,-0.4268164,0.17596553,0.74583375,-0.37086773,0.35640737,-0.035834655,0.61895317,0.10184489,0.24471895,0.86154234,0.32118472,-0.2679622,0.7018367,0.39511418,-0.021173073,0.23420446,-0.32249707,1.0937406,-0.3214374,0.45087954,0.94342756,-0.13798366,0.767671,0.83345276,0.39144406,-0.7245405
sexy,-0.1603887,0.7570159,-0.41916168,-0.33619362,-0.17429468,0.14089109,-0.5165971,-0.23279375,0.19943143,-0.027548954,0.31910467,-0.2420843,0.2583442,-0.89092875,0.034455325,-0.6845109,-0.89520353,-0.8351037,-0.39568096,0.3495641,0.1775927,-0.04408077,-0.41020778,-0.6985911,-0.3506623,0.5371625,-0.028365659,-0.47126403,0.059708565,-0.5770054,-0.098203614,-0.11172636,0.09031286,-0.018388532,-0.32072014,-0.0270867,-0.5133769,-0.27657884,-0.32900825,-0.679562,0.07479879,0.12188142,-0.028784972,-0.41711414,0.47289893,-0.170703,0.0846091,-0.6984636,-0.1274541,-0.93681043,-1.0241538,0.5362817,0.4443185,0.18633914,-0.44028738,0.16218574,0.5215801,-0.18370737,0.21088949,-0.47351164,-0.17888968,0.39594582,0.33673137,0.2651195,-0.027940989,0.03389801,0.53533375,-0.001005331,-0.17979708,-0.46165973,0.31113645,0.1455713,0.27792454,-0.4012355,-0.15128362,0.05550037,-0.69778574,-0.5987015,-0.045687623,-0.27322885,-0.007476048,0.2922378,-0.08376411,0.65300596,0.7996571,-0.46021563,-0.2918818,0.63997227,0.53079045,-0.004919579,-0.19000053,-0.5059094,-0.39867017,0.74624294,0.48757246,0.11814991,0.31094036,-0.13539648,-0.3622331,0.030554865
happy,0.21619739,0.19883975,-0.17717902,-1.267859,0.9063187,0.3287629,0.020689383,-0.24763836,0.24160692,-0.5660883,0.26636097,0.46201342,0.21518074,-0.038780283,-0.35236418,-0.2327917,-0.60778934,0.7481894,-0.38286322,-0.06287863,0.0358909,0.005599182,-0.4291538,-0.4841159,-0.46582896,-0.20661749,0.12980601,-0.74602145,-0.1509243,0.14877018,0.044998024,-0.30800942,0.43215138,-0.7711602,-0.4833083,-0.604653,-1.2040143,0.018535186,-0.41821665,-0.9473772,-0.09974437,1.040096,-0.42846033,-0.7101961,0.20217806,-0.4461036,-0.6674194,-0.48839378,0.31231293,-0.15394162,0.28679684,0.3495087,0.5994534,-0.35176098,-0.9171917,-0.57130915,-0.24780214,-0.4987845,0.16768487,0.492981,0.2119839,-0.029794186,0.13111822,-0.3071189,-0.541609,0.22609061,0.5764254,0.30590618,0.34739676,0.24065264,-0.011921465,-0.35424784,0.63027847,-0.10385917,-0.15284687,0.26540262,0.42401603,0.33943662,0.14065306,0.122172624,0.0018304671,-0.26031315,-0.23418388,0.52624,0.30309027,-0.008812239,0.21708642,-0.9359821,0.017641073,0.55476445,0.05558752,-0.2100228,0.24447419,0.03876289,0.21071957,0.73197114,0.33051777,0.05138819,-0.82808155,-0.0021266725
party,-0.2928557,0.1945887,-0.94748837,0.5187126,-0.087294154,0.32992965,0.27328345,-0.037034422,-0.29627725,-0.22425054,0.004928979,0.1600007,0.3598232,-0.66850156,-0.26710817,-0.47202975,-0.9882228,0.54883486,0.25264633,-0.4612641,0.21228331,0.5044964,-0.11924805,0.52398396,-0.8104331,0.24411196,0.06400545,-0.40592366,0.21211948,0.018234039,-0.3458694,-0.67289734,0.93653417,0.13786967,-0.39825198,-0.13136086,-0.5456215,-0.38542044,-0.5466963,-0.28418714,0.2930428,1.1437454,-0.23634364,0.29294828,0.32251972,-0.31601372,-0.024594363,-0.81709665,0.3517577,-0.6364173,0.030395288,0.53967553,0.2440125,-0.44548708,0.16617687,-0.026637636,0.18437997,0.01638494,-0.35405353,-0.893606,-0.31977057,0.16049573,0.47434112,-0.37377197,0.4646668,0.28866407,0.4003117,0.278032,0.69497055,-0.36995283,0.2425433,-0.5083195,0.5888513,0.019986354,-0.31661177,0.554733,-0.6044667,-0.40820983,0.3464235,-0.23727275,0.745618,0.32799587,0.72904587,-0.20573375,0.4266276,-0.15139084,0.111702055,-0.3534845,0.2858418,0.32934344,0.2637798,0.13656597,0.22452809,0.27769765,0.4215697,0.83810294,-0.34643155,0.46297532,-0.41816443,-0.89693207
moody,0.20990719,0.8725571,0.7904168,0.20996821,-1.2882335,0.5590189,0.044487886,-0.8141287,-0.121527314,-0.5527916,0.26025528,0.070265025,0.060234483,-0.74178743,-0.08410494,0.14426793,-0.42851442,0.46785784,-0.0015123363,-0.17955662,0.005991653,0.48444542,-0.76205057,-0.9234651,-0.85155165,-0.40077314,-0.14138421,-0.3915674,0.058344204,0.30785456,-0.43504313,-0.25092196,-0.26287365,0.025993852,-0.04726989,0.4684939,-0.20550542,0.10935388,-0.29974008,-0.022397285,0.04089476,0.4212645,-0.2735674,-0.28450793,0.1627173,-0.45803338,-0.15023515,-1.1375232,0.48042315,-0.24643518,0.0836698,0.12623101,0.73970467,0.41447076,0.0075641177,-0.12316806,0.08558741,-0.4490375,0.20822665,0.48740652,0.27197677,0.31349447,0.84435475,-0.34722456,-0.2967738,0.43319905,0.27463952,-0.0014786371,-0.30411196,-0.94580525,0.39643043,0.10445397,0.25163612,0.033693384,-0.2224809,-0.11569823,-0.0293033,-0.4444416,0.24141847,-0.5303222,0.18651836,0.5604266,0.61556804,-0.12024816,0.43000793,-1.1079236,0.9270487,0.20398799,0.021930711,-0.31452277,-0.3889048,0.6765023,-0.39214674,0.41851684,-0.07942282,0.3228938,-0.0060106376,0.11492913,-0.079594865,-0.061455194
romantic,-0.44480753,0.48938066,-0.45346314,-0.6277872,-1.1559256,0.10378285,0.0031386844,0.33408406,0.085819,-0.22074291,-0.4075065,0.030265722,0.23490834,0.036816448,0.03073744,-0.26669762,-0.8151808,-0.29322174,-0.17224082,-0.120182775,-0.01945283,0.6624041,0.3485087,-0.22477217,0.24337366,-0.061579797,-0.11124699,-0.49245125,0.27057377,-0.151827,-0.35129657,-0.30336827,0.27078286,-0.04555718,-0.20217346,-0.06762307,-0.14824924,-0.2636501,0.17573258,-0.02157946,0.5896488,0.326549,-0.035870086,-0.87091595,0.26756713,-0.012162409,-0.7893832,-1.1116658,-0.2284505,0.17498983,-0.07561213,0.28549024,0.8973865,0.09502544,-0.6013961,-0.18043867,-0.0789273,-0.21248381,0.9539912,0.37681434,-0.70903397,-0.6125361,-0.4007758,0.20204599,0.18716228,-0.091185965,0.9494861,-0.056634042,-0.23926723,-0.49718022,-0.23802899,-0.16717206,-0.01467579,-0.35819918,-1.114713,-0.054887816,0.5424593,-0.46449995,-0.13634413,0.4023893,0.34826633,0.23670875,0.06410462,0.47691733,-0.008893558,-1.3675269,-0.41092718,-0.038260557,-0.08695329,0.013072408,-0.3848962,0.9295014,0.26731157,0.34425923,0.7364049,0.061273362,-0.43349946,0.19530569,-0.32509407,0.13780652
sweet,0.5539522,0.36783594,-0.37830272,-1.0742004,-0.28552055,0.14967842,-0.03146709,0.16418056,0.34863397,0.369967,-0.038574066,-0.098167144,0.45594808,-0.4474583,-0.28100532,-0.7544207,-0.5977192,0.004730241,-0.05147128,-0.19691557,-0.1742387,0.09168469,-0.020532737,-1.1838764,-0.031053191,0.32736292,-0.30527505,-0.3924855,0.14359453,0.4663578,-0.5773526,0.4763243,-0.49746013,0.04433728,-0.3787839,-0.14430706,-0.56420654,-0.43607533,0.12149556,-0.6868051,-0.78611195,0.5823191,-0.3011194,-0.6877125,-0.72812533,-0.064392865,-0.46695364,-0.5588011,0.41736743,-0.040228,0.048018478,0.24321458,-0.563496,-0.5471582,-0.24468337,-0.15469684,0.6281823,-0.363091,0.5346078,-0.018651584,-0.082263656,0.3069847,-0.019198734,-0.024614194,-0.8651335,-0.77681565,0.5313232,-0.33447543,0.07696641,-0.7156476,-0.40056482,-0.25153902,-0.26918882,-1.1240492,0.23219639,0.08238441,0.514919,-0.34391317,0.15908271,-0.1604642,0.12202471,1.2104493,0.19934827,0.39286664,-0.02646458,-0.5270093,0.46484578,-0.011302575,-0.0013361752,-0.3334619,-0.6876737,0.18943304,-0.08283116,-0.03510549,-0.7875462,-0.1436278,-0.21271653,-0.06602957,0.06870634,-0.5814613
dancing,-0.681067,0.031846188,-0.8379764,-1.8229767,0.032582592,0.33122978,-0.14530966,-0.6040585,-1.05758,0.16035585,0.1392397,-0.49896637,0.58410084,0.9463644,-0.43058994,0.14688416,-0.08862427,0.25984764,-0.6067149,0.5582396,-0.53532654,0.916131,-0.7770232,0.03479184,-0.10865265,0.09246919,0.31203946,-0.5104872,0.7612122,-0.65174735,0.2011456,-0.89043504,0.56920224,0.080448195,-0.1943275,0.043939993,-0.2836324,-0.3477776,0.014873937,-0.7178622,0.65037626,0.7922894,-0.57719016,0.106834546,0.41010654,-0.06864574,0.22691086,-1.7360872,0.5333578,-0.11657105,-1.5030774,0.86470103,-0.11869847,0.7155139,-0.21392132,0.0689216,0.037759103,-0.30916247,-0.21623102,-0.27328727,1.0784141,-0.86172533,0.7503357,-0.11082675,-0.11676469,-0.58952653,0.27110004,0.12803891,0.078624114,0.31041297,-0.1354504,-0.36239475,0.92547506,-0.15750901,0.14210097,0.21048988,-0.41078472,-0.016990567,0.17798,0.044118997,0.81977093,0.055546645,0.7400267,0.74551666,0.105897434,0.083212346,0.2758346,-0.4679425,0.63727444,-0.46860084,-0.2626267,-0.31089866,0.8052753,0.23239273,0.5409778,-0.3700212,0.22445254,-0.33646864,0.16162208,-0.7978871
fun,-0.03994794,0.45195904,-0.85836214,-0.6486596,0.028936498,0.5082118,-0.4577865,0.014425856,-0.20003483,-0.4879964,0.34734184,0.22423318,0.21913104,0.013550526,0.23608266,-0.3319367,-0.7993955,0.29355216,-0.45058563,0.6180797,-0.35237828,-0.11496954,-0.6692469,-0.35528868,-0.31456634,-0.43870792,-0.06340487,-0.44498175,0.35858825,-0.075505435,-0.2708651,0.16856448,-0.23550038,0.19341867,-0.3083431,0.32124373,-0.8838162,0.014961647,-0.96074283,-0.0029618149,0.2641995,0.49886838,-0.38386604,-0.5083871,0.83085924,-0.57183194,-0.40843204,-0.9041409,0.17686123,-0.6342517,-0.07515508,-0.090472884,-0.075337656,-0.31979087,0.34566644,0.012602386,0.47104904,-0.5212805,0.13681768,0.06419964,-0.21620657,0.6937109,0.66837424,-0.23484913,0.3211093,0.7804416,0.35327783,-0.2734285,0.051415727,-0.27550948,-0.24103646,-0.047732785,0.51506597,-0.30248216,0.15380776,0.018533388,0.21406913,-0.05671421,0.010339537,-0.27587223,0.14373279,-0.19183034,0.06284466,0.3360818,0.23325959,0.26595387,0.5429998,-0.8314781,0.48893824,0.102670684,0.06614611,0.58227026,-0.75749034,-0.1802767,0.44637963,-0.24342641,0.7174275,0.33800393,-0.09985614,-0.2938097
uplifting,-0.0182312,0.82964873,-0.8068654,-0.8287128,-0.015368428,0.68575865,0.16884214,-0.6327068,-0.5628253,-0.53505385,0.093753435,0.37516418,0.4605351,0.5563718,-0.47412997,-0.6858786,-1.0977474,0.38801768,0.01202305,0.4965469,-0.78651273,0.5733866,0.25279728,-0.6330322,-0.30408135,0.13137114,-0.022911062,-0.29271314,0.39057717,0.14814177,0.058847755,0.6444845,0.15406717,0.12526739,-0.67072076,0.20186374,-0.4397919,0.49762392,0.18266448,-0.5081941,0.0058412766,0.63288265,-0.28424382,-0.042774353,0.55958635,-0.48875958,-0.019494483,-0.07264345,-0.014528371,-0.19655846,0.05615016,-0.23117718,0.48696843,0.053641178,-0.16714135,0.016094394,0.1723343,-0.1071001,0.022276437,0.540366,-0.08243555,0.12942973,0.03979749,0.16876599,-0.44977382,0.58862066,1.096758,0.6182995,-0.63209367,0.41930932,0.9214528,-0.02557975,-0.1149432,-0.41937295,-0.36357784,-0.24307014,-0.41503316,-0.2986631,-0.18303588,-0.4418532,0.002813539,-0.4902057,0.0035556818,0.21249571,0.1347069,-0.8548379,0.5060962,-0.58319384,0.32648882,0.2010073,0.17524315,-0.29647538,-0.50678414,0.2327872,0.45620307,-0.18671688,-0.13354863,-0.08041363,-0.11870868,-0.30017668
pleasure,-0.13150434,0.5650096,-0.9417785,-0.6250823,-0.4637741,0.38028184,-0.8985192,-0.61744505,0.14445081,-0.37826613,-0.4491246,-0.49898252,0.62856036,-0.45955303,0.25865942,-0.049173158,-0.82064265,0.49443233,0.13850036,-0.024408966,-0.6963454,0.06886386,-0.53467166,0.3855812,-0.24106544,-0.08272577,0.15518151,-0.12838359,-0.26259524,-0.033384975,-0.054737907,-0.076202355,0.69683665,0.2478102,-0.094883986,-0.10100927,-0.20589866,-0.6321432,-0.39605436,0.08611465,0.39837864,0.080300346,0.9430598,0.042701855,-0.2657191,-0.45223388,-0.10205647,-0.6747797,0.3866105,-0.5199626,0.23136638,0.23253435,0.034684047,0.08539461,-0.47387168,0.06337252,-0.12888975,0.33528852,0.2587383,0.85730463,-0.099580124,0.34558553,0.55946213,-0.22351816,0.0181526,0.22205736,0.841399,-0.11818344,-0.018851517,-0.31947303,0.51187783,-0.49956697,-0.6290758,-0.65980124,-0.68485767,-0.8887691,0.081201546,-0.74847144,-0.13172625,-0.011585466,0.67809325,-0.14134055,0.55605954,0.1703604,-0.10242164,-0.41629064,-0.31717148,-0.92451465,-0.114165455,0.50252384,-1.018457,0.70899284,-0.40175825,-0.24242368,-0.32277462,-0.7479852,-0.20954034,0.089569256,-0.46663392,-0.515673
aggressive,0.34977657,0.52431524,-0.94438505,-0.0045964397,0.6341082,0.48417184,0.2778261,-0.7812044,-0.06272708,-0.8312609,-0.18321347,-0.17781685,0.39362296,-0.4535491,0.21874656,0.24049576,-0.12896071,0.13503756,-0.031932697,0.28088355,0.4125453,-0.16830593,-0.8957674,-0.35282382,-0.6088631,-0.21029878,-0.057081465,-0.64349496,-0.013847388,-0.5300104,-0.09822237,-0.61385036,-0.4489038,0.5403372,-0.7807373,0.26333538,-0.6343532,0.0808168,0.38848507,-0.292536,-0.17689502,0.36582085,0.29321107,-0.13394189,0.067193404,0.25317156,0.07572025,-0.48923677,0.09512936,-1.0555433,-0.4488595,0.22681779,0.21401955,0.5370813,0.3285431,0.1231362,-0.15980572,0.22977963,0.6498329,0.11185197,-0.18090566,-0.0189554,0.62136006,-0.586747,-0.32849592,0.30036402,0.39071032,0.60201794,0.15681444,-0.5073703,0.4884597,0.6086654,-0.43322018,-0.57426065,-0.06052049,-0.5898911,-0.17298894,0.18834679,-0.33331436,0.09737693,-0.23577628,-0.2511804,0.12623894,0.3185608,-0.19479302,-1.00196,0.0040244013,0.3934713,0.53753424,0.06776782,0.84549505,0.20257397,-0.1839663,0.6668533,0.11482854,0.17478138,-0.110735945,-0.017097235,0.0021004898,-0.4734072
angry,0.6183329,0.26563528,-0.20626344,-0.26685792,0.34867725,0.35821974,-0.05939623,-0.7856518,-0.020103144,-0.66475797,0.051205914,-0.3885768,0.24544567,-0.30991456,-0.09759439,-0.4613222,-0.48304704,0.12828721,-0.48078772,0.002346236,-0.3533792,-0.08405324,-1.1015545,-0.20436503,-0.5724106,-0.5946574,0.23171908,0.10199967,-0.016662158,-0.91629946,-0.62490225,-0.46423995,-0.13017687,-0.39147142,-0.025553085,-0.25871783,-0.6926589,0.41496137,-0.08600221,0.1438783,-0.2811812,0.59492844,0.1812526,-0.3779987,-0.01335836,0.3119059,-0.7544475,-0.4753245,0.24824664,-0.41766158,-0.27269346,0.8452377,0.14239411,0.38929954,-0.577638,0.2137078,0.66687524,-0.51671976,0.20936528,-0.10080103,0.21542935,0.44001698,0.23907515,-0.1816758,-0.22650035,-0.39931226,0.49230957,0.2298508,0.28921568,-0.5856999,0.13887589,-0.07441862,-0.14616069,-0.2622829,-0.35121238,-0.69303966,0.14855763,-0.05699163,0.22766718,-0.10143691,-0.4216308,0.019309364,0.220512,-0.04814288,-0.30502516,-0.9225088,0.49084887,-0.067532174,0.6674962,-0.09510808,0.19795185,0.62310994,0.25214237,-0.30768275,0.5796215,0.61331207,-0.07163335,0.25531107,-0.45635688,-0.12750526
haunting,0.22541101,0.09945855,-0.5594193,-0.7000628,0.076598205,0.17934442,0.20189889,-0.5450891,0.9043515,-0.11173835,-0.54809546,0.249566,-0.10832489,-0.32408252,0.02274819,-0.007379758,-0.5915745,0.13610733,-0.21021101,0.578212,0.0063519147,0.9281279,-0.16279997,-0.60071254,-0.11135286,0.13183561,-0.1998821,-0.7727875,0.75982416,-0.046862442,-0.8348567,-0.16103607,0.30492833,0.14859429,0.09077408,-0.5535732,0.04188155,-0.059308246,0.36408624,-0.17366399,-0.5942935,0.5841342,-0.04720472,-0.54853904,-0.23883373,-0.573272,0.29983464,-0.9677192,0.8165409,-0.32953337,-0.4742946,0.121475056,0.1794037,0.049617853,-0.4085278,0.5245031,0.5306306,-0.5613503,0.30019945,0.47532746,-0.362687,0.074584424,0.26252508,-0.39400688,-0.46993825,0.052249704,0.6686633,-0.49330124,-0.7649275,-0.013401679,0.060121916,-0.2920636,-0.027634878,-0.39718148,-0.32459354,-0.5663918,-0.38398662,-0.058002017,-0.15272045,-0.57473755,0.17353114,-0.35081714,0.6817131,0.07758391,0.0029008526,-0.91034347,0.08155449,0.56918156,-0.28075287,0.12386863,-0.06291979,0.63656783,0.48527247,-0.119635515,0.13867073,0.378588,0.32508788,-0.010926966,0.36302432,-0.06483252
soothing,-0.18274558,0.14496385,-0.50502074,-0.48904034,-0.97439325,0.4242034,0.188597,-0.4914708,0.78541905,0.05765202,-0.13736469,0.29711384,0.27446964,-0.11206251,0.23231569,-0.454879,-0.6800217,0.2623651,-0.005290682,-0.12613755,0.3677072,0.7252971,-0.2036677,-0.26372218,-0.4788924,-0.58977884,-0.67864585,-0.74489695,0.8083355,0.26554376,-0.47842607,-0.2593929,0.17815115,0.2165038,-0.47903126,-0.73114276,-0.25615165,0.3902108,-0.3313802,-0.47217837,-0.48291722,0.9778269,-0.12918162,-0.3052046,0.23727688,-0.06916924,-0.039859954,-0.95645064,0.6943256,0.016667398,-0.2687549,0.1718805,0.012553508,0.14029214,-0.1565832,0.06132379,0.1292893,-0.11083267,0.68352276,0.15114583,0.27121165,0.21045786,0.119088456,-0.17843053,-0.9070127,-0.7671687,0.4123168,-0.4598249,-0.76543665,-0.55003273,-0.044618882,-0.27640694,0.08076061,-0.84923935,-0.27943745,-0.43147144,-0.015944062,-0.13810702,0.6006201,0.022893725,-0.3470465,0.5060747,-0.04849975,-0.11501945,-0.03243827,-1.124637,0.08521333,0.1761696,-0.59301895,0.11073266,-0.81927025,0.07732141,0.035788707,-0.06976123,-0.24482773,-0.15466711,0.2200214,-0.1170371,0.005658619,0.2107581
peaceful,-0.59787285,-0.33814162,-0.3447163,-0.4908812,-0.5517866,0.82767344,0.12507927,-0.9783106,-0.6285386,0.4877732,-0.29886726,0.6757493,0.17671904,0.68294084,-0.03485511,-0.4869252,-0.3396056,0.8082928,-0.033313897,0.09782908,0.84253925,-0.04036554,-0.08788978,-0.4447261,-0.46591634,-0.21008755,-0.16866809,-0.9207483,0.9603338,0.6304773,-0.45250833,-0.24263063,-0.11559064,0.08071874,-0.19823444,-0.16268136,-0.20536666,0.5409368,-0.31242114,0.06749522,-0.23586997,0.6688373,-0.06691015,-0.079782024,-0.4169644,-0.21861404,-0.07333765,-0.9305725,0.50657415,-0.25161454,-0.098258175,0.083584934,0.036526706,0.1786355,-0.26055843,-0.38462552,0.13810849,-0.016068207,0.56578594,0.28473493,-0.08218451,-0.19524975,0.11419631,0.3512289,-0.52875763,0.03120912,0.9862806,-0.31913614,-0.48901853,0.026036294,-0.108968295,-0.646891,0.037403807,-0.36155286,-0.3239897,0.017423483,-0.040440883,0.005882775,-0.45673057,0.41809464,0.30372643,0.032248348,0.4368834,0.4666692,-0.3237747,-0.9556406,-0.12291732,-0.24356681,-0.492785,0.047848716,-0.79014647,0.3448161,0.55528325,-0.1612801,0.76204634,-0.54812276,-0.31969208,-0.1227486,0.13153534,0.013957258
joy,1.075018,-0.33034763,-0.76433617,-0.94908667,-0.38669273,0.39204732,-0.35536605,-0.36124068,0.31502494,-0.6161251,1.231389,0.051183686,1.2565778,-0.26881084,-1.1979613,-0.18990993,-0.52724093,0.3781874,-0.1998914,0.3568613,0.3832461,0.23498441,-0.7720724,0.025500827,0.1579443,-0.03727052,-0.35514614,-0.37560132,0.39117008,-0.6815764,0.27871394,-0.9749661,1.0001087,-0.07046776,0.20188242,0.21018046,-0.91455907,-0.97528356,0.21396829,-0.22846465,0.29047632,0.75018775,-1.2652137,-0.68885535,-0.15895028,-0.45605114,-0.28890595,-0.48500982,0.50511676,0.4606369,1.4839087,-0.2939279,0.034676407,-0.15401366,-0.6329199,-0.67794114,0.3581937,-0.5461529,0.09129128,0.6135208,0.6185505,0.041512914,0.7561638,0.1014897,-0.33275676,0.37084413,1.0440038,-0.8995782,-0.9084289,1.0051191,-0.080925636,0.026270486,0.3972506,-0.22590585,0.07825702,-0.51375836,-0.12790528,-0.15979457,-0.011718028,0.0047394186,0.04531125,0.42158872,0.50321674,0.42326957,0.45199177,-0.095608436,-0.36515754,-1.1468294,0.14746104,0.7181428,0.27393183,1.21479,0.35396883,0.47505635,0.20232916,0.6206596,-0.89250827,-0.13853051,-0.34283927,-0.14064018
nostalgia,-0.012277684,-0.046198323,-0.77529085,-0.488841,-0.037321948,0.48488182,0.14319086,-0.6138693,0.20294979,0.029895341,-0.10337597,0.23223306,0.5390915,0.23363683,0.015128452,-0.14674701,-0.09179883,1.0705044,-0.769819,0.6469756,0.42533663,-0.20609264,0.0087017575,-0.046285056,0.1006962,0.84012127,0.17469428,-0.13894467,-0.79503495,0.14716071,-0.3255955,0.13302083,-0.18261422,0.069115885,0.25792775,-0.19934323,-0.5067625,-0.27407312,-0.7357943,-0.40635237,-0.5634329,-0.04347248,0.20926133,-0.24716416,-0.32140002,-0.099008955,0.38061228,-0.12656507,-0.40165177,-0.55260396,0.44858736,0.49448544,0.40729764,0.6189453,-0.03256476,0.22483534,-0.01721859,0.32818553,0.39097854,0.08603394,0.09310848,-0.10286239,0.9310579,0.098326914,-0.13887684,-0.024493482,0.48931423,-0.48986372,-0.38977632,-0.34014055,-0.2543541,-0.5691704,-0.47372034,-0.29250652,-0.018025195,0.15183112,-0.5802942,-0.0025511435,-0.23326968,0.12893535,0.30715618,0.458317,0.49208048,0.6253041,0.19146015,-0.8992061,-0.18658365,-0.6091079,0.13598028,-0.07711432,-0.22253153,0.58954924,0.3751101,0.22454123,0.20869014,-0.039257653,-0.5427102,0.44266137,-0.32463908,-0.4194155
funk,-0.14209168,1.0113791,-0.36378953,-0.18684733,-0.56414515,0.14806283,0.01646829,-0.36432326,-0.038855463,-0.83513993,-1.1511016,-0.5457855,-0.16411476,-0.400357,-0.4888748,0.4495203,-0.06963147,-0.19073477,-0.6423628,0.21311876,-0.40487036,-0.065900706,-0.6387853,-0.020256558,0.09275021,0.5432722,-0.6559185,-0.97877973,-0.023722684,0.044718493,-0.40147242,-0.5065629,0.38813034,0.31057146,-0.0395652,0.3635561,-0.40517178,-0.34941798,-0.78457487,-0.13745014,0.555725,0.23898047,-0.50140184,-0.5286376,0.01941595,-0.28076217,-0.17953587,-0.42680192,0.05434162,0.0039217956,0.425633,0.542988,1.1718572,0.41114563,-0.49939463,-0.11081406,0.5655264,0.037705403,0.14107978,-0.38553962,-0.4491252,-0.029726503,0.17633593,-0.21151936,-0.5012712,-0.55760396,0.53677523,0.28434598,-0.36008227,-0.75958914,-0.34005848,-0.42727467,0.7969762,-1.0251708,0.0042593814,-0.6222373,-0.11599435,0.32683897,1.3386203,0.09796264,1.0396498,0.47841296,-0.49743745,-0.37324527,-0.22721377,-0.27414447,-0.110908195,0.3256579,0.6681484,0.49702325,0.74201053,-0.6873094,-0.16945432,0.2616666,0.31177017,-0.74978805,-0.71413565,-0.4844555,0.06129823,-0.4598983
sad,-0.17038864,0.19536288,0.1850394,-0.92068976,0.2232754,0.39352766,0.27993447,-0.39417842,0.32090032,-0.6840162,0.4286016,0.24160916,0.8331705,-0.4013631,0.019806288,0.18227407,-1.2402676,0.15204673,-0.14088477,-0.34752366,0.13660954,-0.308953,-0.6119169,-1.2461021,-0.26220754,0.10286295,0.22380567,-0.3930801,-0.29821646,0.62315404,0.08792985,-0.40255898,-0.15017952,-0.59445626,-0.53910637,-0.025942571,0.050155163,-0.012766452,0.2255672,-0.29697326,-0.16209126,0.4160981,0.22797932,-0.5492328,-0.0951687,-0.14474052,-0.09489654,-0.67214054,0.5332884,-0.5858682,-0.44156015,0.08684656,0.973452,0.019417787,-0.64824146,0.021923741,0.6260952,-0.55979264,0.16332804,-0.011191667,0.026168162,-0.12890223,-0.10570705,-0.03352156,0.1579281,-0.51457095,0.75519544,-0.222209,0.17145643,-0.45724997,0.7165868,-0.29533622,0.3692807,0.15147354,-0.35685432,-0.30819553,0.26560634,-0.060592204,-0.08019483,-0.19042869,0.19712877,-0.15430322,0.21309508,0.48497865,0.34607264,-1.0079542,0.19979955,-0.29925838,-0.008822109,-0.038817655,-0.36289567,0.49645743,0.13386042,0.20453821,0.25512096,0.33489108,0.39848465,-0.20319134,-0.05250332,0.07605643
dreamy,0.23943949,0.30637303,-0.08972587,-0.323811,-0.4862011,-0.12679146,-0.20443535,-0.8874025,0.32538018,0.21828765,-0.39772743,0.7022523,0.40517953,-0.060210608,-0.18579945,-0.3640885,-0.53747237,0.21110968,-0.20573641,0.76769453,-0.10542969,1.0077685,-0.0976815,-0.55688477,-0.22730154,-0.19810705,-0.25452232,-0.802554,0.29559577,0.18422027,-0.34785104,0.17585462,-0.519935,0.3153953,-0.44556132,-0.13503943,0.012164146,0.0009622993,0.048723813,-0.42992723,-0.62611794,0.83430046,-0.3741343,0.20422369,-0.15305251,-0.88548607,-0.123228215,-0.64577836,0.3373327,0.21006516,-0.2750883,0.39409074,-0.2586702,-0.030106327,-0.36942938,-0.36023185,0.19588286,-0.43197238,0.74065334,0.6451388,0.47231877,0.13867809,0.5740154,0.24587229,-0.4791418,0.0018638194,0.357405,-0.43118244,-0.28739238,-0.38959792,-0.24627756,-0.28970066,0.43201718,-0.2725493,-0.409034,-0.34944412,-0.16011672,-0.43919042,0.4372504,-0.8028619,-0.12338617,0.23230344,0.052423395,0.53745836,-0.7331566,-0.7691167,0.47546387,0.49458086,-0.17537683,0.32129583,-0.33164814,0.411487,0.34083694,0.49626526,0.47876656,-0.24512541,0.1803662,-0.066233076,-0.20132008,-0.1756596
calm,-0.41092893,0.9000335,-0.5209677,-0.79115564,-0.14198026,0.24769676,0.11057977,-0.49745238,-0.06967297,0.38419437,-0.6994927,-0.069812134,0.8379357,0.113478065,0.19679563,-0.58072245,-0.46434337,0.3603259,0.46289298,-0.14991243,0.16069871,0.44267637,0.028413443,-0.052484393,-0.45041534,-0.07682803,-0.050030164,-0.70385796,0.49811172,0.31717864,-0.9577018,-0.107311614,-0.35361886,-0.020825872,-0.19214997,-0.24363858,-0.49078122,0.24421306,-0.46864784,-0.12226395,-0.2716654,0.4037704,0.3281108,0.1389462,-0.2607186,-0.14040054,-0.08127367,-0.59022874,0.42127928,-0.20773253,-0.32969803,0.31065857,0.069932096,-0.45059952,-0.031009285,-0.6067584,0.46376354,-0.35522527,0.68810207,0.25594914,-0.15020719,0.0681294,0.22458984,-0.7748684,-0.71825814,-0.54860336,0.6352003,-0.2477702,-0.13981922,-0.13668117,0.48320493,0.03745836,0.23311305,-0.577472,-1.0318877,-0.1969965,-0.09196368,0.27658853,0.045092233,0.6858424,0.021587588,0.31349137,-0.46064904,0.3838949,0.23826617,-1.0628961,0.4481007,0.08374853,-0.73926824,-0.32249305,-0.41030225,0.44455168,0.31496507,-0.14853917,0.89060694,0.02066419,0.15405144,0.35762036,-0.4437637,-0.58530784
melancholy,0.32934675,0.42189988,-0.90684825,-0.32665578,-0.253784,0.02756766,0.32203427,0.06933428,0.08916664,-0.14284557,-0.42447644,0.57654107,-0.15621255,-0.2977726,0.22481832,-0.26607552,-0.5880684,0.20335935,-0.29996192,0.19957638,0.13755055,0.567015,0.026264058,-0.82345533,-0.018191637,0.24845399,-0.3099246,-0.6236666,0.10860901,0.20140795,-0.13351966,-0.08101528,-0.27623522,-0.26687217,-0.1321519,0.11877479,-0.046347674,-0.18057178,0.16043974,-0.42994615,-0.57088745,0.29086864,-0.65517026,0.14344431,-0.43280232,-0.621847,0.33012357,-0.56069046,0.012423884,-0.23639369,0.08574216,0.5992286,0.68463284,0.018690564,-0.5906082,-0.35444686,-0.14213386,-0.04134105,1.039429,0.13499448,-0.1300736,0.45194435,0.23082098,-0.6088992,-0.31454328,-0.17971908,0.8748547,-0.2231296,-0.1576141,-0.20254028,0.12079196,-0.5954332,0.34905154,-0.05924141,-0.09511386,-0.43722245,-0.18173741,0.3284035,0.36142033,-0.6990685,-0.16430685,0.48010975,0.5975665,0.789895,0.24155155,-1.0921146,0.37162057,0.11626717,0.022002006,-0.05677634,-0.79261667,0.6645765,0.041139893,0.09464758,0.63636804,-0.25301075,-0.41022247,-0.264411,0.46619576,0.22058019
quirky,0.31973436,-0.057846617,0.14231159,-0.1391146,-0.05072555,-0.22917989,0.19420834,-0.29128262,-0.3350489,-0.7597016,0.06280829,-0.13223703,0.19446778,0.50060654,0.07566603,-0.70294213,-0.8585028,0.8002234,-0.41491663,0.012600851,0.24646667,0.6937115,-1.1280006,-0.2805688,-0.5598309,1.0448034,-0.3172821,-0.46521065,0.37133914,0.53438395,0.2700096,-0.34109446,-0.12741289,0.17015876,0.3963458,-0.5758509,-0.6448581,-0.2878252,-0.5113063,-0.009765937,-0.15800078,0.37164423,-0.44244257,-0.89422095,0.42047963,-0.51395524,-0.0060405727,-0.6797058,0.5845716,0.08203116,0.0555701,0.059521813,0.28852376,-0.61999285,-0.59863335,-0.044535056,0.07292656,-0.74148965,0.20297104,0.13184187,0.12209456,0.23793596,0.7583171,-0.2447248,-0.649195,0.72473407,0.21486908,-0.36560673,-0.58793527,-0.40862286,0.1006311,0.0024515116,0.26395705,-0.45931947,-0.22681099,0.0884691,0.13918407,-0.25893745,0.04928671,-0.23343413,0.5764594,0.44611746,0.10272122,0.389757,0.39362043,-0.6209798,1.1178509,0.09681801,0.5966619,0.2910443,-0.21975009,0.5114008,-0.84812117,-0.55280054,0.33971038,0.20085089,0.3621438,0.35954338,0.0060997508,-1.0410148
desperate,-0.1969748,0.43829054,-0.44708988,-0.43765187,0.048452824,0.38077617,-0.15047677,-0.021650447,-0.3352217,-1.4383407,-0.32395065,-0.36140674,0.82084304,0.44454384,-0.22293253,-0.405081,-0.287912,0.24878034,0.32970354,0.11624474,0.11025458,0.6016807,-0.089583665,-0.9749459,0.12191319,0.26780307,-1.2267708,-0.465985,-0.057196062,-0.28630373,-0.83532774,-0.15339167,-0.63709754,0.6670365,0.037866563,-0.6528681,-0.5581809,-0.26290452,0.7328539,-0.7938558,-1.431565,-1.059584,-0.3154724,-0.6941268,-0.040616933,-0.61019427,-1.4010535,-0.34276977,0.65923405,-0.92760545,0.23421931,0.7104437,0.3828079,1.2090437,-0.37046713,-0.05577989,-0.3059655,0.69786876,0.8437881,0.34055698,1.1954376,-0.19829218,0.32427722,0.62045854,-0.3894587,0.12941788,0.52580535,-0.9438007,0.03803627,-0.18644504,0.19192325,0.03683428,0.7145121,1.0385953,-0.053011306,-0.5678956,-0.6719976,-0.20698695,-0.6663661,0.5626518,-0.25397968,-0.12596606,0.9529304,-0.085952386,-0.17731854,-0.811195,-0.25838822,0.287277,0.46189964,0.5669937,0.12791356,0.60673714,-0.73887783,-0.14746916,0.64970833,-0.2880826,0.09907402,-0.7206173,-0.81736946,0.40327844
emotional,0.51560694,0.258942,-0.3648856,-0.38459215,0.5753524,-0.01571478,0.0033447002,-1.2474674,0.2925053,0.081931874,-0.343631,-0.28376418,-0.08308771,-0.14011694,-0.12512363,-0.7798288,-0.65169823,0.1357263,0.4411074,-0.10392444,-0.33740082,0.07769523,0.03715555,-0.60260606,-1.377296,0.14240049,-0.1817118,-0.4721277,0.62241143,0.38696778,-0.7078305,-0.5143287,-0.15091987,0.31014395,-0.15200053,-0.09124801,0.2606134,-0.16072577,0.11651485,-0.4121732,-0.18260904,-0.18903543,0.1332886,-0.0681098,-0.052213136,-0.5252641,-0.27094188,-0.33719355,0.039121427,-0.26528654,-0.1971678,0.3015901,0.74710953,0.3841427,-0.672107,-0.6134077,-0.1785347,0.22061841,0.7304989,-0.038782027,0.27650094,-0.25029987,0.321249,-0.05970638,-0.20198107,0.13715674,0.88757724,-0.2414276,-0.2023443,0.103792906,0.055934597,-0.3859949,-0.4898726,-0.07516494,-0.5420079,0.1163426,-0.2845898,-0.110436976,-0.4186898,0.090394385,-0.027507367,-0.00014450161,0.4452099,0.1759538,-0.10206038,-1.2298598,0.0809463,-0.5247555,0.117297485,-0.022287859,-0.4354127,0.5608423,0.09468531,-0.22001982,0.57390887,0.09981449,-0.5235915,0.056141283,0.33963636,0.52802616
inspired,-1.2083884,0.57504725,-1.0439266,0.4923356,-0.7639427,-1.1800331,-0.19632848,1.2201015,0.53438014,-1.4576601,-0.14453267,-0.69262666,0.82105243,-0.6039953,0.77962476,0.55719167,-0.9585348,-0.2834507,-0.6139533,0.96970415,-1.2464727,0.5941366,-0.8214024,-0.99683106,0.39152125,0.10353758,-0.065350294,-0.7204024,-1.0135367,-0.53166556,0.21287192,0.019210748,0.18055317,0.62483203,-0.57611454,0.6071353,-0.07238314,0.41498086,-0.25040603,-0.93586934,0.13093697,0.6033001,-0.81039923,0.08926953,0.52401835,0.053239863,-0.19178349,-0.53869516,0.30351683,0.77384806,-0.11522769,0.26671845,0.68239594,1.0666552,-0.7467252,0.09062275,-0.22580355,-0.27201125,-0.5700601,1.0821679,-0.55705965,-0.34808165,0.8771658,0.38523355,0.18262094,0.15979505,1.1347586,0.69097006,-0.9104648,-0.6841793,-0.2368036,-1.7186173,-0.23695967,-0.73153687,-0.49894,-0.29059818,0.8953629,-0.09788005,0.15935817,-0.08717928,0.55203676,0.33318383,1.0675696,-0.4674145,-0.6742654,-0.31107736,0.14911622,0.19182323,0.3991552,0.4825449,0.35894132,0.16279617,0.90483046,0.601426,0.6706487,-0.0006639649,0.08801905,-0.50259143,-0.054320853,-0.669447
bittersweet,0.2833496,0.383877,-0.31155467,-0.13502987,-0.036965452,0.114376806,-0.061823033,-0.17840803,0.6031129,-0.20977294,-0.44369593,0.42426044,0.37214574,-0.016824577,-0.2711926,-0.0780157,0.5213908,0.27147263,0.17541677,0.11907905,-0.44567,0.24943264,-0.55271965,-1.1657491,0.10212594,0.36392352,0.06559598,-0.5903184,-0.19426794,0.6035883,-0.76861066,0.42822075,-0.39974603,-0.2923348,-0.010509891,-0.3625696,-0.21013345,-0.18976787,-0.09728956,-0.47746998,-0.13189313,-0.10840978,-0.023598185,-0.2995899,0.31737348,-0.2515215,-0.3280679,-0.32855093,0.9089112,-0.21251972,0.80117977,0.2516154,0.056688383,0.27216917,-0.70894694,0.2211751,0.34273738,-0.22176015,0.54578036,0.9795025,0.27366194,-0.23914409,0.08319814,-0.4281875,-0.30213675,-0.66664934,0.27790472,-0.3540076,-0.102234475,-0.21727388,-0.19578476,0.05496153,0.25431314,0.16789389,-0.8396457,-0.10524141,-0.62014925,-0.54493624,0.29796743,0.4156732,0.13472442,-0.16708092,0.39089334,0.5078506,0.41332394,-0.993392,0.0057358393,-0.17702463,0.9333223,0.4669963,-0.64781564,0.755813,0.044935893,0.232377,0.19466774,0.034722794,-0.7998403,0.11884529,0.19987723,0.1174447
black,-0.068639874,0.5219128,-0.9146884,-0.73820204,0.021946356,-0.69459647,0.69819987,-1.3057402,0.8346567,-0.49284282,0.1021777,-0.16496754,0.29392838,-0.39016753,-0.38791293,0.28697944,-1.2038007,0.46155486,-0.5889652,0.25557265,0.7631379,0.006636022,0.21689111,-0.415696,0.6442566,-0.43192124,0.14128882,-1.0488261,0.15797512,-0.4323768,-1.3698028,0.029447287,-0.13697965,0.39065653,1.002598,0.6738653,-0.2656283,-0.26157746,-0.6680219,-0.015189034,-0.09133558,1.2752956,-0.24722575,-1.6351074,-0.2882516,0.8822289,-0.0075888066,-0.61549705,0.18390556,0.29724726,0.27549893,0.2617981,-0.7587844,-0.011458009,0.36918408,-0.5441246,-0.32551318,-0.3726876,0.6723719,-0.40558317,0.68815786,-0.82295436,0.6706888,0.53349704,-0.763521,-0.19412184,0.6005236,1.672443,-0.14612138,-1.0370957,-0.41738135,-0.10746726,0.41760486,-0.035232887,-0.57582176,-0.3445246,-0.12990941,0.2146271,-0.29185703,0.3723696,0.018086592,0.38874823,0.6253876,0.20155685,-0.12630543,-0.75806975,-0.39079973,-0.2716935,0.7951444,0.13211459,0.35467505,0.26842642,-1.0696173,0.771578,0.34203175,0.81315196,0.39085194,-1.3151467,-0.33800963,0.5929825
depressive,-0.14130446,0.21880308,-0.2996936,-0.49214354,0.84284425,0.14224428,-0.14557017,-0.35774577,0.58944124,-0.660675,0.34094924,0.12902372,-0.11300098,-0.2928025,0.09556533,-0.25382218,-0.77181405,0.6652108,-0.25931403,0.033833887,0.5091017,0.17648868,-0.45106384,-1.5708666,0.026287181,0.2431438,0.63379973,-0.697159,0.14965448,-0.09431601,-1.125669,-0.8122062,-0.12961371,0.6623641,0.22741894,0.23208559,0.54875046,0.07874722,0.049630266,0.26909003,-0.27250928,0.34881938,0.436048,-0.5338901,-0.3580427,-0.20732222,-0.18918934,-0.8210804,0.7405053,-0.06229012,-0.5046153,0.8463083,0.9018723,0.12180761,0.0622728,0.6300177,-0.18161628,-0.50374657,0.04911152,0.2734816,0.24027167,0.040814828,0.9394892,0.15404256,-0.15448466,-0.6429619,0.18041624,1.1380711,0.34633812,-0.38757816,0.28111795,-0.6496311,-0.11407995,-0.4729057,-0.7256825,0.18869136,0.3636593,0.21223664,-0.30419683,0.18336052,0.08117042,0.07712726,0.08122538,0.16289924,0.42664662,-1.3307246,0.5856204,0.13048775,-0.46053708,-0.040913515,0.07158991,0.35744423,-0.28034,0.7766749,0.89609194,0.51461905,-0.43540496,-0.37311327,-1.4443742,0.549354
brutal,0.1816438,0.58558697,-1.3189254,-0.5832931,0.22690053,0.5940011,0.58223635,-0.48027122,0.88209146,0.28375164,-0.6811462,0.16215037,1.1765528,-0.90228546,0.31599015,0.02508853,-0.16094354,-0.13569427,-0.1980535,0.32387587,0.62165815,-0.64905614,-0.9668003,-0.64216584,-0.48991397,0.8954383,-0.34066445,-0.12990975,0.27935416,-0.3337725,-0.7009329,0.3434858,-0.29209402,0.20203578,0.056867246,0.24622315,-0.46887827,0.2903663,-0.15453015,-0.25929245,-0.32571173,0.3254436,0.2690542,-0.7338346,-0.0035817972,0.08417431,-0.79567,0.05786019,0.44939882,-0.051628295,0.6375521,1.0429362,-0.8682357,0.09708828,0.04239452,-0.700481,0.7911004,-0.075597875,0.5925114,-1.0118054,0.56313133,0.41046193,0.83854854,0.07040077,-0.9852735,0.9609699,0.49018347,1.1265011,0.54797566,0.005903558,0.31622043,-0.06237952,-0.22078098,-0.2598316,0.008634912,-0.18433362,0.16789632,0.3808286,0.124220945,-0.15070225,0.63080055,0.527806,0.18942615,-0.102141246,-0.24824515,-0.8553178,0.547805,-1.0186272,0.40714327,-0.47171375,0.3704342,1.13394,-0.2629223,0.86744744,0.6304558,-0.6665523,-0.21823138,-0.89933574,-0.47927964,0.5437574
trippy,0.031135565,0.32911727,-0.08677569,-0.02572962,0.26835105,-0.036363855,-0.3572173,-0.64930934,0.071299985,0.19611296,-0.3447227,0.47955304,-0.18143797,-0.16759573,-0.37274453,-0.10527581,-0.14865154,0.84493417,0.003245749,0.195604,-0.46383038,0.25713307,-0.16915494,-0.9865001,-0.8157267,-0.05794385,-0.6740941,-0.8337772,0.24026705,0.12513149,-0.16069974,1.0055461,0.26457098,-0.016817098,-0.55002695,-0.10602188,-0.6467335,-0.19865094,0.2450846,-0.4380605,-0.26809096,0.26229307,-0.8964817,-0.002280843,-0.03715121,-0.31372434,-0.010759427,-0.8020699,1.1216388,0.288453,0.28247216,0.6282291,-0.47080055,-0.18190117,-0.02815394,-0.13940367,0.6181151,-0.6422622,0.0009926587,0.26726946,0.31593296,0.69389343,0.8277146,-0.09813239,-0.7053143,-0.09552195,-0.2912068,0.3604806,-0.022439409,0.16603592,-0.18313344,-0.24545887,0.19658299,-0.7960272,-0.76906234,0.25929222,0.14793698,0.24266796,0.0704239,-0.26688135,0.7220636,0.07964616,0.053340126,-0.14181267,0.018559672,-0.3667223,0.009053906,-0.002884849,0.59717524,-0.21013232,-0.31622168,0.045381088,-0.1405216,0.2535516,0.55041265,-0.037131883,-0.97930974,-0.19880898,0.04780338,-0.32322052
dark,0.08469105,0.2788219,-0.6076781,-0.20880577,-0.10791584,-0.09148344,0.4931544,-0.68884206,-0.23687963,-0.7773595,-0.28776613,0.6263912,0.48024708,-0.6968715,-0.110221505,0.16402453,-0.42891553,0.90942556,0.23362057,0.41685802,0.0071991216,1.0630411,-0.59795254,-0.04253428,-0.30838162,0.0014871038,-0.30622715,-0.7215995,-0.48511177,-0.13424362,-0.23914188,0.2126723,0.050642304,0.3700803,1.0543032,0.07476376,0.58280176,0.49039766,-0.037949458,0.040516473,0.591338,0.1743061,-0.18582551,-0.21581537,-0.0011185292,-0.2875368,-0.602439,-1.5881364,0.99725354,-0.78937423,-0.054415237,1.6584121,0.33729863,0.3179455,-0.47246808,-0.16668352,1.1627544,-0.028721483,0.74813455,0.66708386,0.04724337,-0.24773858,0.63111615,0.52009356,-0.10707897,-0.26856238,1.1085653,0.83610547,0.7216831,-0.14144492,-0.09456718,-0.474356,0.27221742,-0.9226895,-0.42013207,0.26308286,0.14220636,-0.23804949,-0.339462,-0.13552292,0.02894557,-0.5518019,0.2617045,0.49400815,0.39214674,-0.96683466,0.2783905,0.5059182,0.60790646,0.041051425,0.23747654,0.43879172,0.5000342,0.37086013,-0.0069922702,-1.0823325,0.34109947,-0.26683617,0.42025802,0.5830412
lonely,1.0188717,-0.03535792,-0.34664375,-0.39955735,-0.575508,0.10418646,0.06245852,-1.1162785,0.2605731,0.41120338,0.43580288,0.058982912,0.6637286,-0.48624212,0.35376683,-0.24920553,-0.9676621,0.42651606,0.31242245,0.17305097,0.26347643,0.10262137,-0.04754218,-1.1346576,-0.23674671,0.033728216,0.38142997,-0.53939134,0.383574,-0.124358945,-0.92210364,-0.83196974,0.22681458,-0.32412377,-0.67664933,-0.29428685,-0.14682527,-0.008707253,0.21851534,1.04097,-0.26631406,0.052235406,-0.5139303,0.13351232,-0.70150816,0.07091474,-0.8714676,-0.6634456,0.91194415,-0.19022052,-0.58277994,0.79018503,0.035263393,0.4797363,-0.19492117,-0.18885487,-0.17124069,0.20616202,0.5823478,0.68647563,0.19629607,0.3052794,-0.177644,-0.6274652,0.2630751,-0.70927984,0.6346991,0.025702802,0.279228,-0.44632596,-0.04992427,-0.062508255,-0.15962286,-0.09411406,-0.7306491,-1.0389773,0.33809382,0.60307246,0.33909318,0.50859123,0.5022239,1.1280154,0.70218194,1.2636288,0.40973717,-0.33887553,0.17084667,-0.16146909,0.046387594,0.023539774,0.37621906,0.36545897,0.27779195,0.31905082,0.10206669,0.7230342,0.2532056,0.5487287,0.6406822,-0.3761993
quiet,-0.18568258,0.33729237,-0.32515037,-0.3225018,-0.26342124,0.9466316,0.29834574,-0.5507264,0.7192298,0.17127049,0.024477385,0.5027912,0.01580019,-0.010308685,0.23889698,-0.71128786,-0.12958091,-0.20770673,0.28087962,0.4044433,0.12085148,0.85215884,-0.5860096,-0.2393533,-0.13252898,-0.06796512,-0.34174028,-0.7227245,0.22637857,-0.16447176,-0.3212878,-0.9654305,0.267372,-0.7432792,-0.11067441,-0.54831344,-0.29056236,-0.15319629,0.45306596,0.31698376,-0.6808745,0.97173166,0.5124089,-0.050740633,-0.90456665,-0.4889505,-0.11904592,-0.25185046,0.6383444,-0.86488324,0.09857144,0.3863628,0.4391282,0.66743827,-0.25814223,-0.438681,-0.4837437,-0.25058588,0.61168516,0.42608035,-0.22071338,0.2218961,-0.18626608,-0.03476741,-0.6156037,-0.98411965,0.9827933,-0.3530503,-0.492074,0.19348042,0.46876547,-0.23057815,0.14247686,-0.5755023,0.40611017,0.07931815,-0.4541318,-0.3424948,0.7746641,-0.20746802,0.60833824,0.09156572,0.4106175,1.0702192,-0.45503795,-0.9381244,-0.089526825,0.052427545,-0.02942673,0.36906326,0.21012218,0.46941966,-0.0694862,0.037291396,0.8463798,-0.77982855,-0.42706618,0.273084,0.05651765,-0.53407896
tired,0.41948122,0.9926139,-0.6235215,-0.12356004,0.44828716,-0.10024866,-1.1212332,-1.6076065,0.2628461,1.0418104,-0.08341868,-1.5882574,-0.5907195,-0.52350706,0.39357734,0.69730395,-1.4075826,0.66115683,0.91673666,0.41882443,-0.53271776,-0.0035271936,-0.18465863,-0.5205804,0.18438041,-0.07288351,-1.2753581,0.22046801,-0.01763312,-0.2316283,-1.1938096,-0.53572327,0.7721646,-0.5409805,-1.527055,1.5260538,-0.5069399,0.737234,0.5602439,-0.99636805,-0.5617067,0.23541325,-0.58197486,0.11690621,0.0029795868,-1.2583892,0.06433389,-1.2314681,0.60600126,-1.4670774,0.102723226,0.21930023,-0.25356513,0.9332118,-1.483357,0.1488972,0.61259335,-0.6684259,0.48365837,0.2577743,0.2858389,0.12748897,-0.3553046,-1.276316,-0.8611845,-1.1895591,1.2178729,-0.97301304,-0.34732747,-0.02179975,0.5814734,-1.2244711,-0.9454227,-1.147234,-0.20041318,-0.19247326,0.9859979,0.46740016,0.39091462,-0.60510415,0.57043505,0.983748,-0.52727604,1.4888033,1.0654051,-1.2256197,0.72621846,-0.7664928,-0.45706436,0.7929404,0.44682598,1.4310406,-0.21661772,-0.14037453,1.1593728,0.7549419,0.50549525,0.8995755,0.51113236,-0.20878527
gloomy,0.18250978,0.38372973,-0.8202558,-0.31609485,0.22650829,0.37176707,-0.477905,-0.40377107,0.42325625,-0.19624159,0.038240407,0.5007291,0.46360484,-0.74433416,-0.89585996,0.020977696,-0.14561522,0.26962334,0.18778877,0.27567357,0.7727592,0.51423925,-0.061777957,-0.6444769,0.047924332,-0.26809803,-0.5433702,-0.62017536,0.05079827,-0.18983142,-0.67971283,-0.27550083,-0.35843855,0.014116338,0.0015927239,0.2365123,0.4413483,0.16699503,-0.31848067,0.5809563,-0.02111233,0.35231358,-0.18857807,-0.2225204,0.35902014,-0.581976,0.2865962,-0.33230606,1.0111942,-0.57461023,0.12729026,1.2639385,-0.08389954,0.017553443,-0.041002017,0.3883557,0.6866101,-0.6708317,-0.065202236,0.121331304,0.052368265,-0.69214207,0.7083316,-0.3794259,-0.1470316,-0.40709633,-0.2369366,-0.026988886,0.10584197,-0.677701,-0.32548195,-0.15647991,0.27555376,-0.09799004,-0.6847084,-0.9747505,-0.4602276,0.3128001,0.13767749,0.1345406,0.8903248,-0.28957364,0.6787454,0.314851,-0.35876778,-1.1128892,-0.7216696,0.4728862,0.37485814,0.23893586,0.7496514,0.648672,-0.12259472,0.014319896,0.563032,-0.42428038,-0.48689038,0.08099326,0.55803454,0.672604
loud,0.058089342,-0.07498243,-0.20533866,0.053961772,-0.11450027,0.3068077,0.13724476,-0.96543735,0.37895983,-0.56583637,-0.14576268,-0.1509514,0.269627,-0.2503568,0.8790803,-0.5911968,-0.28171724,0.17761207,-0.45013162,-0.065316975,0.14372185,0.38502145,-0.47767335,-0.079760015,-0.09061487,-0.12097746,-0.716437,0.06950113,0.2603132,-1.2070485,-0.30368754,-1.0695617,-0.31801915,-0.09971056,-0.3658799,0.06405849,-0.22389498,-0.008178773,0.06533968,-0.22836983,-0.14244105,0.88594234,0.68136966,-0.17746702,-0.25320444,-0.77205837,0.09000532,-0.7000954,0.13053618,-0.94217867,0.2001632,0.9683632,0.41217825,0.58183116,0.29725856,-0.17860642,0.40627098,-0.45174885,0.12003039,-0.3326123,0.07184439,0.20463915,0.64853984,-0.3263629,0.24449061,-0.13305219,0.32224143,-0.51888645,-0.20359552,-0.18900074,0.32580307,0.44428432,0.09432552,-1.4502934,1.1322551,-0.66192764,0.55214727,0.4455652,0.020501053,-0.23293832,0.3125503,-0.13181353,0.2961531,0.33842438,-0.41126168,-0.46818563,0.1826352,-0.68470377,0.07249021,0.9330666,-0.47257435,0.3042268,-0.060285516,1.0672463,0.5917761,-0.030366134,0.07090837,-0.28920963,0.22375725,-0.6195935
bitter,0.5934471,-0.24082729,-0.53471553,-0.83846635,0.062815435,0.067852646,0.398128,-0.49247912,0.034749005,-0.6271535,-0.07404263,0.63903844,0.5991812,-0.5130094,-0.37855366,0.3562692,-0.26489058,-0.07100954,-0.052756354,-0.15356745,-0.7552056,0.19026117,-1.1272784,-1.0518289,-0.11578265,-0.4933941,0.28874323,0.21949929,-0.41847363,0.16351491,-0.289399,0.18657711,-0.63045657,0.13514993,-0.8081853,0.6404163,-1.1130669,0.05429234,0.27988213,-0.81983346,-0.3599953,0.6012112,-0.30932662,-0.10708539,0.13546404,-0.29646075,-0.41248226,-0.5836063,0.21557274,-0.2970657,0.9099069,0.35960156,-0.2860187,-0.6751064,-0.6512043,0.5164587,0.7402676,-0.27066892,0.5516026,0.50491244,0.10453157,-0.22575396,0.44181514,-0.63811815,-0.8436363,-0.6246439,0.626543,-0.24398597,-0.070052594,-0.8325255,-0.27318472,0.47503638,0.15758128,0.19818361,0.415524,-0.67415184,-0.09601838,-0.109286085,0.3044579,-0.69113964,0.43430835,0.70833004,0.8861324,-0.03529065,0.014267793,-0.8323086,-0.6427973,-0.08948551,0.6178536,-0.33384535,-0.5109293,0.74186444,0.26885322,0.43890393,-0.14128383,-0.8553389,-0.11689126,0.40022415,-0.19263837,-0.5946734
longing,0.4318162,0.29599658,-1.2147201,-0.29249746,-0.0076802727,0.5929404,-0.32449585,-0.19627263,0.2935482,0.36817694,0.027405757,0.63425195,0.6418073,0.09515534,-0.48742163,-0.23250774,-0.48398942,0.0011284171,0.032835785,0.29519883,-0.37921283,0.48966655,-0.5515216,-0.54757553,-0.10532542,-0.33374068,-0.4468469,-0.10851263,0.6915083,-0.2889178,-0.1986063,-0.3838655,-0.32865486,0.11199185,0.33707115,-0.09687448,-0.09274631,0.6641061,0.031800892,-0.62038344,-0.0049214675,-0.005251237,-0.30689794,-0.22947316,0.11995046,-0.1303055,-0.273476,0.22942838,1.2053733,-0.45756173,0.4989957,0.6123588,0.04943625,0.7003944,-0.26118636,0.3603934,0.058385458,-0.07303071,0.15686467,0.5191251,0.50429755,-0.36029896,0.7659878,-0.21180359,-0.20779726,-0.24447677,1.0040817,-1.022486,0.45221546,-0.095134825,0.06380067,0.32473806,0.46418697,0.1948692,-0.83287567,-0.6774057,-0.24780732,-0.20124221,-0.35064977,-0.26538068,0.13818355,0.6977541,-0.14891294,0.38959652,-0.25075608,-0.5082409,0.048133995,-0.5438289,-0.06469687,-0.24952754,-0.20813197,0.3838438,0.12719111,0.3719593,0.20298369,-0.27936834,-0.14970325,-0.030952867,0.5455093,0.31273916
hypnotic,0.032942865,0.14457019,-0.505955,0.11940442,-0.11199826,0.31397048,-0.58137,-0.32359675,-0.18250792,-0.5490072,-0.0629689,0.44349942,0.65098906,0.4814941,-0.2577977,-0.09772556,-0.33181396,0.3201039,-0.27606028,0.35914773,-0.053873762,0.040029213,0.045277834,-0.65505296,-0.5590646,0.44693118,-0.31472912,-0.59833455,0.24616092,0.0035987105,-0.62349737,0.14061989,-0.07935283,0.69977224,-0.18573603,-0.3575992,0.30182028,-0.50466025,0.14345576,-0.3141299,-0.46096706,0.008060776,-0.410676,0.24556138,-0.22972445,-0.52449954,0.6441031,-1.1923685,0.5674784,-0.15100004,0.27694052,0.27549827,0.01128052,-0.11271043,-0.18927561,0.11245412,0.25602898,-0.28571543,-0.10747638,0.4349129,0.068147324,0.17342983,1.0909926,-0.18060291,-1.0105963,0.43019682,0.4553236,0.5062625,-0.28348428,-0.22119293,-0.15295646,-0.5142293,-0.098758,-0.41521883,-0.5099934,0.41321173,-0.2297864,0.5051708,0.006448203,-0.019413909,0.5705872,-0.024643771,0.50968444,0.58468866,0.23823202,-0.54640424,-0.106158,-0.08003554,0.04329634,-0.09717988,-0.4836302,0.48269516,0.37738633,0.013058449,0.7340047,0.088561445,-0.5345789,-0.19938925,0.027245961,0.038572725
serious,-0.4946375,1.0801715,-0.14480302,-1.2152969,0.013984036,0.42654094,-0.0792588,-0.80772287,0.18219185,-0.98987985,-0.31164023,0.6630858,1.7186717,-1.0962926,0.008010362,0.029097034,-1.1123128,1.0233943,0.5690121,0.6433711,-0.55490285,0.49100602,-0.46587718,-1.1848122,-0.6764777,0.14045206,-0.7450398,-1.4783075,0.47558412,0.04501174,-1.2114217,1.3351115,0.014655131,0.21491753,-0.26603457,-0.5785423,-0.06802239,-0.657267,-0.8215374,0.20689604,0.000120268895,0.8948525,-0.45657012,-0.71098995,0.72502583,0.23279953,0.60235023,-1.02339,0.9653436,0.06888295,-0.12833746,-0.32163262,-0.0068427525,-0.5744562,-0.17161496,0.10528027,1.2564352,-0.08374613,0.021450039,-0.6166865,-0.5942628,1.238951,0.8679943,-0.35923114,-0.19694601,0.27856928,0.36058706,-0.0063495412,0.67304283,0.15189102,-0.07627806,0.6098752,1.2421203,-0.66487396,0.7348291,-0.15464346,0.730938,0.08905632,0.6783403,0.12974443,0.56710386,1.3455884,0.7025646,0.1051231,-0.07882527,1.4792199,0.7830842,-0.097231336,1.8757585,0.022066547,-0.050321504,0.72827697,-1.3143986,0.8691161,0.91243225,0.07170564,-0.22773625,0.123676576,0.6042492,0.23178424
exciting,0.19111122,-0.1041835,0.12643759,-0.13431002,-0.32322899,0.7648314,0.06394099,-0.4769061,0.19182447,-0.68876714,0.29072607,0.54234684,0.31933418,0.33672968,-0.2535393,0.0030822977,-0.13484852,0.49984652,-0.538821,0.25389975,0.6513457,-0.095739685,-0.5939555,0.14425507,-0.3693257,0.58725923,-0.18342339,-0.6007554,0.7363314,0.120760195,-0.4593298,-0.3887806,0.18935384,0.36966845,-0.56479615,-0.19418977,-0.39282897,-0.33636776,-0.445542,0.24415281,-0.8119443,0.9245024,-0.2700749,-0.34600887,-0.14102407,-0.32930472,0.1870138,-0.66571957,0.118280284,-0.15652387,0.12904434,0.82533795,-0.96481943,0.60755914,-0.44374335,-0.9216313,0.14288287,-0.5308175,-0.09448205,0.08724057,0.24662693,0.17518513,1.3005894,-0.29968116,-0.6931471,0.19261454,0.6731179,0.5405935,-0.16722155,0.33864567,-0.057400733,-0.03814554,0.16264644,-0.7172657,-0.2788099,0.031674586,0.33180505,-0.7436218,0.3017838,0.57282054,0.58178085,-0.37304953,0.38031963,0.43541607,-0.48884305,-0.6393291,-0.3312317,-0.2547593,-0.44638297,-0.5362244,-0.5522447,0.49167314,0.10541215,-0.3220563,0.099722505,-0.24838908,-0.80047166,0.39540908,-0.06748618,-0.2801773
cheerful,-0.2253457,0.6684916,-0.4996685,-0.6989386,-0.51430005,-0.22581871,-0.47381753,-0.4394298,-0.015794657,-0.14100245,-0.13725042,0.78420615,0.5435967,-0.12958227,-0.16356836,-0.7820551,-0.33295605,0.90749925,-0.3790367,0.46109426,-0.12139856,-0.2472263,-0.34184927,-0.8419403,-0.079179466,-0.11110789,0.16301619,0.19868226,0.20391792,-0.17593,0.0081235925,0.26855016,0.36003718,-0.55295485,-0.43222845,-0.29609418,-0.31757417,-0.28751633,-0.89183706,-0.677754,-0.15050429,0.2939207,-0.23264275,-0.018837899,0.6719394,-0.2241399,0.14730003,-0.9411736,-0.05697562,0.38784668,0.8570362,0.06049168,-0.55164224,0.21371253,-0.073830016,-0.21561193,0.041891024,-0.28684315,0.003697168,0.26824144,0.20099083,-0.1532493,1.0489907,-0.02252597,0.11613096,0.068944834,0.76000756,0.18536669,-0.10147546,0.22185197,-0.2820689,-0.20692192,-0.43500128,-0.46256343,-0.034785032,-0.105790325,-0.24934375,0.124030165,0.34677848,0.097047,1.1584437,0.14348914,0.47664866,0.5388968,-0.09158566,-0.34784338,-0.34691682,-0.3945869,0.006361391,-0.21243873,-0.3039899,0.23927313,-0.21379149,-0.25673547,0.38576993,-0.096960194,-0.2928784,0.5025899,-0.61251473,-0.22916539
meditation,-1.0537004,-0.15640606,-0.7791353,0.09927267,0.15569432,0.41929382,-0.21672128,-0.6166291,0.48993546,0.6763535,-0.1345415,0.7657692,0.7837811,0.5911967,-0.49546805,-0.32806337,0.18049294,0.4719047,0.39410973,0.5097625,0.0438481,-0.11464887,-0.20380607,-0.30478647,0.066005535,-0.5563556,-0.0044846972,-0.86480856,0.22123328,0.060919218,-0.45030528,0.03267757,-0.13785733,0.63284487,-0.30092934,0.31739867,0.014104259,0.6253553,-0.6075865,-0.24288157,0.45154607,0.30782247,-0.6517082,-0.24901725,-0.34610692,-0.32413918,0.20813328,-0.79342043,0.67766815,0.34614858,-0.0844473,-0.088922225,-0.18884899,0.6884447,0.03862685,-0.20298544,-0.18751793,-0.48454908,1.1211965,0.2148154,0.16984427,-0.062888145,0.20893864,0.254669,-1.2193294,0.08498886,0.7648212,-0.7033599,0.06490914,-0.739202,0.35650486,-0.6046193,0.56302226,0.1375557,-1.080318,-0.6524621,-0.022563292,0.16069521,-0.42763424,0.2161701,0.61822027,0.06417379,-0.042616893,0.48040143,0.39609095,-0.54431087,0.26869768,-0.35787222,-0.019704843,-0.35879558,-0.42971918,0.82691145,-0.181792,0.6232777,0.52250224,-0.555169,-1.4129992,-0.37225923,-0.7191974,0.1678007
bored,-0.06362273,0.5268231,-1.5587491,-0.62705845,0.1697815,0.48093122,-0.5659728,0.59822077,0.28232253,0.070933305,0.07764299,-1.089823,0.2812058,-0.33098817,0.37576258,-0.6050304,-1.6583178,0.6070286,0.056521945,1.0461508,1.082,0.055293947,-0.4063639,0.321509,0.26592675,0.5029088,-0.24011204,0.20056055,0.3275353,0.19085434,-0.31547618,0.17419037,-0.35751584,0.110868685,-1.4091338,0.4945691,0.05249924,0.045431808,0.2987592,-1.2764424,-0.11352151,-0.19701606,-0.8703164,-0.078741714,0.08409461,-1.1023401,-0.455092,-1.0391121,0.45174748,-0.7961689,1.3854946,1.2050174,-0.03312493,0.10428002,-1.8186666,0.2051272,0.8853066,-0.16446555,1.2864697,-0.73330617,0.568989,-0.5531119,-0.3351026,-0.9203329,0.6523074,-0.8655922,0.3461182,0.69185895,0.62507504,0.06788626,0.029579727,-0.4389326,0.5075673,-0.07312738,0.15745287,-0.8909447,0.87541544,0.25997165,0.21569827,-0.14767192,0.38842532,0.45647213,0.2938104,0.9175598,-0.096517645,-0.05299268,0.1705528,-2.283443,0.3764589,-0.5111575,-0.66793716,0.5887244,-0.43163174,-0.48305684,0.34210363,-0.29642388,-0.26853096,-0.2776618,-0.15478152,0.8782323
passionate,0.36607534,0.7567295,-0.54069746,-0.4530325,0.251282,-0.17974338,-0.43111184,-0.045300268,0.25517583,-0.11181579,-0.5713828,-0.12397285,-0.08445168,0.22688077,0.24483761,0.037264075,0.19580615,-0.14965689,-0.42584863,-0.2693627,-0.32100597,0.37810636,-0.18253495,-0.7057306,0.047584016,0.23631997,-0.26023015,-0.56543964,-0.43761167,-0.11055285,-0.25799903,-0.34090862,-0.052490536,-0.142894,-0.2503387,-0.23836714,-0.3597222,0.20939133,-0.038644265,-0.5283384,0.024567232,0.20571245,-0.057901774,-0.42484194,0.40209228,-0.1336945,-0.25291142,0.20151395,0.5690965,-0.12108552,0.89389324,0.1287257,-0.062309235,0.2909998,-0.4238018,0.37930486,0.05798646,0.06130839,0.9153863,0.8207384,-0.2511448,-0.47339523,0.5598381,-0.07069797,-0.896905,0.11615808,0.8523687,-0.44840688,-0.26395914,0.41898614,-0.33389723,0.047359776,0.13058762,-0.08386202,-0.32131356,-0.039018713,-0.16010621,0.19969065,-0.13316952,-0.22889173,0.41750115,-0.07640488,0.4997803,-0.096861035,-0.26479554,-1.4165249,-0.081466995,-0.29868904,0.7185022,0.082278535,-0.71837133,0.2046766,-0.23322685,0.6922329,1.1850913,-0.5907258,-0.63478696,-0.038635276,0.30939907,0.26511678
sorrow,0.6658718,0.3952687,-1.0641587,-0.55320597,0.09680164,0.39133465,0.36853555,0.0090157185,0.09150938,-0.6091559,-0.040387005,0.24154887,1.1117541,-0.77302474,-0.10725515,1.0669816,-0.31130752,0.3602417,0.63420975,0.22968149,0.048114736,0.533433,-0.5417827,-0.85503167,-0.4138859,0.39344963,-0.053272188,-0.47273692,-0.41755617,-0.32469344,-0.44758412,-0.3094861,-0.88656354,-0.35699114,0.32960078,0.23557813,0.1741338,-0.44053477,0.0791151,-0.031036075,-0.2198844,0.45638683,0.35740218,-0.81249225,-0.29122794,-0.13461746,-0.43653974,-0.5793442,1.0703174,-0.29957414,0.6159612,0.6501646,-0.8054196,0.2588839,-0.26754326,0.49684283,0.28938794,-0.4082438,0.34604144,0.5755468,-0.3931654,0.21190453,0.11284419,-0.6259303,-1.0952426,0.19278865,0.9491826,-0.17436938,0.22820437,0.512622,0.66084075,1.0964292,0.10964859,0.41445097,-0.6427367,-1.1786221,0.11597027,0.4834982,-0.4612118,-0.0968087,-0.047772266,0.71408373,1.0443078,0.21745922,-0.076997146,-0.53950405,-0.063579395,-0.13004889,0.30815405,-0.17487274,0.17997764,1.2837294,-0.13833329,-0.073194064,0.41250476,-0.28734902,-0.28251886,-0.050976846,-0.09990158,0.22589599
frustrated,0.46492544,0.1742279,-0.17616966,-1.0312808,-0.19961087,-0.02755933,0.06859938,-0.8333786,-0.7711903,-0.9123402,-0.45045158,0.5281151,0.4849752,-1.0371118,0.18161872,0.2906038,-0.207591,0.33145025,-0.99114794,0.26305145,-0.3490033,0.5139435,-1.3735124,-0.11872491,-0.36046806,-0.3014533,-1.1286938,-0.801059,0.9174097,0.9726923,-1.2745148,0.6624279,0.038963284,0.37490556,0.053950448,0.6258747,-0.46638873,-0.59486663,0.6570718,0.08094994,-0.005152124,0.6347346,1.5407659,0.3924726,0.6542212,0.06012902,0.04357794,-0.39576688,0.33885133,0.24208848,0.020586718,-0.23523822,0.03399157,0.19499053,-1.2331845,0.45354703,-0.2748233,0.20739537,0.7937382,0.19496483,0.7945683,-0.3629295,0.2737637,0.4133277,-0.17563416,-1.3306488,0.35149145,0.13614476,0.8478762,-0.8207115,-0.13159223,0.62020487,-0.4221795,-0.39190465,-0.55026585,-0.6734164,-1.3899977,-0.8862828,-0.82501143,-0.5307552,0.72611785,0.06682859,0.7945836,0.6004947,-1.4180653,-0.5315242,0.7449893,0.015739625,0.7489322,0.64520967,-0.061452758,-0.0006278359,0.004540917,0.0055255084,1.0213517,-0.59060293,-0.7420803,-0.27696455,0.33269307,-0.070110634
miserable,-0.19857837,0.44488966,-1.6875961,-0.55737734,0.37663433,0.41199026,0.3542493,-0.3696035,-0.008639764,-0.047293402,-0.79378307,0.6286146,1.4338193,0.23644988,-0.12429648,-0.56527954,-0.6362199,1.2942921,1.3981771,0.1696133,0.14478181,0.06715347,-0.5950392,-0.0951815,0.0755984,0.6732613,0.17543398,-0.04435289,-0.048539888,-0.95150363,-1.0183396,-1.5282913,-0.48604617,-0.6073596,0.3768972,0.17049482,-0.6773353,0.16760524,-0.092497535,0.45457283,-0.687742,0.7470426,-0.56080776,-0.77079314,-0.5062638,-0.860553,-0.09902369,-0.10888253,0.3690335,-0.19916387,0.42789775,-0.2755608,1.1886145,0.91680104,-1.4116637,-0.2897457,-0.5629453,0.72833157,0.2543231,0.00088520336,-0.30091876,-0.7498916,-0.21038027,-0.65596473,0.07771708,0.21377426,0.93750477,-0.036821395,0.5397808,-0.38915393,0.6645364,-0.054430883,0.36121303,-0.22528635,-0.62843126,-0.7340999,0.39731404,-0.3610787,-0.21187365,0.66296893,0.4871178,-0.18091503,0.29268137,-0.10134239,0.18379092,-0.58217186,-0.012076645,-0.028713787,-0.13843097,-0.44591102,-1.1392155,0.39605653,-0.36035934,0.42305583,0.7388814,0.7366386,-0.6039766,-0.119459376,0.9157764,-0.085781015
hopeful,0.2924514,0.31415436,-0.46576765,-1.0596646,-0.78997,0.97978246,0.25182542,-0.29064298,0.3670845,-0.012511008,-0.4496351,0.30675736,0.21252774,0.1558205,0.18540576,-0.12898263,-0.6494552,0.34567475,-0.059134748,0.7529438,0.17461397,0.7792952,-0.5136349,-0.7077612,-0.7975423,-0.51051486,0.10541208,-0.7898924,0.16687329,-0.3022105,-0.11296393,-0.19190964,-0.30354443,-0.26195234,-0.5170887,-0.10642066,-0.4995866,0.83441883,-0.08821462,-0.006101012,-0.81510806,0.33414945,-0.010703784,0.15498114,-0.1405081,-0.31485122,-0.1738878,-0.6923842,-0.23365124,-0.13502987,-0.061447892,0.086762175,0.5368937,-0.045960687,-0.30228624,0.016311172,0.446994,0.027006872,0.36037016,0.46379486,-0.11336752,0.124490134,0.9589379,0.05709507,-0.16522336,0.025831548,0.36113784,-0.3499226,0.13032217,-0.71851957,0.14767395,-0.26939997,-0.09818262,0.11366661,-0.31631425,-0.5631481,-0.03869877,-0.13252148,0.3178043,-0.20470116,0.11164123,0.11766885,0.15575275,0.69985265,-0.575307,-1.3545032,0.2534973,0.19248061,-0.08524272,0.0120219,-0.3060319,0.7570459,-0.08679339,-0.25867116,-0.043699436,-0.33888486,0.42336306,-0.31401777,-0.26551405,0.26670286
heartfelt,0.2829114,0.35363686,-0.68398464,-0.5463832,-0.5240504,0.31801176,0.21420139,-0.63502145,0.5594252,-0.28896144,-0.30593145,0.35083726,0.12464859,0.13957196,0.293969,-0.17954263,-0.072868876,-0.25344557,-0.3949308,0.15048902,-0.399861,-0.1501581,-0.6315457,-0.66945875,-0.73324573,-0.19225734,0.35448006,-0.08676713,0.4736197,0.22487584,-0.54113185,-0.6153345,-0.19309075,0.18276972,-0.0047012707,-0.46527204,-0.16263193,-0.17116663,-0.40839413,-0.25126225,-0.62158513,-0.09762384,-0.29190448,-0.68021077,-0.44324157,-0.08960021,0.2817534,-0.46237537,-0.120402396,-0.8775527,0.46426323,0.25809073,0.5870999,0.19372177,-0.4914881,0.36583495,0.2007338,0.09170702,0.28399783,0.015667936,-0.122989185,0.19995098,0.5791551,0.43319255,-0.19008555,-0.1331972,0.38044363,-0.70150447,-0.13022304,0.0851049,-0.32774696,-0.5238259,-0.07887884,-0.083054364,-0.083875306,-0.008290293,-0.5042338,-0.44569933,0.05862545,0.6432056,1.0075871,-0.087809056,1.7675015,0.7141482,-0.047408696,-0.89887863,0.054158166,0.38079125,0.044672795,-0.06264991,-0.7238434,0.4134773,-0.3896221,0.15933889,0.87933666,-0.718449,-0.20566776,-0.05648904,-0.38069454,0.22685538
interested,-0.40609673,-0.44662493,0.2559118,-0.5465249,-0.38797832,1.1366588,-0.9517729,-0.47802052,0.30698702,-0.418085,-1.0463005,0.57379574,0.70138204,-1.2416887,0.1617381,0.16524486,-0.9279192,0.6798995,0.22393647,-0.02876795,0.13495043,0.11984848,-0.80078906,-1.205096,-0.9312129,0.013096636,-0.58132315,-0.55266255,0.20716046,-0.105152875,-0.97718847,-0.5813219,0.116772555,0.020598153,-0.30570784,0.6873007,-0.68362945,-0.8141375,-0.83141947,-0.4609969,0.11518743,-0.0007826236,-0.043623466,-0.044721384,1.1149864,0.9635412,0.4074301,-0.56477296,-0.06776521,-0.011917979,0.6147199,0.80793357,0.76656073,0.2389222,-0.6758512,0.5028628,0.6964059,0.39923832,0.21554826,-0.436091,0.39903912,0.09845995,0.5324425,-0.71111745,-0.39234436,0.26161495,0.8268825,-0.58940196,0.49304253,-0.22866718,0.21224111,-0.6631063,0.8824079,0.15367065,-0.76356363,-0.19669099,-0.16193847,1.2649175,1.1955131,0.00686339,-0.31000206,-0.46180564,-0.76561606,1.2018375,-0.30094445,-0.83141714,-0.76230997,-0.09154135,0.92014444,0.25348943,-1.0229065,0.56694883,-0.41258734,0.73517233,0.7815137,1.322329,0.23597655,0.15517694,-0.77542126,-0.6648386
comfort,-0.23487067,-0.21687306,-1.1645422,-0.25892153,0.2275023,0.10503419,-0.06551551,-0.43298405,0.23886675,-0.31487483,0.4537703,0.033032756,1.0864527,-0.6270958,0.04738658,-0.21089864,-0.675767,0.9171059,0.31208014,-0.18994541,0.05634542,0.07415058,-0.11252367,-0.448242,-0.59279287,0.5898071,-0.36376944,-0.4237067,-0.9320642,-0.70480686,-0.40358678,-0.5787222,-0.19459738,-0.33037072,0.12366061,-0.6618049,0.40669718,0.50668156,-0.22715066,0.09703771,-0.06307612,0.28066692,0.044583425,-0.98678803,0.2795696,-0.253336,-0.45977652,0.38473198,0.8111528,-0.004677467,0.095912606,-0.43922046,0.25435647,0.2886732,-0.6469082,0.30177385,0.017283045,0.06377905,0.6148535,-0.04324173,0.190372,-0.50312704,-0.003112929,-0.99446493,-1.2808532,-0.41883457,0.9465073,-0.8029567,-0.01483305,0.49066263,0.11850222,0.4117841,-0.06376232,0.09663304,-0.5397515,-0.8682865,0.30089918,-0.16627418,-0.4055757,-0.25102127,0.5757987,0.1026833,0.91160077,0.8754713,-0.26535186,-0.80733395,-0.7400702,0.5525138,-0.36148393,0.37588528,0.06002172,0.61477304,-0.4725282,0.13191013,0.049987298,-0.10756616,-0.18184671,0.31900075,0.41899014,-0.794279
ambition,0.8995343,1.0248832,-1.1325114,-1.0761621,0.30027038,0.4051229,0.63785785,-0.46570674,0.008155506,-0.105937205,0.70761335,0.5647404,1.2280306,0.06106023,0.013540482,-0.20972966,-0.057768926,-0.5862485,-0.7377713,0.669829,-0.7326434,0.35723346,0.5426857,-0.46034306,0.40065828,0.00879163,-0.3417038,0.19174714,0.3990865,-0.030598424,-1.6433668,-0.17271574,0.5344534,1.0021398,0.4889162,0.2455793,-0.9155194,0.5693814,0.33516714,0.102084145,0.357957,-0.30085528,-0.20826903,-0.11729007,1.2514569,-0.057291735,-1.2350782,-1.2764496,-0.8141946,0.08913505,0.2063662,0.41445574,1.1023362,0.89702886,0.17457661,0.18969926,0.65966016,-0.5453747,-0.17694962,0.13663954,0.6756062,-0.25609857,0.6367935,0.25848037,0.12745756,0.45170653,-0.08868516,0.47543347,0.07600651,0.5677405,0.25831512,-0.4915601,0.058415484,-0.70738214,-0.38113868,-0.34150133,-0.27942047,-0.07904546,0.72330314,0.5986729,-0.717546,-0.054846745,-0.07372016,0.6200766,-0.64894736,-0.3824984,-0.62631136,0.468126,0.3465424,0.13799025,-0.478431,0.87900466,0.45481133,0.2560479,-0.9083503,-0.039772898,0.0538178,0.27462986,-0.7976139,0.005126418
optimistic,0.15090086,0.33885652,-0.832872,-1.0772886,-0.12632473,0.16961616,-0.13821955,-0.7439237,0.2182189,0.07552058,-0.3805618,0.25970593,0.8947669,-0.052812185,-0.3168947,-0.7282882,-0.55800027,0.530415,-0.42098317,-0.03694434,0.5965067,-0.5378481,-0.21970774,-0.10939036,-0.91939086,-0.6131783,-0.13159698,-0.08798298,0.6954095,0.07616394,0.07429784,0.21004948,0.23910148,-0.2197524,-0.53818744,-0.22344534,-0.28617862,0.68250805,-0.35169423,-0.8456105,-0.3524426,0.21477228,-0.3693438,0.24081132,0.104321465,-0.17379981,-0.42540807,-0.12587056,0.16651234,-0.3694993,0.59401757,-0.011946526,-0.014943673,0.5894868,-0.5940618,-0.021676943,-0.15989874,-0.006273544,-0.15476967,0.23672627,-0.30739203,-0.36351928,0.9481465,-0.12972492,0.1075467,0.2537843,0.7893659,-0.5486504,0.1660659,-0.21361494,0.05734216,0.02431814,-0.05763044,-0.35914117,-0.4974281,-0.14153573,-0.32677558,-0.016460504,0.10297946,0.09079596,0.7126726,0.40569517,0.15867096,0.1690478,0.15699053,-1.1401417,-0.124418825,-0.4715098,-0.37687746,-0.10363936,-0.2232662,0.29850852,-0.17378294,-0.064055726,0.7168651,-0.2716906,-0.586665,0.45038685,-0.40851423,-0.14183179
alarm,-0.27416024,0.8947147,-1.1336652,-0.13535602,0.8019102,-0.51203316,-0.13176885,0.53235877,0.56210357,0.69428396,1.1434073,-0.72889835,0.42878258,-0.5015518,-0.450122,-0.27614522,-0.7220565,0.25902522,-0.6794037,-0.46455866,-0.64558154,0.6966405,-0.42353997,-0.65943,-1.587785,0.48909637,-0.5800518,-0.6693585,-0.20406814,0.060990565,-0.18117371,0.04143531,-0.32581225,-0.76695365,-0.051012587,0.2491058,-0.9097717,0.6147423,-0.4404195,-0.4093785,0.43892926,0.92283505,-0.10460819,0.6183509,-0.07364317,0.14646031,-0.6007958,-0.83502275,0.17153853,0.6546348,0.97781277,0.55152345,-0.14496075,0.09229824,-0.90763867,0.5800062,-0.24137561,-0.7313552,0.70716053,0.9067791,1.0418237,0.21086201,1.0109348,-1.0683374,0.0121610435,0.112078905,0.0723136,-0.6513162,0.42848843,-0.20829153,0.36891577,0.84965354,-0.0525861,-0.71929467,-0.11994477,-0.6192575,-0.1450296,-0.22877459,-0.8153076,-0.046657324,0.25889078,-0.017359104,0.093486145,-0.5582832,-0.3385668,-0.3938437,-0.8777326,0.045650207,0.5254104,0.48028678,1.0459764,0.13366857,-1.1417933,0.7251879,-0.4670795,0.3438521,-0.5323767,-0.46408176,-0.72365665,-1.2357186
triumphant,0.6783227,0.60678506,-0.58057064,-0.7485153,0.07671949,0.44082898,-0.40822968,-0.63725096,0.6716219,0.30332485,-0.32922727,0.22488862,0.71435827,-0.114890724,-0.64804816,0.28044418,0.25611418,0.603679,-0.6110257,0.031849984,0.018104179,0.6297367,-0.8448267,-0.6193641,-0.4498507,0.049150832,-0.6133742,0.06336806,0.7861795,0.29680842,-1.0512553,0.044913556,-0.02264203,0.40168402,0.24677728,-0.7194619,-0.8585003,0.60424644,-0.17242698,-0.8195142,-0.31290603,0.49700892,0.6105944,-0.31221008,1.0082319,-0.32830763,0.12828393,-0.51319486,0.24473956,0.15487191,1.0323305,0.6126383,-0.78541625,0.089025855,-0.63837814,-0.46517605,0.1762243,0.054914884,0.14281629,-0.31579974,-0.20915906,0.20472038,0.7116457,-0.16874412,-1.044777,-0.0932766,0.18895194,0.6357351,-0.36488864,-0.29972893,0.42908496,0.7225161,-0.20967972,-1.02852,0.25359243,-0.12788898,-0.094632104,0.32213613,0.30080476,0.12877138,0.78323555,-0.12069033,0.7091386,0.521351,0.19902551,-1.2743456,0.023629205,0.3629118,-0.31318197,-0.5415572,-0.1462757,0.2866583,-1.0072598,0.5718681,0.49548027,-0.33779076,-0.4410476,0.6329766,0.70475,0.4599064
glad,-0.800107,0.3092024,0.35866,0.5450052,0.06989015,0.053624943,1.0744162,-0.10431574,0.51535195,-0.071948886,0.21543956,0.7761163,-0.068917915,-0.025781445,-0.95614547,-0.1838776,0.32853344,0.13821176,0.18241392,-1.1164112,-0.012273434,0.9165532,-0.8818618,-1.0764202,-0.48742417,-0.4374955,-0.032147165,-0.99667054,0.15300526,0.24936154,-0.6574015,-0.7443278,-0.024178855,-0.07579241,-0.44023302,0.73070836,-1.0200096,-0.02383309,-1.1663885,-1.188358,-0.67030823,1.0067796,-0.03417803,-0.62986153,1.0284357,-0.9211497,-1.5263252,-0.49636632,0.15406378,-0.47629553,0.51548916,1.3081906,0.22428705,0.21300033,0.25279677,0.067214675,0.7952507,-0.8808854,-0.042958472,0.6527419,2.0784578,0.083511025,1.1257007,-0.2668508,-0.20609955,-0.38180047,0.6657391,-0.4657709,0.062507056,0.21825576,0.1542691,-0.40996394,0.54195917,0.013735904,-0.6684284,-1.7420398,-0.122035354,-0.623889,1.452579,-0.1987927,-0.3065791,-0.45998177,0.6474161,-0.068226084,-0.04730247,1.2207131,0.6984379,-0.4278426,1.0161476,0.4925126,0.21078077,0.99209285,-0.084397785,-0.0839945,0.40919787,1.9874913,0.50285846,0.23503986,0.07365633,-0.44828847
sarcastic,-0.2796011,0.4718213,-0.30397907,-0.99475163,-0.6321495,0.8898697,0.12331268,-0.3901157,0.032519802,-0.7930462,-0.27785212,-0.90874904,-0.071033,-0.08987184,-0.17668925,-0.24664399,0.22931139,0.65238667,0.3284562,0.17890857,0.5081369,0.3499574,-0.5041546,-1.2877854,-0.19443613,0.69384915,-0.31019044,-0.036849234,0.61017483,-0.14156012,-0.5031583,0.98893595,-0.14475311,-0.6620704,-0.14984977,-0.6857175,-0.2123775,-0.54366034,-0.75496733,-0.08138838,-0.18681373,0.7174055,-0.62050515,-0.057197597,0.5299444,-0.30004904,-0.16033271,-0.6961501,0.473291,-1.0653069,0.33325192,0.76370275,0.13872772,0.32370904,-0.2974628,0.6506059,0.68704885,-0.535127,0.816472,-0.03442243,0.089630045,-0.521423,0.8086532,-0.32107717,-0.5955167,0.5783891,0.55404294,-0.06356219,-0.24624856,0.13207176,-0.16021001,-0.6677522,0.084397644,-0.991031,0.07368366,-0.5437044,-0.6906073,0.58627486,-0.32686463,-0.04010045,0.42104787,-0.567086,0.32800722,0.9119628,-0.18224305,0.032176934,-0.7820967,0.6147071,1.0552051,0.32038602,-0.35319626,0.8604209,-0.5562093,-0.636589,0.3651694,0.17873168,-0.8613093,1.0967691,-0.049149387,-0.2529077
pensive,-0.45308578,0.37857005,-1.1876972,-0.61220837,0.05275473,-0.21419434,-0.13282768,-0.051831394,-0.22893056,-0.27735063,0.04293296,0.22218977,0.4173987,-0.09881666,0.012260961,-0.6025901,-0.7918949,-0.6734578,-0.27343145,-0.5915549,0.30803165,0.4381013,-1.2293925,-0.6924636,-0.42234424,-0.338145,-0.3898377,0.0829667,0.5151418,0.14640065,-0.14775927,-0.34093568,-0.21925268,0.34838727,0.023382368,-0.36049384,0.30915377,0.24716966,-0.2498811,-1.2237387,-0.11875181,0.37878978,-0.19889787,0.2863502,0.251608,-0.07361489,0.6008054,-0.053227387,0.8220987,-0.29217058,0.3751005,0.59482056,0.44923684,0.022939298,0.16104767,0.16483514,0.3779998,-0.4038944,0.3810275,1.0191163,0.1497186,-0.61103994,0.2634559,-0.53158545,-1.0288177,-0.76911956,0.81468743,-0.2456824,-0.15155043,-0.898122,0.30260092,0.37777755,0.031999696,0.431531,-0.53015035,-0.9213312,0.14596431,-0.7550054,-0.09671673,0.28231284,0.6277503,-0.32549056,-0.07044867,1.1926347,-0.4822299,-1.2920088,0.58742565,0.003829654,1.0287399,-0.49428844,-0.56414735,0.85839397,0.6060116,0.14563069,0.6319362,-0.2690097,-0.22346225,0.2429538,0.93662655,0.34559724
confident,0.61446387,1.1921514,-1.0147165,-0.92581254,-0.10186305,0.1383171,-0.30419716,-0.4598376,0.49030748,-0.15243165,0.32151365,0.031494725,0.93290424,-0.19926682,0.16414024,0.24723819,0.12490297,-0.37520424,0.11277086,0.14187656,-0.5836129,0.12315527,-1.260506,-0.8125436,-0.9047078,-0.27760896,-0.41028818,-1.1719902,0.14058292,-0.17809302,0.14835453,-0.07509146,-0.26647612,-0.20728113,0.01899591,0.08848516,-1.0301696,0.36672646,-0.66940045,0.0052494695,0.77474755,0.70018244,0.058620565,-0.23749669,1.1962054,-0.8328366,-0.55630225,0.100559734,1.0276823,0.3112394,0.18452094,0.5020425,-0.5926579,0.18975131,-1.46264,0.019043263,0.02827174,0.24812482,0.46751866,0.82394403,-0.33155262,-0.5971919,0.34735548,-0.29065776,-0.65956146,0.08266084,0.4540461,-0.25402325,0.8710092,0.27928698,-0.015138129,-0.08551383,0.3635514,-0.25999284,-0.4109753,0.46981147,0.17560858,-0.108444765,-0.003977359,-0.3342108,0.49024293,0.09821578,0.60821176,0.38245943,-0.33318576,-1.0744023,-0.17297496,-0.38259572,0.83533245,-0.44497314,-0.5889388,-0.031079857,-0.5467121,0.14869885,0.41759568,-0.18047975,-1.2716899,0.43657786,-0.116923414,0.12521523
defiant,0.6880817,0.698827,-0.72454244,0.046355985,0.56464416,0.409055,0.24295929,-1.4444177,0.50111693,-1.0198177,-0.40941104,1.1373086,-0.054435387,-0.07414335,0.58023816,-0.2111581,-0.14407286,-0.16830817,-0.57085246,0.038667038,-0.01953479,1.375041,-0.97382796,-0.16678211,-0.12446688,-0.11094528,-0.9776708,0.16192222,0.52476186,-0.70735335,-0.58454823,-0.54768133,0.20585136,0.097570546,0.1670846,-0.2249328,-0.4776371,0.1341788,-0.12978192,-0.67131156,-0.75175524,0.7765001,-0.9654779,0.37235394,-0.38019115,-0.60316753,0.5705049,-0.960722,-0.3339813,-0.31403652,0.40358922,0.8947047,0.81584936,0.050976865,-0.90785617,-0.5486583,0.11786696,0.27336237,0.3170269,0.34599707,-0.47691616,0.011135496,-0.04619789,-1.6238573,-0.7151967,0.07293801,0.31832382,-0.087149024,-0.2812698,-0.16754586,0.0062465877,-0.27666485,0.20379688,0.036045827,-0.3437216,-0.7744311,0.6594908,-0.5324629,0.20285754,0.037585262,-0.5851413,-0.23227565,0.34703067,0.7538726,-0.4957747,-0.16400051,-0.2880215,0.10338196,1.086644,-0.6793082,0.57064676,0.506643,-0.52613616,-0.004040402,-0.08689726,0.15637335,-0.2670996,0.45465696,0.25668937,0.12733673
heartbroken,0.53895414,0.86171865,-0.84947944,-0.8207649,-0.20581299,0.49529615,0.28320783,-0.717735,0.009489153,0.44170818,-0.5986574,0.08262112,0.06966561,0.54218024,0.96739376,-0.2626946,-0.7133352,0.14640464,-0.12456316,0.41878983,-0.097984105,0.19498247,0.09888357,-0.9270506,-0.18199919,0.8649204,0.039554223,-0.70672536,0.09074281,0.095263354,-0.741855,-0.6280099,0.2652565,-0.045384437,-0.42650703,-0.52754736,-0.72073984,-0.3978522,0.44627982,-0.16783562,0.03445818,0.052705992,-0.26982498,-0.42880368,-0.51209587,-2.2276858e-05,0.05734197,-1.1150156,-0.25559768,-0.536117,0.35591468,0.34146044,0.5047331,0.31289965,-0.265005,0.3714085,0.045566406,0.2017352,0.81294274,0.45023128,-0.64133143,-0.052792188,0.030090312,0.11257715,0.04684606,-0.862717,0.20136614,-0.38448036,0.4039339,-0.28410578,0.3607041,0.16390201,0.7246803,-0.25515127,-0.9825336,-0.4299803,0.06861191,0.23610373,0.17472526,0.40126252,0.0009480075,0.534129,0.08949165,-0.065903425,0.06639584,-0.84149307,0.702913,0.34911042,0.10966491,0.253731,-0.58821124,0.6471124,-0.3367569,0.014832419,0.21106596,0.5389302,0.30967328,0.4122484,0.006837616,-0.40305176
tense,1.9864336,-0.34955087,-0.14500159,0.1521667,1.1870457,-0.031356104,0.040308207,-0.6829276,-0.36315757,-0.3723995,0.08539443,0.8951521,0.2647547,-0.21902844,-1.6019423,0.8786097,-0.7151979,1.5028205,0.43944874,0.42189384,-0.6541817,-0.38791496,0.42818394,-0.7964708,-0.2128906,-0.0139790205,-0.58179474,0.37839818,0.85761154,-0.64312404,-0.8355517,0.4080408,-0.20950705,0.25637886,0.50594616,-0.47983906,-0.55247074,-0.060300246,-0.2750835,-0.17402992,-0.13307174,-0.1425,0.14139687,-0.10918677,0.094537996,-0.6337547,0.18368517,-0.8008005,0.8457764,-1.466632,0.13925117,0.5368559,1.1711487,-0.1546973,-1.0133232,-0.017629772,0.16518335,0.37799892,1.7904404,-0.37841156,0.9510249,-0.15465005,0.98222524,0.5360909,-1.336698,0.76674324,0.86113036,-0.34173626,-0.28131375,-0.36300626,0.8205169,-0.71792614,-0.3976213,0.24008414,-0.51047283,0.25972933,-0.3292026,1.0253246,0.92233884,0.5223526,1.0595331,-0.53015715,0.34323978,0.3707581,0.076920666,-1.3712767,0.38269272,0.013574107,0.6864768,0.10034612,-0.044581406,1.0187234,-1.092648,0.37359977,-0.19819961,0.49885538,-0.27754351,-0.7701457,-0.4104517,0.29739746
determined,0.42540115,1.215019,0.051678214,-0.03557522,-0.17212968,0.8891239,-0.0036470348,-0.43149367,0.41028497,-0.06352697,0.11976857,0.99109066,0.5321454,0.2737503,0.47488853,-0.08536917,-0.6490276,0.31507182,0.478673,-0.2904694,-0.47780818,-0.017359523,-0.44755164,-0.3349526,-0.44684553,-0.11510705,0.49643552,-0.36195263,0.60377645,-0.63104564,-0.47988573,-0.015466509,0.26748216,-0.40004665,-0.0223109,-0.41369846,-0.98678446,1.1537797,-0.22397374,-0.56608146,-0.762972,-0.20575157,-1.2179276,0.39676294,0.78656113,-0.046278834,0.33238262,-0.8122239,-0.03245884,0.55201876,-0.5928999,0.5210292,0.7481891,0.45372343,-0.7004145,0.53127384,0.15759018,0.13561709,0.54288256,-0.3622571,-0.22168665,-0.061814744,1.1450241,-0.03050585,-0.05570654,-0.9460354,-0.1667902,0.38548777,-0.0027624574,0.15116793,-0.16831388,-0.09727245,-0.16579887,-0.13395363,-0.36056924,-0.35107467,0.357477,0.5944576,-0.19342288,0.11277478,-0.6518592,0.20547414,-0.27264947,0.50256145,-0.38849306,-0.7114384,-0.029853657,-0.8485554,0.6413842,-0.21646903,-0.5054385,1.0023364,-1.2799139,-0.010850657,0.6414253,-0.2498404,0.5455757,-0.19803725,-0.3773594,-0.060817547
afraid,-0.15686533,0.7296524,-0.70539725,0.19220033,-0.27563462,1.3125979,0.7902979,-0.6532058,-0.91202915,-0.56842524,-0.0016570722,-0.5696707,0.13305426,-0.091186576,-0.12603702,0.118354455,-0.6756436,0.77963156,-1.1229854,0.20772485,-0.26210412,0.27633363,-2.1368456,-0.42721888,0.23768625,-0.6626908,-0.05715501,-1.4719605,0.055571157,-0.24265498,-0.6847313,-0.8093115,-0.096851446,0.21106797,-0.19058836,0.5584914,0.014747863,-0.1338699,-0.050830938,-1.3476212,0.6406397,-0.32660863,0.36794698,-0.18022603,-1.3127716,-0.11495846,-0.43027216,-1.4391916,0.88608885,-1.0925338,-0.45405105,1.4173988,0.20089087,0.860485,-0.15547577,0.9218605,-0.34946215,0.858046,-0.29624835,-0.6572963,-0.94748795,0.16991808,0.20604657,1.0613467,-0.4247617,-1.7684221,1.122806,-0.32346043,-0.27991232,0.42559883,0.6679472,-0.8782532,0.658966,-0.49767828,-1.4369992,-0.38675246,0.12432329,-0.49381188,0.63120997,1.0770745,0.4504159,0.018552216,-0.41220194,0.7629306,0.052369453,0.65071833,-0.6008378,-0.44112393,-0.31721333,-0.24568301,0.1876189,0.29268947,0.5061393,0.6209413,-0.8366076,0.02230015,0.8979286,-0.36899152,-0.1489669,0.020348499
scary,0.33473808,1.3598999,-0.45004106,0.15149038,-0.2621414,0.25812924,0.0056178668,0.037546244,0.17019968,-0.22649914,0.68622226,-0.46758303,1.1503602,-0.826856,0.5304936,-0.31421033,-1.2472731,0.026809787,0.54397047,0.5875337,0.6191622,0.4731582,-0.576184,-1.0786389,-0.322289,-0.27971253,-0.18145129,-1.2858937,0.51882637,-0.08134166,-0.34108505,-0.33333224,0.40562057,0.09144863,-0.34391722,0.3126403,-1.2185919,0.20108967,0.5703875,0.8360069,0.31813735,0.28811216,-0.5886976,-1.4092774,-0.84344155,-0.5029761,0.3462793,-1.2930523,0.5599996,-0.19515535,0.2940617,1.2055867,-1.0690118,-0.32934818,-0.23979758,0.28771168,0.5125936,-1.2613991,0.1545068,-0.9766169,0.30677357,0.096879065,0.71677214,0.34764823,-0.1070528,0.6515948,1.1078649,0.40210804,-0.8071106,-0.7210909,0.6906716,0.18847321,-0.99153537,-0.081178576,0.22246484,0.41177055,-0.57073,0.7311369,1.4016347,-0.6706299,0.578392,0.32288074,0.14433308,0.28302196,-0.55015695,-0.8505056,0.25524142,0.64738417,0.62722784,0.025339784,-0.86010176,0.48784682,0.5523202,0.4102633,-0.03845035,-0.4537557,0.83278674,-0.41098723,-0.11385877,0.053472772
impressive,-0.43198887,0.34497505,-0.44515115,0.45506397,0.726759,-0.353528,-0.35544732,-0.48865023,0.0019861234,-0.77775127,-0.50661784,0.24935536,0.17191915,0.3250866,-0.048119523,-0.7733332,-0.39371264,0.080394305,-0.25801766,-0.68688226,0.14569618,-0.12669556,0.08524971,-1.3221742,0.22638962,-0.14777236,-0.13635042,-0.113794945,-0.13050622,-0.21445458,0.09353678,-0.22044659,-0.035863858,0.65005857,-0.044382785,-0.12967601,-0.5885344,-0.2781696,-0.28229576,-0.10050273,-0.55695,0.41703922,0.16614105,0.1447317,0.32853505,-0.41641188,-0.40407163,-0.24664873,0.4193352,-0.15065387,0.34074628,0.43365458,1.0582012,0.090151414,0.110542685,-0.04840945,0.5124585,-0.88806367,-0.22419432,-0.6656898,0.36422268,0.8138813,0.36063248,0.07550038,-0.53031725,-0.11928871,0.76833403,-0.99162906,0.39679152,-0.24756956,0.5184311,-0.5092415,-0.10157983,-1.148544,-0.6471776,-0.47894242,-0.24212787,0.15777306,-0.5670266,0.077215225,0.25758973,-0.3198661,0.43803093,0.20498897,-0.57816213,-0.46870503,-0.34308696,-0.21653542,0.06763328,-0.18759975,-0.75526714,0.34324428,-0.7704152,0.31971732,0.06732043,0.21069658,-0.269212,0.38257453,-0.04909447,0.082775384
amusing,0.26579845,0.41231972,-0.31482816,-1.2484171,0.14879473,0.84016275,-0.21712065,-0.58099645,-0.04269218,0.56318104,0.20104598,-0.38393575,0.2727607,-0.30690274,1.0780908,-0.4935338,0.070662774,0.72404164,-0.5604511,0.5602084,0.054431,0.6836462,-0.534059,-0.34007084,-0.7086711,0.28538775,-0.20341845,-1.0683932,-0.0058680004,0.013603031,-0.27319717,-0.017959261,-0.04033065,-0.08838394,-0.1459502,-0.020979375,-0.87450564,-0.0913646,-0.30987486,0.5816612,0.38892508,1.2831337,-0.08305486,-0.5973748,-0.066922285,0.0032695688,0.29561412,-1.2022457,0.14289263,-0.12757447,-0.33794397,-0.16098158,0.8354406,0.032640476,-0.5362576,0.39987364,0.5695476,0.014243088,1.2433302,-0.008031767,0.36100146,0.3992773,-0.029960826,-0.3078264,0.9098463,0.15472376,0.10025148,0.15018402,-0.67918247,0.33399004,-0.5118024,-0.6168397,0.11246433,-0.17772052,-0.48360318,-0.02399911,-0.44957155,0.41343942,0.4149274,0.25248197,0.5164769,-0.24949153,0.110847324,0.41392502,-0.41054553,-0.7740138,0.09680196,-0.053332265,1.4053887,0.49917755,-0.6171882,1.0282283,-0.07691718,-0.68974227,0.57474405,0.75842273,0.52167,0.15171172,0.2418928,-0.39380488
solemn,0.1694512,0.37764123,0.13835673,0.055098794,0.5484455,-0.17493734,-0.1719541,0.036697518,0.49007982,-0.090059176,-0.5031833,0.5065397,1.7254488,0.79240465,-0.5221918,-0.41241622,-0.2124052,1.1495876,-0.007892094,0.80203295,-0.15566957,1.2449846,-1.1018262,-1.0166914,0.07529483,1.1454895,-0.5014802,-0.39786795,0.44167942,0.78838474,-0.2336789,0.03259856,0.37647638,1.3868307,-0.010541448,-0.81016016,-0.37985978,0.10453363,1.6105831,0.6810857,-0.15807663,0.29359838,-0.27807483,-2.4822671,0.90868264,0.026504103,0.72872007,-0.37303284,1.0472838,0.60546327,0.184091,0.3628223,0.06350969,0.24609818,0.74294895,0.39690238,0.38577795,-0.26241314,1.3372846,0.047547713,0.44822946,0.09850701,0.9396757,0.07747811,-0.23331504,0.11940554,0.56782067,-0.113844655,1.1190602,0.25253004,1.3781841,0.058452,-0.7726348,-1.0132438,-0.36386675,-0.090400256,-0.2975691,-0.57270604,-0.4427143,-0.3919192,0.24249831,0.19400404,-0.050391916,0.8029275,0.8524,-0.070782885,1.1527517,0.6810926,1.2826835,0.9327029,-0.35162905,1.1801105,-0.33731025,-0.85764617,0.47845426,-0.1023106,-0.44569287,0.19832534,-0.18528393,0.81879365
jealous,0.66077214,1.5354697,-0.24743885,-0.49945295,-1.01709,-0.48711404,1.4577618,-1.339191,0.03442065,0.103254996,0.34374827,0.35842937,1.5680149,-0.56695735,1.5880597,-0.40201673,-1.1141489,0.86268485,-0.35480782,-0.3060799,0.35062182,0.029242843,-1.4151876,-1.1462245,-0.7544258,0.34593588,-1.5197117,-0.2669491,0.73375756,-1.4962207,-0.70119154,-0.8578195,-0.83382976,-0.889718,-1.0125643,0.49783632,0.10034555,-0.04789766,-0.25537646,0.4861715,0.10164407,-0.9151757,-0.11691049,-1.1971,1.015606,0.04232077,-1.6506199,-0.044771735,-0.16673832,-0.119293675,0.66606176,0.571699,0.34224862,-0.51036775,-1.4334434,-0.14457424,-0.0030959197,0.8852682,-0.382862,-0.66093564,-0.12496671,1.4096245,-0.49989265,-0.046700463,0.25411656,-0.03179353,0.94238865,0.10489958,-0.18266013,-0.9914057,0.20943734,-0.9491002,1.1941229,-1.2689309,-0.30868286,-1.6151403,-0.15075092,-0.17253461,0.7150671,1.0219139,0.5308836,1.3361851,-0.14457148,-0.80084616,-0.0018357753,0.09365573,0.10848282,-0.7003061,0.28357884,-0.28171837,-0.29652092,0.24202663,-1.2678269,1.9682218,0.007010506,0.46178615,1.1512167,0.13965908,-0.93614614,0.5391169
contemplative,-0.3724386,0.06197701,-0.7475353,0.0003813668,-0.26721933,0.91222566,-0.2868332,-0.63811386,0.7358601,0.006864079,0.020887284,-0.123073146,1.0034794,0.0676294,-0.48335394,0.19612469,0.7340521,0.3516027,-0.09043275,0.063268766,-0.09370104,-0.017030232,-0.280325,-0.4968493,-0.09327167,0.0030749338,0.09025373,-0.28685632,0.094135836,-0.21336606,-0.7320853,0.3206886,-0.007971732,0.39827058,0.55341417,-0.55725074,-0.38224095,0.19570576,-0.8529865,0.096814305,-0.7625594,0.93162507,0.27323,0.27666524,0.70154375,-0.53931934,-0.20228767,-0.7485937,0.85856575,-0.21035047,0.13982154,0.3314094,-0.25675303,0.68675137,-0.21052994,-0.23432381,0.74952775,-0.51801294,0.2659901,0.5868857,-0.016898563,-0.46466684,0.29015175,-0.10026781,-0.3919583,-0.026837071,0.68494695,-0.087206654,-0.88114125,-0.34759426,0.614303,-0.3256973,0.31004375,0.35548896,-0.39411002,-0.18648787,-0.33169398,-0.38663656,0.090134606,0.6440699,0.6316552,-0.21893138,0.37318724,0.022574851,-0.2757102,-1.0817865,-0.33953452,-0.5453115,-0.5084746,0.05513305,-0.5188545,0.7744071,-0.1385717,0.2828195,0.41480005,-0.6488352,-0.64658755,0.22622873,-0.15485439,0.06045012
cynical,0.3252517,-0.0688698,-0.4581574,-0.6479749,-1.4072049,0.7278341,0.72900414,-0.43719503,0.29709488,-0.6145788,-0.36431,-1.288949,-0.0934394,-0.13773207,-0.023290122,-0.6918752,0.047269087,-0.025137255,-0.15980889,0.7286492,0.04492309,0.7991789,-0.028375411,-1.4922416,0.011752114,0.013662862,-0.39250836,-0.15038975,0.5290345,-0.70675385,-0.6279154,0.50595,0.40737084,-0.5150199,-0.4769872,-0.5180449,-0.3919738,0.22346494,-0.5713091,0.29698274,-0.15372597,0.8240753,-0.559731,-0.22711736,0.3133958,-0.51164466,-0.17380036,-1.1049196,0.30741128,-0.6450312,0.11955997,1.2883438,0.14642814,0.65227526,-0.55030346,0.92119515,0.11692678,-0.4434477,1.3943992,-0.06390395,-0.2616915,0.4890733,0.42339605,0.01259646,-0.08592268,0.18415901,0.63738185,-0.17679712,-0.7290145,0.27865127,0.08669562,-0.6592089,-0.10151548,-0.33608004,0.0222897,-0.317682,-0.33719453,0.32701078,-0.20352358,-0.457393,0.08880597,0.1471131,0.2299467,0.93016577,-0.71663046,-0.06536781,-0.14611284,-0.20692152,0.88754976,-0.044232134,-0.34426355,0.7498777,-0.29639497,-0.69244653,-0.049655564,-0.2392036,-0.52413535,0.7987807,0.3692521,-0.0921037
nervous,0.37267488,0.7818662,-1.6507537,-0.07105754,0.0684848,0.5795654,0.87969905,-1.2147968,0.011639204,0.33041,-0.55127233,-0.036980238,1.7929032,0.442751,-0.22458093,-0.19374362,-0.66817737,-0.30350095,0.5327221,-0.03673636,-0.5359547,0.7627758,0.11140576,-1.3973931,-1.4117651,-0.2887582,-0.4436382,-0.7962709,0.1928582,-1.4637418,-0.6168794,-0.32368714,-0.83047616,-0.71918577,0.0032029958,-0.011748388,-1.578249,0.5085916,0.61970085,-0.5770078,0.38290095,-0.66509265,0.4078316,-0.98191136,-1.0886339,-0.4056173,-0.09629986,-0.83315754,-0.5644284,0.16923726,-0.68402106,0.6875984,0.7394355,-0.02071845,-1.1583571,0.5889968,0.72397417,-0.28001672,1.2176113,-1.0292197,1.1421586,0.58857214,-0.035608165,0.57429576,-1.0082405,0.49219778,0.7144255,-0.5921883,-1.3151833,0.62689817,1.5142778,0.26950017,0.14898197,0.41942358,0.6018224,0.108526394,-1.1278672,0.26103467,-0.4944153,1.2986609,0.77083135,-0.64324313,-1.1056167,0.5907776,0.51014745,-1.0015295,-0.7965109,-0.24952146,2.0598862,0.46343485,-0.7171861,0.69538593,-0.16643241,0.7998346,0.9756107,0.15003118,-0.7181378,-1.6782486,-1.2576777,1.2883215
distress,0.3041318,0.098257996,-1.155845,-0.3196755,-0.43524545,-0.2593195,-0.050855108,-0.45493543,0.35150507,0.22482866,0.34308374,-0.06595275,0.575055,-0.20817298,-0.042798605,-0.32197127,-1.2639899,-0.52614206,-0.12563853,0.28558302,-0.2450447,1.1850853,-1.5295587,-0.06487157,-0.4502062,-0.025805729,-0.6871452,0.10589545,0.4968018,-1.0715983,-0.37416115,0.029133366,-0.13376124,1.051441,0.14281096,0.0035786116,0.13252126,0.46167865,-0.25424454,-0.4289976,0.09215802,0.41475904,-0.15977386,0.20416933,0.8592464,-0.3783807,0.30628428,-0.60358715,0.25737122,-0.7168731,-1.1819047,0.18111011,0.53122616,0.6713756,-0.5597054,-0.8694744,0.3820944,-0.39428347,0.3120185,-0.2847074,0.65864915,-0.21697357,0.16357371,-0.9871491,-0.3471294,-0.34740537,-0.2259865,-0.44383076,-0.012905284,0.62042403,0.006051907,-0.44066474,-0.06497913,-0.46775147,-0.84922516,0.44247246,1.0635896,1.1301316,-0.33174855,-0.279131,0.010006,0.21356939,0.86012626,0.48568392,-0.27283248,0.13902526,-0.7564221,-0.04756049,0.41094965,0.9239967,-0.23483731,0.59652394,-0.16462952,0.28654018,-0.28939947,0.5853372,0.46227208,-0.7307643,0.41633883,0.31422296
anxious,0.14948033,0.246121,0.04735869,0.012663997,0.43862948,0.1042667,-0.04860113,-0.8103084,0.77378595,-1.1014913,0.07588323,-1.0090371,-0.15956554,0.18475449,-0.4037687,0.4614663,-0.8534276,0.83274275,-0.18539107,-0.027496371,-0.9586424,-0.04059785,-0.53080744,0.26999512,-0.24323562,0.18121724,0.020656325,-1.1185952,0.82318985,-1.040797,-1.2274414,-0.20570791,0.0726419,0.023385886,0.16343392,-0.98234797,-1.1530128,-0.53667957,-0.7628717,-0.46974012,-0.4347699,-0.881357,0.0074436236,-0.07672434,0.6329258,-0.3592815,0.3774538,0.06934408,0.4363328,0.1415976,-0.60253966,0.55817044,-0.052332304,-0.18268433,-0.28237668,1.2824063,1.0641762,-0.5038581,0.33990553,0.48891684,-0.073395774,0.76724213,1.029221,0.8829271,-0.58223915,1.6817404,1.1782738,-0.29246596,-1.4598296,-1.2100616,0.9194873,-0.5879159,0.5774354,-1.1671098,-0.40844244,-0.03198149,-0.5696444,-0.31905404,-0.21200807,-0.44596893,0.7890018,0.6904029,0.13665785,1.0942483,-0.22464752,-0.86937183,0.46332493,-0.51054984,1.0027481,0.2816513,-1.0559869,0.9815854,0.05276208,0.12820214,0.07486212,-0.03551356,-0.5031359,-0.48310515,0.010384456,0.113082
worried,0.11325685,0.9964383,0.45560732,-0.84911996,-1.2332413,-0.2572782,0.88337,0.22752395,-1.4666301,-0.8899766,-0.6570907,-0.21437506,0.47241563,-0.19765475,0.13835146,0.45039788,0.04686344,0.06492394,-0.70573825,-1.1853062,0.38140553,-0.6911609,-1.0205083,-2.3807383,0.41321185,1.0440673,-0.8532949,-1.2869282,0.7937647,0.6924394,-0.93486917,-0.68341863,-0.1804676,-0.035715096,-1.0573133,1.0587363,-0.83583546,0.45716617,-0.5083762,-0.21472621,-0.7405972,-0.5863221,0.55642885,-0.618864,1.6244342,-1.0320132,-1.4515151,-0.9156638,0.6703316,-0.017138578,0.694215,0.31880918,0.5731655,0.45815033,0.36625937,0.35699055,-0.017478338,-0.55595183,1.6573569,-0.35317382,-1.6927799,-0.5516731,0.8338246,0.5566551,0.20432705,-0.27936321,-0.15507323,-0.037234366,-0.29964182,-0.32460687,0.4124317,0.31307262,0.13246413,-1.5783074,-0.64881,-1.0819626,-1.4603052,0.47733822,-1.1609299,0.34938535,-0.48795217,-0.30410632,0.14363253,0.11231185,0.91052806,0.16470526,1.4599138,0.27777526,1.3597658,0.39890736,-0.11116763,1.5070403,-0.57885987,-0.32497832,0.6286144,0.40484706,-0.3324476,0.2569783,-1.107522,-1.4394764
apathetic,0.1382013,0.28884065,-0.32884905,-0.5864458,-0.86798954,-1.2225714,0.5566038,-0.2862634,0.46098733,-0.8344503,0.32493424,0.75044453,0.70581734,-0.25613764,-0.67960143,0.5873965,-0.10602555,0.7682457,0.089556396,-0.31328592,0.5447325,-0.15480012,-0.8354615,-0.6303712,-0.45312646,0.42129079,0.1664697,-0.15997894,0.46606487,0.0114330975,0.5075983,-0.19112335,0.50918543,1.1059688,-0.44218147,0.3969007,-0.34049544,0.5100869,0.037020497,-0.58436614,-0.6740718,0.044975184,-0.22306626,-0.20443222,-0.27436027,-0.8924316,0.7461515,-0.9369815,0.7618294,-0.60110384,0.047213644,0.3227455,0.26706386,0.7448659,-0.55456233,-0.3909646,0.6489409,0.0038106793,0.78281826,-0.1935566,0.80155534,-0.35714158,0.3106775,-1.218618,-0.22441013,0.17726089,0.12511997,-0.81203943,-0.49763256,-0.3826181,0.374351,-0.83922046,-0.13489419,0.49669147,-0.15809964,-0.18550546,0.087346956,0.8183249,0.39717433,-0.15062462,0.6397136,-0.100942686,0.0038434926,-0.92543644,-0.5727297,0.14024472,-0.13725287,-0.19966221,0.44893125,-0.31286803,0.5287437,1.2107774,-0.5457687,-0.021963753,0.24182767,0.13260223,-0.43636382,0.7211247,-0.47988108,-0.021926371
broody,0.7437365,0.60031563,-1.0728174,-0.87243736,-0.08772923,-0.52022564,0.05760015,-0.105766855,-0.4735151,-0.36927292,-0.16450273,0.5378316,0.80653363,-0.51527756,-0.6198583,-0.4284332,-0.5354997,1.3688028,-0.411395,0.037823755,0.122715056,-0.5578341,-0.64871615,0.41940653,-0.08063025,-0.50806373,-0.78222156,-0.38883358,-0.025973119,0.32013556,0.052291133,0.096988946,0.6338196,-0.09917616,-0.6319572,0.84274656,-0.6806809,0.2008252,0.40907907,-0.35474202,0.37990877,0.32675323,-0.7575803,0.41756126,0.80474156,-0.14020163,0.047716223,-0.1724943,0.7426074,-0.36430418,0.07978045,0.83970505,0.92632025,-0.38619286,-0.18528351,-0.54218316,0.86985713,-0.3773861,0.37183732,0.04193518,0.80048764,-0.06274601,0.4848195,-0.4802069,-1.1750662,0.091005296,-0.097579375,1.3290654,0.38498223,-0.18240035,0.49563837,-0.8078131,0.49159577,0.6552074,0.31397742,-0.20742047,0.35295242,-0.2548475,0.58376426,-0.5666628,0.3624176,-0.111419424,2.046656,1.6557465,0.029572777,-0.3085388,-0.5568616,0.4339158,0.5473528,0.66394734,-0.04026417,1.1305356,-0.7504628,-0.7689022,-0.20417605,-0.71755403,-1.3408964,0.08838691,0.71342516,0.14600189
droopy,-0.09201197,0.32053372,-0.074174576,0.06948319,0.2583405,0.27301744,0.3852012,-0.17523699,-0.10051223,-0.29412186,0.015203627,0.13453645,0.024719749,-0.28545588,0.40074533,-0.2233167,-0.4631108,0.959869,0.057079263,0.42758557,0.020308321,0.3834658,0.2738622,-1.0128381,-0.21649314,0.4623716,-0.20355512,-0.3155755,0.6133902,-0.24548903,0.15383744,-0.21020122,0.856491,0.30996227,0.17489895,-0.009251261,0.21550964,0.55456024,-0.2622605,0.21221806,-0.17951679,0.04644648,-0.30917028,-0.11478468,0.5304657,0.010239961,0.72095907,0.31932852,0.25520283,0.11116372,0.2527293,0.7917375,-0.54056954,0.5960099,-0.025237583,-0.22782229,0.15878972,-0.23163348,0.4422725,-0.41898584,0.21962637,0.10502419,0.39395672,-0.09098513,-0.6396846,0.07016368,0.7818789,-0.60437286,-0.80316824,0.20628372,0.007621416,-0.12834974,0.20236407,-0.18274382,-1.2375566,0.21819547,-0.48615658,-0.09022215,0.3139342,0.26228365,0.23168519,0.46762735,0.22996415,0.14731008,0.19937198,0.19750582,-0.24934413,-0.09646674,0.107270636,0.43694475,0.059175447,-0.5669207,-0.73174703,0.0027821232,0.34445098,0.21864155,-0.11773821,0.07155568,0.05680721,0.174477
suspicious,-0.27187005,0.023529533,-0.56959367,-0.31121793,-0.5604937,-0.21579757,0.52333766,0.008209693,-0.18810706,-0.21161976,-0.05749935,-0.6438142,0.64508235,1.0113741,-0.20838739,0.8638662,0.59273744,0.5217213,-0.39131,0.50009936,-0.68026185,0.9745513,-0.576952,-0.14476268,-0.55269593,-0.18251565,0.2511387,0.14530219,-0.25590032,0.27968445,-2.1868424,-0.40174937,-0.07067608,0.28031316,-0.49782372,0.6912442,-0.16487932,0.649169,-0.3927701,0.67907536,-0.34914315,0.4796659,0.43110597,-0.14557485,-0.14095545,-0.65609384,-0.6425035,-1.550941,0.14751181,-0.6325745,-0.031527005,-0.212323,0.43163025,-0.10210174,-0.20210293,0.28559813,-0.06279261,-1.2232025,1.2196354,0.4935367,0.024628092,0.2838349,0.96628284,-0.24624306,0.35067013,-0.700191,0.34044603,0.681758,-0.2483233,-0.23182666,0.20814349,-0.028502189,0.18662952,-1.7299443,-0.3997064,-0.40816817,-0.29469734,0.82859313,0.0165782,0.06782334,0.18596695,0.62800837,1.1155217,1.0609053,-0.043808118,-0.96325815,0.2621173,-0.11390637,0.80845565,-0.03371791,0.06438979,0.06723286,-0.11002382,0.30318296,1.1809583,1.1908867,-0.6861559,-0.92405975,-0.9277924,-1.2763354
