term,v0,v1,v2,v3,v4,v5,v6,v7,v8,v9,v10,v11,v12,v13,v14,v15,v16,v17,v18,v19,v20,v21,v22,v23,v24,v25,v26,v27,v28,v29,v30,v31,v32,v33,v34,v35,v36,v37,v38,v39,v40,v41,v42,v43,v44,v45,v46,v47,v48,v49,v50,v51,v52,v53,v54,v55,v56,v57,v58,v59,v60,v61,v62,v63,v64,v65,v66,v67,v68,v69,v70,v71,v72,v73,v74,v75,v76,v77,v78,v79,v80,v81,v82,v83,v84,v85,v86,v87,v88,v89,v90,v91,v92,v93,v94,v95,v96,v97,v98,v99,v100,v101,v102,v103,v104,v105,v106,v107,v108,v109,v110,v111,v112,v113,v114,v115,v116,v117,v118,v119,v120,v121,v122,v123,v124,v125,v126,v127,v128,v129,v130,v131,v132,v133,v134,v135,v136,v137,v138,v139,v140,v141,v142,v143,v144,v145,v146,v147,v148,v149
chill,0.3494261,-0.06763445,0.34462252,-0.14355713,-0.12218067,0.31158292,0.18160331,-1.0179341,0.3265606,0.2802912,-0.22388649,0.34974855,0.17202699,-0.27226147,-0.033292744,-0.38780743,-0.15914673,0.06675553,0.40124607,0.023849351,-0.09185389,-0.007081875,0.39953226,-0.6575745,-0.27217472,0.020646468,0.09730796,-0.4247457,-0.053049657,0.021653907,-0.55324197,-0.05853196,-0.0032746878,-0.20144169,-0.42112267,0.07914265,-0.40797177,0.31389496,-0.32400337,-0.54162294,-0.6572197,0.014146768,-0.0151358815,-0.31226087,0.26906258,0.17929608,-0.18788788,-0.6006066,0.6056838,0.05491117,-0.11587377,0.50614625,0.1961664,0.42118624,-0.39502317,-0.19207245,-0.013351195,0.028529147,0.34508374,-0.10677634,0.061471004,0.38076603,0.042894956,-0.58235836,-0.225415,0.073943235,-0.20172143,0.014123951,-0.40724367,-0.1894933,0.18741807,0.41755885,0.3816399,0.042728383,-0.16288164,0.059097078,0.11445231,-0.26312295,0.27017573,-0.27812746,0.15109552,0.071839884,0.066062465,-0.07585947,-0.3129581,0.09676393,0.5669618,0.1379976,-0.14040028,-0.096139945,-0.6067509,0.10660902,0.19134127,0.50213104,0.39180088,0.02178826,-0.6573555,-0.14890487,-0.37340963,-0.039283313,-0.17734611,-0.45426804,-0.14352962,0.1097604,0.16815004,-0.0699645,0.510646,-0.06121168,-0.6479815,0.26422018,0.9065508,0.33585635,-0.20807187,-0.042724147,-0.043327738,0.15248077,-0.025719484,0.17883453,-0.10761071,-0.06649078,0.67709094,-0.13563718,-0.17502406,-0.07805085,-0.46304497,0.5175888,0.8109204,-0.34765285,0.1444812,-0.6916596,-0.31647027,-0.12896273,0.06665297,-0.18758248,0.48883832,0.1818446,-0.47373077,-0.29217082,0.07984473,0.122922935,0.4105289,0.025180059,-0.16415092,-0.111241706,-0.368556,-0.09107664,0.6613389,0.18184677,0.041894484,-0.18195002
mellow,-0.07403486,0.16305454,-0.29493716,-0.08645771,0.046074152,0.01532973,0.1592327,-0.09293132,0.35877767,0.061216023,-0.046479445,0.14124714,0.050500683,-0.16045071,-0.18559237,-0.23951209,-0.53815764,-0.11067703,0.43200114,0.3284401,-0.49542996,-0.35394847,0.33856273,-0.3652301,0.21337938,0.078081034,-0.10110292,-0.4442233,0.038035247,-0.2580088,-1.1433873,-0.17803062,0.15913516,0.23596253,-0.43034512,0.31707925,-0.7626169,-0.07727454,-0.25865355,-0.4048024,-0.5991047,0.46076542,-0.44287914,-0.69863635,0.27742055,0.0063568796,-0.5756067,-0.30644464,0.39031407,0.22659504,-0.44873103,-0.056052595,0.29150307,-0.21078019,-0.7016886,-0.16778322,0.19087397,-0.44997495,0.4308127,0.082164586,0.23093387,-0.5290504,0.1793332,-0.41724166,0.012139951,-0.068958744,0.08141421,0.13471739,0.09871096,-0.5055114,0.41410944,-0.39304757,0.4811034,-0.17564468,-0.45673436,-0.19734555,-0.1409298,0.07904726,0.6619505,-0.09898429,-0.59144914,0.18255655,0.12406856,0.41982928,0.18932237,-0.913221,-0.09381581,-0.0006384356,0.08243969,0.34205306,0.19408463,0.30609363,-0.060692336,0.03215128,0.30765134,-0.5235755,-0.8400832,0.6047836,-0.04380163,0.26627132,-0.04716258,0.007311044,-0.21104467,-0.058091793,0.32821685,-0.25790676,0.438633,-0.2390765,0.20360346,0.59050053,0.37343937,0.08153762,0.23494634,0.14742076,0.23584776,-0.028645666,-0.19862106,-0.117019854,-0.028512027,-0.07177465,0.471717,0.44165355,0.18504784,-0.27269235,-0.14040306,0.8201975,0.5268424,0.35209993,0.12199781,0.18931864,0.2844318,-0.54931957,0.39536822,-0.04229097,-0.33428195,-0.37447438,0.12525028,-0.053131334,0.1768984,-0.2735328,0.0010934087,-0.36004764,0.6764546,0.32092315,0.31171152,0.07762921,0.28320932,0.46787286,0.043481175,-0.85926133
relax,-0.23038328,0.11588723,-0.0067121414,-0.0974995,0.0015617531,0.38139307,0.036772363,-0.42628723,0.31274113,0.26570272,0.14296208,0.2577335,0.3939643,-0.096355446,-0.05738415,-0.4640013,-0.36143023,0.41937473,-0.6318234,0.15792693,-0.16836546,0.1599587,-0.07671284,-0.039004747,-0.07519352,-0.30643204,-0.13662523,-0.37534004,0.2768387,0.3008072,-0.72761893,-0.69100225,0.64517045,-0.09649262,-0.12720636,-0.052545503,-0.26085362,0.25348145,-0.20394973,-0.35091546,-0.055802304,0.24863888,-0.32275638,-0.13795488,-0.002349915,-0.044160604,-0.23608224,-0.23488528,0.52339065,-0.29985535,-0.6540605,0.625971,-0.114901535,0.21718149,-0.14312942,-0.11567154,0.010696374,-0.06309681,0.14281172,-0.23599747,-0.3101361,-0.324297,0.1361992,-0.34751835,-0.19496527,-0.25247493,0.4254411,-0.28471842,-0.29458308,-0.5943337,0.53652877,0.12654385,0.49067292,-0.4132387,-0.20956026,-0.07784832,0.31628013,-0.10235602,-0.48897877,-0.09722832,0.0023728905,-0.06785378,0.09432537,0.14055766,-0.27205333,-0.61661255,0.79001933,-0.17317896,-0.84404206,-0.03483397,-0.12262505,0.39306247,-0.42125243,0.14915743,0.33016264,-0.29774174,-0.23169011,0.36858776,-0.8272406,0.074154034,-0.06751811,0.5644923,-0.120064855,-0.100981236,0.39361328,0.20090173,0.71228176,-0.04227387,-0.32525706,0.19505377,0.43987688,0.11068092,-0.18840985,0.20295253,-0.511417,-0.1929789,-0.11318751,-0.14910512,0.12125206,0.06033234,0.17887399,-0.6065833,0.13678287,-0.12791938,-0.38694525,0.12990986,0.6192428,-0.31762844,-0.014691928,-0.045824938,-0.33903083,0.48125112,0.06367397,-0.3146076,0.19111438,-0.2095847,-0.3569051,-0.34364694,-0.066468105,0.05498315,-0.44228205,-0.23837385,-0.23281866,0.10150722,-0.2725676,-0.112028934,0.51861835,0.1494685,0.4278391,-0.021389201
upbeat,0.03428325,0.2805095,-0.4078326,-0.45094043,0.088431895,0.37475523,-0.39810088,-0.44993,0.1994516,0.21515144,-0.4701213,0.6765111,0.4256283,-0.13607697,0.097630784,-0.6184952,-0.16672783,0.019223811,-0.08718993,0.18864474,-0.14692487,0.6696759,-0.08317771,-0.109183654,0.48059323,0.017302467,-0.10565472,-0.7058692,0.04572244,0.12332384,-0.11120798,0.026816856,0.00469865,-0.004639613,-0.3115213,0.027557088,-0.5718269,-0.6389133,-0.22705151,-0.110010125,-0.0767235,0.53824824,-0.42026466,-0.2179723,0.49073377,-0.24337386,-0.24904034,-0.9461458,0.5194258,-0.12835687,0.043595664,0.10897821,0.6288022,0.11553458,-0.07414412,0.04698561,-0.2942971,-0.42303085,-0.13071088,0.04618445,0.09562864,-0.17526957,0.57110405,-0.33260444,0.113680765,-0.008604421,0.053418513,0.0772737,0.0056192325,-0.1463012,-0.1183876,-0.21071039,0.038842972,-0.24627781,0.15494849,0.08543107,0.15652949,-0.014167852,-0.06822528,0.17605905,0.2988839,-0.2408938,0.31783682,-0.3256812,-0.45747706,0.007941117,0.0004266842,0.1356518,0.41437155,0.09956299,-0.6117162,0.15229657,-0.078208566,0.2565097,-0.22153743,0.3083173,0.034902375,0.17787962,-0.28027782,-0.5091392,-0.18500584,0.305042,-0.3906687,-0.067297794,0.09703529,-0.6593523,0.40986872,-0.028149497,-0.5949599,0.6361242,0.15255545,-0.008898786,0.36525264,-0.08583609,-0.17252494,0.11895827,-0.8493311,-0.07075581,-0.1774403,0.3251139,0.22139788,0.28529105,0.46902934,-0.4529142,0.012249981,0.4085803,0.76263666,0.5397704,0.14223787,0.029545167,-0.33527872,0.15610266,0.21582992,-0.63846046,0.12627214,0.095316894,-0.29101107,-0.27990225,-0.121696346,0.056958657,0.41793317,-0.4484792,0.1108803,-0.0871269,-0.6628457,0.328624,0.14049397,-0.22907597,0.3074069,-0.43317282
smooth,-0.12535998,-0.2588518,-0.70015854,0.10854342,-0.06009903,0.7202566,-0.45897198,-0.646547,-0.13766827,-0.009043159,-0.14931135,-0.11427528,0.5983632,-0.3214566,-0.59380084,0.11456136,-0.7674503,-0.57740945,-0.35723004,0.4681872,-0.111670345,-0.040269688,-0.00046366683,0.1701379,-0.27995148,0.17094563,0.23299475,-0.79543054,0.024019757,-0.3089039,-0.26531464,-0.4376053,0.022542832,-0.15225542,-0.6345694,0.08741113,-0.24782285,-0.05441581,-0.22757907,0.010460609,-0.16443142,0.051587652,-0.07456605,-0.4098652,0.26113895,0.00047836994,-0.3199098,-0.1538341,0.45677522,0.21380657,-0.66951156,1.1215435,0.55373794,0.65624714,-0.12122591,-0.1459983,-0.15448418,-0.3808334,0.85359454,-0.16480598,-0.17597994,0.55551106,0.030361233,0.47649834,-0.25654215,-0.06728488,0.22707468,-0.58355826,-0.24351908,-0.29602984,0.024325717,-0.28025505,0.25996494,-0.3177903,-0.68677384,0.07628432,0.017568735,-0.39661285,0.8415252,0.029078199,0.78205645,0.28798366,0.44304165,0.32621774,-0.10001883,-0.54101384,1.0619617,0.374747,0.47706887,0.2324272,0.43058178,0.24785915,0.12749124,-0.14498885,0.34251487,-0.4151274,-0.06511431,-0.42638886,-0.8079119,0.39511368,-0.1589454,-0.24104834,0.7952248,0.07112174,0.24421616,0.14460184,0.72949195,-0.1611974,-0.16800055,-0.09735455,0.37901947,0.45889765,0.73323,0.25928766,0.4121516,-0.03621062,-0.76019514,-0.20287518,-0.22829904,0.42602614,-0.00899344,0.08607703,-0.3974042,-0.39666972,-0.25900367,0.9405565,0.66064256,-0.1345181,-0.075693674,-0.048576154,-0.30032685,-0.058221817,0.26752183,-0.5877573,-0.12339188,-0.5027279,-0.34922937,-0.36473727,0.47803885,-0.5325891,-0.6935157,-0.3871791,0.04879753,0.5900359,0.000473689,0.22116676,0.55083066,-0.16307126,0.4820367,0.13504319
sleep,-0.003909795,0.36695167,0.3050876,-0.32390803,0.38910136,0.37351045,-0.24697322,-0.04452409,0.045390464,0.28976908,0.6634651,0.39538556,0.51412886,-0.30553165,-0.44327134,-0.20427966,-0.5284503,-0.100815855,-0.09239536,0.017539568,-0.60915387,-0.042981602,-0.29673728,-0.7989631,-0.10583925,0.101870045,-0.5939066,-0.03135449,-0.30925483,0.16173775,-1.3439765,-0.5329528,-0.30085802,0.26528424,0.06738234,0.7230137,-1.091401,-0.24349874,-0.96702814,-0.9063902,0.10569818,0.40938544,-0.40272918,-0.334518,0.34372753,-0.29311273,0.35506767,-0.8510442,0.76935667,-0.45389926,0.21550845,0.17962483,-0.28313398,0.33106497,-0.3417097,-0.13792843,-0.049867623,-0.37864164,0.17874476,0.27723706,0.25974873,-0.22147766,0.12854405,0.20335677,-0.62308985,-0.481136,-0.21975967,-0.59355026,-0.38396236,-0.1551979,0.5760175,-0.14539182,-0.10108178,-0.63331467,0.095381774,-0.23954627,0.7924126,-0.36738658,0.061305344,0.28081715,0.5359335,-0.14068705,0.10949273,0.10985851,0.41773897,-0.42192048,0.2231745,0.2158992,-0.4446397,-0.23501365,-0.115458325,0.75901705,-0.21263139,0.2619886,0.56258,0.06488574,0.47551548,0.6105571,0.5145726,-0.10646115,-0.38034415,0.2811283,-0.088464275,-0.17608862,-0.2345544,0.3376288,0.07915143,-0.073948845,-0.71396345,0.39774024,0.5262966,-0.056909498,-0.4600418,0.3282525,-0.027576793,1.0404624,-0.5823102,0.11658016,0.24832997,-0.37851056,0.29220253,0.0015712989,-0.18629476,0.16185471,0.23051128,0.4022153,0.38529855,-0.24326457,-0.60684717,-0.12562457,-0.14496367,0.3635261,0.19648114,0.33803895,-0.6371009,-0.10409262,0.40900972,-0.26600474,0.8806606,0.7141906,-0.6251923,-0.16635913,0.08404482,-0.22925553,-0.4181735,-0.4522404,0.10347572,-0.068771206,-0.54429775,-0.096097864
sexy,-0.03824068,0.2937513,0.03219926,-0.4015561,-0.15822847,0.00089322694,-0.2171434,-0.23370776,-0.052970752,-0.15319048,0.16995901,0.123977244,0.53309166,-0.6505805,-0.40534204,-0.46905288,-0.89632875,-0.8411118,-0.3004863,0.13955322,0.09505854,-0.16696316,-0.56331533,-0.2725843,-0.11642768,0.18754362,-0.6745697,-0.11080612,0.07969455,-0.35599607,-0.23708324,0.14984907,0.09472028,-0.6515955,-0.16581027,-0.22446753,-0.2527773,-0.1839553,-0.2318984,0.033075623,-0.10925072,-0.35478765,-0.535577,-0.5972386,0.41560927,0.20192268,-0.14374498,-0.63893,0.006103645,-0.64751554,-0.7104251,0.6842782,-0.100855835,0.2117562,-0.47496375,-0.3956192,0.25147402,-0.03535966,-0.018928908,0.1087275,-0.2821614,0.43832907,0.4167138,-0.23540135,0.1839545,-0.18954398,0.6405795,-0.06724217,-0.36632198,-0.021102054,0.2529765,-0.20751116,0.25029233,0.115860045,0.09055407,-0.22755265,0.18261266,-0.46790057,-0.069688864,-0.21303743,0.12381516,-0.3066774,-0.36701295,0.49281555,0.36934534,-0.27567437,0.4006506,0.07727342,0.48181567,-0.027820433,-0.022293568,-0.2093729,-0.57014924,0.7336801,0.4384295,-0.3628191,0.033078,0.07562015,-0.11063325,0.68008494,-0.6432029,0.051325075,-0.30142486,0.07823719,-0.1146147,0.29721394,0.14286827,-0.40408027,-0.46941316,-0.048946805,0.7050495,0.35178146,0.37576935,0.021509271,0.28980276,0.41422865,-0.6852009,0.5507566,0.11357982,0.066495724,-0.0810176,0.28316748,-0.16604929,-0.36172003,-0.22313577,0.035156958,0.3779203,0.35042182,0.30634674,0.030484956,0.11194164,-0.09766705,0.13006559,-0.44958147,-0.57284254,0.0096494835,-0.63482374,0.0021853372,0.02607914,-0.20543501,-0.049180757,0.8207917,0.24915588,0.22465992,-0.27469745,0.28389788,0.68769586,0.25250548,0.6074454,-0.5199913
happy,-0.041000463,0.08589407,-0.547355,-0.7899416,0.4509917,0.11463432,-0.26887372,-0.50487083,0.13284875,-0.13921961,-0.04169329,0.25246283,0.45405778,-0.17334588,-0.2896823,-0.036326263,0.10230525,0.50692046,-0.3346315,-0.09503698,-0.1499719,0.22308749,-0.48148644,0.013501082,-0.07036488,-0.44360963,0.20052674,-0.49403557,0.44532946,-0.13093856,0.1686446,0.081172146,0.35148123,-0.1631583,-0.6129845,0.070004955,-0.946817,-0.21626039,-0.2720365,-0.56737524,-0.15845558,0.69051886,-0.11021131,-0.8434325,0.19130754,-0.16252632,-0.25877294,-0.7901533,-0.07269156,0.06877891,0.7709885,0.5701827,0.30845177,-0.43155625,-0.34456056,-0.22486164,-0.5019299,-0.12951303,0.0100049665,-0.04695536,0.46359342,-0.09430522,0.14063843,-0.6619279,-0.49136913,0.3712887,0.25811398,0.46814802,0.040864866,0.3290332,0.22772399,-0.32244098,0.6159229,-0.081459835,0.25911525,0.043199066,0.060915753,0.18717355,0.18476549,0.33200848,0.27878025,-0.52123743,0.029246883,0.62390906,-0.36729455,0.25039616,0.24277464,-0.34295696,-0.050730843,0.2914215,-0.008059385,0.50649625,-0.3598658,0.0270634,0.2770568,0.055065833,-0.2094625,0.17520797,-0.70774716,-0.12219608,-0.42178628,-0.71733266,-0.12456925,0.08000221,-0.40772957,-0.01076212,-0.0648156,-0.22847138,0.22650804,0.74778014,0.05072622,-0.044186857,-0.30538386,0.6115077,-0.03818853,0.050784744,-0.75583804,-0.5253377,0.6921395,0.004913838,-0.046849065,0.1952676,0.040977035,-0.3539451,-0.5935461,0.3151296,0.3975501,0.103284,-0.4494015,-0.11865539,-0.4438868,0.17261735,-0.04267008,-0.51685494,0.030687816,-0.32101566,-0.4397674,-0.298932,0.9428661,0.15587053,0.25728625,0.030239543,0.32662582,0.3336068,-1.2542605,-0.0814017,0.74386007,0.010835948,-0.06817164,-0.8381658
party,-0.5319748,0.5034944,-0.6912591,-0.3141366,-0.16714016,-0.15188396,0.35580868,-0.28326255,0.39425495,0.15725131,0.018357247,0.056238268,0.26731324,-0.31556892,-0.22827394,-0.06743876,-0.67534584,0.2966589,-0.10372316,0.3043283,0.055754453,0.46186602,-0.21423556,0.44767383,-0.16398738,-0.04819359,0.02354402,-0.24233653,0.36687624,-0.65981936,-0.46107113,-0.36552015,0.7731724,-0.057882413,-1.0445901,-0.13972774,-0.5688882,-0.20971175,-0.2873564,-0.3339491,-0.11147478,0.7577527,-0.6362252,-0.21944277,0.3276942,-0.34001124,-0.33140466,-0.71944445,0.15455212,-0.53524077,-0.11480983,0.5384421,-0.08333734,-0.32030076,0.16692378,0.048810076,0.20360252,-0.045654446,-0.049084984,-0.3698791,-0.18020418,-0.44385895,0.16672629,0.07892183,0.3868128,0.10805033,0.47697365,-0.04634242,0.4558407,-0.25627443,-0.123167686,-0.55700237,0.30808306,0.11825904,0.12451449,-0.0137878,0.059066683,-0.71682817,0.32294756,-0.12322275,0.7332093,0.16798241,0.16897799,0.07111348,0.25596562,0.235534,0.33551005,-0.9428956,-0.07550579,-0.09237804,-0.22959356,0.079604015,0.123680405,0.16913876,0.8996298,0.23995908,-0.62310565,0.19038458,-0.12046567,-0.55762476,0.31695572,-0.5092715,-0.594119,0.37568188,-0.07218082,-0.55950516,0.13199157,0.5193218,-0.35963917,0.6878414,0.32752374,-0.047470603,-0.20592551,-0.43518785,-0.010411979,0.29263866,-0.08297749,-0.33762679,-0.049503077,-0.59320575,0.03133621,0.5985995,0.13993551,0.04795963,-0.13405053,0.21710362,0.35428733,0.06683874,0.38059926,-0.11210881,-0.042525653,-0.57898325,0.112075426,0.5594289,-1.2940248,0.18459575,-0.63555557,0.41275558,-0.0887233,0.016491467,0.043716002,0.54632944,-0.16532248,0.13430017,0.006696938,0.13987748,0.3144352,0.7918133,0.35885283,-0.42253786
moody,0.31802788,0.47636217,0.11667417,0.1713517,-0.58951664,0.39256203,-0.21695639,-0.69970715,-0.0054791714,0.17677476,0.08723873,0.3527458,0.028247202,-0.32800022,0.6380779,-0.07045077,-0.19362915,0.3292986,0.2936205,-0.18313926,-0.2907334,0.18917662,-0.7105218,-1.0591942,-0.19153492,-0.20375678,0.038548242,-0.2634587,-0.22290273,0.26283103,-0.38783482,-0.30314127,0.039354388,-0.31548598,0.12524717,0.16324894,-0.24004786,-0.015859682,-0.23232724,0.13470219,-0.2720571,0.19817509,-0.18421026,0.036417734,0.5166321,-0.81793886,0.36636838,-0.759447,0.7485442,-0.28469315,-0.4954612,0.4374655,0.20012276,-0.17289394,-0.16218503,0.10502541,0.25758886,0.016422002,0.10347691,0.43167305,0.4157721,0.19518921,0.5127331,-0.13220038,0.11027204,0.60839605,0.1383531,-0.31986684,-0.44251326,-0.61248666,0.73405075,0.298137,-0.0045498735,0.008648722,-0.016256895,-0.5397162,0.3585204,-0.7378542,0.07377702,-0.117672846,0.82483757,0.18970753,0.6862123,0.1397693,-0.00675246,-0.47770616,0.85139763,-0.021783497,0.0017963367,-0.6176653,-1.1987677,0.5301986,-0.37682933,0.0033981,0.5463915,-0.04511073,-0.02642065,0.08790706,-0.029888982,-0.24449444,-0.8312761,0.003606014,-0.3251852,0.015896518,0.24005958,0.039114658,0.18703133,-0.07862677,-0.35645667,0.4976579,-0.05808923,0.18901712,0.13705969,0.19023533,0.16882184,0.2060318,-0.30821255,0.043358617,-0.33663645,0.08584613,0.35314083,0.37477693,0.05160109,-0.20421448,-0.17418866,0.0661687,0.5257367,-0.19049393,-0.0588704,-0.006534682,0.57557756,0.12120265,0.38170466,0.10510394,-0.3606657,-1.0729696,-0.41610438,0.25964662,0.5276456,0.17145565,0.0837967,-0.4311388,-0.37023672,0.15363297,-0.6726624,0.39125836,0.1223535,0.6646638,0.51528156,0.117370866
romantic,-0.15537821,0.5956779,-0.20211913,-0.43131658,-0.33983764,0.3576479,-0.14383328,-0.22806305,0.28103977,0.04962551,-0.33461985,0.9698293,0.5306284,0.27886507,0.08095767,-0.36299497,-0.38638204,0.044922892,-0.38574973,-0.21088001,-0.24286783,0.29978168,-0.16244888,-0.14475451,-0.06579125,-0.17312582,0.008610528,-0.40186018,0.23904212,0.09752451,-0.2861408,-0.11026472,-0.19040832,-0.40860954,0.072762325,-0.0995596,-0.37446374,-0.7493272,0.20548749,0.46783334,0.19534855,0.44098768,0.26848897,-0.29572183,0.34623176,-0.5752854,-0.4743579,-0.45607504,0.383749,-0.023442622,-0.19796517,0.93436205,0.67250305,0.21069075,0.1844054,-0.33549798,-0.5294811,0.050708145,0.27784133,-0.014429831,0.10814498,-0.39285138,-0.35050213,0.16175243,0.46818984,-0.39711797,0.8226332,0.016303742,-0.37536705,-0.4381738,0.07210255,-0.105319165,0.08901006,-0.11567019,-0.673612,-0.3267463,0.019004526,0.19268095,0.046195902,0.16590905,-0.08415792,0.17562449,0.2945782,0.18749264,-0.3583401,-1.0191636,-0.31075633,0.23906182,0.3751478,-0.26710922,-0.37395486,0.28580615,0.3689304,0.23189586,-0.023148447,-0.5367905,-0.4277456,0.33662286,-0.095303334,0.38559452,-0.21115883,0.29568365,0.30443278,-0.5248395,-0.010443148,0.08412058,0.31466627,-0.034539223,-0.6173498,0.14503805,0.02396004,0.71214277,-0.45918986,0.05305865,-0.003769368,0.57432157,-0.5536373,-0.46459526,-0.1784787,-0.15008405,0.31466085,-0.38177016,-0.090680204,-0.45487797,0.10171831,-0.26899293,0.617377,-0.12458687,-0.24423593,-0.73437047,0.10768975,-0.021280518,0.3352238,0.15892796,0.24626493,-0.12671071,-0.23475865,-0.18581387,0.17888322,0.5570433,-0.29058683,0.25443006,0.27749225,0.084731154,-0.0048900787,-0.35981652,0.6473638,0.116898045,0.74229723,-0.083481856
sweet,-0.13477248,-0.31422582,-0.0972642,-0.5140339,-0.32879782,-0.35757658,-0.53524774,0.2727615,0.7292442,0.11565796,0.2820607,-0.021908471,0.65356374,-0.51526964,-0.22240852,-0.63228387,-0.27016738,0.14754063,-0.33062524,-0.46826732,-0.20020312,-0.14677939,-0.23099148,-0.6669,-0.5109858,0.34068003,-0.3000353,-0.9172449,0.2931621,0.6095648,-0.77738315,0.506685,-0.2226604,-0.31302246,-0.50185305,0.114399396,-0.75316185,-0.31043944,0.34811756,-0.081500135,-0.40529814,0.009515411,-0.4935575,-0.2740744,-0.22287834,-0.6699462,-0.049479537,-0.74691147,0.41022477,0.34706774,-0.002513826,0.37799156,-0.6661449,-0.17378296,-0.37095213,-0.26863584,-0.10396274,-0.07364593,0.0040947483,0.034165975,-0.1739723,0.19320612,0.23935138,-0.10983713,-0.8410143,-0.92108554,0.42226216,-0.16601196,-0.15302317,-0.3066241,-0.43391377,-0.031615585,-0.030116841,-0.7280882,0.20146607,0.23996702,-0.13528182,0.2531612,-0.006101083,-0.33579174,0.09895159,0.25052357,0.58938414,0.08358558,-0.3856837,-0.71971685,0.3695517,0.2102161,-0.2012026,-0.18846898,-0.39501747,0.115954585,0.008504394,0.1266975,-0.549502,-0.1854564,-0.77033526,-0.092556655,-0.093496874,0.28241414,-0.17962919,0.1822811,0.32521272,-1.0599341,-0.35555363,0.0195554,0.6101453,-0.70699966,-0.43124956,-0.15938869,0.70809275,-0.036139857,0.032370348,0.068666905,0.13968319,0.2305133,-0.25744984,-0.18422642,-0.31865674,-0.35941043,-0.31691203,-0.27202892,-0.06904946,-0.03301988,0.15482686,0.5595282,0.9108639,0.37400898,-0.21693744,-0.25668544,-0.25649053,-0.1087616,-0.102088965,0.48962688,-0.04406955,-0.50695676,-0.20124722,-0.46830142,0.17900057,-0.43085924,-0.72715193,0.55590385,0.3518264,0.2795546,-0.30249,0.7042497,-0.39649644,-0.46940967,-0.0077203396,-0.22749732
dancing,-1.1724057,0.87707716,-0.8460969,-0.4592015,0.10717178,0.4552062,-0.33309,-0.08042051,-0.74801546,-0.68027794,-0.061368622,0.2270112,0.5524649,0.42875916,-0.22896168,-0.051000703,-0.1720196,0.0052849604,-0.16274783,-0.5837521,-0.10722028,0.9293563,-0.79352486,0.5655154,-0.07429568,0.24622166,0.19960211,0.016901644,1.1588786,-0.22308467,0.2931333,-0.0018992577,0.6450119,0.54277307,0.03927779,0.1591817,-0.8377723,0.24568395,-0.18617128,-0.28820375,-0.06892331,-0.2626822,-0.775749,0.123683825,0.5320373,-0.30925766,-0.14093266,-1.1140444,0.8153089,0.019550283,-0.75070393,0.5809425,-0.23525833,0.16401137,-0.7147977,0.2828537,0.21318325,-0.49032995,-0.011722589,-0.42232642,0.3160009,-0.22924922,-0.1460101,-0.19249436,0.12613519,-0.57699424,-0.040236197,-0.31898126,-0.4240429,1.1826789,0.06758227,-0.3223626,0.42130956,0.590738,0.45327723,0.45977822,-0.14803293,0.12773271,-0.52137035,-0.34067222,0.69386643,-0.5340879,0.4887259,0.4862252,-0.3791241,0.31219178,0.42529726,-0.40187615,0.85670954,-0.24618201,-0.45216754,0.15483077,0.2451342,0.36960417,0.61201924,-0.4491691,-0.7146806,-0.3193435,-0.35857058,-0.59674895,0.018023215,-0.21387358,0.1066777,-0.14870195,0.11678364,0.73088884,0.9023789,0.4154558,-0.19435291,-0.028317038,0.8877675,0.30917525,-0.37405205,0.13263129,-0.95471424,0.28344572,-0.84504986,-0.0047986656,-0.20670849,-0.5233203,-0.59875655,0.4562494,-0.1713922,0.08624987,-0.0111772865,0.593148,-0.11347685,-0.17327647,0.038471557,-0.49733824,-0.0969511,0.44895035,0.49189758,-0.06406883,0.040517826,-0.02906089,0.3977321,0.29185447,-0.47779676,-0.14043976,-0.52518857,0.015211095,0.4143648,-0.4520952,-0.58169806,-0.32836908,1.0410331,-1.0569429,0.46204293,-0.5727963
fun,0.16174756,0.4092253,-0.72829103,-0.6477464,0.18730113,-0.13020259,-0.28800106,-0.24052165,0.31133974,-0.10831363,0.19511442,0.17530377,0.4427925,0.1644386,0.2079047,-0.069463484,-0.14818583,-0.29117918,0.020949034,0.48998308,-0.41466588,0.12994711,-0.41179168,-0.4472835,0.049983762,0.1396022,-0.44917977,-0.6816152,0.33840445,-0.021283528,-0.6206122,-0.23530827,-0.15261444,0.26209474,-0.3002845,0.481774,-0.5047547,0.09164521,-0.45994547,-0.13654628,0.14076275,0.25832427,0.11679063,-0.7820088,0.5308208,-0.30477145,-0.3252801,-1.1730915,0.12140112,-0.55754495,-0.19680001,-0.11947262,-0.025953261,-0.1547719,-0.3406415,-0.04364671,0.2342846,-0.5486918,-0.038264103,-0.1999383,0.14928457,0.329085,0.4474774,-0.42886016,0.7519069,-0.0120669445,-0.07504879,-0.12159613,0.17816313,0.26587132,-0.15822057,0.34422347,0.51144755,-0.42945933,0.09893848,-0.12060077,0.04276763,0.15206222,0.24905112,-0.36444983,0.5225434,-0.2312797,0.3674958,0.20947717,-0.15931988,0.2472906,0.12962857,-0.6777892,0.01463763,-0.38577577,-0.61517495,0.09726434,-0.5283591,0.13218716,-0.11390623,-0.26498082,0.5106785,-0.06135794,0.0087182885,-0.20877571,0.076703146,-0.09091895,-0.016085075,0.09956783,0.032494888,-0.006082466,-0.4160422,0.10085422,-0.32922766,0.2983286,0.18657643,0.052594535,0.031797256,0.18161659,0.13382679,0.41312158,-0.31523705,-0.31494254,-0.10496048,0.3432187,-0.087107725,-0.12858036,0.24520902,-0.024667941,0.01999861,0.948447,0.52388084,0.5795757,0.061910685,0.28107795,0.18513754,0.22179155,0.0616317,-0.4927344,-0.35354066,0.18490362,-0.45366967,-0.380872,0.03505356,-0.07622954,0.2264186,0.079975076,0.09969483,0.19020605,-0.6130493,-0.35778087,0.31381446,0.15638243,0.57764965,-0.15142028
uplifting,-0.09545227,0.41237143,-0.4645611,-0.2325927,-0.083603114,0.21840955,0.35754752,-0.48877734,0.15374269,-0.19305088,0.14671302,-0.11844997,0.12751392,-0.09554461,-0.33444104,-0.42707816,-0.26681402,-0.32254842,-0.27273947,0.14543171,-0.5937431,0.3769138,0.18939818,-0.56311333,-0.13830876,0.42702827,-0.24514446,-0.57603,0.59603584,-0.26830205,-0.17993584,-0.14981432,0.38350213,0.5317009,0.11591519,0.56052923,-0.8136122,-0.0015355344,0.11886939,-0.40738088,0.10848887,0.75075966,-0.49892512,-0.41399556,0.33154342,-0.5742303,0.10489609,-0.31025523,0.2263988,0.21260878,0.31647736,0.012845561,0.62288433,0.36232647,-0.28505343,-0.29560712,-0.008433072,-0.5756345,-0.25836048,0.37495625,0.18866166,-0.079539396,0.5816922,-0.136199,-0.11166625,0.19855861,0.7673596,0.31757233,-0.0243218,-0.1702772,0.5724238,0.19008492,-0.023567066,-0.15496187,-0.42938936,-0.09461308,-0.20888643,0.12005621,0.06495723,-0.11574254,0.3660017,-0.56321675,0.25867468,0.18786846,0.062390465,-0.6874807,0.10758165,-0.5828237,0.36309278,0.025108924,-0.15372978,-0.12866515,-0.54727757,0.40527207,-0.024068853,-0.21664013,-0.29399148,0.23811865,0.04152393,-0.2841084,0.21132311,0.17655496,0.27961752,0.6903377,0.3347021,0.037960425,-0.42049545,-0.6240238,-0.4520008,0.49276504,0.38592038,0.3558452,-0.36286244,0.593093,-0.12823457,-0.18096705,-0.11304874,0.05131546,0.3449358,-0.0028429592,0.81089354,-0.58055806,-0.0148266,-0.0615481,0.3972762,0.2565244,0.60986674,0.45706692,0.17343804,-0.2442615,-0.35715973,0.06624711,-0.14874144,-0.35995236,-0.4241767,0.28589663,0.1082577,-0.20117247,0.25648364,-0.14116004,0.26802438,-0.3926803,-0.109486334,-0.04985291,-0.3301326,-0.035092454,-0.21976264,-0.014318231,0.53252095,-0.8586859
pleasure,0.10888555,0.35468948,-0.7028591,-1.0093063,-0.18839528,-0.12234633,-0.1942195,-0.5286201,0.40898308,-0.2528176,0.027860481,-0.28909862,0.34875602,-0.015513041,0.011321296,-0.2896818,0.13546371,0.113273576,0.610002,-0.1344554,0.1415695,0.3038608,0.17305753,0.27462175,0.009024892,-0.014275164,-0.26646987,-0.09195393,-0.17710048,0.13857234,-0.03855668,-0.67057204,0.85975873,0.14633705,0.0031408295,-0.004551514,-0.7778657,-0.22730288,-0.18187141,0.20032287,0.38119125,-0.12305865,0.7816512,-0.1688032,0.10279155,-1.1259844,-0.89090794,0.016282922,0.2544998,-0.2258113,-0.54213995,0.32874823,-0.06926211,0.57001317,-0.26149547,-0.14934051,-0.46755835,0.027890863,-0.29271695,0.45800444,-0.027628724,0.4118034,0.40692446,-0.22557992,-0.11247426,-0.523535,0.591286,-0.189179,-0.29336923,-0.0036468734,0.43029773,0.037982374,-0.19332778,-0.35033432,-0.11559355,0.04964465,0.28813314,-0.21864764,-0.42112738,-0.5040117,0.57392246,-0.39026213,0.40934002,0.40250424,0.11147221,-0.24700981,0.020171238,-0.6968422,-0.22036245,0.13612537,-0.3259339,0.76202047,-0.47160476,-0.6622301,-0.69717455,-0.40346295,-0.72383636,0.17003092,-0.2580778,0.00717379,-0.32619855,-0.1363372,-0.39539093,-0.7342343,0.49417502,-0.117338054,0.66253483,-0.15511787,-0.39613232,0.04139218,0.63304585,0.42237136,0.051665876,-0.07322759,0.044634156,-0.21965314,-0.3580636,-0.0711191,0.14846024,0.004327293,0.6931277,0.41828004,-0.08451659,-0.45223755,0.72734964,0.40074798,0.584499,0.39269617,0.4987882,-0.9595942,0.050030865,-0.14340255,-0.2938073,0.07114447,-0.941155,0.19804427,0.041593093,-0.35061115,0.051332742,0.2910997,0.60075283,0.17683971,-0.18793502,0.57491165,-0.09729487,0.14982904,0.31939134,0.44250327,0.2705193,-0.17660867
aggressive,0.25667596,0.031582855,-0.45886552,0.08739356,0.33727586,0.38069335,0.3214995,-0.5777887,0.20543739,-0.5762326,-0.029740147,-0.46148878,-0.06231031,-0.68274987,0.08502274,0.44132683,-0.5543531,0.13731712,-0.2995236,-0.043062802,0.055048715,-0.3599883,-0.7920651,0.08953003,-0.6437647,0.20130007,-0.23193355,-0.5415138,0.12020802,-0.6694046,-0.4031102,-0.1945426,0.1618027,0.4013335,-0.5476647,0.2946857,-0.47790563,-0.1673964,0.48597026,-0.2426991,-0.44193494,0.4559124,-0.097045,0.096261725,-0.062613755,0.20881562,0.69863266,-0.60868883,0.21847653,-0.8075857,-0.23746027,0.06253462,-0.19452699,0.5580008,-0.1253812,0.13035545,-0.09263996,-0.012683777,0.36786458,-0.0116150165,0.221105,-0.061094206,0.21326354,-0.49358678,-0.22907491,0.21332237,-0.10397013,0.5558355,-0.2072169,-0.33137324,0.5135969,0.63160884,0.093330316,-0.2771519,-0.40861556,0.11047652,0.032399867,0.29250076,-0.56005013,0.43392783,0.49367186,-0.33082643,0.4508959,0.14355715,-0.25913018,-0.76476103,0.29818615,0.15703866,0.30668017,-0.11290338,0.187194,0.38023317,-0.13072439,0.64662576,0.14254218,0.020996898,0.23958665,-0.61249906,0.24616535,-0.23208523,0.03386179,0.1273586,0.06411855,0.48143837,-0.050430834,0.25063094,-0.336809,-0.48763558,-0.10545516,0.36573383,0.061963335,-0.07492061,0.03970698,-0.03218571,-0.40659782,0.6326906,0.27094957,0.08574386,0.019387769,0.09698415,0.69565594,0.5003234,0.06176571,0.15547918,0.059194688,0.27207312,0.730391,0.97347754,0.5052206,-0.05804087,0.26965567,0.25947732,0.59137,-0.24383038,-0.6959565,-0.21304479,-0.27731153,0.03612017,-0.08018916,0.1353908,0.77689093,0.41357008,0.8199501,0.19671474,-0.13567464,0.27445462,-0.17607492,0.3045629,0.99602437,-0.28634387
angry,0.27090383,-0.2569527,-0.36768043,-0.374619,0.4868451,0.2751677,-0.38810045,-0.8494441,-0.2778696,-0.30635038,-0.076326914,-0.383056,0.054887824,-0.040890172,0.43277702,-0.070326135,-0.3380896,0.5283734,-0.37188196,-0.3539871,-0.5804488,0.11676048,-0.92977846,0.06597253,-0.40402186,-0.49445388,-0.117351405,-0.1292092,-0.2609846,-0.7660234,-0.4706807,-0.20654844,-0.058364425,-0.40805027,-0.22312343,0.14382115,-0.41318336,-0.24969745,-0.14497422,-0.31671703,-0.1284473,0.30767262,0.35179472,0.21258241,0.04576142,0.0940337,-0.14786677,-0.8469795,0.2861149,-0.56419337,0.071944,0.2753232,-0.097710125,0.4135736,-0.54723847,0.22134545,0.37031347,-0.11005503,0.41339284,-0.051957898,0.18476078,-0.07491198,-0.28395543,-0.5969133,-0.08818894,-0.28705013,0.24781355,0.3942685,0.05175724,-0.17335595,0.4886294,-0.041192558,-0.17599024,-0.51278704,-0.45276123,-0.64116466,0.363685,0.32968605,0.37019825,-0.12163527,0.11397413,0.18212555,1.0967987,-0.22872949,-0.03702092,-0.30983025,0.32222003,0.26782736,0.01888547,0.2270411,-0.27468222,0.52567315,-0.057456885,-0.6603454,0.38870507,0.134597,-0.20873258,0.22681795,-0.6235937,0.15127541,0.24631172,0.36320803,-0.10081354,-0.17492089,0.105213694,0.27131122,0.2851885,-0.40728617,-0.32109255,-0.07440291,0.2519044,-0.41756415,-0.2276331,-0.0081153875,0.06336378,0.3333197,-0.4719759,-0.07332206,0.101858534,-0.19518572,0.061191868,0.3559654,0.401194,0.41345635,-0.28816065,0.12851353,0.42184174,0.48074308,0.09985259,0.018251326,0.26549897,-0.079460464,0.24511236,-0.6426251,0.17316975,-0.12646168,-0.5963217,0.18674307,-0.13073637,0.115320735,0.64435834,0.33247286,0.3847083,0.46153545,-0.74434566,0.22221728,0.1777994,-0.3025526,0.14836025,-0.3273045
haunting,-0.5017134,-0.059331298,0.15384386,-0.5493124,0.46726173,0.20720729,-0.17519662,0.26789787,0.6905212,0.20440856,-0.37031832,0.23074032,0.1061394,-0.26489177,0.4968309,-0.14321661,-0.26694593,0.060126677,0.017763117,0.2690727,-0.3452305,0.6725577,-0.19031575,-0.16196206,-0.5311446,-0.15280412,0.12044852,-0.27705324,0.22728221,-0.49509916,-0.61174726,-0.6294341,0.33951068,0.29973665,0.004012008,-0.020931615,-0.17828988,0.10445004,0.18632554,-0.2551576,-0.48107627,0.4356679,-0.09882642,-0.34138048,0.03705614,-0.41195643,0.39207986,-0.97505957,0.6525839,-0.34577215,-0.108671546,0.26672354,0.17160362,-0.012666966,-0.5811255,0.023490254,0.41572827,-0.34689027,0.44865984,0.69795215,-0.3863303,0.39905098,-0.022143424,-0.05528649,-0.43613747,0.028293848,0.31780145,-0.041533593,-0.345644,-0.4662936,0.2745395,-0.17344736,-0.18031652,-0.13569662,-0.28652266,-0.6248612,-0.054908518,-0.12611642,-0.08936539,-0.17156243,-0.23640063,-0.41265154,0.29119664,0.59094477,-0.111356236,-0.50067824,0.38895044,0.4253288,-0.48626098,0.09278663,-0.48890513,0.60340166,0.5312525,-0.10823546,0.07581575,-0.003963359,-0.3890159,0.268266,0.2790444,-0.26784167,-0.15092508,0.37447524,-0.02196482,0.056905102,0.16127326,0.21533735,0.41047752,-0.23465899,-0.65881336,-0.08405176,0.5994403,0.04775281,0.1180999,0.12753244,-0.20087439,0.067146115,-0.33894244,0.227833,-0.019101258,-0.4744883,-0.13000813,-0.22044273,0.39647728,-0.8704496,-0.24633186,-0.01510702,-0.050057016,0.037264902,0.4569426,-0.5309112,0.022131586,0.5351281,0.21258342,-0.042395324,-0.12425372,-0.22596854,0.018232325,0.32159555,0.7154751,-0.14632949,0.07453896,0.05791747,0.30777964,0.23625639,-0.24021706,0.35849848,0.24810438,-0.08952572,0.38084263,-0.032174814
soothing,-0.7073089,-0.27263,-0.2692886,-0.05717983,-0.6086224,0.2684352,-0.14482094,-0.26788273,0.805399,0.48430616,0.020477213,0.33032516,0.27440086,-0.047259357,0.41264504,-0.21813737,-0.42654923,0.2454042,-0.22199556,-0.42029184,0.065856814,0.41617426,-0.5522493,-0.026879538,-0.25456834,-0.43975812,-0.2544151,-0.6616258,0.62424845,0.114071794,-0.57192796,-0.40745762,0.20614769,-0.21181221,-0.3461059,-0.11630846,-0.093061626,0.015533797,-0.4296432,-0.32068628,-0.4944557,0.46695578,-0.31605285,-0.27403918,0.25681588,-0.509787,0.3456121,-0.95349497,0.7700465,-0.11280475,-0.18967271,-0.09353857,0.18712638,0.2636201,-0.37693873,-0.038920414,-0.11434542,-0.21924275,0.4508562,0.26895982,0.15553594,0.10729719,0.5332558,-0.058233026,-0.65134794,-0.5246306,0.5117585,-0.322032,-0.38542205,-0.30460128,0.24767175,0.051640086,0.06908134,-0.29497516,-0.24596027,-0.5164123,0.023254095,-0.01229906,0.5244338,-0.2773192,-0.2527692,0.3105786,0.3200137,0.39810103,0.29350743,-0.7504197,0.55808085,0.4653326,-0.16751361,0.47235295,-0.64839536,0.0016473864,0.35855237,-0.28481883,0.38842577,-0.84700125,-0.05170353,0.039268892,0.1874038,0.23831284,-0.18310453,0.4364621,0.348294,-0.33869013,-0.08063373,0.107919365,0.23745848,-0.4297985,-0.41088963,0.2695365,0.37409616,0.25733623,-0.021428496,0.4137595,-0.19639298,-0.070847824,-0.1127818,-0.33428833,0.33873925,-0.012467212,-0.04133864,-0.1660409,0.35325623,-0.50595444,-0.43058607,0.48773146,0.027512252,0.0072416817,0.43712237,-0.47070378,-0.46154535,0.53815144,0.38373718,0.32026175,0.55697167,-0.4609244,-0.39255705,-0.2184105,0.46805653,0.22748043,-0.009582651,0.29811063,0.14642657,0.06741274,0.35396117,0.1467288,0.0706569,-0.049507976,-0.019935047,-0.66831905
peaceful,-0.39435628,-0.10039088,-0.12219803,-0.71062213,-0.5337822,0.7558594,-0.3238162,-0.4013911,-0.3334105,0.38711688,0.25947917,0.28582078,0.24817094,0.56007427,-0.29023752,0.12679721,-0.124533944,0.5723642,-0.15082379,0.1866928,0.551027,0.10388716,-0.017351175,-0.027899716,-0.5094485,-0.39071202,0.45343587,-0.4593753,0.8227099,0.16251096,-0.45827964,-0.18889086,0.24250841,0.14207189,-0.08683257,-0.039385073,-0.37026486,0.30797517,-0.39489067,-0.25931662,0.010239478,0.63228995,-0.5268027,-0.114872836,-0.39081648,-0.17784436,-0.24622624,-0.5356806,0.33672616,-0.13893458,-0.18925522,0.22063918,0.10041223,0.6130717,-0.48240373,-0.61581314,0.11201196,-0.3356839,0.121757776,0.3794876,-0.094234794,0.041377947,0.28015998,0.16840768,-0.25934228,0.21096648,0.45301664,-0.237222,-0.35038128,-0.4749694,-0.14411144,-0.12926836,-0.20323396,-0.59631985,0.016520415,0.18864153,-0.35424083,-0.2937237,-0.26580742,0.38075238,0.095257446,-0.16673028,0.9942594,0.31008607,-0.1950616,-0.51400423,0.042803187,-0.009106592,-0.08846035,0.33694342,-0.62033004,0.18516338,-0.02214359,-0.27232084,0.5686523,-0.33747494,-0.65297407,0.10460162,-0.24422516,-0.11403029,-0.7392706,0.6295106,0.5752768,-0.32320315,-0.15340982,-0.2503526,0.72959745,-0.034229986,-0.5360708,0.1597911,0.08387186,0.24321613,0.43445954,0.04000572,-0.24489254,0.27612782,-0.35840777,-0.09873621,-0.31834018,-0.20471214,0.20508337,-0.50552726,0.1687246,-0.6891613,0.079287685,0.7775402,-0.16506782,0.024860226,0.22660688,-0.79826975,-0.08737447,0.5148436,0.12588762,-0.639092,-0.12227165,-0.37600434,0.15680316,0.10726967,0.49535972,0.5009117,0.1075886,-0.07463579,0.2540406,-0.25271958,0.0102467295,-0.48899418,0.1948106,-0.086355105,-0.098273136,-0.0056525804
joy,0.92796713,-0.1357698,-0.8887712,-1.030781,-0.27796414,0.3192173,-0.60605067,-0.99502075,0.43873143,0.2074699,0.6476249,-0.3422016,0.32749617,-0.17423761,-0.6316674,0.43470368,-0.3696648,0.71999985,-0.46589097,0.24199034,0.3721711,0.64332056,0.44088644,0.41229075,0.013034361,-0.29486042,-0.20263208,-0.13671754,0.503313,-0.4276054,-0.30357438,-1.3069687,0.67628884,0.089678936,-0.48794815,1.1450529,-0.7097323,-0.14549278,0.3931154,-0.4541711,-0.3907926,0.00049773,-0.32826993,-1.1130623,-0.20488498,-0.58624554,-0.1471988,-0.30650192,0.121270895,0.40289515,0.6760554,-0.2191048,-0.21212618,-0.07766537,0.18060365,0.24940191,0.061525777,-0.55009526,0.10003095,0.5975949,0.65570015,-0.098752394,0.58040434,-0.14323899,-0.4325468,0.41967875,0.36823672,-0.35207203,-0.01129193,0.5024018,-0.5118428,-0.085166484,0.24653,-0.605252,-0.0039504766,-1.0937333,0.3354592,0.64030224,-0.25207624,0.15933175,0.21861555,0.02577394,0.21596438,0.6535211,-0.015952762,0.4121426,-0.45859194,-0.3574191,0.5658449,0.23234884,-0.42476445,0.45817876,-0.6693512,0.041890945,0.2641063,-0.51031816,-0.63906074,-0.7410877,-0.4849404,-0.54348403,-0.34047747,-0.42425993,0.38692674,-0.4824543,-0.9411928,0.18699941,0.50920904,0.095165245,-1.1432015,0.5943341,0.4512648,0.087286696,0.743994,0.010025893,0.19147576,-0.19099092,0.1479632,-0.9750027,0.027992684,-1.4362212,-0.9149359,0.53248835,0.17999345,-0.21028645,-0.25469756,0.51715255,0.4495239,0.18624133,0.3699594,-0.9148161,0.14819273,0.25641158,0.10805065,-0.048911363,0.14670292,0.13931508,-0.058517735,-0.85714066,-0.14790253,-0.6953657,0.5352879,-0.35228866,-0.31871095,-0.018844357,-1.0968939,0.08974051,-0.055201348,-0.3617809,0.72536284,-0.21243809
nostalgia,0.1407129,0.07635326,-0.74621296,-0.36862043,-0.28339928,-0.01562733,-0.23000023,-0.2891816,0.20122619,0.5620787,0.14169665,-0.11492392,0.6872038,0.037509743,0.34957865,0.008906935,0.08693669,0.43231145,-0.35031945,0.4747549,0.21362993,0.31672084,0.6124781,0.28927317,0.11457108,0.4344148,-0.10501614,-0.19813293,-0.45017937,0.13808025,-0.6131434,-0.18578891,0.20031294,0.3774664,0.3668639,0.11308883,-0.3921145,0.3854687,-0.22616991,-0.24983764,-0.472289,0.013722054,-0.053120892,-0.12200996,-0.14273444,-0.09249863,0.040601123,-0.3212389,-0.22992377,-0.07329659,0.35984832,0.19276594,0.37449923,0.4740839,-0.43922994,0.044223595,-0.015969398,0.4770876,0.34652925,0.041988924,-0.20931485,0.20758314,1.0443233,0.12096513,0.055506635,-0.19969836,0.049447633,-0.41980875,0.08814023,0.14467095,0.15023911,-0.15518586,-0.09550594,-0.51105034,-0.12691629,-0.02668814,-0.37052876,-0.2473647,-0.17954217,0.16208199,0.6729591,0.0009754639,0.5062017,0.45955375,0.035607737,-0.69568896,0.2906437,0.014567905,-0.43402696,-0.55797076,-0.38349155,0.46212098,-0.027372885,0.1805796,-0.43690932,0.19908893,-0.4163311,0.10494311,-0.61544997,-0.28630298,-0.46014023,-0.05563141,-0.20493095,0.1287867,-0.022722762,0.26831877,0.23595,0.013202754,-0.077801965,-0.2400922,-0.29415137,-0.11700141,0.28541738,0.08696284,0.13751607,0.20822875,-0.3983676,0.12397732,-0.18241844,-0.5586152,0.60063624,0.4030196,-0.14246513,-0.7854439,-0.1952406,0.5669882,0.2537372,0.60482675,-0.052957702,-0.29146925,-0.13366105,-0.16166466,0.0903629,-0.57155955,-0.28016028,0.15978354,-0.028016467,-0.3051464,0.073109895,-0.12487711,0.03373596,-0.15613182,0.7525373,-0.23908427,-0.40865976,0.12761079,0.7590235,-0.15890051,0.3033756,0.031996682
funk,0.16048144,1.1196032,-0.010390151,-0.3612498,-0.5410321,-0.31508794,-0.21284708,-0.7900013,-0.1057048,-0.55974984,-0.7687365,0.08346964,0.061564896,-0.10305938,0.39823312,0.046736795,-0.19698556,-0.2261612,0.0173184,0.05303253,-0.09183324,-0.037762098,-0.033553325,-0.023607837,-0.46787933,-0.15411635,-0.3864342,-0.5964942,0.11949404,0.25755852,-0.60817206,-0.5820101,0.21570808,0.003511514,-0.0055811596,0.50572574,-0.021841938,0.33671734,-0.07674703,0.30978903,0.25985762,0.03420735,-0.36683083,-0.2666197,0.1846245,0.089142226,-0.023564767,-0.5732977,0.04279169,-0.07682157,0.56375307,-0.05642511,0.834614,0.2649792,-0.22272211,0.033758335,0.077570416,0.3956224,0.64612585,0.094665036,-0.3115844,0.13064301,0.37020642,-0.50903726,-0.15540518,-0.58955854,0.6420938,-0.31839907,-0.22032112,0.17705406,-0.46883303,-0.39648968,0.3863472,-0.48990524,0.16463901,-0.43114528,-0.28831366,0.33736095,0.8346065,0.05952503,1.2921154,0.2709721,-0.32673264,-0.16866592,-0.542083,0.21191302,-0.19501972,0.35492456,0.85529065,0.27721384,0.23712228,-0.37016445,-0.24936783,0.09847983,0.2353315,-0.03307808,-1.0032228,-0.4429754,-0.013913742,-0.51785135,-0.11877535,-0.053587858,-0.10582917,0.4470681,-0.054156587,-0.39277676,0.3424078,-0.26747662,-0.7239808,0.8134707,0.54324013,0.2170622,0.17097774,0.3583756,0.41590658,0.038821883,-0.7484081,-0.19243404,-0.38086504,0.1658892,0.35536784,0.99674815,-0.12694192,-0.1526253,0.034548406,-0.09937122,0.12667233,0.532925,-0.33522904,-0.6094026,0.67293537,-0.19421995,0.66626334,-0.3178496,0.28506953,0.045597993,0.18213676,0.18387274,0.15532942,0.3342313,-0.46638545,0.847095,0.06979428,-0.109991975,0.10763784,0.20031244,0.45476845,0.24170472,1.0225511,0.20324367
sad,-0.2217926,-0.07374687,-0.02183148,-0.631163,0.074302904,0.2849482,-0.35215697,-0.4314983,0.1437687,-0.32251132,0.34250513,-0.004215204,0.8234642,-0.075879246,-0.0232421,0.29448602,-0.40692514,0.22137187,-0.14084528,-0.25864235,-0.21483424,-0.12563393,-0.06852957,-0.68790954,-0.42021987,-0.2998113,-0.20879687,0.015226005,-0.081257224,0.0024304711,-0.21618009,-0.60454583,-0.027005473,-0.32303545,-0.3234906,0.15419324,-0.18102193,-0.17177483,0.3387871,0.046295553,-0.37101313,0.035219748,0.24475886,-0.1934545,0.60241294,-0.4565021,-0.12146614,-0.75151265,0.34904355,-0.45788944,0.34578103,0.43077883,0.8035145,0.12230599,-0.4999548,0.034753624,0.4435142,0.06982049,0.014057605,0.04458325,0.22517982,0.08055649,-0.2773504,-0.6246763,-0.31243947,0.20983821,0.099460274,0.06942194,-0.13549308,-0.5986598,0.72112614,-0.30432868,0.036116097,0.29201072,0.1789998,-0.48626056,0.2022414,0.046313457,0.2587459,0.11435512,0.035586923,-0.26768088,0.32563624,0.45488963,-0.21945156,-0.7818806,0.37773088,0.22774836,-0.3965957,-0.1610269,-0.1676773,0.81160146,-0.057272006,0.15987056,0.12501805,-0.1237995,-0.07542941,0.35879406,-0.28220662,0.13809668,-0.797055,-0.37565365,-0.15199678,-0.61430633,-0.29269937,0.085075706,0.41249102,-0.8146628,-0.005159204,0.3173233,0.22409312,0.02748828,-0.43943706,-0.063377015,-0.27227014,0.47934526,-0.38081414,-0.24661247,-0.2197792,-0.3937643,-0.19886956,-0.053917956,0.049035184,-0.16739804,-0.0642214,0.44350663,0.059367422,-0.027733855,0.10791405,0.055287402,0.09670299,0.01536277,0.036934923,-0.12782498,-0.3201121,-0.0032582865,-0.37041548,0.48520687,0.47998387,0.55679893,0.2706855,-0.12580818,0.597899,-0.045555428,-0.7857355,-0.059620995,0.077034436,-0.053925574,0.39838526,-0.7942943
dreamy,-0.35842615,0.18728793,-0.09909271,-0.013911575,0.12035603,-0.052726727,-0.400155,-0.6391934,0.5668554,0.41014478,-0.010635083,0.6082403,0.21220496,-0.23747551,0.0888608,-0.1507427,-0.3244012,0.25434825,-0.066869065,0.43113166,-0.03679914,0.80812955,0.1023811,-0.4206813,-0.57518303,-0.25785106,0.079556055,-0.5594075,0.23688422,-0.37723482,-0.4776626,-0.39915448,-0.060118165,-0.20722249,0.3337772,-0.07224359,-0.19918603,0.056735042,-0.09367667,-0.41712007,-0.38762647,0.4350959,-0.4150049,0.30606666,-0.079354525,-0.8927179,0.22753224,-0.7947818,0.9156237,0.078628026,0.32071584,0.36397037,-0.16864268,0.17785794,-0.17536543,-0.5544569,-0.12090657,-0.3719014,0.37389836,0.5039812,0.35159308,0.1422608,0.18183526,-0.065493196,-0.23346815,-0.0636947,0.19374385,-0.39451697,-0.2004998,-0.39222953,-0.23106071,-0.4238399,0.24748462,0.06078655,-0.13560796,-0.17874138,-0.06485494,0.045413274,-0.05343822,-0.2675758,0.1568222,0.33894902,0.2875482,0.24828081,-0.11885316,-0.3632312,0.23248005,0.27906877,-0.4088503,0.15940641,-0.23044516,0.30892834,0.008575708,0.44022343,0.1187045,-0.7742599,-0.29773778,0.13438976,0.17221226,0.45460317,-0.0010552057,0.32242724,-0.09639425,-0.39463228,0.16000234,-0.29961967,0.052036893,0.13340187,-0.2788667,0.13435951,0.6729393,0.09476741,0.4206644,0.5614888,-0.15773834,0.39512163,-0.5482651,-0.018652283,-0.2849497,0.08719173,-0.03848471,-0.48174047,0.27576095,-0.49369568,-0.3335844,0.34944996,-0.14535876,0.58789897,-0.061620034,-0.63259727,-0.21765096,0.059345726,0.16505341,-0.3055405,0.007025847,-0.0020168729,0.05715931,-0.055036128,0.10339295,-0.50078636,0.124537274,-0.22753635,0.28983128,-0.01211915,-0.17654674,-0.14900556,0.21058403,-0.05128393,0.3122779,-0.4097013
calm,-0.26732424,0.406708,-0.10508352,-0.758789,-0.30410868,0.36938798,-0.10025764,0.009841189,0.10479906,0.33350214,-0.19798958,-0.373525,0.4069899,-0.10533648,-0.044784058,-0.6605426,0.2677028,0.2693889,0.5544727,-0.22152083,-0.13138248,0.33114403,-0.4917649,0.21586545,-0.8803424,-0.29254967,0.4035756,-0.16793689,0.507071,0.07081006,-0.8233263,-0.39942563,0.17559576,0.07995339,-0.7169635,-0.08407824,-0.4225274,0.12198703,-0.25786757,-0.13684238,-0.16154177,0.7378817,-0.53241223,-0.0131641105,-0.16972539,0.04995796,0.18753245,-0.33293712,0.43799093,0.0024439525,-0.63207215,0.3108685,-0.032011185,-0.07371753,-0.2676704,-0.484145,-0.17984173,-0.48638508,0.11677448,0.042621143,-0.3086276,-0.200441,0.18098314,-0.25099188,-0.36622268,-0.38910526,0.17347041,-0.3147002,-0.12172016,-0.3652933,0.7768924,0.3734696,0.43437603,-0.52919453,-0.635943,-0.29887968,-0.20233263,-0.3501608,0.12797464,0.24349253,-0.09405156,0.2613157,0.4154713,0.29279992,0.18190481,-0.7865661,0.3197185,0.46171084,-0.2722375,-0.1606644,-0.03727676,0.06976171,-0.049582977,-0.015781863,0.40563866,-0.12929991,-0.10046186,0.5396241,-0.41912147,-0.14049797,-0.016114745,0.25770506,0.19679652,-0.33440644,0.47248524,-0.2636343,0.38572294,-0.3704191,-0.6541167,-0.22037378,0.4327643,-0.08118374,0.10489861,0.19321367,-0.10724974,0.18155043,-0.16055717,-0.033963777,0.16918345,0.3974831,-0.044339065,-0.84203213,0.06856392,-0.427775,-0.30176303,0.78501225,0.8346858,0.38785267,-0.017087176,-0.52070564,-0.15768024,-0.21076812,0.20997943,0.114204,-0.6966718,-0.5784984,0.15337895,-0.3658547,0.71779794,0.5335623,0.020676741,0.38345063,0.38730487,-0.2422504,-0.32455617,-0.081548385,0.3246132,0.014669085,0.25911108,-0.40486574
melancholy,-0.016671155,0.6197817,-0.47984105,-0.40218133,0.3049525,-0.28439334,0.23616177,-0.17401879,0.31446195,0.123187296,0.121874414,0.402999,-0.02823022,0.06327943,0.08353095,-0.074508995,-0.3518093,-0.022125036,-0.031721547,0.010817676,-0.18240498,0.11399462,-0.11493769,-0.46371493,-0.533447,-0.021148676,-0.21131198,-0.35154998,-0.057683114,-0.23338664,-0.39273643,-0.14979303,-0.2862028,-0.62366503,0.20743951,0.14493246,-0.110983305,-0.024616012,0.18462747,-0.5256363,-0.538967,0.57428676,-0.3525257,-0.05272185,-0.13093986,-0.29875356,0.38746536,-0.7160104,0.12113862,0.04702746,0.16524112,0.41998035,0.4989997,0.27327478,-0.34376806,-0.3098654,0.18566729,0.10155812,0.42376116,0.008108365,-0.28084284,0.45206678,0.31470892,-0.24367712,-0.36344188,0.33373174,0.07230228,-0.38767618,-0.10751772,-0.066088624,0.27676842,-0.1929843,0.3659462,0.2160847,-0.38622472,-0.34115714,-0.32714102,0.19773875,-0.39098045,-0.23972715,0.15073572,-0.044193216,0.78769994,0.4527697,0.23914947,-0.6698502,0.23638044,0.1889958,-0.2128333,0.09720301,-0.7214955,0.58011764,0.30970472,0.0556872,0.6554998,-0.28019372,-0.3760472,0.011425688,-0.037103456,0.15129402,-0.45285997,0.18614474,0.26415855,-0.45167914,-0.086395614,-0.1293122,-0.16577373,0.010854252,-0.537362,0.15992741,0.5836574,-0.18338814,-0.05750312,0.21352339,-0.06311845,0.54725933,-0.5738588,0.008366902,-0.5158919,-0.523333,-0.03975733,-0.26489183,-0.33374962,-0.36454028,-0.101079665,0.36358103,0.39798108,0.54434633,0.0408598,-0.37854373,-0.26616377,0.3630473,0.007076066,-0.54006314,-0.4102339,-0.19846827,-0.2871265,-0.32031298,0.51927197,0.07424118,-0.5818023,-0.4740883,0.5161177,0.45781502,0.018151313,0.3714281,0.0061166557,0.30041867,0.39332783,-0.03384834
quirky,-0.09979244,0.18146709,0.08555984,-0.61004233,0.3689374,-0.10521705,-0.18857203,-0.49997658,0.19768639,0.03526421,-0.20673484,-0.044471387,-0.07482715,0.256076,0.39264944,-0.21493994,-0.8673339,0.49446753,-0.31091288,0.29271817,-0.46474302,0.7419634,-0.64098555,-0.33396435,-0.16075999,0.9546565,-0.30981287,-0.40738562,0.056083824,0.22488768,-0.17712475,-0.5963672,0.021239664,0.34980726,0.021028504,-0.07967117,-0.41539577,-0.1661565,-0.41078618,0.04425674,-0.4462531,-0.30452406,-0.16167237,-0.23727104,0.21845238,-0.4597503,-0.21024932,-0.75401473,0.58047116,-0.17164198,0.11291117,0.4029521,-0.3087531,-0.44027922,-0.52642775,-0.085514784,-0.36386496,-0.71548355,-0.19946405,-0.08834297,0.06576925,-0.052622963,0.17494093,-0.5472161,-0.3296878,0.44165325,0.20612158,0.21146378,-0.62352145,-1.1541746,0.048485875,0.08504352,0.33866924,-0.6072876,-0.050641015,0.27233478,0.109726064,0.069945544,0.32857051,0.03869291,0.51159894,0.10708681,0.5442199,-0.09614699,-0.021636346,-0.12206005,0.5834699,0.11758596,0.09135681,-0.20411326,-0.49208596,0.77883375,-0.121533856,-0.20411865,0.33954242,-0.07253934,0.009256781,0.14892446,0.1335054,-0.4132835,0.113505244,-0.21678966,-0.22344844,-0.3001851,-0.5658685,-0.8460122,-0.08475419,0.06160262,-0.78148586,0.029231692,-0.01230668,0.5118946,0.048768375,0.03606614,0.061809573,0.3196279,-0.96148854,-0.13944411,-0.23967868,0.021707058,-0.13471006,0.6228511,-0.06174805,-0.010305831,-0.13884136,0.9955273,0.19463667,0.42024422,-0.015985886,-0.2270484,0.26746023,0.07476959,0.17279021,-0.07468732,-0.11247345,0.07114694,-0.47434503,-0.2263336,0.44156644,-0.061111048,0.25302088,-0.47750616,-0.59743774,0.56650484,-0.4474929,0.25632998,-0.017233545,0.2734376,0.72907114,-0.44651926
desperate,0.37358937,-0.15368217,-0.46643257,0.13723336,0.05241549,0.12039882,0.59219456,0.011989845,-0.03176637,-0.56008476,0.14583853,0.10596579,0.9692618,0.19654761,0.94722396,0.08057796,-0.39681426,0.3105792,0.09881677,0.10173528,0.019289214,0.80826354,-0.12155347,-1.2632451,0.2165332,0.033349905,-1.0596027,0.45933455,-0.28514826,0.1018358,-0.9203167,-0.112538956,-0.07606147,1.1737288,0.37293527,-0.14923875,-1.0175202,-0.31441042,1.0862652,-0.5966534,-0.28514072,-0.17034335,0.0828091,0.002031402,-0.42376682,-0.8178511,-0.36983714,-0.54424715,0.44268662,-0.034141604,-0.019141018,0.92799306,-0.09382306,0.7923964,-0.17236,0.26915735,0.1554511,0.21846412,0.9765946,0.17203395,0.5355933,0.13783672,0.77421343,0.4518967,0.73842436,0.31727847,0.19231556,-0.42507082,-0.4217188,-0.12030906,0.20463268,0.3520605,1.0450786,0.20666677,-0.92390734,-1.1322654,0.02677114,-0.35933337,-0.08364994,-0.13563633,0.3001591,-0.43670726,1.223911,0.12955192,-0.016126497,-0.6328156,-0.66415805,0.20670295,0.241129,0.020316785,-0.07420768,0.47646627,-0.71666014,-0.3069088,0.4680117,-0.255835,-0.36405534,-0.4932137,-1.3992664,0.04083446,-0.12273461,0.28793573,0.26360542,-0.013291675,-0.9509856,-0.4820548,0.46995893,0.27717182,-0.8585031,-0.24906631,0.03600303,-0.36680266,-0.33474946,0.7362277,0.53729165,0.61491185,0.31135562,0.16174409,0.67672956,0.05917454,-0.10844589,0.08896971,-0.21996196,0.070455894,-0.07444182,0.22324938,0.096087396,-0.40851218,0.2578045,0.2537036,0.7394354,0.9386577,0.44175807,-0.33336702,0.033965126,-0.27171212,-0.5283239,0.28787637,-0.55123127,-0.5158564,0.25265515,-0.10454629,0.86419076,-0.2875342,-0.17426945,0.1454266,0.4902508,-0.32366335,-0.07045424,-0.9098341
emotional,0.21202467,0.44033793,0.046002444,-0.8413442,0.48390496,0.36693722,0.22386087,-0.7425633,0.10396415,-0.058898658,-0.24263033,-0.28570843,0.20884511,0.062468894,-0.26711684,-0.50312406,-0.21369834,-0.014914265,0.32809207,0.23343137,-0.047764692,0.17371857,-0.2395274,-0.52570975,-1.2824601,-0.31914225,-0.07744918,-0.19369376,0.26246157,0.030213587,-0.4151499,-0.04084888,0.21697453,0.35077536,-0.11678824,0.18346426,-0.40297908,-0.3914017,-0.03585005,-0.46359548,-0.7306307,0.08198411,-0.2283059,-0.057045434,-0.113535225,-0.2655381,0.018241199,0.19549313,0.2407705,-0.78379726,-0.11413726,0.3744458,0.1326571,0.6711719,-0.14763744,0.0051044803,0.09955986,-0.059569314,0.44356948,-0.110139556,0.18379213,-0.12799352,0.5490934,0.13953696,-0.014996741,0.24457002,0.39364848,0.06970826,-0.15370977,-0.047241013,-0.031104678,-0.28280988,-0.03709938,0.042032033,-0.55730385,-0.09067873,-0.26149064,-0.079864666,-0.4394004,0.24191421,0.3412293,-0.27385038,0.44050646,-0.14354192,-0.14499062,-0.59872425,0.725492,-0.089614436,0.27347422,-0.2222634,-0.3210284,0.8726566,0.06666996,-0.17833777,0.07752347,-0.37087026,-0.4256891,0.59641093,-0.18329321,0.23540166,-0.54154843,-0.30256045,0.35800076,0.083583154,-0.3532025,0.21603653,0.37991905,0.24385467,0.24438329,0.06117401,0.4518081,-0.03404623,-0.07468351,-0.060017776,-0.063512936,0.5179758,-0.2313641,0.5051061,0.24369685,-0.43094662,-0.09033485,-0.44385412,-0.30228755,-0.44087052,0.3836096,0.09508781,-0.16180012,0.038093884,0.3492083,-0.49474177,-0.14766589,0.48590824,0.26780897,-0.61950403,-0.2687832,0.24779454,-0.31061167,-0.32559517,0.27074462,0.18844126,-0.13119625,-0.051351715,0.6068862,0.61130655,-0.3384857,-0.31689313,0.19258226,-0.18125574,0.28644106,-0.5059679
inspired,-1.2083545,0.76216406,-0.5086833,-0.023401678,-0.66615814,-0.036194503,0.6787953,-0.03501701,0.4264986,-0.5858647,-0.6277246,-0.083307564,0.37854287,-0.06129022,1.0847859,-0.3854788,-0.6415535,-0.65481687,-0.00062038377,-0.36719823,-0.34553164,-0.555997,-0.30095437,-0.38592103,-0.6846218,0.731381,-0.20132567,-1.2578129,-0.8560593,-0.37903053,0.04900244,0.36137906,-0.8519762,-0.14956748,-0.4672436,-0.17216496,-0.2649067,0.30606443,1.0794965,-0.42410603,-0.77612144,0.08654752,0.17038007,-0.07949048,0.015711743,-0.66036904,-0.82386535,-0.8619872,0.71405435,0.7355874,0.51532686,0.6471035,0.952478,1.1015701,0.14745158,-0.86828196,0.2310292,0.111692525,0.18722986,0.5235583,0.1654142,-0.49595484,0.38108262,-1.1219703,-0.09069073,0.6585023,0.6606423,0.46286416,-0.7930141,-0.11448914,-0.66413987,-1.5715001,-0.3768809,-0.81109107,0.023185289,-0.0788091,0.64236534,0.6271219,0.52118254,-0.46516263,-0.0239415,0.53028226,-0.15561672,0.48823875,-0.8923736,-0.8802339,-0.465417,-0.875651,1.1238238,-0.33416787,0.48297703,-0.3011839,0.73269796,0.6488877,0.4569096,-0.21608976,0.37372673,-0.9544522,0.009133764,0.24154031,0.351584,0.051352907,0.2857698,0.3697607,0.5011816,1.2047641,-0.46553808,0.18871966,-0.36630735,0.94681543,0.8810979,0.77213967,-0.40331817,0.70857704,0.3155978,0.6542762,-0.09811619,-0.64137965,-0.76429695,-1.2247714,-0.058441527,0.83990675,0.28797156,0.42145407,0.035040233,0.48492974,-0.17466867,0.10488834,-0.62192905,0.12201138,1.0890315,-0.35103977,0.67775834,0.1482202,-0.45901406,-0.34228095,0.05507021,-0.9980783,-0.4734376,0.3107323,0.30085477,0.2005871,-0.0016499325,-1.1838852,-0.41943884,0.32944602,1.4270514,-0.07773345,0.8469302,0.20011273
bittersweet,0.39238435,0.19591476,-0.48003358,-0.9447993,0.2636794,-0.0013457987,0.07258867,-0.23667705,0.122989886,0.32230988,-0.37581176,0.22301094,0.29507202,-0.31811294,-0.08060886,-0.10742903,0.36639526,0.11183206,0.1930194,0.16477565,-0.51238215,0.41346517,0.01476383,-1.006678,0.35245144,0.45886442,-0.08197711,-0.14741404,0.3152281,0.3468358,-1.1308445,-0.01243901,0.20919387,0.1368362,0.630047,-0.15514493,-0.23095009,-0.6658837,0.1258038,-0.3777425,-0.27965525,-0.1012642,0.20309293,-0.17132545,-0.036059014,-0.44093698,0.008384752,-0.31148088,0.6478925,-0.030960873,0.18703844,0.27840215,-0.06695017,-0.018447213,-0.61909515,0.002330469,0.08521749,-0.18846282,0.33599114,0.46276987,0.19114414,-0.25842243,0.20143905,-0.039162397,-0.24650331,-0.16180004,0.609029,0.06679567,-0.39312246,-0.55182064,0.40335265,0.046604533,-0.16041648,-0.05514322,-0.5122679,-0.17880553,-0.06744821,-0.2202518,-0.12204896,0.15333673,-0.0058191936,-0.03807599,0.24913804,0.60139894,0.20551169,-0.8334994,-0.2890742,0.19539377,0.18902163,0.07744385,0.073209696,0.4380283,-0.16468458,0.28811678,0.21642959,-0.5187299,-0.75389487,0.23198858,0.0030497813,-0.1004901,-0.24380691,0.12939073,-0.34682015,-1.017834,0.2799874,0.017717393,0.27111652,-0.13719994,-0.21048303,0.22500342,-0.18940268,-0.10353638,0.048738204,0.1541977,0.5033486,-0.3700961,-0.054818362,-0.39888057,0.19937107,-0.2592862,-0.032369785,0.25253746,0.083023734,-0.12871462,-0.42887682,0.5005914,0.42283672,-0.14235635,0.2512147,-0.43980277,0.90217334,0.25180492,0.2909644,-0.6331853,0.29813895,-0.10357755,0.09256324,-0.40146247,0.6309292,-0.37885848,0.17027284,-0.23927079,0.8353219,-0.107252315,-0.14275533,0.33078837,0.09673356,0.08566299,-0.10908041,-0.19121788
black,-0.06621114,0.50483584,-0.8832287,-0.70785284,0.0050450806,-0.1969322,0.4066188,-0.85051197,0.27719903,-0.23290674,0.20360136,0.2522326,0.2537509,0.19229752,0.43975624,-0.21636854,-0.59584135,0.09157926,-0.839741,-0.6746222,0.20218039,0.43941337,-0.30635422,-0.52634996,-0.48871744,0.28256422,-0.20262742,-0.4894431,-0.11545055,-0.65108067,-0.78390276,-0.4688997,-0.2515311,0.5591137,0.5626756,0.42008242,0.13052724,-0.23755246,-0.4365879,0.2893749,-0.13593695,0.9210466,0.26651844,-1.1782986,0.12507169,-0.07873072,0.30403534,-0.83090794,0.10125986,-0.21097915,0.23938444,0.1189701,-0.6409528,0.09035985,0.07007733,-0.857951,0.046582803,0.059629988,0.4607044,1.041389,0.17598265,-0.45166215,0.040840954,0.07323542,-0.2117756,0.15654011,0.44061807,1.114896,0.36603102,-0.72887146,-0.5233479,0.6196241,0.41693044,0.21428211,-0.9536602,-0.44811696,0.18434933,0.6165525,0.25608915,0.41032824,0.88438517,0.49918646,0.47603002,0.65679383,-0.17088507,-0.37092543,0.22966968,0.53228164,0.35451642,0.5611397,0.09359961,0.7057933,-0.85714567,-0.51790696,0.4698514,0.38332787,0.17274909,-1.067364,-0.38778248,0.5104555,-0.41468802,-0.08657757,-0.17801997,-0.08213827,-0.3781149,-0.023577573,0.6523984,-0.24810094,0.34655085,0.2918657,0.9415693,0.017807169,0.41940606,-0.08814986,0.7549127,-0.6448855,-0.04481161,0.08998962,-0.051203355,-0.39928174,-0.042025216,-0.3438025,-0.22114378,-0.047160853,0.13567935,-0.29822713,0.61301005,-0.022161981,0.049093492,-0.49257097,0.19723782,0.3376566,-0.16890053,0.32794565,-1.2699099,-0.36243865,0.07207983,1.167011,-0.47590894,0.60027736,-0.010421837,0.08595813,0.2949288,0.024475588,-0.51105434,-0.116909795,1.3027396,-0.05273191,-0.03670897,0.6441113
depressive,-0.13025647,0.52892023,-0.5186823,-0.6849938,0.9907491,0.007800253,-0.56672835,-0.17917043,0.32545757,-0.15714745,0.21461488,-0.0501321,0.18571645,0.40941635,-0.06210852,-0.4792222,0.26013258,0.08927893,-0.13643567,-0.38081557,-0.22796762,-0.10427804,-0.5790969,-0.8963563,-0.4634151,0.2948475,0.25844556,0.07546196,-0.10003424,-0.5734204,-0.81653774,-0.3484503,0.017489944,0.6803801,-0.022385562,0.2777474,0.34277165,0.08391926,0.0028108433,-0.032804146,-0.7660132,0.12764458,0.47664797,-0.48481962,-0.054937333,-0.6061614,-0.04502625,-0.8564291,0.30291188,-1.1274786,0.009834564,0.38383225,0.6575435,0.26023737,-0.053879965,0.67079985,0.14669853,-0.54043365,-0.19197172,0.6530551,0.6930713,0.10222752,0.3721481,0.044012226,-0.07921239,-0.3880132,0.21475717,0.58714265,0.41634735,-0.505148,0.4611103,0.28465176,-0.22360161,-0.72420764,-0.4695777,-0.18379506,0.050758194,-0.18350513,-0.18930428,0.16552965,0.33681414,0.6532554,0.22612427,0.07345355,0.22623567,-0.6438471,0.88015443,0.5695511,-0.48584974,0.41682905,-0.13361591,0.67589545,-0.30292708,0.3666815,1.0855004,-0.04847672,-0.6966272,0.3271812,-1.317451,0.4357117,-0.63784444,-0.32488653,-0.3644246,0.065495014,-0.010724608,-0.19401301,0.090879425,-0.47537816,0.070662536,0.112462796,0.70521164,-0.40281767,-0.07510481,0.2611918,-0.36068302,0.038325112,-0.25977504,-0.045684792,-0.36669296,0.10683878,0.42006087,0.16122867,0.59420604,-0.7953803,0.6132061,-0.1359811,0.07006849,-0.010352121,-0.2506714,-0.53340125,-0.26878214,0.14781606,-0.13445197,-0.14126374,-0.45548204,-0.521906,-0.27068618,0.46613237,0.05549204,0.47824273,0.22266556,-0.039478768,0.39938754,0.12709336,-0.37654552,0.3585653,0.53467786,0.60679734,0.73750454,0.30807814
brutal,0.24433115,0.4925156,-1.1412227,0.008841399,-0.042412296,0.36208296,-0.19018796,0.063160285,0.05121058,-0.050816093,-0.1606118,0.08423633,0.88107985,-0.5744489,0.33782166,-0.24460988,-0.46058774,-0.115448445,-0.20702022,-0.14983016,-0.506893,-0.12804644,-0.594165,0.4007139,-0.9431382,0.64307237,-0.2330105,-0.04920751,-0.035775702,0.2762647,-0.41340056,-0.051770937,-0.17594045,0.54007304,0.47410062,0.41467935,-0.12440499,0.75565106,0.39508858,-0.0707417,0.022786628,0.71466404,0.24870133,-0.47948313,-0.37412888,-0.06452971,-0.3740421,-0.6276381,0.37836707,0.09915179,0.8526348,0.9682352,-0.16633588,-0.4983026,0.21056128,-0.41046026,0.002776907,0.45381325,0.65406716,-0.45751128,0.6695362,0.011032695,0.5151908,-0.52516097,-1.0245711,0.1564222,0.8788458,0.21304953,0.110802144,-0.002706397,0.18615684,0.7380038,0.045201212,-0.39164314,-0.13701008,-0.041891675,-0.103463784,-0.15360013,0.33050448,-0.49328303,1.0050213,-0.45145875,0.61762613,-0.22813429,-0.702093,-0.26564562,0.43163207,-0.09182518,0.110909864,0.9093565,-0.74471176,0.6603319,-0.16389371,0.41529915,-0.23824804,-0.32883942,-0.13884471,-1.0626179,-0.3026585,0.12754442,-0.4195553,0.09675561,0.19075234,0.031637784,0.11337648,-0.2497386,0.05121079,-0.31316948,-0.68117946,-0.5311406,0.7711504,-0.20465745,0.25428203,-0.2500758,0.69878805,-0.8461202,0.25363857,0.35915446,-0.3173777,0.31416407,0.04964801,-0.06549153,0.3847154,-0.4125344,0.4470022,-0.14773023,0.5244108,0.6634139,0.2928798,-0.8737699,0.5732591,0.15131098,0.36951318,-0.3747773,-0.62357074,-0.4723367,-0.88973844,0.5342745,-0.033933867,0.26796237,0.25375816,0.30936027,0.83399945,0.84652555,-0.94044197,-0.18720675,0.5722679,-0.42371294,-0.35130674,0.4497973
trippy,-0.22384879,0.1313715,-0.321483,0.0058822604,-0.037035137,-0.36751175,-0.41654646,-0.32726735,0.058352627,0.23343168,-0.2172909,0.065950915,-0.11222601,0.32868683,0.011403809,-0.11744301,0.38537097,0.43741888,0.120984174,0.13740145,-0.5015974,0.16123457,-0.4878585,-1.0822511,-0.5534394,-0.060521245,-0.38566265,-0.467339,0.5132725,-0.04406632,-0.36365196,0.8974046,0.83448035,0.45538166,-0.45069623,-0.40844098,-0.7994872,-0.0540575,-0.031148735,-0.51141167,-0.21216092,-0.005994643,-0.7754856,0.05734279,0.020524062,-0.27699843,0.13548113,-0.9760648,0.7431163,0.2980593,0.4419991,0.3052636,-0.07842689,0.30206385,0.041949004,-0.41329792,0.3982949,-0.54715407,-0.042750932,0.18722689,-0.05975833,0.8945762,0.19899024,-0.36175713,-0.9602698,0.24639124,-0.004437789,-0.06384319,-0.0625248,-0.033003062,0.21544519,-0.20367251,0.07058082,-0.8260566,-0.18992501,-0.14143601,-0.2417679,0.079159856,-0.0010516369,-0.10297891,0.87723964,0.30323222,0.48586804,-0.06375878,-0.1477765,-0.44199595,0.3012563,-0.29282674,0.28857788,-0.18882573,0.17331514,0.22608826,-1.0172842,0.3107351,0.335902,-0.3321761,-1.0188081,0.13587293,0.11970735,0.3658878,0.4024687,0.19238998,-0.4137443,-0.20716651,0.07615512,-0.18670371,0.15397727,0.41868916,0.2385421,0.14220709,0.3854773,0.20181529,-0.38845783,0.3919288,0.119755834,0.015621296,-0.5271761,0.289348,-0.106586516,-0.13821068,-0.39909098,0.2627191,0.3092621,-0.42422456,-0.25529853,-0.18158655,0.31749374,0.18540607,0.32696518,-0.07153191,0.4243194,-0.02261072,0.5260132,0.24395896,0.08172759,0.4959565,-0.22995533,0.085447565,0.6164345,-0.010307779,-0.0011640304,-0.6163886,0.121509805,-0.06344235,-0.20640376,0.22878501,0.8764803,-0.49615568,-0.29355127,-0.10301513
dark,0.40901834,0.6133152,-0.3394522,-0.52505714,0.7794435,-0.29887047,0.21633315,-0.46818867,-0.62132955,-0.008429374,-0.105288096,0.32930255,0.45274583,0.11237262,-0.101266585,-0.43936095,-0.3288234,0.65469736,0.30938247,-0.10009755,-0.4492177,0.6843056,-0.93311954,-0.60480076,-0.6080894,-0.1080831,0.062252633,-0.15156679,0.15668042,-0.5730619,-0.27404216,0.41504008,0.47670588,0.44644108,1.1098709,-0.43762672,-0.011162633,0.5475205,-0.27115655,0.28863743,0.002872728,0.59334165,0.22038256,0.039715465,0.14808267,-0.2619691,0.062305257,-0.97935736,0.6941638,-0.3864015,-0.032186106,1.0426968,0.20823824,0.4990323,-0.2771482,-0.685266,0.49722204,0.31529596,0.39747843,0.15499036,0.39592376,-0.34356803,0.28852475,-0.14779408,-0.33435792,0.06510172,0.3711276,0.21255313,0.81880563,0.10114643,0.8603591,0.3894911,-0.14135054,-0.38324896,0.046445288,-0.36077678,-0.25006783,0.0401882,0.049291026,-0.4277902,0.22083515,-0.6044075,0.57309943,0.5611815,0.25806624,-0.8822538,0.33125025,0.16348532,0.11858415,0.092418246,0.008055272,0.0307045,0.27930155,0.42971262,-0.50299835,-0.17521407,-0.421886,-0.04976083,-0.4296912,0.81846845,-0.2142961,0.23144901,-0.055142432,0.15234531,0.1959642,-0.058103558,0.14690553,0.0040779095,0.03439809,1.1288861,0.8161648,0.36783344,-0.3856492,0.16224502,0.19839796,1.1339968,0.09700431,-0.2175209,-0.84824824,-0.024916522,0.13404487,0.94023013,-0.123381555,-0.81194854,-0.33443218,0.292286,0.085933,-0.25704846,0.45074606,-0.5804891,0.28896824,-0.16386479,-0.25067657,0.23463988,-0.21087992,-0.95844793,-0.34084034,-0.20003778,0.35391435,0.18689305,-0.42145172,-0.30168232,0.18241201,-0.6254957,-0.38856292,0.6000843,0.8684213,-0.37568203,0.5635992,-0.011275047
lonely,0.41005364,-0.5680111,-0.4418515,-0.5004191,0.38801655,-0.23893271,-0.057002146,-0.7033419,-0.3236903,1.0592235,0.8037636,0.5838348,0.5893502,-0.25840962,0.14824003,0.0018554128,-0.74460316,0.79226774,0.1538686,-0.105353385,-0.33651847,0.11120174,-0.25761884,-0.93129873,-0.17493223,-0.36549747,0.8729774,-0.43863124,0.10212927,-0.6244128,-0.7598514,-0.20978922,0.96617985,-0.1125393,-0.713192,-0.5223324,-0.6637736,0.08886952,-0.22517009,0.33930242,-0.69695765,-0.1867879,-0.55375737,-0.10029712,-0.58383375,-0.12577803,-0.5254852,-0.43870455,0.19368364,-0.5323549,-0.17392649,1.0225146,0.46068278,0.49264988,-0.018106192,-0.030597294,0.053238258,-0.34098387,0.4230981,0.34249315,-0.06663125,0.46484217,-0.335043,-0.48840058,0.30556682,-0.36992627,0.47220963,0.2470709,-0.07836834,-0.18604316,0.22842893,-0.09150656,-0.6286708,-0.03946491,-0.43878967,-0.9973331,0.24027202,0.01620562,-0.23119938,0.051196903,0.19199175,0.7005445,1.0880969,0.87022525,0.3022698,-0.40664554,0.16604806,0.23949526,-0.4039412,0.23746927,-0.10231244,-0.24937601,-0.11277122,0.3306702,0.64325625,-0.06735324,0.2234861,1.0373986,0.73882705,-0.2719917,0.081631556,-0.17852563,0.66839045,-0.84735477,0.22082639,0.27368712,0.5709347,-0.2384129,-0.20245756,-0.2927465,0.049855094,-0.76512134,-0.21051142,0.26911017,-0.7699785,0.83661234,-0.28795004,-0.22608842,-0.36364588,0.0063310103,-0.3200164,0.050605543,-0.034334555,-0.033246655,0.8275908,0.18241377,0.42417505,0.39872622,0.36034495,-0.39701214,0.08290536,0.040913735,0.42056027,0.648194,0.06303047,-0.3106267,-0.7070252,-0.013522492,-0.053264882,0.48786193,-0.12933825,-0.4055156,0.8574463,0.6897166,-1.1078568,0.5390848,0.35649037,-0.08880101,-0.14481205,-1.0301706
quiet,-0.21899574,0.21166986,0.12811317,-0.47839555,0.646355,0.9241755,-0.0073415376,0.00080830505,0.30955523,0.3458169,0.17788978,0.4596625,-0.22540992,0.25980222,-0.08852695,0.022312613,-0.64117974,-0.057488285,0.29640153,0.09939483,-0.14582987,0.46492878,-0.4337248,-0.20155801,-0.5706376,-0.5595153,-0.21275103,-0.62536687,0.27320343,-0.27047068,-0.26334718,-1.0724545,0.25108474,-0.25373298,-0.25169364,-0.23391816,-0.41815984,0.4963241,0.41895324,0.27168053,-1.261225,1.6593817,-0.39141095,-0.31663546,-0.04098572,-0.21689983,-0.12189963,-0.22182241,0.73890376,-0.75230885,-0.004658446,0.27684882,0.33479688,0.78701055,-0.23685116,-0.3637784,-0.47381395,-0.37383038,0.74490744,-0.16688247,-0.006338491,0.44395506,0.26757237,0.05558096,-0.39741144,-0.8416685,0.12847976,-1.2244002,0.033101104,0.1550883,0.56435865,-0.37807176,0.6454207,-0.50404155,0.2051235,-0.40982255,-0.3399148,-0.63536966,0.21699163,-0.5087789,0.37447786,-0.09375296,0.372812,0.73154813,-0.16375415,-0.6326794,-0.15005267,-0.08128117,0.101201996,0.25024188,0.5976483,-0.00513668,-0.2797857,0.26856446,0.51096994,-0.44633687,-0.165614,0.40547904,-0.055468276,-0.22572716,0.020327937,0.56480485,0.035164494,-0.103655905,0.1569373,0.03581594,0.36135218,-0.21366915,-0.6125246,-0.23177467,-0.06924035,0.1453934,0.22393395,0.43452162,-0.47130325,0.43788317,0.05926203,0.1135267,-0.37778318,-0.80437195,0.18320028,0.2507616,0.098316595,-0.47595415,0.15130453,0.49132758,0.6195843,-0.266187,-0.09723086,-0.671206,-0.24346568,0.025160853,0.66119283,-0.60682714,0.38947913,0.006266657,0.4249625,-0.6048655,0.02351778,-0.01411192,-0.334293,-0.1166334,0.19197665,0.9476034,-0.63413197,0.13580826,-0.54770184,-0.31812462,0.08842672,-0.31605646
tired,-0.5849054,0.88367695,0.44966644,-0.07817675,0.03073116,0.823747,-0.8020558,-0.49718225,0.4887333,0.51045114,0.68576545,-0.17635828,0.28091335,-0.70634085,-0.63075155,-0.0060055233,0.28536025,0.103348546,0.8174228,-0.3512221,-1.9986912,-0.6917331,-0.55790204,0.33481613,0.62997776,0.023503479,-1.0969197,-0.39167953,0.053669296,-0.7912367,-1.6875398,0.22848566,0.21964431,-0.11613907,-0.7322473,0.77977824,-1.0731212,0.1550726,-0.36135012,-1.0266511,-0.6002477,0.56532747,-0.0749488,0.023047617,0.038337506,-0.27350006,-0.19577555,-0.4027289,0.5171294,-0.5018186,0.21326898,1.145378,0.23581038,-0.24247049,-0.32972538,0.19527936,0.08625082,-0.28835797,-0.4753088,-0.9829647,0.1819838,0.2177069,0.61508393,0.012526434,0.0060824268,-0.31055596,0.858113,-0.47551584,-1.851041,0.5424417,0.052635804,-0.65379953,-1.2277495,-0.6739924,-0.008014095,-0.20873529,0.42959416,-0.36128992,-0.27551916,-0.27673918,0.037820995,0.20950538,0.34845784,0.04406577,0.5600461,-0.9181628,0.098603666,0.39008293,-0.2731409,-0.09466314,0.3586347,0.91218567,-0.33771062,0.27449262,0.4940995,-0.22238883,0.6788403,0.24379358,-0.07943146,0.51359403,0.758514,-0.69113916,0.45949185,0.41336623,0.10885127,0.7977858,0.5095546,-0.04192841,-1.3401047,0.4939019,1.657502,-0.04057315,-0.3074901,0.45611373,-0.65894085,0.5444564,-0.9229026,-0.54112285,0.1358042,0.5105671,-0.5301497,0.047671378,-0.76062095,-0.40399888,1.082533,0.05746918,1.1019652,-0.21645969,-0.27715832,-1.3933116,0.74643815,0.6104589,0.264086,-0.37868494,-0.767162,-0.17753698,0.60752475,-0.38917932,0.89112824,0.7265685,-0.89236015,-0.17497654,1.4042587,0.08558598,-1.4635202,0.04869082,0.5211621,0.52636814,0.38660493,-0.8025219
gloomy,-0.18300873,0.14910577,-0.03618844,-0.34809482,0.4206095,0.108866505,-0.17954156,-0.535366,0.38125145,-0.5868202,-0.5437425,0.6056245,1.1605929,-0.55449945,-0.24567832,-0.73398834,0.018141564,0.7487992,-0.018137945,0.18472198,0.63571334,0.30039948,-0.6749241,-0.7601409,-0.17233288,0.30237207,-0.32805863,-0.1533629,-0.43824306,-0.03969295,-0.31632763,-0.3834039,-0.13704509,-0.16523641,0.13589121,0.64153975,0.36283222,-0.39919776,-0.0373668,0.1702278,-0.53214025,-0.23235099,-0.21104197,0.07693439,0.09687109,-0.251063,0.1965677,-0.56995535,0.7489964,-1.1637831,0.031923164,0.76981485,0.027379626,-0.008529804,-0.9849912,0.69638675,0.9696613,-0.33900207,0.34655792,0.13290462,0.32310042,-0.437256,-0.23532197,-0.053710837,-0.42831567,0.31637877,-0.10802916,-0.47650084,0.295779,-0.254545,-0.27644497,-0.10499903,0.07157239,-0.5270485,-0.5140305,-1.074189,0.26171827,-0.5615351,-0.28989986,0.14076161,0.76655155,-0.025698116,0.6723196,0.5450923,0.10235259,-0.48012218,-0.24078476,0.32275367,0.2996178,0.16512294,0.16292821,0.1135976,0.17538331,-0.20249131,0.8346651,-0.83485305,-0.86302906,0.3706033,-0.22238272,0.6282986,0.3043882,0.17538673,0.61165035,-0.30728978,0.22657426,-0.13178246,0.13458407,0.75190604,0.037876643,0.50661427,0.7979181,-0.6631974,0.51986444,0.088564254,0.13269542,-0.19558279,-0.05084735,0.027232006,-0.63732976,0.077544056,0.14244764,0.26798108,-0.08988902,0.2209787,-0.28965607,0.41611046,-0.06324544,-0.07475863,0.6431998,-0.4884393,0.8968363,0.13919213,0.2737288,0.42870712,0.008005691,-0.6321574,-0.8914731,-0.00034855574,0.42719737,-0.38255477,0.0573685,-0.15699996,1.0692887,-0.30456632,-0.35159087,-0.31516376,1.1446213,0.14211302,-0.40224484,0.33308128
loud,0.4349344,-0.11385264,-0.49410394,-0.013922858,0.3695472,0.4491072,-0.038349226,-0.42769325,-0.04392227,-0.45867348,0.20875981,-0.43748194,0.18232352,-0.49121258,-0.386976,-0.14351502,-0.31013396,0.4968766,-0.38648543,0.09644978,-0.53156817,0.90997845,0.09239062,0.33498412,-0.7094009,-0.41809523,-0.12371414,-0.41886532,-0.20529886,-0.64972687,-0.28151774,-0.75566894,-0.46023864,0.14641458,0.021052489,0.30724886,-0.645487,0.24351476,-0.15812406,-0.31132472,-0.14814204,0.906155,0.4104556,0.32769948,-0.066860616,-0.54222053,-0.039274182,-0.69852644,0.03761202,-0.35738435,0.013616154,0.47366723,0.2175747,0.44316107,0.07826836,-0.14775452,0.07674809,-0.34327772,0.34715718,-0.83052176,0.5178988,0.7552029,0.12192225,-0.19941288,-0.16769603,-0.117182,0.4197814,-0.7783281,-0.15777119,-0.35655057,0.017368093,-0.12556936,0.39083365,-1.125966,0.89014304,-0.614366,0.21695921,0.4436768,-0.15170664,-0.42798063,0.3314933,-0.14683978,0.2219439,-0.3904804,-0.53785396,-0.6982649,0.13435937,-0.12602681,0.629579,0.8594078,-0.58779037,0.45524022,-0.0164435,0.8135535,-0.4589354,0.077944994,0.4298613,-0.08214716,0.026785199,-0.37408024,0.17693661,-0.13961312,-0.54007643,-0.21168077,-0.2388665,-0.31904665,-0.060487837,-0.4334896,-0.48994023,-0.131453,-0.013567988,0.7844725,0.30799523,0.028049491,-0.48403135,0.29353863,0.3039648,0.41941726,-0.43202353,-0.22864892,0.26195663,0.67513555,0.05321406,0.026770843,0.25568348,0.692875,0.9179359,-0.45279354,0.1894176,-0.543701,-0.13208674,-0.080505826,0.4737631,-0.3580204,0.34887138,0.90930706,-0.10285674,0.16384347,-0.25185576,0.14531586,-0.07136489,0.7937242,0.4880314,0.20361477,-0.3091045,0.50099915,0.06008922,0.101263866,0.07041878,-0.39452025
bitter,0.6232148,-0.1139264,-0.32024762,-0.22969787,0.34018376,0.012450983,-0.3532975,-0.2679689,0.30082896,-0.3071767,0.45346725,-0.23516326,0.15478264,-0.5938969,-0.3928652,0.2529131,-0.14597051,0.33593994,-0.17235239,0.35539114,-0.28542534,0.3424143,-0.66683203,-1.0749592,0.031307478,0.2955614,0.05169175,-0.007273651,-0.5576101,-0.23522453,-0.37722287,-0.09762125,0.06614064,0.28466478,-0.31981125,1.147225,-0.5526097,0.0896297,0.8943001,-0.42965326,-0.09412557,0.5758056,-0.0032950987,0.0015541597,-0.13960719,-0.54902595,0.15811175,-0.89063305,0.38221645,-0.0861416,0.10403929,0.17910129,-0.44345966,-0.36869174,-0.47332698,0.8591444,0.3271511,0.08918772,0.24567628,0.014585742,0.0037380795,-0.29299927,0.2397735,0.22401348,-0.7420426,-0.6824819,0.17288123,0.022057226,-0.5422451,-0.38750082,0.3635004,-0.120070845,0.45165005,0.5420025,0.19610113,-0.8165192,0.020907803,-0.011921753,0.33864474,-0.2925147,0.8803713,0.2893474,1.3383893,-0.22633171,-0.67864645,-0.7245625,-0.7412325,0.44548184,0.16203447,-0.82435817,-0.48999813,0.7439279,0.39850387,0.5518363,-0.48778063,-0.40062436,-0.85581845,-0.32300264,0.018739512,-0.25633126,-0.13775821,0.65645623,-0.34524417,-1.1574006,0.02289577,0.25667417,0.10422224,0.12196293,0.16897993,0.07357726,0.10855146,-0.30903193,0.21669179,0.086803205,-0.10984774,0.15032823,-0.503742,-0.017630361,-0.440871,0.12255575,-0.6856936,-0.7399804,0.08267223,-0.3059073,-0.68901855,1.0379995,0.7676522,0.22375621,0.30056393,0.031209279,-0.044806182,0.21680239,0.08713419,-0.19320005,0.05728495,0.44652408,-1.0002295,-0.5859561,0.28315568,0.15267175,-0.3096551,-0.45767063,0.34676197,-0.36344153,-0.92117554,0.26902413,0.1729017,0.118626535,0.010534731,-0.2985865
longing,0.4441346,0.4957217,-0.44999003,-0.05403532,-0.39113253,0.3376874,0.38114393,-0.44825327,0.3431486,-0.06712351,0.010063931,0.32760835,0.7343835,0.40844375,-0.4181097,-0.19143538,-0.4051713,0.6480323,-0.4332423,0.25461677,0.03075912,0.017463565,-0.41388714,-0.24051403,0.021306632,-0.27379194,-0.34053838,0.2438602,0.49807513,-0.25782245,-0.22010794,-0.43601945,-0.08768809,0.13670059,0.70310587,-0.07751958,0.03266201,0.34547415,0.33235016,0.017333768,-0.43250027,0.052971777,0.320186,-0.29517737,0.089001544,0.20397484,0.16696419,0.013247161,1.2886305,-0.117650144,0.5130641,0.76229006,-0.27396163,0.65843755,-0.16595182,0.18757366,0.0045891344,0.0946118,-0.18602483,0.17366977,0.19786108,-0.005164257,0.48402438,0.040238947,-0.39485744,-0.26244918,0.7787034,-0.49250415,0.36165488,0.27462962,0.31451675,0.44300348,0.43936825,0.32298395,-1.0880976,-0.46733487,0.12613729,0.0031140787,-0.6369839,-0.5903266,0.34904456,0.15522894,0.4591304,0.112403415,0.035713684,-0.0043678745,-0.092390604,-0.11194936,-0.058000833,-0.2544453,-0.49500653,-0.028180044,0.02884536,0.1086047,0.07792168,-0.27384147,-0.2791946,0.18472916,0.28611413,0.06554052,-0.5284633,0.48931533,0.07200438,-0.5856258,0.30238783,0.14316656,1.0386406,-0.07657057,-0.39525932,0.10396479,0.40201744,-0.33421883,0.35977525,0.37636673,0.2135431,0.33347306,-0.5967724,-0.15203647,0.09678591,-0.49859017,-0.40426928,-0.043601766,0.11304661,0.031546988,-0.56167585,0.0026437738,0.027491936,0.56027883,0.5539158,-0.4035156,0.18399198,0.022958104,0.22865243,-0.3751974,-0.504213,0.020052366,-0.3742646,0.020704862,0.34236363,-0.7963264,-0.15899056,-0.39931104,1.0368499,-0.1816395,-0.51157606,0.33505777,0.036785282,-0.3617487,-0.16596739,-0.5323197
hypnotic,-0.13690244,0.384516,-0.3896031,-0.1818715,-0.046665717,0.119726054,-0.29090282,-0.014781769,0.025909323,-0.1640603,-0.01143129,0.36715302,0.25260606,0.8249631,0.13133906,-0.043484733,-0.23285799,-0.102362886,-0.07816775,0.18373048,-0.108935915,0.19422503,0.019724218,-0.17084502,-0.5872103,0.23085393,-0.41710535,-0.2569138,0.10706153,-0.324177,-0.7397353,0.2113682,0.2848281,0.37665713,0.11281565,-0.018575836,-0.048960783,0.27694097,-0.0018774774,-0.36722147,-0.18719895,0.1952547,-0.13647988,0.08140006,-0.08554716,-0.5286803,0.31641185,-1.0545075,0.44024625,0.045574,0.20924093,0.31973222,0.10096614,0.65815914,0.10982123,0.010797875,0.16835989,-0.54880416,-0.42247984,0.58184177,-0.14775172,0.04968404,0.7409605,0.033110585,-0.5384083,0.24341193,0.66757137,-0.18932958,-0.27474484,-0.4830635,0.11641144,-0.13374351,0.072163075,-0.7087486,-0.38553396,0.28156468,0.08640974,-0.25954634,0.12456352,0.16655129,0.43542585,-0.43501946,0.91989,0.5150084,0.0020713438,-0.17543127,0.0460929,-0.17129588,0.120908886,-0.21919656,-0.6221504,0.39745998,-0.060009606,0.357927,0.51506793,-0.46971646,-0.70717233,-0.024436133,0.15512049,0.23243298,-0.07053152,-0.25728187,-0.10096389,0.010175826,0.10444579,-0.04256672,0.21425042,0.39052138,-0.15323105,-0.04948299,0.5536369,-0.15745679,0.10217164,-0.12545693,0.36324993,0.0135183185,-0.12595232,0.24320161,-0.2731181,0.30880424,-0.029662076,-0.25606915,-0.105561264,-0.5776724,0.17228286,0.35772532,-0.10045912,0.011788763,0.2917372,-0.93685967,-0.19367209,0.10749785,0.025905877,-0.1655426,-0.4143965,0.3724102,-0.18207629,-0.019610876,0.73633516,0.3853371,0.26447612,-0.21650928,0.25522923,-0.08891767,0.16146153,0.46458972,0.55104524,-0.09484531,0.22863068,-0.22072956
serious,-0.06768426,0.59715605,-0.08561054,-0.5681448,0.6738898,-0.303905,-0.56625956,-0.43714094,0.21862191,-0.19430046,-0.3290103,0.76788306,1.4669805,-0.07760335,0.15959366,-0.86027014,-0.43664724,0.86369497,1.0924672,0.121173255,-0.073918425,-0.12469342,-0.29727602,-0.7564035,-0.5141572,0.6976671,-1.0411698,0.07534346,0.6729063,0.5020595,-2.0494623,0.591409,0.4479081,-0.25717238,-1.2064403,-0.67789716,-0.1013094,-0.30254588,-0.747662,-0.51713026,-0.36450732,0.390601,-0.053592812,-0.9096272,0.35180494,0.07620726,-0.32797766,-1.1669664,-0.1889027,-0.18645811,-0.0064539113,-0.75892675,-0.3139192,0.07555611,-0.9337822,-0.6188324,0.641355,-0.49499327,-0.3663754,-0.52075535,0.1311909,0.19545846,1.4656928,-0.24676152,-0.644997,-0.39068708,0.36030972,-0.23404147,0.82367074,-0.23791103,0.08322341,0.48051107,-0.37168542,-0.85998946,-0.3671543,-0.47316757,0.5378315,0.84003633,0.24657921,-0.24985233,0.08541489,0.49785087,-0.09452982,0.5229931,-0.3242393,1.2989879,0.5970033,-0.7038109,0.83130497,0.4694142,0.25077623,0.33925962,-1.3645492,1.4828404,-0.8201093,0.53748065,-0.05122602,0.09547029,0.25266996,0.19343925,0.12793389,-0.3667028,0.34750605,0.1630832,-0.51443434,-0.20715107,0.5341152,-0.42383325,-0.4474448,0.1463035,-0.024990998,0.0070975865,-0.13908233,0.4952424,0.17398755,-0.65370727,-0.028529977,0.024549136,-2.0038223,-0.11376279,0.67044646,0.4376288,0.89644605,-0.41568565,-0.41151717,0.44976738,0.5237386,1.370779,-0.54372615,0.15437241,1.3834828,0.61169344,-0.2087995,-0.3166465,-1.2977955,0.033122726,-0.49661556,0.31147555,-0.6024299,-1.228193,0.65048534,-0.074015655,-0.41022474,0.5990742,-0.45424554,0.7722889,0.39534077,0.21392058,0.41605031,0.26016447
exciting,-0.11140921,-0.24275112,-0.21989346,-0.021330226,-0.36278948,0.5456777,-0.75543207,-0.041289728,0.5121899,-0.00014398826,0.56627226,0.23223126,-0.27578092,0.5908429,-0.22072461,0.37245476,-0.123875745,0.18509693,0.018359466,-0.33484328,-0.17945752,0.59693706,-0.52461475,0.677885,-0.03352872,0.1663925,-0.37702173,-0.48605016,0.48614204,0.20135953,-0.80858225,-0.17730196,-0.35044932,0.63936585,-0.8022041,-0.47697785,-0.2539426,0.2598293,-0.46694222,-0.6244682,-0.5458118,0.61414033,-0.98305994,-0.62146276,0.01616237,-0.11584754,0.07249888,-0.41410184,0.21614498,-0.041158713,0.19195606,0.76132053,-0.4254703,0.36160854,0.01641618,-0.7284802,-0.17271554,-0.5398024,0.059260387,0.18241242,0.5221149,-0.18713546,1.0063095,-0.11946263,-0.25207892,-0.19922705,0.6022723,0.22737807,-0.24597265,-0.30751845,0.18951464,-0.19639438,-0.17025676,-0.96250725,-0.060727865,-0.79712,-0.05855127,-0.49515158,0.34690592,0.012657568,0.9313558,-0.22342831,0.73559403,0.4187462,-0.12953351,-0.5343853,-0.16337757,0.051084183,-0.1287644,-0.065828405,-0.38428575,0.11257451,-0.19038987,0.23428419,0.33966768,0.5377918,-0.79383284,0.21924992,-0.58321214,-0.025071878,-0.22898701,0.25394934,0.2986593,0.22140786,-0.13279456,-0.06396037,0.4779991,0.5095491,-0.27873397,-0.113710165,0.54834723,0.25217378,-0.09703442,-0.22171794,0.08003219,0.36545044,0.7234668,0.20100436,-0.4735269,0.22487059,-0.06934356,0.6445942,0.28036505,0.08240873,-0.13298541,0.3301029,-0.30345893,0.015570261,0.31506464,-0.84135497,-0.07680792,-0.2468253,0.6408435,-0.69932115,0.3068457,-0.061129063,-0.10432948,-0.4497058,0.35015762,0.24104205,0.843245,-0.033294395,0.36252922,0.5420164,-0.46131137,0.3184469,-0.0022276288,-0.48638338,-0.19008388,0.05296137
cheerful,-0.0956416,0.6170073,-0.5655454,-0.7010803,-0.18761258,-0.24364363,-0.19033737,0.13459347,0.13052426,-0.12850118,0.018866511,0.31711072,0.42913917,-0.4876301,0.046104517,-0.6234273,-0.15542321,0.488211,7.664114e-05,-0.3114829,0.2840841,0.20805071,-0.35171115,-0.5317128,0.018909073,0.4306826,-0.5665466,-0.015687888,0.4497008,-0.06048424,-0.011234505,-0.16852364,0.27297822,-0.19864066,-0.26922482,0.11803019,-0.6297746,0.01882635,-0.6821197,-0.59291214,0.14385182,0.62986857,-0.14655639,-0.034512985,0.8255793,-0.3302949,-0.045408383,-0.8451918,0.32857454,0.5057757,0.3934735,0.23311982,-0.050875496,0.63815874,-0.36290634,-0.4673009,-0.1511727,-0.46991855,-0.08447639,0.15438075,-0.19978477,-0.1829181,0.6033726,-0.20485668,-0.16427463,-0.32040685,0.66880256,0.008212238,-0.17629218,0.07140585,-0.09701392,-0.020858957,-0.32296756,-0.23703346,0.010266332,-0.16030581,-0.3389317,0.20600955,0.43327293,-0.15713447,1.1455564,0.17722191,0.9650111,0.49878547,0.22869934,-0.38980687,-0.016356112,-0.16983663,-0.050535828,-0.0928251,-0.25376433,0.23334388,-0.43533623,-0.25084993,-0.3713042,0.06982172,-0.5404852,0.32904568,-0.4043407,-0.4088206,-0.16004758,0.41175446,0.08699081,-0.19718315,-0.043196436,0.088151395,-0.13644892,0.08631226,-0.2709491,-0.10747078,-0.6730316,0.12670109,0.16181618,0.08604483,0.5160839,-0.4152463,-0.76962364,-0.58075124,-0.251207,-0.21427295,0.27019933,0.21000102,0.3693137,-0.5850443,0.24783,0.4582706,0.2519912,0.2407504,0.2243681,0.19226733,-0.108215995,-0.39057714,-0.15209705,-0.2892184,0.072772674,0.40115032,0.22743174,-0.1916121,0.0515748,0.17468728,0.8613602,-0.25015846,0.006537643,-0.15843895,-0.13544369,0.29705787,0.64490443,-0.6209797,-0.23338102,0.22241083
meditation,-0.41958573,0.65886515,-0.8121661,0.020450503,0.27848962,0.7209206,-0.06129306,-0.84145826,-0.10326047,-0.16372682,-0.11566711,0.98137575,0.42660192,0.69755095,-0.5631153,-0.68384385,0.8433445,0.33764198,-0.33437765,0.5191036,0.41830483,-0.66612864,-0.26574007,-0.44879276,0.11101345,-0.52033275,0.23393704,-1.0068722,0.14117403,0.48364654,-0.3053785,-0.48069042,-0.42795423,0.8655276,-0.017330192,0.12269067,0.16575696,0.3395811,-0.3216324,0.65225166,-0.273576,0.3100127,-0.47055998,-0.20327938,0.33050388,-0.052995086,0.21907136,-0.24756907,0.80720365,0.51892376,-0.25790203,-0.3238469,0.22351308,0.37515077,-0.04713885,0.26150054,0.032338522,-0.36537462,0.51852304,-0.12084092,-0.31887773,-0.273345,0.7921118,-0.14628752,-1.0274725,-0.21610701,0.6849322,-0.6041963,0.28307998,-0.66895133,0.2591254,-0.1724299,0.41989526,0.023117118,-0.65556943,-0.47661042,-0.34844038,-0.6680896,-0.61016923,0.17329477,0.19541514,0.3627399,0.17977364,0.75968844,0.72799534,-0.6201953,0.44794744,-0.5016716,-0.17359146,-0.36769053,0.20204929,1.0091821,-0.0374931,-0.13602558,0.75577223,-1.1913524,-1.1851878,-0.08565947,-0.6279664,0.10036926,0.076516695,0.7952283,-0.065823376,-0.5799324,0.09383281,-0.5922923,0.9553534,-0.059244134,-0.52971196,-0.28638712,0.77276546,0.6217187,0.24211112,0.28808245,-0.37138942,0.23623405,-0.6145283,-0.39284033,-0.16092104,-0.5526879,-0.2546171,-0.23753433,-0.103834376,-0.56436855,0.23389328,-0.4343995,0.0016662935,0.05668876,1.0229315,-0.7838851,0.7345733,0.65545285,0.6439845,-0.5093691,-0.6559923,-0.33389515,0.005091892,-0.23663355,-0.18697922,-0.017793791,0.37181875,-0.3347843,0.3119968,-0.59252954,0.012379005,-0.16700919,0.6167161,0.48659045,-0.8480187,0.04852255
bored,0.121950574,0.058637973,-0.7643712,-0.029973578,-0.69765794,0.04012317,-0.72636133,0.21192169,-0.08872915,-0.22269748,0.33512047,-0.51896775,0.5268017,0.1537115,-0.35899198,-0.18150504,-1.1831989,-0.24722955,0.8709344,0.63774616,1.1175795,0.34136593,-0.7766552,0.31654763,-0.11287965,0.5835479,-1.2922683,0.06908942,-0.1945095,-0.50370735,0.057237405,0.023881318,-0.4287013,0.16644773,-0.15131965,0.35042664,-0.5908114,0.47405607,0.12929364,-0.4119043,-0.12314236,0.44019422,-0.56918764,0.7117995,0.20345262,-0.56485546,-0.7218926,-0.4696807,0.7597405,-0.026522586,1.5715779,1.7049321,0.16688475,-0.14246212,-0.5735817,0.56304663,0.9929623,-0.7094088,0.10024268,-0.8953759,0.25428063,-0.25226513,0.91199815,0.05718863,0.23451437,-0.80406106,0.606571,1.2447441,-1.0886939,1.1101533,-0.113578506,-0.29794955,0.7230938,0.053249974,-0.5005098,-0.6097879,0.41564763,0.20165467,0.37092796,-0.4656799,-0.07473434,0.03255105,0.81389445,0.6869596,-0.14405242,-0.456263,0.65068346,-1.3851596,0.46604326,0.14868857,-0.375942,0.76113224,-0.39334542,-0.31438902,0.51166284,0.3715115,-0.0047687283,-0.44142622,-0.09508976,1.2264578,0.27665597,-0.0042298287,0.19188985,-0.73833054,0.5357936,-0.69100255,-0.7746241,-0.9945083,-0.7389485,0.43535608,1.5124549,-0.37608415,0.6243669,0.54292893,-1.251611,0.09268323,-0.90739155,-0.8736334,-0.3401096,0.39431193,-0.5188346,-0.18209453,-0.102178864,-0.29707667,1.2696949,0.049198847,0.66968286,-0.63597757,-0.12885784,-1.3177929,0.8203628,0.6528614,-0.602359,-0.4310655,-1.1036711,0.1330803,0.45811662,-0.105268516,2.0501046,0.80182177,-0.607757,-0.15918331,1.8406607,-0.09964337,-0.60725796,-1.0203773,1.2879609,0.17139713,0.16439742,-0.51285046
passionate,0.40888065,0.7262983,-0.37264532,-1.0942881,0.0023800433,0.15968329,-0.09824371,-0.13520584,0.17023085,0.4890165,-0.58844244,-0.22803433,-0.30284345,-0.31361464,0.20591557,-0.00791843,0.07416223,-0.045860726,0.07205994,-0.3280749,-0.17176753,0.031574257,-0.34016392,-0.45879036,0.4896236,0.22655314,-0.21518393,-0.4630045,-0.20952685,-0.5443277,-0.41435447,-0.46522677,0.20887204,-0.0076119914,0.04276492,0.62656236,-0.47641695,-0.1158067,0.33464846,-0.31414154,-0.21565671,0.32656986,0.08176877,0.16924626,0.12664439,-0.20636523,0.07225797,-0.33005315,0.53175694,0.090494186,0.13231692,0.29353178,0.10409659,0.363318,-0.22677016,-0.044964824,0.28357428,0.01016171,0.8871999,-0.14927568,0.11230538,0.37001276,0.8712337,0.6529443,-0.20628512,0.24510445,0.7930641,-0.04434624,0.13756673,-0.42865768,0.26133117,-0.056429956,0.06083039,-0.17962976,-0.3068834,0.123786286,0.07329867,-0.10563503,-0.26187447,-0.24399905,0.3538559,-0.12262506,-0.053102095,0.4052361,-0.21036749,-0.6204436,-0.20831428,0.21668836,0.80707663,0.0624296,0.0665432,0.020267285,-0.43174422,0.5879565,0.7218018,-0.8962258,-0.45437545,-0.19311191,0.5215984,-0.3760626,-0.1102306,0.44467843,0.38655618,-0.38207114,0.023273371,0.012614676,0.1944655,-0.34826362,-0.2256647,-0.40199342,-0.29498887,0.64566636,-0.054839123,0.124834836,1.2848327,0.24848486,-0.70220345,0.5090265,0.3815946,-0.053988814,-0.15995081,-0.4676776,-0.21952769,-0.683914,-0.21777374,0.18679191,0.32278597,-0.03523507,0.68183905,-0.7195296,0.04625938,-0.1920278,-0.014175354,-0.86309826,-0.06255276,0.25264764,0.31031978,-0.66430485,1.3886226,0.41357994,0.14710614,-0.03827543,0.6579837,-0.63429385,-0.1456648,0.31948465,-0.24729252,-0.027849376,0.21634185,-0.07523593
sorrow,0.6887016,0.6751639,-0.41112038,-0.023969902,-0.112029694,0.069665745,0.34716216,0.3192351,0.11813022,-0.3782503,-0.34702665,0.017940013,1.3893399,-0.26717058,0.38418612,0.4047041,-0.09004057,1.1518786,0.67005414,-0.22415921,0.29761526,0.3041807,-0.51715773,-0.017669827,-0.42174372,0.7840675,0.10164324,-0.18910724,-0.09640259,-0.18063219,-0.64698744,-0.40447703,-0.8880052,0.10201087,0.0054126694,0.8583717,0.034429796,0.083899856,0.4129274,0.10542732,-0.76337373,0.47690013,0.25353488,-0.17733623,-0.107726,-0.43478933,-0.27983665,-0.5306095,0.40196347,-0.2171431,0.8010021,0.8936807,-0.11401759,-0.036535747,-0.6928456,-0.13931225,-0.26699457,-0.6190373,0.7543972,0.24740255,-0.5664633,-0.1380725,-0.42126334,-0.5555641,-1.4739518,-0.35310274,0.38501093,0.23815303,0.30706424,0.029321447,0.5906469,1.14709,-0.18114135,-0.19521146,0.215288,-1.3461945,0.56397986,-0.05450511,-0.6761024,-0.2506955,0.6880177,0.22321276,0.0885475,0.42223865,-0.46592277,-0.61833197,-0.121285394,-0.18965814,0.53564537,-0.43242514,-0.8901082,0.22662492,-0.83244497,0.5541662,-0.24775198,-0.12612747,-0.38958737,-0.27634856,0.36365202,-0.2140972,-0.34020886,-0.27741814,0.17934225,-1.1157048,0.1295218,0.28134447,0.53116566,-0.22370079,-0.82630676,0.20592205,-0.03373483,-0.24266323,-0.606139,0.009820876,0.45211965,0.034711115,0.4888645,0.86899585,-0.71560764,-1.0527489,0.20833364,0.113623604,-0.13374916,-1.0642157,-0.13723835,0.5164548,0.024130762,0.3982325,0.5871566,-0.66196203,0.13854861,-0.04470755,-0.5758596,-0.18776105,-0.75521076,-0.7151944,-0.47756878,-0.3275114,0.37095284,-0.2873997,0.24084088,-0.1198448,0.11157488,0.25805342,-0.27559498,-0.050250225,0.5450647,0.090319484,-0.3561375,-0.15016331
frustrated,0.495254,0.20807761,0.6581381,-0.7149603,0.088866115,0.55267066,0.47098547,0.18553697,-0.66033745,-0.79733163,-0.5488405,0.10412265,0.9242207,-0.6840859,-0.327435,-0.7831789,-0.41083327,0.25954586,0.09012105,-0.08857604,-0.3091188,0.72944856,-1.013118,0.084160596,0.262989,0.43810856,-1.1689512,-0.53804547,0.44609514,0.7419697,-1.8017855,-0.29818273,-0.04595916,0.21237977,0.3539867,0.79472506,-0.16065165,-0.6815649,0.84109914,-0.56615883,-0.11388465,0.56230694,0.6164898,-0.02039605,0.41894564,0.19997087,-0.84961677,0.392179,0.16221671,0.038664866,0.69792336,-0.25361872,-0.77305573,0.16895431,-1.6659185,0.29490045,-0.07494276,-0.6184466,0.60915124,0.5908579,0.98192436,-0.22968616,-0.52817917,0.25266576,-0.6311883,-0.35546488,-0.37023938,0.20525697,-0.028119665,-0.6853947,0.72448564,0.3316372,0.1489106,-0.0060366737,-0.17548457,-0.82729006,-0.44934866,-0.5708612,-0.5765239,-0.47522563,0.78823555,0.55858064,1.2304299,0.3404574,-0.4559376,0.032654207,1.242067,0.02210018,0.72954774,0.35359842,0.1531332,0.00490415,0.12665088,-0.084021226,0.2124376,0.019818835,-1.1399589,-0.1926179,0.042470705,-0.4791884,-0.4058393,0.16540156,-0.1979234,0.38809076,0.66062623,-0.09851253,-0.5540315,0.057413347,-0.9877509,0.11588167,0.8512918,0.27157888,0.5249182,0.39541695,0.073156185,0.4376324,-0.37573045,0.47934967,-1.1196783,0.05802073,0.63913435,0.4354552,0.065742545,-0.70831,-0.63861674,-0.09043441,-0.11530152,0.16715358,0.7271045,-0.7433875,0.4295185,-0.30437735,-0.0919407,-0.44584852,-1.3468994,0.80152506,-0.006111063,0.3200134,0.4310996,-0.027236234,-0.5359693,0.09369658,0.13764274,-0.76912457,-0.63162345,-1.2987245,0.05200548,-0.94382495,0.3431886,0.2862787
miserable,0.0642956,0.49430907,-0.7955834,-0.5586219,0.079271734,0.1619101,-0.1302736,-1.1148101,-0.29430065,0.42966262,-0.046663254,0.75284666,0.814053,-0.024020864,-0.6447779,-0.81323063,-0.63901794,0.9949402,-0.02839712,0.5192497,-0.13598278,0.32084867,-0.2292316,0.12098258,0.22662638,-0.097568944,-0.3631222,-0.13730206,-0.19384834,-0.6291174,-0.6980993,-0.18466567,0.20623778,0.050169766,0.388357,0.37615177,-0.48718444,-0.36828485,0.1032095,0.6028369,-0.29965097,0.22491476,0.44701406,-0.9486761,-0.31212795,-0.3931274,-0.20976461,0.99843353,0.30092013,0.19741838,-0.048532225,0.16941477,0.91548365,0.045651253,-1.3721807,-0.29511833,-0.35141185,0.2587879,0.07729668,-1.1773415,0.09312331,-0.029278094,0.7531455,-0.3402065,0.022346132,0.043574393,0.90887576,-0.016462531,0.6277592,-0.5783919,0.6136077,-0.72773856,0.4941534,0.85514355,-1.3828546,-0.58367646,0.1537196,0.010001537,-0.9454552,0.3930377,0.24958646,-0.4995076,-0.30829808,0.6116923,-0.34752455,-0.33139643,-0.47953343,0.1839497,-0.011670601,-0.39474103,-0.7488071,1.0944898,-0.35265666,0.13580954,0.3232689,0.5874969,-0.3740246,0.7673458,-0.0013911321,-0.71645653,-0.64442635,0.28808,0.76385653,0.061489195,-0.6225796,-0.63435066,0.4691511,0.13377458,-0.012428467,-0.29603124,0.29729286,0.8398754,-0.55635124,0.69341594,-0.87008536,0.7534251,0.18980655,-0.011458372,-0.41208643,-0.29664212,-0.7875157,-0.41633207,0.1369312,0.38116714,0.06281103,0.18676935,0.47815645,-0.28889734,0.5890791,0.17527808,0.52081096,0.22809257,0.32213485,-0.5856175,-0.5359272,-0.37317985,0.7847425,0.29698744,0.6776941,0.115971714,0.48746824,0.16968437,0.4461657,-0.78747654,-0.17753072,0.5423395,0.5915948,0.3522176,0.16432868,-0.25311667
hopeful,-0.46266937,0.16147946,-0.5541127,-0.65766144,-0.1455054,0.24684907,-0.08102924,-0.51936555,0.5473558,0.5247841,-0.069696076,0.53791326,0.28157893,0.3367226,0.017494937,0.06911397,0.38481164,0.19565992,0.10759633,0.37673947,0.17612188,0.43585524,-0.27901584,-0.24256504,-0.76192147,-0.4392284,-0.49386916,-0.33662128,0.21179189,-0.6041218,0.061823264,0.17754899,-0.34456617,-0.50671816,-0.05289823,0.5042193,-0.47887164,0.0762677,0.108478814,0.27295572,-0.5277833,0.3785725,-0.6419518,0.029205589,0.3730558,-0.4971848,-0.15368089,-0.8898675,0.11548644,-0.5123979,0.035649266,0.33564925,0.39981517,0.31315476,-0.2743974,0.08031183,0.45776385,-0.3200406,0.15623623,0.23076811,0.56152874,-0.14782162,0.9103617,-0.034798715,0.12482658,-0.23752207,0.25765833,-0.22987378,-0.19247779,-0.581182,0.64114994,-0.035848178,0.067180574,0.37060037,-0.4014938,-0.499227,-0.42913833,0.094576396,-0.25386208,-0.21709277,0.58865684,0.0016547113,0.53825754,0.58073044,-0.34123275,-0.84036994,0.39562437,0.41067863,-0.22865151,-0.17416802,-0.4284227,0.013724404,-0.15217884,-0.4344868,-0.33991632,-0.5457373,-0.05521854,-0.20842619,-0.37640172,-0.26137194,-0.27042553,0.7598039,0.13190879,-0.322891,0.38095984,0.019446395,0.16183661,-0.1676375,-0.55045587,-0.065864004,0.91780925,-0.5917623,-0.6443405,0.5422232,-0.10882635,0.07634971,-0.36008635,0.06086696,-0.25251022,-0.22707777,0.18206978,-0.24586886,0.51071125,-0.47838926,0.46651474,0.5111117,0.13092686,0.9890294,0.2347611,-0.19365162,-0.4954641,-0.12926021,0.34044132,0.040687144,0.11507749,-0.05770333,0.15466201,-0.06923875,0.4953799,0.13584307,-0.26378897,-0.09614522,-0.15466344,0.36700746,-0.26205635,0.010397142,-0.018406017,0.34799737,0.33184147,-0.57747966
heartfelt,0.39093992,0.15083341,-0.5852193,-1.057876,-0.43819585,-0.020210287,0.517115,-0.4810752,0.37495017,-0.20464528,0.23717645,0.12061912,0.5561203,0.51575524,0.38530138,-0.5094472,0.044911843,-0.28682318,0.027603524,0.45077753,-0.39272213,0.1375897,-0.031210458,-0.35849983,-0.52444035,-0.4275467,0.07864736,-0.21214266,-0.14803436,0.14068134,-0.7343536,-0.27211565,0.047216885,-0.12994725,0.27066234,0.013019625,-0.43907803,-0.3526779,0.24543282,-0.17632556,-0.41694534,0.33080524,0.24979474,-0.07028942,-0.34607014,-0.3271154,-0.20091684,-0.85873395,-0.035742547,0.120346196,-0.016389076,0.3528774,0.3734743,0.38513568,-0.87146103,-0.0873407,0.054397896,0.14447251,0.4120472,0.45425424,0.27596983,0.15291144,0.5005033,0.2714384,-0.1684623,-0.6670444,0.12816621,-0.20491885,-0.2676706,0.050937157,0.10797208,-0.39414704,-0.4673788,-0.53237927,-0.24300484,-0.49330583,-0.42785966,-0.7216279,-0.21853197,0.69123685,0.56872183,-0.16494532,0.8931939,0.946152,0.22829145,-0.32143363,0.18813275,0.24129169,0.17333895,-0.14422897,-0.73069334,-0.16165753,-0.34624958,-0.060617488,0.6942487,-0.37216687,0.18824725,-0.23694204,-0.2952651,-0.15846354,-0.92427385,0.3421163,-0.30682817,-1.1341693,-0.6804773,-0.06454057,0.51297367,0.7430287,-0.509325,-0.28978947,0.03679881,0.30954596,0.3270116,-0.02892738,0.36621732,0.44696006,-0.47055504,0.47580576,-0.5615014,0.14100185,0.60603935,-0.066014744,0.03428759,-0.82202107,0.016652752,0.5152583,-0.025349932,-0.02954464,-0.053424217,0.21062537,0.14146276,0.15072411,0.491514,-0.730584,0.6428749,0.16977073,0.14791396,0.29422683,0.26979205,-0.51354265,-0.03141345,0.3951465,0.42603898,-0.13584253,-0.578322,0.27431214,0.6713504,-0.18460076,-0.061719492,0.12054956
interested,0.10822344,-0.05988526,-0.30609027,-0.66506046,-0.4614852,0.9424197,-0.89256746,-0.42828798,-0.1405683,-0.3565438,0.25808334,0.32265827,0.83885926,-0.7564547,1.0505376,-0.07510767,-0.3272402,0.70804656,0.02354735,0.08223589,0.5957109,0.41907266,-0.8776267,-0.5948028,-0.5262521,-0.06399865,-0.87734145,0.7335014,-0.19598126,-0.50463253,-1.1602349,-0.240481,0.47956982,-0.11257563,0.16039571,0.4883249,-1.0496967,-0.847441,-0.57547,-1.0556529,0.90105253,-0.01670347,-0.21446057,0.40609452,0.3368244,0.10445009,-0.35683054,-0.3543562,0.4364058,-0.2990229,-0.51395965,1.6498426,1.2257192,-0.07894358,-0.49472126,-0.76377493,0.07538008,0.5851447,0.2894978,-0.16189444,0.4095104,0.32349288,0.9754223,-0.21719086,-0.5704027,0.1663602,1.164521,-0.2748665,0.053512763,-0.24128121,0.07937584,-0.21277003,-0.11930652,0.33311382,-0.016841024,0.65218395,-0.060462624,1.1118568,0.14286557,0.6096376,-0.34769177,-0.22528265,0.7544177,0.35365695,0.07047349,0.79255205,-0.35854724,0.66920394,0.3763513,0.01637576,-0.35944661,0.14148554,-0.29470876,-0.05419893,0.70324755,0.48553222,-0.20967133,1.1285,-0.28479216,-0.32321873,-0.11793498,-0.3320651,-1.4617136,0.21506174,0.1305751,-0.44898033,0.22160254,-0.3422741,-0.46904826,-0.59270567,0.12091546,-0.70663214,0.37699813,-0.257141,0.12239857,0.019010661,-0.5861702,-1.2332405,-0.410986,0.53971493,-0.47636312,0.40225235,0.0022803822,-1.1121093,0.24938838,0.40939742,1.1518415,1.5151452,1.0748482,-0.33139157,0.6765942,0.8918896,0.39790097,0.0811075,-1.0278952,-0.39904392,-0.028235408,0.24958542,0.53990746,-0.04604136,0.37695667,-0.26406264,0.32027063,0.31038016,-0.11556737,0.4458951,1.0616754,0.09574452,0.5648425,-0.34875977
