term,v0,v1,v2,v3,v4,v5,v6,v7,v8,v9,v10,v11,v12,v13,v14,v15,v16,v17,v18,v19,v20,v21,v22,v23,v24,v25,v26,v27,v28,v29,v30,v31,v32,v33,v34,v35,v36,v37,v38,v39,v40,v41,v42,v43,v44,v45,v46,v47,v48,v49,v50,v51,v52,v53,v54,v55,v56,v57,v58,v59,v60,v61,v62,v63,v64,v65,v66,v67,v68,v69,v70,v71,v72,v73,v74,v75,v76,v77,v78,v79,v80,v81,v82,v83,v84,v85,v86,v87,v88,v89,v90,v91,v92,v93,v94,v95,v96,v97,v98,v99,v100,v101,v102,v103,v104,v105,v106,v107,v108,v109,v110,v111,v112,v113,v114,v115,v116,v117,v118,v119,v120,v121,v122,v123,v124,v125,v126,v127,v128,v129,v130,v131,v132,v133,v134,v135,v136,v137,v138,v139,v140,v141,v142,v143,v144,v145,v146,v147,v148,v149
chill,-0.11509277,-0.32334524,0.40261698,-0.06329948,-1.1231009,0.9523797,-0.26012397,-0.24355717,0.19733866,1.303972,-0.091354735,1.1656219,0.9482356,0.909526,1.7832788,0.41324776,0.24121714,0.14557846,0.22601981,-1.4980025,-0.7862852,-0.93240726,-0.9590682,-1.0989741,-1.1192485,2.6547096,-0.031216301,0.53440577,0.50684464,1.1472436,0.07742007,0.5845327,-1.7177229,1.2823027,-0.36699528,-0.7409757,1.2870498,0.05681659,0.38932592,-0.32567167,-0.7670949,-0.17958462,0.25584513,-0.13539925,0.6905181,1.3737118,-1.154151,-0.5198629,0.971857,-2.186065,-0.15994282,1.2955848,-0.35374787,-0.43632534,-0.40025285,0.16425948,-0.82319194,-0.5573635,1.8607689,0.044551972,-0.37472335,0.8281301,1.9485614,0.3549864,-1.2502663,-1.0541109,1.6753889,-0.022284163,0.12801477,-0.8636002,-0.8957423,-0.8398581,0.41348624,-0.28799465,0.093503304,-0.317231,-1.855452,-1.0223131,-1.0251317,-0.46511212,-2.602556,0.03288932,0.058954448,0.99934405,-0.8554986,0.076784864,-0.31710887,0.43238235,0.25679648,0.840704,-0.70952225,0.5492016,0.6996654,-1.2380863,1.9241282,1.5311432,-1.7124994,0.16440834,0.24418442,0.82669,-1.8910656,-0.031745683,1.3391799,1.8900576,-0.4195408,-0.3763596,-0.1928451,0.63176584,-0.3124552,0.7555328,0.38608316,0.46873745,0.19716497,1.3364239,-1.4454535,-1.000615,0.36162934,0.36022744,-0.26468766,-0.0068328464,-1.2674892,-1.3507713,0.585274,-1.0381387,-0.5564053,0.3414934,1.5751901,1.640579,-0.051312547,-1.4915394,2.642323,-0.47401106,0.25575125,0.5262915,0.3937626,0.73473436,0.04303365,0.6869735,-0.46180248,0.757625,-0.13735841,-0.64247864,0.5919979,0.87152255,-1.7918242,-0.41690704,-0.48425952,-1.0764428,0.87491,-0.11854405
mellow,-0.7019386,0.4898601,0.24985182,-0.58031785,-1.4836459,-0.9652284,0.2917426,-0.13884962,-1.3695989,2.302447,0.66903716,1.1221939,1.4540658,1.697899,0.36380315,0.8983854,0.5054592,-0.036699496,-0.09510189,-0.17476828,-1.6783639,-0.23868906,-0.06576808,-1.0188475,-1.6953037,1.8932346,-0.36260197,-0.15316017,-0.58390975,1.1747828,-0.042151526,0.28721693,-0.5887726,0.46919376,-1.2265089,0.019791642,2.2262752,0.15724115,0.019043567,-0.69859004,-0.09217294,-0.04952196,0.025230851,0.45112,0.94792986,1.5164958,-0.28632826,-1.0626227,-0.02780451,-2.0167909,0.83992463,-0.5150865,0.8253991,-0.79456466,-0.85610455,-1.7885525,-1.6496272,-0.64082265,0.7516308,-1.0690837,-0.3345578,0.51061165,1.7842194,0.36773282,-1.3873111,-2.1625075,1.9300352,0.8009613,0.042282376,0.8133768,-1.946599,-1.501233,0.75017405,-0.7428691,-1.1702658,-0.35283557,-0.38724133,0.69216484,-0.4747333,1.1816387,-1.078323,-0.10573272,-0.638954,1.0260589,0.0022455426,-0.18718915,0.6638485,1.1694577,-0.28305718,2.1154284,-0.9165213,-1.3108553,0.6523099,-0.37504917,0.35742342,0.35561934,-1.2388883,1.736504,1.1873175,-0.8878939,-2.786754,-0.36090925,-0.18283537,2.1927426,-0.8136422,-0.42239526,0.9052621,-0.09798507,-1.2050289,-0.34255108,-0.367041,0.51722115,0.483058,0.67833143,-1.0492152,-0.99091095,-0.42090622,1.0054929,0.21870016,0.16121662,-1.4660985,-0.18630427,1.1326509,-0.7246583,1.6138281,1.9505181,-0.7374073,0.18752153,-1.288935,-0.64830726,1.2677023,0.07981455,-0.87160575,-0.2115681,-0.4747707,1.3976529,-0.96730185,2.1042883,0.0853502,1.3083394,-0.6013578,0.3185881,0.8761645,0.0041117016,-1.8345355,0.10014531,-0.28543106,0.07356563,0.9129109,-1.6777654
relax,0.97455585,-0.2774361,-0.4054896,-0.33478472,-2.3781261,0.8234124,-0.09785662,-0.68956083,0.21788025,3.0122883,0.2066623,-1.4076782,1.0921217,2.5138278,1.1697128,1.4326538,1.6915762,-1.4241335,0.13448101,-1.7195709,0.36420646,-1.1835436,-1.3788447,-0.6782213,-0.84954846,3.042274,-0.5456293,0.11330306,-1.092024,0.17041399,-1.0465627,-0.7629384,-0.21590678,0.65781564,0.14560792,-1.6046772,1.0260429,1.8934937,-0.7576608,-0.3781292,-1.8092059,0.7071283,0.38185546,-0.5948499,-0.15195805,3.2226417,-0.8613336,-0.046501458,1.7987031,-1.4958268,0.115836404,0.17836642,-0.08433597,0.52472943,0.33879498,-0.60883003,-0.4816345,-1.3473797,1.8984678,-0.14626358,-0.4134819,-0.5729898,0.32531995,1.2181408,-0.47587007,-0.9343513,0.7266692,-0.004114178,0.56555843,-2.287988,-0.41843966,-1.2440699,1.7157558,-1.1009167,-0.8807557,0.2755444,0.4284274,0.27547184,-0.93341124,-0.5911913,0.13985871,-0.44496343,0.5545324,0.6268808,-0.29594734,-0.01489525,0.70626926,0.5839669,-0.2651473,1.9579295,-1.3626822,-0.8955494,-0.03833558,-1.2124516,-0.12574594,1.3308761,-1.5948105,0.91630244,0.205758,0.19861679,0.66992253,-0.034611374,1.2604424,2.6172051,-0.03424351,-2.0366151,0.68228936,-1.1330806,-1.2428983,1.5367422,-0.5696348,1.2174139,0.52912694,0.51760656,-0.26765743,-1.2141912,-0.08104072,0.087225124,-1.4578003,0.52737963,-2.285655,-0.09310809,2.3185093,-1.9907167,1.7305549,0.9471048,0.8577494,1.90943,0.04643425,-0.25228068,-0.80751276,-0.21425487,-0.69823104,-1.3446674,-0.5742455,0.4814598,-0.63644063,0.04253682,-1.2714539,2.0386612,0.19277515,-0.63533825,0.47398162,1.0383328,-2.8114436,-2.682551,0.5527409,-0.11830024,2.4636955,-1.0562698
upbeat,-1.5840544,0.49148107,0.3293778,0.9747491,-1.7744812,-0.35159287,-0.42738524,-0.34007424,-1.2194442,1.5544665,0.37517187,0.9053507,0.7831619,1.7820733,2.0759847,-0.53321785,1.7499402,-0.036266122,-0.53574604,-0.8764297,-2.2313287,-1.6422509,0.22425295,-1.2486874,-0.4127543,0.6128646,0.673123,1.1499891,-0.5158621,0.5378851,0.26351914,1.9042213,-2.7984731,-1.0400072,-1.1498325,-0.8501634,2.806391,-1.6073527,-1.4698477,-1.0533663,0.3419677,0.4891026,-0.20804486,1.4618841,-1.1494051,0.8429255,1.6211399,-1.6625708,-0.6734517,-0.6099444,1.985476,0.8213504,0.75255054,0.4717994,-0.64103943,-0.5387638,-1.6795143,2.0365996,-0.29214802,-0.7084263,-1.9130819,0.9575192,0.8983206,1.0842197,-1.1183149,-1.2984724,0.68320477,0.67586166,-0.6102761,-2.4885468,-0.91301996,-0.7981374,0.7909282,-1.9399192,-0.95049417,0.3342272,1.1687006,-0.27540267,-0.9370275,0.52952373,-1.7778881,0.5756661,-1.071739,1.7923924,1.1303692,1.6519982,0.16673124,-1.2601653,0.40161714,1.82338,-0.123836696,0.5335416,0.39273453,-2.473239,0.83844465,1.3124264,0.6514577,0.7966595,-0.2236773,0.6306394,-1.69869,-0.70673895,-0.03269169,2.0353405,0.33417353,-0.21200973,-0.45296496,0.17165282,-0.91636217,-0.1164742,0.28687498,-0.47281432,-0.29126915,2.0191696,-1.7375698,-1.4831557,-0.4972835,0.84378827,1.6397914,-1.7457545,-1.0258797,-2.1123981,2.0900536,-3.9511292,2.0542397,-0.7694696,0.09441443,1.9858046,-0.79257995,-1.1247103,1.3514615,-0.01110233,1.548346,-0.23919179,-0.8414268,1.1448216,0.092336185,0.81115377,-1.1523376,0.727717,0.9364066,1.1722502,0.6254575,1.4956032,-1.7760346,-1.3265201,0.15459745,-1.5435985,2.262065,-1.0701038
smooth,1.1910859,0.49796042,0.16640048,-0.101581685,-1.4058082,0.17192698,-0.47286084,-0.2515437,-0.8096587,2.2345176,0.8297813,0.13291538,0.18329142,2.3511798,-0.001342122,-0.10107335,1.3670201,0.43102774,0.18034007,-0.56523687,0.13405105,-1.0728246,0.62607616,-1.338626,-1.6424705,1.4031799,-0.89975584,-0.48743972,-0.83901,0.07173607,-1.3265115,0.93703383,0.05931139,-0.21613456,0.89526737,-0.6756112,2.0057046,0.82939667,-1.9622283,-1.2672524,-1.5273166,0.48777053,1.1408459,0.6776019,-0.34804308,1.5374271,-0.1355361,-0.9423461,0.8332818,-1.551285,1.1122338,1.4005575,0.92634225,0.4952096,-0.20684005,-0.86242944,-0.9618187,0.255335,1.4806231,0.8339712,-0.19362152,1.4352528,-0.04978915,1.3226341,-0.14399567,-1.1753151,0.5600791,-0.2989616,0.071975924,-0.9571684,-1.8004504,-0.31974742,-0.03608845,-0.7408142,-0.7627957,0.7403169,0.03899258,0.15804985,-0.9540566,0.39516667,-0.837409,-0.7377754,0.6873245,0.90828323,-1.1316735,-1.2031248,1.1394836,0.80309755,0.19709697,2.2412574,-0.4388304,0.15110044,0.6008074,-0.45063293,0.1541143,2.0718207,-1.7613355,1.1521184,-0.12886995,0.5919177,-1.9515666,-0.84021753,0.6906386,3.697422,-0.46703935,-0.88268673,0.36236492,0.57134086,-1.0005577,-0.0065010334,-0.6471294,0.42898086,-0.087957576,0.38457093,-2.1106067,0.19798158,0.5531805,0.9263217,1.1174773,-0.74662346,-1.6849425,-0.368811,-0.17829004,-0.6739688,0.104596466,-0.9892017,1.209804,0.51332194,-0.4876813,-0.25753212,0.50604486,-0.6452844,-0.723613,0.40513712,1.6122465,0.9701453,0.30611923,0.33066952,-0.6367413,0.6288396,0.085283205,-0.40278393,0.81043935,1.0203153,-2.0595176,-1.0364872,1.2980641,0.07897954,1.3815012,-0.9776192
sleep,-0.6155145,-0.855118,0.06642539,-0.7417761,-2.2101264,0.48643726,-0.415018,-0.11173537,-1.0881537,1.4872323,-0.15490027,2.9027634,1.0024185,1.0204655,-0.14157075,1.1394022,1.0108278,0.4094855,0.7473052,-2.325204,0.5946644,-1.2740993,-1.2231408,0.6184223,-1.076121,2.3742015,-0.86918604,0.51577324,-1.4627144,1.0251034,-0.8045261,-0.31818023,0.25151363,1.2822496,-1.0544614,-0.6963466,1.203677,1.0103158,-0.38012153,-1.0606475,-0.09291465,-0.82307905,1.8355445,2.203992,1.3177478,2.3426006,-0.6134581,-0.18839033,0.4596579,-1.5855898,1.5334778,0.98844916,0.8296414,-0.81930155,-0.8260107,-1.5219157,1.0103918,1.7852437,-0.67601824,-0.8453654,-0.5345339,2.1452723,1.6523725,0.67087764,-1.5127603,-2.2553465,1.3688068,-0.016229983,0.45440215,-0.27905008,-1.0820832,-1.0622634,0.56464434,0.48827136,0.47147322,-1.9594672,-0.19902381,0.6299026,-0.7836049,1.1818863,-0.014638863,0.074510075,0.64489996,0.33180064,-1.7305833,0.006321385,0.32961318,0.023682492,0.39649782,1.1192708,-0.32044396,-1.0739394,-0.26450616,-2.0772183,0.26219064,-0.2632275,-0.4947054,0.5303283,-0.6707326,-1.126169,-0.43544284,-0.06638919,1.0559344,2.3591015,-1.1852473,-1.9818144,2.1513138,0.8033252,-0.96812403,1.1486906,-0.015163768,0.7589601,2.1080663,1.2690037,-0.26165736,-0.7518262,-0.90442485,-0.17909051,0.9551703,0.59647703,-0.18011588,-1.0925608,-0.31197828,-2.8504438,1.5827204,-0.5561822,-0.8416158,0.24017306,-0.3981913,-0.70419043,0.9145538,-0.6477365,0.14718753,-1.3642198,-0.80980545,0.34061873,-0.32708728,-0.9752627,-1.0199138,1.1083275,-0.9049609,-0.11984268,-0.18593803,1.0895226,-3.4534774,-0.04992377,-1.1456885,-0.86604553,1.813096,-1.5578201
sexy,0.7127183,-1.0355136,0.35429248,-0.6822523,-2.0068069,0.4217062,-0.79508156,0.71009916,0.15143551,1.3673954,0.6447413,0.97989994,0.31474778,0.7445924,0.7395854,1.1171708,0.90415317,-1.6762606,-2.1156237,-0.98129636,-0.14490491,0.03616111,-1.3570201,-0.76050746,-1.814176,0.086628035,0.27777687,0.55010486,-0.5833108,2.0020695,0.7984869,1.5678747,-1.3156558,-0.13494168,0.5197011,-0.4301022,1.1917936,0.7756933,-0.0032981809,-0.80613166,-0.2652545,-1.3176619,1.5269051,0.9395083,-0.018851656,1.65978,-0.13695158,0.34042725,0.2895154,-1.4095912,0.3784827,-0.20217495,0.7260396,0.17151305,0.43883923,-2.1645513,-1.4165441,-0.06307922,1.1766937,0.14281315,-1.0947242,0.2598563,0.97058296,-0.09302385,-0.6253572,-1.4931248,1.8729348,-1.5194848,0.091453135,-0.569933,-0.9062199,-0.46730223,0.3968147,-0.81179315,0.8024174,-1.1974928,0.013233653,0.024176918,-0.45208272,1.2227609,-1.2943279,-0.39466545,0.6418209,1.1280584,-1.2026378,-1.1290882,1.563577,0.45406976,0.9413858,2.2334704,-0.045243356,0.5766014,-1.8625184,-0.66962266,0.076523416,0.26325014,-0.7177882,1.027681,0.49249148,-0.07255969,-2.1332915,1.048716,0.4624376,2.8126137,0.3908338,-0.38345,1.6060661,-0.6106956,-0.40525684,-1.0958093,-0.27663022,1.2815218,0.018086838,-0.36458018,-1.7129122,-0.5610255,-0.4395193,0.82809997,0.8511406,-0.42875206,-1.3567312,-1.495238,0.60412204,-1.3853511,1.2666355,-0.69292605,0.20905343,1.7740362,-0.7904111,-1.072047,0.46248826,-0.10552589,-0.31364352,-0.032136504,0.06758234,1.9439331,-0.383481,-0.9708595,0.1609306,2.7059596,-1.4333379,0.23441005,0.83231777,1.281871,-1.0739053,-0.5679399,0.14467636,0.016888183,0.8527174,-1.3145549
happy,0.3068627,-0.8483053,1.1263658,0.3999876,-2.160705,1.2558146,0.14719832,-0.6822217,-0.59564686,0.4358004,1.0436897,1.1947961,-0.059050288,2.4866846,-0.9378583,0.5117119,1.9268271,0.19385408,0.5721474,-0.18222472,-0.4638079,-1.7918514,-0.84859204,-0.31947652,-0.14778069,1.7193482,-0.19748005,-0.3020469,-0.29551235,0.028448455,0.33818308,0.49584913,-1.3462315,0.09926057,-0.2299105,-0.21881872,0.5781722,0.30262715,-0.3617816,-1.6878188,-0.41978374,0.44201934,1.267109,-0.23787229,-0.064063475,0.8237029,-0.022236764,-1.691605,1.2681652,-1.6276704,-0.0021887294,-0.5994854,-0.038827024,-0.91549116,-1.2139959,0.17987865,-0.6448024,-1.3544106,1.3830568,-0.66190916,-1.5981126,0.7346915,1.0479853,0.6607733,-1.7989739,-1.3843588,0.7420324,0.12764959,0.7872511,0.72632545,-1.1106321,-1.0882733,0.5784136,-1.0779344,0.15555634,-0.012396937,0.15329781,0.41246673,-1.2078788,0.46077958,-0.44288766,0.5575452,0.9040946,0.74238956,-0.2300954,-0.11071518,0.44263095,-0.722482,0.0985613,1.4803821,-0.5511283,0.36108372,0.2483018,-2.230929,0.8389136,1.4638288,-1.5392579,-0.10647343,0.029011527,0.84713817,-0.42494062,-1.7188425,0.22305866,1.4610671,0.10040102,-1.5087553,1.6767683,0.5596552,-0.8115541,0.9084924,0.12717955,0.2654327,0.052701697,1.2178984,-0.20840378,-0.8065168,0.12299909,0.36837947,0.8339956,0.25864655,-1.8261856,-1.1177728,0.9428605,-0.92715085,0.09349912,0.12172501,0.46234787,0.8365409,-1.5837599,-0.5074457,1.0208229,0.99426717,0.33245412,0.38630244,-0.42917922,1.7944055,-0.6720682,0.9918374,-0.028689347,1.6482815,0.755284,-0.13170835,0.36871326,0.5987879,-0.8446733,-0.743685,0.14881779,-0.7252354,1.8087322,-2.1750968
party,-0.083196744,0.21750301,0.46615353,-1.2577224,-0.7654621,-0.21218465,0.4335194,0.13752782,0.4281956,0.9467672,0.6121393,0.321797,1.8761911,1.9653049,0.49521267,1.089199,0.8381811,-1.2749436,0.019915609,-1.702673,-0.0894746,-1.4486518,-0.11168835,-0.29385948,-0.4109836,0.6708398,-0.8499122,0.5172813,0.6645958,1.254724,-0.21827038,-0.39115763,-1.9777796,1.3599235,-0.9838848,0.42233545,1.146089,0.99362403,-0.9202842,-0.45702958,-0.9362599,0.13355075,0.6395913,0.34154677,0.05719563,0.29863128,-0.5936912,-1.09021,0.7130167,-0.95602566,1.1983715,0.7131719,-0.07006783,0.5231106,-0.030630013,1.1554863,0.012542934,-0.6857693,-0.051775288,-0.16695866,-1.6263577,0.3130917,0.0489871,0.39546308,-0.031353384,-0.21164432,0.22384445,-0.72444904,0.74961144,-0.4607479,-1.110763,-0.5758225,0.6550502,-0.09394816,-0.37454852,0.7851155,1.0866017,-0.7024251,0.13709196,-0.014456704,-0.15114857,-0.19032942,0.24004668,1.264544,0.19390276,-0.2957247,1.5809845,-0.002530996,0.83134973,2.378947,0.17921749,-0.026339881,0.45270187,-1.1381176,0.087367155,0.91580915,-1.0878905,0.76223755,0.6844161,-0.5112038,-0.7300751,0.54740053,0.58282316,2.0212786,0.15307629,0.15471752,0.17973328,1.8042575,-0.2585969,-0.73714024,-0.18375699,-0.07261253,-0.23019071,0.8613341,-0.20102955,-0.5456935,1.4229755,0.43978086,1.4212826,-0.06311257,-0.75538695,-2.0528967,1.3788922,-1.3261455,1.0805389,-0.25587776,0.89706284,0.42032358,-0.83132285,-0.7609662,0.16150717,0.7670506,-0.44293728,0.61769456,0.7215,1.4223242,-0.24507795,0.5743728,-0.56425166,0.9856837,0.8490519,2.000503,-0.39245957,0.50389105,-1.250472,-0.76471734,0.76538837,-1.0239886,1.6730347,-0.63720953
moody,-0.044447556,0.42755786,-0.6923235,0.017960235,-2.4933777,0.8945087,-0.38994095,0.77074516,-0.38744366,2.5095668,0.2555634,2.5993848,1.1056536,0.7962097,-0.33832735,-0.13921277,1.8926595,-1.1678168,0.9453371,-3.7408772,-0.49283156,-1.5969228,-1.8532703,-0.032669876,-1.2944547,1.5063174,0.8530034,2.0208175,-0.27993178,0.065531485,-0.66883427,0.47456366,-0.83185524,-1.8383516,0.3564779,0.8196615,2.2852092,1.9275334,-0.0038769583,-0.85004354,-0.51727384,0.4731563,1.9436854,-0.568532,-0.37228513,1.4880066,0.72149336,-0.5643541,-0.33830163,-1.2489215,2.202418,2.2455342,-1.2069111,-0.9967057,-0.34309602,-0.76991534,-0.73950064,-0.7928726,0.32820287,-0.03422668,-0.3198079,1.0359968,0.53812873,-0.21109784,-1.7872813,-1.337579,0.025142558,-0.42433944,-1.5848966,-1.6497042,-0.50183785,-0.50642234,1.2221551,1.3660727,-0.8352485,1.3295425,-1.6735703,0.8959206,0.085021004,-0.7903206,-0.6490247,-1.472621,1.5776024,1.8624533,-1.038063,0.7411931,0.04268809,0.029411875,0.9213021,1.3023914,0.660261,-0.4632341,0.56983995,-1.4958624,0.85718524,2.7656505,-2.7128797,1.4449338,1.3165722,0.057048086,-2.051147,0.08441346,0.5603963,2.1102216,-0.48804063,0.30388618,1.8098451,0.5609567,-0.74588543,-0.7601246,-0.22289152,0.58539236,1.4016712,0.802352,-1.7848638,-2.0733764,2.0091681,0.48166662,0.33571574,-0.5521189,-0.71336794,-0.07339552,1.2363778,-1.7181087,0.84978807,-0.12128952,1.1058381,0.6888916,-0.8886169,-1.5373294,0.7811406,0.12827101,0.33147335,-0.12686266,-0.9013754,0.9206118,0.60712636,0.15265867,-0.37385303,0.760911,-0.04240347,0.6818868,0.21438874,0.28177124,-0.9007144,-1.0624542,-0.52672166,-1.2973454,2.2842538,-2.411444
romantic,-0.18075538,0.95557165,0.49999326,-1.2652576,-1.521885,0.24883011,-0.87337804,-0.610552,-1.4282929,1.309022,0.80891514,1.5379026,0.41540766,1.9381948,1.3899972,2.4756553,-0.7080044,-1.2520491,-0.302595,-2.2754989,-1.2064533,-1.4939404,1.09208,-1.5724095,-1.7305583,2.6466935,-1.0979412,1.1531403,-2.0150342,1.4838504,-0.29086182,0.36531946,0.7443977,0.046933495,-0.92995083,-0.91034967,1.9902923,0.47668156,-1.1403462,-0.908009,-0.0003174611,-0.4932456,0.3207887,0.7847723,-0.10618536,1.4790398,-1.9695398,-0.5724338,0.691071,-1.0247273,0.8242472,0.29622313,1.5929132,0.37483913,-0.02596254,-0.72912484,-1.2350494,-0.5086973,0.99143964,0.058301486,-0.63391286,0.7136155,1.1189063,1.2561759,-0.3029036,-2.4781682,0.33913523,1.1585073,0.17801273,-0.6501592,-1.0257452,-0.83392686,1.1157337,0.1284382,-0.097261116,-0.6592637,-0.3107727,-0.18335332,-0.35162547,1.6156206,-1.7214499,0.8925488,0.4935181,-0.9612044,-1.4504716,-0.88607985,3.4642987,1.4958938,-0.27490953,1.975847,-2.0414662,0.13171566,0.6261438,-1.7784753,0.6662422,1.2479217,-1.7224044,1.7682486,-1.8241092,1.9959438,-0.8126651,0.72343004,0.14482662,2.5947816,-0.50562316,-0.4668757,1.7967821,1.2958354,-1.7528985,1.0222608,-0.7788294,0.8941681,0.35423756,0.8274795,-1.4184861,-1.4889146,2.5928476,0.9363774,-0.875304,-0.6481157,-0.19097556,-0.32162854,0.99785095,-1.100527,0.529353,0.7078522,0.28217044,1.4033328,-0.26422495,-1.351097,0.91353714,0.19533743,-0.63662165,0.047433656,0.1586186,0.15586917,0.16722341,-0.31394264,-1.3179848,0.5763756,0.4193553,-0.54180735,0.35670117,1.7760497,-0.96311176,-0.40389925,-1.0402076,0.03265597,1.7717867,0.0887465
sweet,-0.77057266,0.25717425,1.1043576,-1.0226924,-1.94602,0.90624404,-0.08689497,0.17807943,-0.6703551,0.7883962,1.2230545,0.095418885,1.4389321,0.8985487,0.96548206,0.17910457,0.029275933,0.18442143,1.6879528,-1.7002006,-0.68039805,-0.11867943,-1.4682485,-0.710835,-1.4080747,0.28471833,-0.4855064,0.068207584,0.085998505,1.1549941,0.56266034,1.4609375,-0.69312626,-0.287389,-0.56920344,-0.25225198,1.6217278,0.8352668,-1.3736745,-0.7858602,-0.26343936,0.7856007,-0.7792005,0.45297846,-0.07162539,0.82475555,-0.80546516,-1.0239584,1.364263,-0.74887586,0.75763255,-0.6430732,-0.63829803,0.6699718,0.19296587,0.10716611,-0.77695787,-0.1597636,0.41714647,-0.11522573,-1.4526727,1.1221434,1.1019874,0.05790561,-0.77503747,-2.0803382,0.34873992,0.70899636,0.015053595,-1.0814747,-1.6492238,-1.4766546,0.5606532,-1.6140358,0.5464653,0.8090497,0.1929054,0.5200619,-0.7032964,0.043489378,-1.2436078,-0.48557028,-0.46385488,-0.16771856,-1.0271946,0.69896907,0.71000934,-0.16863887,0.58491164,0.7679321,-1.2748103,-0.6358922,0.15036339,-1.7839117,-0.45776036,-0.22042903,-1.4328022,0.2856986,0.495935,0.39446285,-1.2209622,0.9284164,-0.30710736,0.6765986,-0.2731656,-0.45102015,0.452488,0.27038082,-0.5868013,0.7169299,0.0608025,1.0101715,0.28735813,-0.6671071,-0.76079553,-0.9418961,0.67196435,0.50701576,0.46590516,-0.5583649,-1.4555542,-1.8018491,0.5955351,-0.8880705,0.64347,-0.1786155,-0.90424526,0.45718834,-1.7202917,-1.182999,1.1475652,0.9760811,0.9030274,0.61939126,0.294854,0.31778207,-0.43861958,-1.097404,-0.6524185,0.59122586,-1.4113084,0.7359564,0.5443146,1.2857721,-2.9336555,-0.7861345,0.76780903,-0.26444858,1.6193497,-0.32629263
dancing,-2.2093449,0.5708165,0.5834514,-0.8586259,-1.2199745,1.1778524,-0.6518621,0.5989329,0.049328364,1.4858234,2.1096792,0.17393029,0.9901391,1.400736,0.10400333,1.9967897,1.9105438,-0.3800794,0.07966181,-1.3613085,-0.20165922,-1.5216986,-1.0236957,-0.099896915,-1.9874728,0.42624432,-1.2723042,1.6201459,0.025412505,0.7042477,-0.10489802,0.7168298,-1.340423,0.2928767,-1.1001904,0.6232873,0.72541344,0.35654342,-0.54337597,-0.22159392,0.6900737,0.20523217,-0.90794903,0.44991124,-0.06675232,2.4401624,-0.9956252,0.34176072,0.73667604,-2.0803711,0.5651755,0.11447934,-0.6616226,1.0349412,0.11450645,0.249489,-0.39827213,-0.24749441,1.3981369,0.7989561,-1.2254137,-0.46675918,2.125052,0.9540518,-3.3401232,-0.3579851,0.5366635,0.793964,-0.4381085,-0.60516346,-1.4674445,-1.7597439,-0.029018635,-0.7240398,0.4379704,-0.3163239,-1.128146,0.18080328,-1.1037928,1.38702,0.38193572,-0.69870764,1.1736959,1.4791449,1.7841285,0.42815006,2.0279036,1.4181942,1.9863021,2.4073374,-0.1006972,-0.6261005,0.28270102,-2.7239165,1.0112933,1.136387,-1.0058784,0.06981874,0.07664188,0.26473385,-1.0501277,-0.18881275,0.5671075,1.9156797,1.127448,0.49993366,2.3449254,0.14530432,1.0563172,1.3730056,-1.4742137,-0.44022077,0.4724339,0.8211515,-0.043356128,-1.0894406,0.9082111,-0.1174888,0.622523,-0.35450634,-0.7110775,-0.9674338,0.9963358,-0.8554652,1.3942577,0.0056834975,1.0976605,0.07580336,-0.31116945,-1.1828253,-0.8940002,0.19152004,0.25764206,-0.08555742,1.2927846,0.29802787,0.698289,-0.38122997,-0.6274612,1.1335841,-0.14497684,-0.24320027,-0.6683143,0.9902355,-1.0471143,0.5989168,0.6397246,-0.91598624,1.6890944,-0.99455863
fun,-0.92599314,-0.3881054,0.6277941,0.78659356,-0.13165294,0.28600287,0.16892146,-0.98842233,-0.5406993,2.2673216,1.0343935,0.41153055,2.2516212,2.0471094,-1.5716361,1.3712102,1.2520851,0.41550806,0.48426116,-1.359788,-0.98873746,-0.12588173,-0.8686329,-1.9948597,-1.6787246,1.7265055,-0.18998554,-0.40632832,-1.8858294,1.5693939,1.3405772,0.24339464,-2.147412,-0.440969,0.23293114,-0.31494984,2.5546582,1.5711936,0.9173026,-0.21768293,-0.938843,-0.7550563,1.9751408,-0.3600195,-0.11777091,1.2610741,0.799834,-0.59330165,0.7985866,-0.63872,0.99428153,1.6216818,0.6877799,0.04392008,-0.8082044,-0.049654856,-1.1575508,-1.6515051,0.06415198,-0.5821021,0.34817782,0.45125514,1.631695,1.8625542,-0.96311504,-0.96992034,0.86326027,0.21612786,-0.33771843,-0.04011379,-0.0910619,0.7314258,0.36669382,0.42053303,0.44323748,-0.14724079,-0.8664067,0.9922089,-0.8402631,-0.49005327,-0.50942886,-0.55774707,0.47172108,2.6592686,0.07178565,0.83331776,0.73975265,0.23463263,1.0270135,2.3655963,-1.0849037,-0.6835853,-1.1487738,-1.3296919,-0.59145147,0.9330994,-1.519842,1.9427012,-0.14130303,-1.0967702,-0.9894849,0.50433564,1.0570886,1.8298124,0.40676668,-1.064437,1.1551409,0.45026422,0.8198296,0.58373094,0.5486555,0.50377464,-0.41668555,-0.45439225,-0.22457379,-0.84103614,1.6613266,0.9252847,0.6199796,-0.33811063,-1.6535925,-1.2607906,-0.3756288,-2.0456696,0.056210645,0.17912127,0.8685207,2.0708954,0.43773338,-0.27261478,0.19335236,-0.13846318,-0.15416934,-0.20739317,0.5440761,1.4769399,-2.0774677,-0.22559424,-0.45123878,0.66062474,0.17663491,-0.39523885,0.513975,0.27623835,-0.36241695,0.17449267,-0.5154226,-1.4367223,1.5163491,-0.9014863
uplifting,-1.1409245,-0.35565072,1.7222525,1.4043821,-1.9819347,1.7599196,-0.10749095,-1.0539541,-0.6803423,1.663644,2.0084252,0.14144193,-0.65327066,1.8893801,0.13093577,-0.4894321,0.9470227,0.19040331,-1.1647996,-0.7563537,-0.98359126,-2.388125,0.6816826,-1.4544036,-1.8262614,2.1767395,-0.737941,-1.4411631,-0.21893762,1.5365688,-1.4844488,2.1049623,0.17114508,-0.16559738,-1.575422,-0.12695718,1.3730572,-0.06530667,-0.40754172,0.54843086,-1.2806978,-0.02646364,0.9710289,1.733143,-0.33644614,2.5311265,-0.6504681,-1.0074728,1.2098198,-0.5231208,0.74860305,1.8858092,1.1384176,0.7224068,-0.70255274,-0.35375112,-0.042941216,0.3342449,-0.3757972,-0.5740528,-1.5204777,2.091657,1.7459546,0.36871377,-1.2836987,-1.2507008,0.88060325,0.3406912,1.1961455,0.71633047,-0.9964069,-0.6814488,0.53170943,-1.3302265,0.4899919,-0.50972754,-1.0128154,-0.11398181,-1.2137264,-0.13938443,-0.16004014,0.14349543,-0.5431002,2.275906,-0.9787637,-1.0220537,2.4245057,0.422855,-0.64705545,2.3970623,-0.5602591,-0.53667384,-2.3714838,-0.5021693,-1.2092322,0.20201531,-1.0820874,1.2175869,-1.2529045,1.4976918,-1.573625,0.91081065,1.5133002,3.0819902,0.03367894,-1.383517,0.34316707,-0.4554835,-1.2194277,0.09722788,-0.69249374,2.4417992,0.95131433,2.450049,-0.52900505,-2.612635,0.95614684,-1.7088928,-0.05266753,-2.1568978,-2.0903738,-1.8853472,2.6363816,-1.5345391,2.1164207,0.058024626,0.8316644,0.32224855,-0.6478614,0.025662163,0.8523496,-1.2667152,-0.17590505,0.04205429,1.7497792,2.4786122,-0.81957364,1.0061724,-0.23890135,1.2750409,1.2661096,-0.28975266,0.96276003,1.4835172,-1.5682434,-0.8023472,-0.95609003,-1.3590181,1.6414773,-0.279715
pleasure,-0.67289096,0.8778717,1.528716,-0.7946858,-2.4041219,1.0010759,1.1195784,0.5472689,0.055760514,1.4116521,1.6614871,0.86464447,2.2820213,2.8087258,-0.32303417,0.43887916,1.5429187,0.12199346,-0.5793186,-1.0836334,-1.0954815,0.39815065,-0.42390215,-0.84941316,-1.3954831,2.068876,-0.32629943,1.5133193,-0.9652981,0.009703005,-0.39454398,1.7246126,-1.370018,0.09730592,-0.29960352,0.8180015,0.49478748,-0.9859378,-1.3696597,-0.70210135,0.16889988,0.124107435,-0.31604102,1.5668232,-1.1582566,1.954033,0.5544216,0.78293526,0.30506733,0.02670237,-1.5094026,-0.7019634,0.23911007,0.44690928,-1.9678079,0.19537002,-1.4007524,-0.32426223,1.4737817,0.7788839,-1.5349354,2.4778492,2.7830117,-1.6708105,-0.94867176,-2.754082,0.8858696,0.12510963,0.7967938,0.19523942,-2.7782984,-1.7493205,1.2089831,-0.86319107,-1.7336392,-0.20629463,1.0177737,0.08909995,-1.8756591,0.3742999,-1.5846634,0.9331204,-0.863838,1.6986498,1.4194031,-0.095923245,0.7505334,-1.6388935,-1.6457908,2.3878968,0.24114613,0.5400681,-0.7412034,-0.53260964,-1.0300441,0.95431215,-1.1459306,-0.32700768,-1.2262033,-0.3021402,-1.7452226,0.16251871,-0.024501568,2.755342,-1.0967852,-0.7696707,1.9046103,0.9158357,0.39869782,-0.6352901,-0.45055172,-0.07469509,-0.21501882,2.0873322,-1.8393234,-0.2992802,1.6506183,0.29097405,-1.2952857,-0.21039192,-1.8855798,-0.24254256,1.5512466,-2.2118764,1.6495639,0.4239712,1.0968146,1.8986545,-0.18797019,-0.8899393,1.0004277,0.76818514,-0.40748656,-0.039427027,-0.0076286923,-1.2018936,0.21323963,1.563664,-2.2122636,0.19102034,-1.4620597,-0.26771986,0.05034839,0.24918434,-1.4644735,-0.79468226,1.7608162,0.048468933,2.6536658,0.38958386
aggressive,-1.2455988,0.111128405,0.5142306,-0.6188826,0.37491262,-0.17689463,0.23728776,0.3503576,-0.63027984,2.4871235,1.8013326,-0.5105498,0.6106824,0.574684,-0.0053803287,0.41519856,1.0970299,-1.2969391,0.111195646,-1.3508905,-1.820501,-0.74368244,0.40485013,-0.39887783,-1.0641786,1.8166544,0.3142549,-1.7086737,-1.3766211,1.2942064,1.8672739,0.42128313,-0.10946018,1.1138926,-2.3171332,0.3671827,1.6651499,0.7733585,0.57684,0.54247755,-1.4296947,-0.36357373,1.1799892,0.88756555,-1.2487918,1.152218,0.5783511,0.58466905,-0.55503416,-1.5130553,-0.8375983,0.9903784,1.735941,-0.3797786,-0.9791551,-0.2645901,-0.6539706,-0.13930748,0.91987616,0.5929796,-0.99635255,-0.67108274,-0.28842887,2.237251,-1.4835387,-0.7248399,0.37390918,0.12496532,0.74258196,-1.3952335,-0.82425404,0.6699168,1.061422,-1.3613852,0.49254757,-0.23867817,-0.140742,0.4855597,-0.25195792,-0.5043784,-0.8268511,0.87840706,1.4741929,2.0950084,-1.3342888,0.6625849,1.1983308,1.0856153,0.16531268,4.167751,-0.16246119,0.4117467,-0.2850138,-0.38229424,-0.34298623,1.564215,-0.0884816,0.8370197,0.28095266,-0.27406842,-1.1208098,-0.8541445,-0.4477623,2.006183,-1.1397628,-0.6644827,-0.83222187,-0.87535065,-1.6514742,0.12680452,-0.04926547,0.5428024,1.5438066,0.5375532,-1.9041747,-0.5749085,1.1688392,1.4781384,1.0423986,0.07839116,-1.106906,-1.251087,2.7026825,-1.3099911,0.88834214,0.0021402342,-0.38769487,2.6542983,-1.5403569,-1.9675772,1.2180783,0.73812616,-0.5658168,-1.4587061,0.08089024,3.3544264,-0.98723054,0.8017067,-1.1711411,1.5314418,-0.10548163,1.6269814,1.7820654,1.8905202,-0.41184992,-0.21908028,-1.3344388,0.22785178,1.2939012,-0.18180315
angry,-0.7281766,-1.1268795,-0.9644534,-1.7157596,-1.5054994,0.73725677,-1.7063924,-0.4272408,-3.6162567,1.4006469,1.198116,-0.49122077,-0.053430453,2.3344297,-0.24580057,1.4505312,1.0594821,0.583881,1.5184324,-2.432418,0.24260385,-1.0481412,-1.0087973,-0.23880902,-1.4624666,1.8387355,-0.83946025,1.4131542,-0.15986189,0.59403366,0.5641392,-0.65701705,-1.2179085,0.9630447,0.25383407,0.044667456,1.6852092,1.0439068,-1.4399695,-0.004398858,-0.40419108,1.006085,1.5085168,0.53202796,-0.5050535,0.97225684,0.9127256,-1.1244061,-0.38521302,-1.0153214,1.3978937,1.1584365,0.46768942,0.2802187,-1.493884,-0.32583913,-1.5382311,-0.8159543,1.6389377,0.48681563,-0.6126349,-0.2776572,-1.0919411,1.6425422,-0.72834563,-0.7327748,3.0567791,0.81341255,-1.828354,-0.5273627,1.0708567,0.39820796,1.0946015,1.3815442,0.15811436,0.31419888,-0.12280119,1.5025723,-0.51709604,-0.94021666,-0.91540235,-0.21272519,0.31106466,1.4215555,-0.7897538,0.25133356,1.0742779,0.45473912,0.030996114,1.4309916,-0.71598077,-0.35511345,0.23158017,-2.028125,-0.8415084,1.0970118,-1.216679,0.6178608,1.1099492,0.89871633,-0.7415395,-1.4363358,1.6762351,1.0450891,0.54758173,0.8722254,1.0323011,-0.040809143,-1.0174643,0.13931726,0.24334025,0.093425184,0.14956045,0.80748934,-1.0173159,1.2049879,0.49651775,-0.11981201,0.8411826,-0.2163916,-1.253048,0.77427584,0.5319599,-0.14579742,0.7995177,0.19320844,1.5145283,2.8927104,-0.15562308,-2.2614686,2.1561725,-0.30205095,0.4681984,-1.1270214,0.10381184,0.5490582,-2.1962342,1.2459261,-0.34884807,-0.60732347,-0.027864305,1.6618042,-0.8551222,2.0554087,-2.7110038,-0.10052218,-1.6723751,-0.1871311,1.2799244,-0.5062509
haunting,-0.02736888,-0.691836,0.42457217,0.3071026,-1.5937324,0.21786982,-0.27977204,-0.59784865,-0.21121027,2.316964,2.428098,1.203655,0.9008352,2.3298848,1.235865,1.1424694,1.9015402,0.31179094,1.3132596,-1.0042166,-0.9465123,-2.369505,-1.2895155,-2.2417696,-1.1312556,1.8273617,2.326072,0.8197912,0.57039917,1.2173494,-1.16056,0.06402064,0.39346835,0.4220868,-0.2783116,0.06804285,3.4737656,0.98369986,-0.57735974,-0.44162583,-0.67446977,1.133979,1.5404694,0.7406101,-1.091851,1.3160709,-0.89947104,-1.0520622,1.0882058,-2.4709952,0.13934593,2.0124948,0.8712504,0.82037264,-1.9037898,0.10685194,0.50854534,0.11351694,-0.76208425,-0.30872577,-1.5292152,0.67341375,0.01298474,0.5448517,-2.3519533,0.19385563,0.63544476,0.15282506,0.73121506,-2.2071633,-1.6322623,0.48805973,0.6581154,-1.378578,0.38323322,-0.825431,-1.1928372,0.8658318,-0.45907748,-0.61763704,-2.7095807,-2.2901795,0.061946332,0.86475664,-1.6342177,-1.7896698,1.1190157,0.3472694,1.3905749,1.1979605,-2.8843179,-1.0182935,0.27177086,-1.0007037,1.40262,1.3137296,-0.9917124,0.5770856,2.0989656,1.2905006,-2.1174455,0.038326323,0.8543138,3.2886229,-0.4603577,0.9937863,0.41023138,0.31977737,-1.5205873,0.7235446,0.876895,0.66840523,0.04309271,-0.32461455,-1.2303612,-0.29474467,0.5909182,-0.23285443,1.6748104,-0.58044714,0.165323,0.09668032,1.2436595,-0.85523903,0.5516473,-0.7250364,-0.7841959,1.7612691,-0.8008411,-1.2227236,0.8828203,-1.4959681,0.32556966,0.054961585,1.459587,1.0818602,0.55226433,-0.9386929,0.69700617,2.1114237,1.7452382,-0.6883641,-0.22896042,0.007560002,-2.1586297,-1.8536078,-0.7858752,-0.2845318,1.8108898,-2.4726305
soothing,-1.5604768,-2.3356075,1.0006198,0.56500256,-1.9665493,-0.3958784,-0.53764963,1.8083748,-0.8551025,3.3474634,1.6337878,1.3189734,1.3067093,2.0010943,2.5967636,0.51528364,-0.5761587,-1.337195,-0.35729003,0.33532408,1.7947955,-1.7411164,-0.81727594,-1.3805546,-1.6034349,1.063044,0.16169363,-1.8280855,-0.5100343,1.1099277,-0.96658474,-0.42177328,-0.23054078,-0.113120265,-1.8984791,-1.2529993,3.3087134,-0.07181385,-1.5097525,-1.1266761,-1.3758537,-0.30076492,2.1978736,1.207552,0.33200297,3.934764,0.78771365,-1.6778059,0.70933324,-2.2583175,0.89176416,-0.40270674,0.6460963,-0.68355024,-0.15252027,0.11747766,-1.0536032,-0.36910892,0.5390389,-1.2869272,-0.7233609,-0.75470895,1.8366917,-0.48003972,-2.4459622,-1.88236,1.1198375,0.30804303,0.12906806,-0.5371893,-0.550738,-0.95981514,1.8511859,-1.1167833,0.3622667,-0.58253664,-0.332358,0.43498397,-2.4462504,0.60542905,-0.7639799,0.09926892,-0.9098337,0.45461282,-0.2391637,-0.29310042,2.2057142,1.2820071,0.3853395,1.9232283,-1.8888061,0.45522308,1.0544168,-2.6543155,0.82564825,0.6254713,-1.7332375,0.3947333,1.4258796,-0.3617249,-2.7001348,0.671148,0.8626564,2.39925,-1.3335634,-0.35052523,-0.1738883,-0.39737028,-1.3101544,-0.27045792,-1.5512213,1.3603119,0.6536047,0.72339046,-0.90703446,-0.39112076,0.31012267,1.8511133,-0.0849716,0.5346971,-1.1219786,-1.2900711,1.2655371,-0.8686206,0.4989701,-0.9358369,-0.11036602,1.6093405,0.25848928,-1.874034,0.8560842,-0.46692592,0.060082007,-0.7516689,-0.48369166,0.7661789,-1.1400012,-1.3372092,-1.8097264,1.4131267,0.29541895,-0.86034673,0.23271972,1.5750042,-0.34801817,-1.3407567,-0.24237357,1.6930357,2.239362,1.0308598
peaceful,-0.18408439,-2.0075812,-0.08240426,0.42769924,-2.994171,0.21726696,-0.70103323,-1.639985,-0.8037536,2.5902853,0.5197174,1.89415,-0.33059108,3.2413597,0.21364428,0.90307075,1.6231818,1.1734573,0.8363841,-1.1707016,0.12575096,-3.3836954,-0.2065412,-0.56668574,-0.70098346,1.5516547,0.1583606,-1.4392262,-0.71712786,1.9473445,-0.31387815,1.5775253,-1.2789346,0.20126748,-0.8551705,0.5871799,2.9718657,0.9730844,-1.681979,-0.53028244,-1.4292676,-0.57307786,-0.076900795,1.4871311,-0.7956473,1.248171,-0.71470135,-1.6718695,1.0377741,-2.2914805,1.4864038,-0.10817482,1.1347406,0.71240157,-1.1587089,-0.39647996,-1.1476195,0.23649703,0.5128219,1.1048659,-0.3040231,1.0861112,0.16319343,2.6755836,-1.8552759,-2.311554,0.33936572,0.7203517,-0.09122897,-1.0992045,-2.9118629,0.36263105,-0.86687505,-0.9515658,0.88719183,-0.21356465,-0.56656694,-0.36037508,-2.089155,0.51749134,-0.8717281,-0.5507488,0.047514345,-0.13316958,-1.7393861,-0.29804155,0.35217178,1.0491356,0.5072,0.4314417,-0.19099915,0.7426168,-1.0120921,-2.5079505,1.008309,0.23887931,-2.1039655,0.8873432,-0.15386352,0.42978254,-1.8625925,0.4910164,1.2366163,1.9853373,0.2217894,-2.3327444,-0.16765179,-0.7640229,-1.8665574,2.3846908,1.417717,0.90591097,0.46996588,-0.018660516,-1.3489641,-1.9469533,1.4784787,-0.6070418,-0.16015124,-0.019516855,-1.9988859,-1.5877895,0.9322491,-3.6381588,-0.58200866,-0.49824435,-0.90819514,0.36173463,0.49207944,-0.72459406,1.1804738,-1.5294285,0.5014156,0.49111822,0.66539514,-0.36105552,1.2726393,-1.8994243,0.268178,0.50753796,0.29937875,-0.77343625,2.495722,1.5948241,-0.50033706,-1.0731833,-0.22614634,1.6926625,1.0690814,-1.0933931
joy,-2.2245724,0.98002505,0.6258521,0.39057204,-2.8405614,0.74933493,0.5385626,-0.8327827,-0.039022285,2.0388522,1.0749725,0.109746315,1.9746822,1.2632961,-2.331197,1.998241,1.9497043,-0.28434974,-0.6060855,0.22150387,0.07955008,-1.7617316,1.6263438,-2.3824205,-0.6584579,1.1367544,-0.37121236,-0.7636339,0.9879794,1.821331,-0.02173176,-0.7400071,-1.3393131,1.2735996,-1.3933858,1.3547084,3.209231,0.9755679,0.76921,-1.7168851,-1.983477,-0.12681475,1.6514999,0.73666465,0.3626328,1.905933,-1.0323263,-1.7478509,-0.74745756,0.15828516,1.9122549,-0.63282806,-0.79417497,0.14727634,-0.18547872,0.103140175,-1.6927423,1.3882207,-0.05727993,-2.185189,-0.46198833,0.83939475,1.1855212,1.2323099,-1.5629977,-0.30467683,-0.3129003,1.0464594,-0.22512308,-1.2639153,0.13565525,0.64175653,-0.079555616,-0.64954525,0.080585435,1.0236254,-0.7432171,0.23311545,-0.47450313,1.657038,0.23851088,-0.11252514,-0.5954242,1.1838416,-0.24923219,-0.36189923,2.2037241,0.5044687,0.35190842,2.17959,0.041159596,-0.6855075,0.20526735,-1.4513108,0.5995306,0.017926246,-1.1442935,-0.33513254,0.872953,0.62238157,-2.3658779,-0.780824,0.5892151,2.864369,-0.045635164,0.5772647,-0.10450603,1.3016728,-1.6947197,-0.2915928,-0.07211553,0.25880468,1.9278787,-0.09708102,-1.4205978,-1.7996912,2.3362465,-0.19081265,0.62381035,-0.31857994,-1.3155481,-0.66764605,1.8983142,-2.369746,0.83900756,1.2585915,-0.20238236,1.2158449,-0.2452942,-2.444667,0.37940097,0.18923068,-0.1401334,-0.29004914,0.23785274,2.8260727,-1.1281346,0.6746444,-0.008639847,1.9915895,1.1027985,-0.18393764,1.5696645,-2.0374625,-1.16654,-0.6783935,-0.7424967,-1.2882137,2.7752526,-2.0026674
nostalgia,-0.24467432,-0.6378872,-0.4599414,-2.2562263,-1.1823859,0.33442682,-1.2788329,-0.385019,1.0057739,2.5271773,0.5773238,1.2754737,-0.42402542,1.7046819,1.0558597,1.9729135,1.9959235,0.6692898,-0.4689914,-1.4931962,-0.74307007,-1.0605477,0.62277055,-0.943972,-2.0280025,1.8836743,-0.64303225,1.5291191,0.45131797,2.212223,-0.72633344,0.69938743,-0.35369492,1.1689824,0.1402619,1.4010997,0.8768801,1.6128031,-0.44496858,-0.5858142,-0.36289412,-0.09226381,0.0036223724,-0.13112779,-2.632914,2.2917676,-1.5940592,-1.2202773,0.61657315,-0.5234811,0.9830388,0.48702767,1.0627528,1.9593173,-1.2371086,-0.04680181,-1.1270635,1.6683103,0.92292774,0.9031972,-0.79693156,1.1374034,2.2032983,0.75768626,-1.5323033,-3.3861423,0.22104198,-0.7278975,0.13535987,-1.0658077,-1.0849695,0.27229607,0.3372729,-0.6392676,-0.26986277,-0.5622665,-0.8300281,-0.41829082,-1.1519927,0.2978678,-0.3141742,0.26009098,-0.5622399,1.9873346,-0.21072371,-2.3883147,-0.39821157,-0.14808387,-1.3228487,1.383682,-0.65275013,-0.46152133,-0.6006949,-0.6016733,-0.6736238,2.301436,-2.0026093,1.9764636,-0.21075305,0.26076743,-1.3989577,0.6005427,1.0186722,2.9958081,-1.1212325,0.6408154,1.6530416,-1.2318786,1.3099334,0.52259064,-0.39711744,0.6792562,0.8536013,-1.5070049,-1.0631293,-2.452883,1.6436744,-0.92014116,0.18341714,0.3801059,0.18854125,-0.62826645,1.4975319,-0.7976911,0.25787672,0.7086334,1.2958847,-0.80368364,-1.8597413,-1.2409357,-0.062677786,-0.2222352,0.55593324,-0.82817215,0.6484194,1.4219242,-1.5658796,0.8395023,-1.0345892,0.7953328,0.08052864,-0.22955927,1.1191953,-0.055791754,-1.4054519,-0.63955253,-0.5579217,0.48441872,1.4520156,-0.2985233
funk,-0.4683616,-1.1543816,0.31383374,-0.98539865,-2.1619864,0.22590604,-0.19987135,-0.070955925,-0.44135466,0.683616,1.0644242,1.5492195,1.7216846,2.386545,1.1338391,0.7942153,1.3117458,-0.012967332,0.6007167,-0.62529033,-0.13728143,-1.4275448,-0.2775132,-0.44567725,-2.1927054,1.4486161,-0.5303766,-0.8111578,-0.33355814,1.3036244,0.43545523,1.4146757,-1.0158125,0.65712047,1.0187546,-0.41524518,2.576642,-0.42019162,0.20558168,-0.52127045,-0.8541095,-0.0033642696,1.2747387,0.3914771,-0.72695816,2.7870238,-0.22064126,-0.35220566,1.0174847,-1.6978912,1.1857146,0.64784956,0.4160401,0.9492139,-0.20864035,-0.21910591,-0.93854827,-0.08745282,0.45999366,-0.41751468,0.47854364,-1.0165448,0.8608272,0.5856211,-1.5926725,-1.4462329,1.7177197,-0.8795174,1.1430192,0.39918464,-1.0226116,-0.513586,1.0251497,-0.56726295,0.70528793,0.07154035,-0.67914623,-0.48036173,-0.6405051,0.037742835,-0.80862343,-0.25635037,-0.0796906,0.2789427,-0.49160823,0.77657634,1.697449,-1.4037353,0.89857703,2.8639889,-0.94537085,-0.37150037,0.21572116,-2.4561996,0.4450243,2.1622968,-0.8096022,0.6259943,-0.08092116,-1.2982966,-1.5060462,0.9302344,-0.22393994,0.88326216,-0.30654323,-0.32306448,1.0442054,1.6549873,0.4092397,0.831231,-0.81333977,0.11291055,0.24978597,0.3475097,0.08178697,-0.8918648,0.7877616,1.1345562,1.402088,0.053598523,-1.3253292,-1.3062125,0.17969765,-2.1134284,0.5733943,-0.365058,1.5771929,1.5787673,-1.7965215,-1.154329,0.46391222,1.2880882,0.78792936,0.28713372,1.2204686,0.4617906,-0.87341803,-0.6121231,-0.4226645,0.37206727,-0.82021314,1.2487676,0.7316901,0.589168,-1.1594257,-0.3392522,0.34469682,0.4280574,1.4358624,-0.677974
sad,-1.0500472,-0.4171496,-0.62391824,-0.8224837,-1.9590933,0.8347191,-0.7075309,-0.40411896,-1.6438956,1.5976609,0.50481606,1.8017719,0.27923918,1.3693036,-0.097532056,1.119633,-0.3640976,-0.06824034,0.122956745,-0.8641772,-0.42449299,-0.87362856,-0.020093817,-0.56741726,0.6577417,1.9996986,-1.898607,0.05032435,0.15357763,2.0939724,-0.9107146,1.3390576,-0.9923887,0.7413846,0.038534414,0.48048383,1.1588653,1.5767686,0.14121856,0.5061742,-0.9853034,-0.53314674,1.2439446,1.2283838,-0.81780714,2.345643,0.08550562,-0.97485405,0.27527052,-1.1847233,-0.08519586,1.1231315,0.36124256,0.4549854,0.7150408,0.17913215,-0.71220744,-0.17877373,-0.12246913,-0.37808794,0.6271346,-0.6009201,0.8930856,0.72579354,0.535843,-1.2308602,1.7117876,0.7614314,-1.8619031,-0.42780906,-0.2816529,-1.9248725,0.940537,-0.63035727,0.04543771,0.17271715,-0.7766259,-1.2191135,-0.6657204,0.41136074,-1.7796736,-1.3861796,-0.53942865,0.5319507,-1.3759637,-0.8379987,-0.43136325,-1.4611903,0.74673843,1.4558691,-0.21039687,0.49284106,-0.16281104,-1.406283,-0.8365064,0.77265507,-2.1223674,1.417751,0.62095535,-1.9409108,-2.1977863,0.79562426,0.3375398,2.9522402,-1.4744718,-0.72174186,-0.0061791036,0.06573778,-0.50227076,-1.2741011,-0.16873908,-0.008524844,-0.20858963,0.46243936,-0.65260005,-1.0302616,1.5409533,0.90105736,0.8390495,0.7714923,-1.0087641,-0.23671404,1.5540026,-2.8236752,0.14990391,0.08577374,0.3642165,1.7748405,-1.362246,-1.3767192,1.454622,-0.6183257,0.074197516,-0.23600866,0.6628879,1.0250574,-0.745213,1.5484298,1.3397813,1.5864122,-1.0813874,0.6053595,0.47835198,0.3740897,-2.7664196,-0.84980947,-0.7975774,-0.396157,0.74158734,-0.8586203
dreamy,0.060627908,-0.90787166,-0.30250987,0.8333518,-1.2622972,0.527243,-0.5900833,-0.9732731,1.047511,2.413732,0.9866747,3.549542,1.2519403,1.3917168,1.4345123,2.4782932,1.7489351,-1.2082794,-1.2576994,-0.18099803,-0.7221931,-0.56133807,-1.3919007,-1.6934559,-1.6193237,2.262269,-1.859159,0.7138579,-1.411992,1.2456329,-0.2771934,-0.85776186,-0.0028289515,-0.27289027,-0.28379223,-0.6046264,3.6707463,0.077635825,0.13742673,-0.88552904,-0.35951662,0.73177534,1.5926206,-0.028112082,-0.12962168,0.679921,-0.381047,-0.3638584,-0.5184839,-3.0161004,2.8361259,0.18341962,-0.5072016,-0.8670082,-0.75546265,-0.40126702,-1.9823917,0.44650397,2.0085926,-0.28948343,0.10354565,-1.4217341,0.48988944,1.4413195,-1.0833719,-1.9242074,-0.35836938,-0.44624195,-1.809135,-1.6902978,-1.6416942,-0.7038492,1.3037889,-1.1009202,-0.92326874,-0.30058655,-0.24419352,1.7515596,-2.6524475,-0.09534293,-0.42277682,-0.20448571,0.2510702,0.24384083,-2.2291224,0.22382715,1.1112739,-0.8536016,0.37423563,1.0059824,-1.2738158,-0.8573094,0.53732836,-1.0580399,-0.47741273,1.2793183,-2.4414093,0.40446973,-0.5226765,1.1235452,-2.918532,-0.037138183,-0.015246713,1.9552243,-1.3488142,-1.5988595,0.41545594,1.3408852,-0.7694456,0.3989015,0.44193652,0.17656673,2.2210922,0.16681795,-1.1660289,-0.063905686,-0.3422656,2.902924,2.2386978,-0.2649852,-1.6911002,1.0066046,1.5904622,-2.2785084,-0.20415048,0.35814092,-0.4300121,1.9323728,-1.1529546,-0.26433203,0.70935106,0.48026246,-0.6444178,-0.718438,0.85567343,-1.5699878,0.09430671,-1.1838601,0.018897539,0.30421537,-0.86083156,0.3209163,0.8633198,0.8152854,-0.83119845,-0.7067028,-0.3916984,-1.2610371,2.2837958,-1.678084
calm,0.3006704,-0.6431078,-0.39589006,-0.119888075,-0.5184658,0.08885261,-0.5125638,0.3346366,-0.35649216,1.0744032,1.8557792,1.0364459,1.7268364,0.8236882,0.7869598,-0.14446495,0.20913179,0.8538786,-0.029241258,-2.1878233,0.45810437,-1.6184912,1.087474,-0.36487433,-0.4821064,2.6484299,-1.099351,-0.36542466,0.6759019,1.8780913,-0.2674257,-1.6339295,-1.476875,1.1245309,-0.29866084,-0.60224736,1.8476866,-0.5756017,-1.3407184,-1.0022533,-3.724998,0.8697073,-0.08434844,0.7287444,-1.6642593,2.4357803,-0.06437909,-1.7256564,1.7284946,-0.526892,0.36967397,-0.017703325,2.1624599,-0.8220003,-0.58819044,-0.34222376,-1.047837,-0.29346874,-0.011957402,-0.6053067,-2.7776806,-0.18549661,0.09956594,0.9704354,-1.4587425,-1.3501223,0.6967784,0.010682626,0.22889656,-1.0232892,-0.8301457,0.97312397,0.40040135,-0.18501496,0.1694086,-0.6711129,-0.5097871,-0.55039376,-1.8167616,0.6842284,-0.040934704,1.6376699,0.5210264,2.3685527,-1.5718949,-1.3498046,1.2619954,0.11470282,-0.2871491,1.773168,0.05030614,-0.58030814,0.10279943,-2.3564742,-0.3579149,0.016541684,-0.57442844,1.667531,0.058501124,-0.28139606,-1.5815108,0.7834561,1.1196128,2.6344182,-0.8413102,0.2590936,0.1336156,-0.054941338,-0.97373646,0.0730393,-0.4627508,0.21150604,1.575141,-0.23874636,-1.385995,-0.9833907,2.3874304,0.4330732,1.7477145,-0.43081817,-0.9134983,-0.15101567,-0.5652726,-3.5467055,0.18055831,0.041490003,1.4949851,1.670071,-1.1642935,-2.1697023,1.4671935,-0.78491116,-0.24582008,0.85962456,-0.22510663,-0.8010548,-0.9700411,-0.7630778,-0.46486712,-0.024874754,-0.10639296,0.66472125,0.092039146,0.9965748,-4.0873537,-1.9527172,0.05022315,0.16117586,1.0713937,-0.74675745
melancholy,0.19586207,-0.27545178,1.0663687,-1.0560639,-1.3195275,-0.5197397,-0.6108483,-0.5742038,-0.8032176,2.1879554,0.4497119,-0.11205973,-0.07555832,1.2174801,0.09358245,1.3601325,1.6088142,-0.7831227,-1.4022614,-1.0539132,0.18240838,-0.72585505,-0.21181658,0.2576254,-1.6006684,0.67637736,-0.38222772,-0.8547343,-0.39440137,2.4343853,-0.5730687,0.010200702,-0.98054856,0.6914854,-1.4693447,2.1696558,2.9390395,-1.4425213,-2.372347,-0.26211083,-0.9756667,0.8562167,0.76721776,1.3763525,1.098342,1.9764504,0.5443975,-0.81306535,-0.51944834,-1.2483281,-0.2694852,1.2184169,0.46649766,-0.13504148,-0.32338122,-1.1255646,-1.3130559,1.6115649,-0.12399166,0.80136335,-1.5444397,2.199893,-0.24576047,0.0034718958,-2.113193,-1.433346,-0.24842547,0.360313,-0.25680542,-1.3453383,-1.1176445,-1.7432592,1.1271846,-0.4909951,-1.6771978,-1.6061549,-0.4405894,1.2488904,-0.2577371,-0.42076787,-0.37751558,0.2320937,0.7151257,1.1122357,-0.47020686,0.7787735,0.9595583,0.62304115,-0.04032942,1.4529102,-0.70624965,0.9536732,1.231721,0.4739023,0.30450404,0.10381257,-3.1725495,0.26401684,0.75326645,0.4485187,-1.6342237,-0.6088475,1.3015436,3.6838858,-0.115193464,-0.7704721,-0.23294748,0.73544884,-2.6701963,-0.19513366,0.41625535,0.8415562,0.80567575,1.5820503,-0.94229674,-1.3644837,0.68988967,1.0744187,2.1263478,-1.7132277,-0.87961143,-0.34109467,1.8708308,-1.304161,1.4841447,0.11560174,0.13835399,0.19733106,-1.0076325,-1.0342593,1.92767,-1.1533917,0.997712,-1.0651467,0.28858244,1.4226354,-0.5896895,0.5088833,-0.11625968,-0.70579547,-1.2928019,-0.38910896,0.6446598,1.4590589,-2.216606,-1.4786085,0.2398353,0.4664008,2.0693388,-0.73614335
quirky,-1.7992078,-0.14918019,0.6166319,-1.1423441,-2.1801536,1.1531901,0.6102367,-0.07355528,0.29223529,1.6319498,0.044816334,1.1896899,0.7940625,2.0743191,-0.8059323,0.14649004,1.5536222,0.31228426,1.4942875,-1.9193162,-0.774447,-0.65400165,-0.8483081,-1.5971588,-0.6546326,2.3319001,0.96141803,0.09527158,-0.446756,2.3246312,-0.7455313,0.038819715,-1.8706427,1.8076085,0.27857843,-0.5286634,0.041398436,0.38108206,-2.2302723,-0.7869745,-2.7838523,-1.5270545,0.52732056,2.0699227,-0.034617193,0.92802507,0.10993977,-1.7577213,1.9782914,-0.40348032,1.7775662,2.413973,1.0500466,0.7876048,-1.1933886,-2.3282518,-0.15067846,0.15445551,1.5531306,-0.02880144,-0.2697075,0.17003986,0.9121116,1.3982564,-0.30227736,-1.3161769,-0.72315115,-1.8677131,-0.05081054,-1.2636001,-1.3300924,-0.47829252,1.3132461,-0.62299633,1.003058,-0.19303042,0.20156072,-1.8054217,-0.97044975,-0.93583137,0.41274956,-1.35771,-0.2705565,2.7549846,-1.4819806,0.3383754,-0.5235179,-1.2153087,-0.039711487,2.726484,-0.877984,1.7336874,-1.0777944,-1.8623362,1.5146934,1.1016586,-0.5929279,1.7924123,-0.23007332,-0.17436679,0.03224221,0.7436374,-0.7483443,2.5372648,0.1656145,-1.1891378,0.8189393,0.8688885,-1.0044036,0.40249264,-0.70384514,0.668748,-0.33842656,1.0979159,-2.5669904,-2.0816433,-0.43579918,-0.0725828,0.988011,0.8602913,-2.389654,-0.13125104,2.3768115,-2.9813654,-0.017480755,-0.49690986,0.56073964,1.3239654,-0.15343106,-1.4995246,2.1985364,0.032556806,0.4273245,0.6210747,0.16820686,0.42245603,-1.3252505,-0.041427176,-0.04580492,0.6255483,0.85326207,-0.11464143,1.1257252,-0.1675908,-2.6645794,-1.6871271,-1.2227539,-0.07782083,1.0323478,-2.8139207
desperate,-0.1300591,0.93720907,-1.1889491,-0.4069566,-2.1380973,0.92526567,0.14180402,-0.21177064,-1.2345906,1.5272715,0.4438199,3.0826573,-0.14823836,1.4228206,-0.3883756,1.8378615,1.612515,0.94960374,0.0008329403,-0.80726844,0.33802596,-1.8553264,0.9242974,-0.8004454,-0.6249201,2.1399481,-1.9386822,0.6014153,-1.1354375,0.74164814,2.1512735,0.4464367,-1.8342025,0.33703434,0.25963077,-1.2978797,1.8833156,0.8424985,-0.44376925,-0.7255386,0.72813386,-0.6312979,-0.4460762,0.8937768,0.21605395,3.1220345,-1.609985,-0.02021931,1.0446068,0.56750524,1.149011,-0.16762002,1.8608415,1.2063088,-1.1390567,-0.4385991,-1.2111771,0.29959014,1.5473888,-0.8682216,-0.2585264,-0.114757046,1.8753173,-0.19023983,-2.2533715,-2.9996264,1.5867974,0.7237506,-0.04242464,1.4159132,0.044501938,-1.2520082,0.4018764,-0.2176054,-2.2565362,1.1851507,-1.7982763,0.7993201,-0.6507005,-1.4717903,-0.07821785,-1.3353462,0.1985664,1.9935578,1.5051259,-0.17201084,1.7968714,0.2817186,0.22209072,3.5111399,-2.0726488,0.96834123,1.1315416,-1.3513305,1.598114,3.242498,-1.5921085,1.9604385,0.34776753,-0.197135,-2.4031637,0.6433826,-1.8733633,0.89683527,-0.8532308,-0.046695635,2.8155935,1.2638508,-0.5227768,0.25787836,0.27294523,1.535529,0.9839173,2.4867544,-0.50943834,-0.94144374,0.8017779,-0.74311453,0.7050375,-0.10538876,-0.8754489,-0.51506776,0.0022552062,-0.96669114,0.050606906,-1.2759655,2.168377,0.9401142,-1.204899,-0.4578934,2.271842,1.1122786,0.73526806,-1.0129441,-0.031524636,1.2557702,-1.8148375,2.078847,-1.1641479,1.6328398,-0.43514568,-1.3723679,0.95382893,0.9530672,-0.4121818,1.2769281,-0.09574287,0.46375293,3.0433412,-2.4356074
emotional,-0.5868855,0.18584967,1.499393,-0.65979844,-2.2094653,-0.48871192,-0.6894148,-0.47106898,-1.6365894,3.0897498,1.263909,0.428895,-0.79280585,1.2223405,1.7923818,1.6885254,1.3643216,0.20042704,-1.5177598,-1.1908311,-1.0004135,-0.98172605,-0.46948457,-2.0206811,-2.708234,1.6887307,0.21508774,0.92163736,-1.220312,1.158965,0.17688367,-0.21497628,-0.44534445,-0.36152044,-0.61080676,-0.85323626,1.5997949,-1.8631364,-0.76948375,-2.5334895,-0.68313676,0.40791228,0.5493203,1.4197953,-1.6057498,-0.006274076,0.33334827,-2.5503945,0.6796297,-1.7397846,-0.8279764,-0.3094001,0.25497186,0.047206033,-0.33256322,-1.665435,-1.5159746,0.77716464,0.9068905,-1.0075548,-0.5650349,2.6077929,1.348811,0.7941647,-1.3555684,-2.0037472,1.9631597,-1.1176231,-1.0101415,-0.9226377,-0.3792095,-1.1355369,0.36503577,-0.22075813,-1.2571024,0.27743718,-1.9931022,0.38217306,-0.99087644,0.029989464,-0.7969408,-1.2390914,0.3950547,0.31387758,0.20388256,-1.9723513,1.833063,-0.82206655,1.2173157,1.1859823,0.024913603,0.3288286,-0.21255861,-0.87443715,0.7179862,1.9969412,-0.46754938,-0.5020427,-0.8075806,1.649553,-1.7154257,-0.44703063,1.0375009,2.8392913,-0.33584115,0.47982222,-0.11327844,0.3741466,-2.0630898,1.3013189,-0.58091784,0.43693233,0.28718758,-0.5793822,-1.5403256,-1.1879959,-0.6818338,-1.4826193,0.53410095,-0.79830843,-0.58099836,0.40347207,0.95440376,-1.0330304,-0.31101033,-0.8372398,-0.90912807,0.9412235,-0.51096594,-0.7081542,2.0290892,0.2933351,-0.14041439,-1.5467263,1.0917991,0.28343803,-0.3435592,-0.6729321,-0.032922644,0.37380257,0.16443953,1.0648098,1.743374,2.2865593,-0.10912262,-1.3736808,-0.058944132,0.24791506,1.09766,-0.38810605
inspired,-1.1888239,-0.63320816,0.021710232,-1.1339003,-1.8523679,-0.36606023,-2.6254206,1.2680491,-0.34008297,0.11802065,-0.06907132,1.0586728,1.0983993,1.8296449,-0.17222632,1.279564,1.8022048,-1.4400926,-0.4847923,-0.3897569,-1.4859017,-1.3433772,0.40159446,-0.28510687,-1.8366454,0.89243263,-0.21435897,-0.3216462,-0.76264447,0.68892175,0.429511,1.5405287,0.9377613,-0.3423293,-0.55491364,-0.82010907,1.4797,0.14193463,-0.7143648,0.53817886,-0.5117445,1.1055037,0.5877615,1.3735833,-0.39814618,-0.3703414,-0.5553507,-0.8118925,1.5678701,7.223859e-05,0.9708581,1.6202377,1.3383055,0.36251667,-0.5026552,0.60170823,-1.2642205,-0.053234007,-0.9189087,0.040243555,-0.9588495,1.2104999,0.79732436,0.2129985,-1.0469754,-0.45842215,0.5198858,1.9801996,0.2796251,0.22898957,-0.04523113,-0.5220767,-0.33397543,-0.69782597,-0.9301574,0.80706656,0.6262554,0.5805249,1.1056149,-0.7143525,-0.50926614,-0.13720632,0.5925676,0.24068214,-0.8820058,0.036957428,1.0560042,0.026113212,0.31546754,1.5263613,0.39219576,-0.36340126,0.43073845,-1.3471719,1.8129495,-0.2692726,-1.3511058,1.2365031,0.44494873,0.6632009,-2.4480865,0.92782956,-0.41052824,1.7815139,-0.10001685,0.7171355,0.46647945,1.3439581,-0.8748536,0.7127552,-0.5805975,1.0186505,-0.15482093,2.5321903,-1.0490947,-0.64815354,-1.3367383,0.18541108,1.3865718,-0.96189135,-0.27639085,-0.53259623,0.70149565,-1.1932554,1.0480974,0.6156636,-1.1350011,0.6647121,-0.96943045,-1.2778633,-0.2589432,1.049511,0.36567026,-0.7187977,0.8759647,2.4085462,-1.1120381,-0.34783065,0.48676828,0.8935893,1.1039143,-0.967519,-0.36795333,0.89627683,-1.4168755,0.84598666,0.57338095,-0.15469363,2.3738985,-0.7015365
bittersweet,-0.3774698,-0.5787107,1.9859343,-0.3792255,-2.692918,0.46454492,-1.3209819,-0.76989865,0.67756367,3.6253376,0.65909725,1.8924278,-0.9493772,2.7385392,0.7117057,1.2335978,0.9415751,0.18714422,0.92414874,-1.1258061,1.728144,-1.1718581,-0.17019935,-0.31371287,-1.2834066,1.7991472,0.3678691,-1.0202377,-0.9375811,1.6996677,1.2403306,1.1398109,-1.7654835,-0.71094996,-1.1487474,-0.8492917,1.8084108,0.39347792,0.25818643,0.17809299,0.8431725,0.64802164,0.27647975,2.8342178,0.10033008,1.2844673,0.22063458,-1.203525,-0.040454358,-2.0079777,2.7222621,-1.5175923,1.0213302,-1.0639242,-0.6771218,-1.8874434,-0.7128779,-0.494621,-0.20775154,-0.4409133,-0.74466753,1.3853004,2.2521508,-0.68037426,-1.3973278,-1.9330565,1.8211921,1.6141841,-0.7575477,-1.0136272,-0.892535,-1.8079413,1.5408041,-0.9983921,-0.7843696,-0.60213304,-1.1713073,-0.59934664,-1.1479807,0.06493147,-1.2852335,0.9036914,-0.9470249,1.3397429,-0.5015693,0.15868299,1.3871324,-0.9353171,-0.77456,1.2416618,-1.1662866,0.20524229,-0.3382614,-1.8615656,1.5731342,1.232881,-2.5256205,2.0352266,0.8208472,0.09868661,0.0770802,0.955817,-0.020458486,2.0208318,-0.891429,-0.12208571,0.9895296,0.9908921,-0.56330395,0.47420478,0.44522178,-0.011220742,0.85125875,0.016023587,-0.5992446,-1.755777,0.32128432,0.73226637,0.4136528,0.8205057,-0.7087277,-0.25258198,0.13780108,-1.4823033,0.80218446,1.3439932,0.47399884,0.5320169,-0.99609566,-1.6859622,3.1172156,0.9308923,2.0168107,0.20831929,0.025673218,0.49465874,-0.064559646,0.48771182,1.135382,1.1616579,-2.7144113,-0.5087612,1.5585116,1.132523,-1.2010413,-1.1130222,0.40677017,0.24546833,2.859935,-1.3219275
black,-1.0983388,-0.70710826,0.073291786,-0.7980977,-1.4149194,0.35338977,-0.39840752,0.5512503,0.0923603,2.2836738,1.0443103,0.42938983,0.37302026,0.70992696,-0.16664445,1.5983381,1.5383464,0.14207272,0.03053983,-0.884063,0.17322055,-0.11366975,1.036123,-0.98927206,-1.4732436,0.96134937,-0.6068403,-0.96949023,0.3146098,1.5204033,0.41646236,0.85448724,-1.217573,0.44560683,-0.27494282,0.8211911,1.3008,0.101375535,-0.49050954,0.08022764,-1.3974068,-0.5557861,1.0095723,1.4940424,-0.7374203,0.86824393,-0.122387685,-1.2816725,-0.10500421,-0.93664366,0.76427066,-0.04558949,-0.42714188,0.38332155,-0.7815567,-0.11704795,-0.34210175,-0.5375263,1.7212563,-0.28761753,0.14544076,0.92741615,1.1406966,0.6811172,-1.4143916,-0.43884182,1.2950666,1.1193583,-0.54708767,0.11019429,-0.8910728,-1.1520603,0.4225667,0.46440345,0.22206718,0.50808567,-1.2710456,-0.31501693,-0.37315246,0.04542653,-1.1284117,-0.8973943,-0.12876949,0.72442263,-0.3811161,0.22983623,0.17812777,0.96281916,0.29142398,2.5300527,0.58293134,0.9720285,0.017123075,-1.3082147,0.7532034,1.2545161,-1.7731178,0.8569734,0.19043481,-0.18173462,-1.5045549,0.6339219,0.09603755,0.81556237,0.62715256,0.25474536,1.235517,0.73345304,-0.42765927,0.55644554,-0.33505604,0.2921813,0.8076251,0.37276372,-0.88057125,0.005184697,-0.32149127,0.4030169,0.4888761,0.4878219,-0.8524923,-0.5788593,1.0494225,-1.7961599,0.7525066,0.40131384,-0.38750917,0.68913275,-0.46727878,-1.5221751,2.191431,0.4910681,-0.5017837,-0.33599785,1.7349186,-0.09043786,-1.3819594,0.16931963,-0.4200488,0.2991275,-0.04870127,-0.009024841,0.9179414,0.3885958,-1.5747142,-0.3568171,0.39136326,0.24984808,1.7939299,-1.288672
depressive,-0.0012227256,-0.29421997,1.3063836,-2.1186793,-0.9583227,1.6858041,-2.0592616,1.285691,-1.3595622,1.034464,2.380067,1.2642632,1.2193227,0.14553265,1.521673,0.4313719,0.87792027,-1.7342126,-0.70728844,-2.2571626,-0.60023427,-0.80546665,-0.080041796,-0.66964346,-1.5058646,0.39388543,0.7649769,0.68716246,0.73764455,2.6541724,-1.4392053,-0.52596086,-0.059610546,0.23804712,-1.5050906,-0.45652163,1.0796235,1.2949741,-1.0381185,-0.30671126,-0.96903515,-1.2295339,1.4075902,0.4328036,0.14301454,1.3497331,-1.1777716,-2.05335,-1.0217966,-2.078155,0.5610393,0.65425813,-0.36632085,-1.0289842,-1.2939029,-0.47577858,-3.2832584,0.60433066,0.9799153,1.8372276,-0.41030103,-0.44558007,1.4156113,2.1305861,-1.2387447,-2.8281624,0.9481307,0.80237365,0.10035975,-0.37108386,-0.550256,-0.13402697,1.9456959,0.016879646,-1.4461362,0.4498451,-0.4912233,0.010867188,-0.7811507,0.7230158,-1.0974379,0.5915051,1.026467,1.3889852,-1.2103943,0.021345595,1.1148242,0.4348534,0.19848461,2.0666728,-0.82704955,-1.4706413,0.45262435,-1.6879567,0.22579265,2.656334,-1.1890773,0.0052075502,0.74519795,-0.34790692,-0.7888737,-1.0263319,-0.61443084,2.0722504,-0.10012886,0.13489822,0.029097524,1.3996549,-0.6916238,0.70191026,-0.36667594,0.60353714,-0.38846838,0.036921196,-2.849997,0.92068875,1.7320641,1.7826285,-0.59157825,0.26295,-0.93435174,0.005211993,1.4656503,-1.4916337,2.0398474,-0.084144406,-0.030187026,-0.61768436,-0.016070377,-1.5283693,1.4482319,0.72601134,-0.48335937,0.40547556,-0.052846503,0.41284463,-1.943504,0.024101539,-1.1716082,2.141096,-0.28724712,0.4792518,-0.6854482,0.12112849,-1.4736104,-0.69249046,-1.8981768,-0.26997784,3.1220884,-1.4939296
brutal,-0.9180519,0.15667187,0.7902545,-1.8555629,-1.2358055,-0.25512502,0.26327837,0.6557591,-0.48657587,2.3184936,2.176714,2.5023777,1.9689778,2.0824006,1.1702695,1.5665269,1.0696449,-0.12465818,-0.29374838,0.47187656,0.15211503,-1.917118,0.020623231,-1.9672302,-1.5268123,2.6794524,-1.9413402,-0.4149378,-1.2065833,2.0144496,1.1611462,-0.6808821,-0.4715227,-0.13376199,-1.8341738,1.1237643,1.4855423,0.109310634,-0.01917708,-1.3022059,-2.696922,-0.39843625,0.19944555,1.1536809,-1.7588689,0.93512326,0.71484315,-0.5931442,0.7284429,-2.2591712,0.81273437,-0.04141612,-1.1558443,-1.8696245,-0.38323233,0.66468763,-2.629196,-0.72090214,2.8886971,-0.5061445,-0.5939818,1.6075574,1.9843031,0.24787298,-1.5858926,0.12192126,2.321141,1.0534858,-0.4712824,0.6787616,-0.88288844,-1.9029665,-0.029360382,0.21339874,-0.6873519,0.19972983,-1.1780308,0.9528317,0.17233539,0.17175108,-0.17061377,0.6627784,0.8144209,1.9697013,-0.6080049,-0.81233585,1.4618043,-0.95958954,0.29130632,2.7235138,0.83437806,0.6150626,1.835223,-2.3091364,-0.0008410459,1.085015,-2.160109,-0.38634717,1.6277272,-0.7196167,-2.3212137,0.94712514,0.0016453248,-0.26912767,-1.0729508,0.17185594,0.021212485,0.34157062,0.51831406,0.5793755,-0.25927046,1.0595152,2.442646,0.0040533924,-1.6255742,-1.4246708,1.2207767,1.2496482,0.77844685,0.5703379,-2.103496,-0.62018025,1.0097432,-1.3535277,0.8818955,1.24207,0.57626224,0.9401976,-0.54763395,-2.4461296,0.16098924,0.8127297,-0.20393567,-0.6704936,0.8763622,1.4645015,-2.2100675,0.31397718,-0.18749002,1.6143047,-0.3761182,1.5165933,1.218847,0.5893242,-1.4726827,-1.1860644,1.4314051,0.45345998,2.0795445,-1.122835
trippy,0.7756966,-0.46177822,0.4055916,-1.5983465,-2.3996828,1.1308794,-0.89657724,1.1790633,0.29210907,1.6388087,1.3102831,1.0773243,0.36205682,2.346704,0.54057604,3.0171218,1.5754468,0.52723825,0.27012828,0.088230506,0.6038528,-2.4923232,1.1748345,-1.4134494,-1.4281847,1.0363251,-1.0462416,0.29708073,-1.7549323,2.804378,0.25620982,-0.21912442,0.39205316,0.7124955,-0.38769287,-1.145469,1.4751898,0.2920026,-0.35413635,-0.9981595,-1.2648727,0.77923226,-0.050609153,0.14456931,-0.93515897,0.560134,0.7197954,-0.72212964,0.663835,-2.927994,1.0752144,0.06992591,1.5373443,0.031316042,-1.3690919,-1.4991105,1.0762714,0.4370755,-1.2702205,-0.5286695,-1.596684,0.5799823,0.8131147,0.2072698,-1.8878704,0.039340448,1.9592016,1.1487339,0.79313886,-1.3315014,-2.127271,-0.72937727,2.5536578,-1.161966,0.5393855,-0.791712,0.38367042,1.2873768,-0.017009962,0.24560377,-0.5383778,-0.9925021,0.44438195,1.5333855,0.72302324,-1.5852222,2.5920339,0.011311439,-0.2447579,2.074721,-2.5482094,-0.32431507,-1.3930153,-1.8475994,-0.08827701,0.4108877,-2.2923963,0.15362185,-0.1205248,0.16360275,-1.5373253,0.12416408,0.92021024,2.450828,-0.3619945,0.7631595,1.2225039,1.9941804,0.5978592,0.26920086,-0.44929004,0.7993487,0.98847264,0.6598832,-1.1957147,-0.96376276,0.9745751,-0.42176327,1.1918224,1.2710484,0.79313153,-0.18522207,-0.56199515,-1.9379257,-0.9065453,0.89099073,1.1071541,-0.80589724,-0.23705128,-1.3447365,0.63913566,0.37688538,-0.49883124,0.038978804,0.73299015,0.3569094,0.22181116,1.2514883,0.10532694,0.8768075,-0.034647875,-0.6275634,0.62186885,0.8045526,-0.41874015,-0.61191344,0.06936164,-0.19507056,-0.025984116,-0.23987223
dark,-0.45768782,-0.66416067,-0.14186768,-1.4285432,-1.6378114,-0.34074557,-0.80041146,-0.055783134,0.36087337,1.4223957,0.44158617,0.52679664,0.43354598,1.6790881,0.513203,0.117288806,0.71416956,0.5009683,0.013579829,-2.0181363,0.41130415,-1.365341,-0.49566582,-0.59898025,0.076046824,1.4973236,-1.5010164,0.9706444,-1.4095275,1.1718653,0.943236,0.81067365,-0.034645323,1.5305629,-1.0350924,0.032551445,1.9266181,1.4266678,-1.1087506,-0.67694587,-0.75029546,0.8053398,0.48223236,0.8300402,-0.08525436,0.70156056,0.2831164,-0.57495266,0.13160059,-1.8161172,0.24345694,0.24464126,0.1504119,-1.3498725,-0.6105284,-1.1930126,-2.5400577,-0.8990941,0.74199253,-0.27918032,-0.6607312,0.15380256,1.1260567,1.0514548,-1.3723923,-0.8997324,0.98220897,1.0813234,-0.3581202,-0.40887505,0.5016798,-0.5554416,0.92157865,-0.8199516,-0.52670354,0.15841746,-1.067377,1.2224212,-1.0847083,0.45593217,-1.1801333,-0.72921664,1.116846,1.6484381,0.31927815,-0.6256498,1.7815199,0.031303592,-0.39742416,2.0129192,-0.21561831,0.23211819,0.0820003,-1.3470832,0.18598704,2.1718042,-0.6975978,-0.25352567,-1.0799773,1.542068,-0.65418303,0.7788914,0.14361687,0.9843289,-1.1645085,-1.0182354,0.98605865,-0.8643065,-1.3145239,1.6754045,-0.15729828,-0.14239162,-0.04202181,0.7309358,-1.666701,-1.5483356,1.4854448,0.44280696,0.98369974,-0.36793154,-1.2218702,-0.022970205,0.093985,-1.6477194,0.4526395,-0.18611705,-0.38335362,1.9751409,-0.86394584,-0.57471156,0.29084435,-0.32759514,-0.043140456,0.04702838,0.30859354,0.8911889,0.074261606,-1.1806734,-0.84363806,0.81742674,-0.10983485,0.6409709,0.22241355,0.9263004,-0.81687796,-1.1673527,-0.5332504,-0.873414,0.8154391,-0.8990865
lonely,-1.2439411,0.5932853,0.951612,0.46983704,-2.1780908,0.74893683,-1.8780915,0.36052707,-0.81899965,2.747429,1.7885683,-1.8574976,0.7840085,1.8551208,0.07323216,3.132257,-0.08800548,-0.085928,0.7284888,-0.6914833,-0.8493801,-1.3593568,0.5269615,-0.64422965,0.15936862,2.4963982,0.9803485,0.1893281,0.14865191,0.5705381,-2.0334191,0.5565661,-0.33760712,0.39721644,-0.8113494,-0.47308934,1.2551925,2.3440077,-1.8744639,0.11117974,0.04381002,-1.0172551,0.63481504,1.0069876,-1.0774891,2.8076603,0.063384295,-2.053865,-0.23831727,-1.6367038,-1.788643,-0.7590963,0.5213313,0.058953404,-1.0652875,0.17073801,-1.2278419,0.9413756,0.09843488,0.7961768,-0.9644292,1.0921509,1.361705,-0.082552165,-2.5397995,-2.6835458,1.2435526,0.9472858,-0.41688728,-0.73247766,0.18494308,-0.7204935,-0.02170761,-1.448903,-2.2153316,-0.24754494,-1.6773705,0.4753108,-0.19209744,-0.093194626,-0.8551475,-0.73662394,-0.8612862,2.385327,-0.5762887,-0.9438708,1.3515935,1.9594904,-0.8776655,2.0308068,-0.41274348,0.7453785,0.46877128,-2.2945328,1.6430466,-0.80268055,-1.4380329,0.85882664,0.43462577,-0.53989255,-1.1461595,-0.32450113,1.6341134,0.47026354,-1.1134953,0.387117,0.008029615,0.7748627,-0.81140393,1.085556,0.15900052,0.96204996,-0.47370803,0.055266317,-1.2051383,-0.12125682,2.0075004,-0.3294974,1.2388622,-0.52326286,-0.7164972,0.44979823,-0.4439237,-1.5736641,0.34846205,1.4948791,0.12767397,2.2300088,-1.5546144,-1.2136223,1.6370541,-0.44836,0.6519566,0.19209772,0.51850367,2.0790567,-1.3875189,1.039273,-2.6948087,1.3166627,0.69745934,-0.15421508,0.9569642,0.69072324,-2.7671194,-1.274744,0.6071203,-0.005429864,2.507754,-0.56064594
quiet,0.5138601,-1.4808358,-0.26202655,-0.44343072,-0.9742485,0.11433775,-0.81985104,-0.92010033,-0.04274173,3.6803365,-0.11085706,0.2697831,0.38880318,3.0712428,2.0975623,2.4596357,1.1765614,-0.032814056,1.4995507,0.61493385,-0.20752141,-1.5904659,-2.5023293,-1.4448619,-2.2807028,0.37556198,-0.30486727,-2.3264685,-0.39600438,1.3277073,0.7465265,-0.2582526,0.21200365,1.0868092,-0.8238082,-2.3048682,2.1501727,0.064571925,-1.1614887,0.59066904,-1.0711793,-1.1921939,1.4182714,0.9975035,-0.93693984,2.3214629,0.51813257,-0.7190157,0.27027172,-0.873898,2.359559,1.1326329,0.07299878,-1.1598346,0.13283233,-2.8755176,-0.18144922,0.8413642,1.0910822,-0.758987,-0.41146654,0.64162207,1.0207816,0.27654037,-1.8269252,-1.1961937,0.97276264,-0.23151162,-1.5580368,0.7871691,-1.2433605,-0.85062724,0.9106616,-0.5195837,1.434279,0.14713046,-2.3414588,-0.051646926,-0.7569957,-0.07474665,-1.4899964,0.6103056,1.241946,1.8109107,-1.3990297,0.29019657,1.5187532,0.6971352,0.068729594,0.9785989,-1.62698,1.0610696,0.85971683,-2.158608,0.12555045,0.70862496,-0.8994449,-0.39360353,0.20738512,-0.21768229,-2.0757139,-0.105218746,-0.27466783,2.6268957,1.1679767,-1.2359259,0.09206673,0.76791126,-1.0836684,1.0717535,-0.14218429,0.18859576,0.36268517,-0.72192883,0.4131108,-1.3828586,0.6244399,-0.50685096,0.51539344,-1.910822,-2.8542125,-0.630615,-0.68232554,-1.9866045,0.09251411,-0.51375735,0.97880286,0.34007564,-1.998494,-0.50963515,1.8730532,-0.8361604,0.45350242,0.55050176,-0.2848531,0.6130237,-0.034124076,0.30351117,-0.2840202,2.2495816,-0.47888914,-0.18843806,0.9568918,0.77941555,-2.8691745,-1.5107187,-1.4699401,-0.028790222,2.3884218,-2.004481
tired,-3.902069,-0.06780158,1.9491,-2.0548062,-3.276291,0.73023677,-0.07446825,0.424393,-1.7887506,0.3839959,0.70834804,2.331612,1.987129,2.2762585,0.38469857,0.69551647,0.12255733,1.888311,-0.76207536,-1.9963448,0.030377546,-0.22435859,1.3464161,0.9647787,-1.761558,1.8106171,0.36228782,-0.11434658,0.9163588,0.90258116,0.10181175,0.14220405,-0.31127712,1.5336832,-0.40181294,-0.3122071,3.166419,0.53335613,-0.9994547,-2.4121246,-0.084505245,-0.5050349,0.9050773,2.410056,1.4171147,1.5936354,0.45753694,-1.124846,1.317302,-1.7652144,0.20057353,-2.190963,-0.37307474,-0.09207109,0.18425374,-0.6802595,-1.5614716,-1.3855385,-0.0845526,-0.9485202,-1.1285573,1.7426678,1.3455396,-1.0451919,-3.0679023,-2.1022918,3.4341383,-1.0034637,0.11579899,1.1737624,-2.028613,-1.8625134,0.46458757,1.7632506,0.088947915,0.3960324,0.12381959,0.47832468,-0.07698743,0.54253584,-0.7892881,1.1180935,0.30032834,0.034778178,-0.8254086,-0.48987314,1.5579637,0.11224828,1.0176076,1.2702981,-0.05186486,0.26031548,0.40248325,-0.84051406,1.4110842,-1.08159,-0.876309,-1.5217457,1.5902177,-0.8165839,-0.5863866,-0.0728193,1.5328451,3.4237123,-2.6955433,-1.1047908,0.014774126,2.2651541,-2.9978297,0.6043913,-0.45115227,-0.39930645,2.171089,0.73833567,-2.5841033,0.33408293,1.320007,2.3391967,1.6121131,0.17998244,0.6213935,-0.57843494,0.26454917,-2.572847,1.8201693,-1.3299919,0.09725645,1.361498,-0.68191105,-3.0368733,2.6484175,-1.2456101,-0.34436318,-0.9342205,0.55561984,1.0966885,1.6838957,0.88942915,-0.08942816,0.03383968,1.217752,1.6560384,2.9614582,2.0422764,-1.8920952,-0.1297312,-0.55568343,0.36072582,2.1842234,-0.96680444
gloomy,0.84798056,-0.6613387,2.2295642,0.085859284,-1.354061,-0.08754701,-1.9359056,0.32607502,-1.4452499,1.7033526,0.9164796,1.7390171,-0.9919412,1.2875164,1.3470733,1.4039768,1.0090196,0.06602109,-0.49681816,-2.748412,0.57257557,-0.7758422,-0.22650841,-3.694957,-0.28608406,0.47852114,-0.46042904,-0.3026204,-1.8302994,1.5433729,-0.079696134,1.9518709,-1.9029057,1.9034493,0.19979721,-0.1290696,3.3790853,-0.6340501,0.24852797,-1.7377932,-1.8710793,0.8119295,0.19214188,0.8161605,-0.6689701,2.2908454,-1.7930806,-1.0580934,0.067690596,-1.8067311,0.14480373,1.0212244,0.2719582,-0.4348503,-0.78539985,-1.3203988,-0.82038826,-0.25457096,-0.4375051,0.87442976,-0.122329384,0.5662114,0.43550572,1.3933221,-2.4238605,-0.7348774,0.4773387,0.07677575,0.058848515,1.0866872,-0.5388926,0.26113203,1.3789175,0.72589463,-0.309454,0.9251259,0.035186484,0.8022023,-0.17419495,-0.35575336,-1.1562877,-0.4406238,0.8682352,0.9201561,-3.2286487,0.21628462,-0.24362287,0.22912861,1.0625433,2.0048308,-0.46242145,0.75582147,-0.8796421,-0.01935644,-0.11367986,2.4242582,-1.4166126,1.466047,0.9002626,0.34344274,-2.4989483,0.6840449,-0.10258738,1.9555691,0.22106977,-0.5907711,-0.75666386,-0.27969325,-1.7541059,0.84075963,-0.50446844,-0.15636766,0.53473544,1.1932777,-2.4625552,-0.8496036,1.003469,-0.08527864,0.19696963,0.5466182,-2.371934,-0.1846162,1.883597,-3.3234801,0.26829946,0.9192858,-1.2014796,0.91631,-1.2569942,-1.2363153,2.1123328,-0.35441744,-0.13221394,1.2269832,-0.1393738,0.76409346,0.35121405,-1.4640832,-0.23179746,1.6022295,-0.5622222,-1.7029121,1.0052724,0.026633257,-1.6013899,-0.83095247,-1.5681001,-0.2948644,2.3971708,-1.3938323
loud,0.07771391,-0.8510973,-0.72222066,-1.020438,-0.9435898,0.99814767,0.088704705,-0.7499743,0.688808,2.0984898,1.8225684,-0.18791288,1.4434459,0.8404257,0.032281782,0.733396,2.2451987,-0.7797555,-0.16561833,-1.1963273,-0.83952063,-0.79690385,-2.075417,0.55078477,-1.3246624,2.1390676,0.19862042,-0.4498311,-0.6115953,1.2289597,0.23218876,-0.5316113,-2.3976922,0.34731942,-1.394559,-0.65042114,1.386403,1.3972018,-1.994401,-0.14300925,-0.49673593,1.2601413,0.41040948,1.1938297,-0.23410763,0.6523505,-0.18123886,0.49014458,0.23146206,-1.0022486,1.1180989,0.6701599,-1.0298291,0.5910869,-0.55641806,1.1911285,-0.7534781,-0.19219962,2.2584646,-0.9271333,-0.7367767,1.0022315,0.09343203,0.2861047,-2.0366776,-1.9359878,0.45404685,-0.7222354,-0.21839543,-0.43349335,0.29693553,-0.09759894,-0.6574203,-0.8687995,0.9514938,-0.8887103,-1.0952344,0.057436742,-1.4955851,-0.7484042,-0.84603167,-0.75671595,0.930336,0.95215803,-1.9257714,0.901914,2.0012004,0.26179552,0.7256,3.6092348,1.0628291,-1.5076536,-0.90452147,-2.3409011,0.808305,0.7965908,-0.40852153,0.4668059,0.767509,-0.49749303,-0.27627033,-0.99482554,-0.5620706,1.8582073,-0.31415057,-0.18800375,-1.0556809,0.8221968,-2.1763234,0.038882602,-0.23769186,-1.0942879,0.63358235,0.62849253,-2.4822125,0.43502432,0.057821345,-0.14616796,2.1506221,0.49570882,-1.8593873,-1.1763186,0.39215598,-0.51330453,0.5694678,-0.60622764,0.51334196,2.223987,-0.68063384,-1.3894793,1.6149825,-0.46817973,1.1645987,-0.17437571,0.61666673,0.33394983,-2.3487093,0.10939937,0.35296202,0.18142125,-1.9246181,0.606244,-1.1439418,1.1844393,-2.535725,-0.84761906,0.03817708,-0.7746692,2.929899,-0.027705304
bitter,-0.051277865,0.4545297,-1.2263706,-0.87212497,-2.7696223,0.8332773,-0.1807074,-0.7231474,-0.7582924,2.5388079,0.32274607,0.15197535,1.0372597,2.7440307,-1.0529932,0.72648275,0.09964461,0.34737167,-0.24780457,-0.058198627,-0.5645126,-0.6148528,-1.0722853,-1.8613849,-2.1592546,1.7773598,-1.5692854,-1.6979754,-0.49248382,1.895753,0.11069659,-0.12907436,-0.55762506,0.06478704,0.28374705,0.62573063,1.4356651,2.153865,-1.1664007,0.24788968,-0.9496432,1.7455467,-0.037034396,0.68270105,-1.7818184,0.08284409,0.44854042,-0.8652923,0.44290164,-1.9160587,1.9168024,0.43688613,-1.370157,0.09699988,-2.5896184,0.040427066,-0.9181747,-0.636852,2.0052738,1.4251162,-1.3097303,0.19662724,0.13358845,-0.40868336,-0.8867087,-1.0823817,2.01947,-0.31714284,-0.0906678,-1.713003,-1.453854,-0.6669741,0.4530435,-0.45676628,0.6364952,-0.13757753,0.092905685,-0.43609092,-0.85667074,-0.13526973,-1.0593985,-1.2666557,0.6951425,-0.08250285,-0.5802725,0.5068252,1.5514235,-0.58025575,-0.8910244,0.8830325,-2.4691453,-1.3433789,-1.5921873,-0.97454965,-0.89481777,2.4691105,-1.2518297,1.4533949,0.37983757,0.28215444,-0.9453104,-0.5952142,-0.049435932,1.3298137,-0.26814705,0.29571676,-0.5335329,0.5633776,0.75535595,1.7619292,-0.60107654,1.7443221,-0.38584793,-0.6393401,-0.50603646,-0.89236575,0.75274307,0.26290497,1.913897,-1.0520991,-1.2517173,0.06578459,0.13750766,-2.4021614,2.0021877,1.1301937,0.5783439,-0.48097417,-2.0506892,-1.5710355,1.4535893,0.3813775,1.0017005,-0.7843743,1.8894922,0.49769226,-1.6826264,-0.40701875,-0.093558975,1.3266373,-0.35325688,1.3134105,0.9208965,0.10050907,-4.008708,0.7338296,0.42562476,-0.04448364,1.1041871,-1.3628913
longing,0.2783788,0.13725583,-0.5920196,-1.3543543,-0.85308474,0.45897278,0.09652492,-0.72216946,-0.7088219,1.292811,1.2311316,1.7423933,-0.90381294,1.548215,0.23104294,1.2523025,0.47890604,0.59706795,1.0022546,-3.1362536,1.6307092,-1.4900819,1.052873,-2.1281333,-3.2934191,0.73331976,-1.4076875,-1.1560869,-0.798808,0.8700108,1.4075885,1.7591788,-0.31872106,-0.6642849,-0.5766678,-0.5198752,3.0887868,0.521102,-1.0979369,-1.4398632,-1.0677452,0.4408807,-0.83944577,0.9765107,-0.12770937,1.0523015,-0.41275346,-0.72202593,0.28068566,-1.2867969,1.3648366,-0.15958698,1.759317,-0.041576505,-0.40083903,-0.49152124,0.26409426,-0.6248586,0.4036258,-0.63529646,0.29577833,-0.86913246,1.6941059,0.24582042,-1.8672876,-1.4513184,2.3131967,-2.0986445,0.11305511,-0.5173806,0.034068607,-0.50967264,1.8662703,0.47646853,-0.87324846,0.9409851,-1.3693335,1.7947023,-1.116503,-1.1058123,-0.5042012,-0.063365154,-0.19685023,-0.056144197,-0.6987487,-0.89332426,1.9194822,0.24207865,-0.30251285,2.3684173,-0.62355,-0.28433415,-1.0815312,0.0731453,0.4727262,0.721942,-1.7960448,0.9348396,0.42629352,0.108616896,-1.7665036,0.25435016,0.8120867,2.915279,-1.8048698,-1.3843975,0.49076757,1.2541167,-1.6496397,-0.5433495,-0.31163862,1.1021539,1.2814717,-1.5365653,-1.1490448,-0.517951,1.1359113,-0.16036484,2.7867842,-0.6519272,-2.950485,0.21769142,0.60050935,-2.936168,0.9836371,0.4082961,1.6393344,0.714104,-1.7557956,0.5106528,1.5723165,2.1206102,0.41650397,0.6851385,-0.30668554,0.5472728,-1.3107989,-0.45989433,0.49172562,1.4301195,0.6023606,-0.59758586,2.5941043,0.7928763,-1.367105,-1.9171395,-1.0202205,-0.4602236,1.6943467,-0.9889533
hypnotic,-1.4443508,0.23636147,-0.8636604,0.400092,-2.3435907,0.91850686,-1.6026847,2.8323638,-0.6631266,1.6939527,0.78687847,0.19087042,0.20261616,2.0470707,1.7101524,1.0105007,0.24653874,0.5167266,1.1904495,-2.4799097,-0.019066442,-2.4737685,1.4382558,-0.66059685,-2.0375443,1.0143044,0.1208574,1.3095164,0.87320036,1.7678814,0.07201869,0.9889307,0.2266585,0.07556454,-0.2070595,-1.3222353,-0.020354323,2.3649383,-0.71028674,-1.3479557,-1.3638949,-0.5622228,1.2199476,0.34341994,0.4064416,0.41688567,0.297346,-1.260374,1.3204371,-0.54358023,1.3225417,-0.37884602,2.105085,0.4774363,0.44999826,-0.8993069,0.15490264,0.62789434,1.2843269,2.0752225,-1.4443045,1.4339584,-0.60129696,2.2127767,-2.8784149,-1.2299812,1.9997431,-0.32320195,-1.2562691,-0.054742735,-2.4004524,1.5765023,2.2509549,0.07829555,-2.0318453,-0.9098983,-0.3314661,-0.32727107,0.097586446,0.18280967,-1.1418346,-0.01160754,-0.977235,2.5155373,-1.0229968,-2.5489922,0.88716745,1.6927464,0.29763958,1.9330145,-1.8767796,0.87756217,-0.21538575,-0.3088575,1.6696218,1.70173,-2.8780909,-0.013824723,0.30024216,0.20774913,-1.3883028,0.59976435,1.019725,2.0569968,-1.0409414,0.021226479,0.0612045,0.87475246,-0.6598463,1.81804,-0.2175518,2.0893745,0.97046095,-0.47029692,-1.2140185,-1.3570255,2.589629,-0.5182477,-0.14938201,-1.3829455,-0.3869483,-1.9248261,1.100822,-3.5460315,1.5453097,-0.4075216,-0.6379002,-1.1704103,1.4811442,-1.7627347,1.7528402,-0.22033109,-1.8289651,-1.1567899,0.9545329,0.34468663,0.88930947,0.4505953,-0.5977552,2.085378,2.4010627,1.0880126,1.4158846,0.7407539,-2.4692645,-0.6712068,0.24735722,-0.8023325,1.6151164,-2.5118833
serious,0.30206504,-0.5095893,-1.3449322,-1.6556464,-1.3658862,-1.1167591,0.25733975,0.08343405,-1.2557015,2.628285,1.3621316,2.2611024,-0.51560056,0.9486273,0.0007849824,1.4537835,1.9330078,0.8433157,0.9221306,-0.9110235,1.0574517,-1.8201711,0.39101103,-1.2819108,-1.0897055,1.9633844,0.48971507,0.38274118,0.117446005,0.34172642,-0.39763227,1.2695402,-1.2439337,1.7291238,-0.5146121,-0.9142028,1.699295,0.62452555,-0.43162712,0.004430488,-1.7721496,-1.4476933,0.077012524,2.3029437,0.30274138,1.3226662,-1.028557,-2.8399222,1.0818622,-1.1998574,1.5293692,1.1340683,1.0833416,0.34615758,-1.0381203,-0.31839845,-0.2755593,-0.5811291,0.014328322,-1.8281863,0.01160779,0.6147509,0.49846798,0.5313436,0.12292448,-1.8796325,1.8747623,1.2985272,-0.13329522,0.21769816,-0.845238,1.4217243,0.38910443,1.0287017,-0.92007977,0.87357044,0.10539641,-0.24690324,0.19850367,0.61754256,-0.20800893,-1.0665514,-0.31220952,0.553875,-2.031982,1.078491,1.3584347,2.1349542,-0.6714002,1.1807791,-1.2443845,-1.3144382,-0.30045253,-2.1805422,1.2033881,1.4528893,-1.8660009,0.7949112,0.23531863,-0.08648699,-2.291921,-0.684425,0.19831419,2.5287793,1.5855755,-0.61778766,0.8938004,0.32186854,-1.6397003,-0.023472,-0.46994764,1.8188467,-0.54734606,1.8244485,-2.3713067,-2.2128758,2.5521426,2.253675,0.208367,1.008918,-0.97982544,-1.67165,-0.39702487,-1.5867609,0.48731238,1.4108166,0.9705595,0.3438706,-0.005464508,-1.8768616,1.0997943,-0.06732749,2.422234,1.1588491,1.4589635,1.1360053,-1.2108287,0.22151338,0.5388552,-1.8823963,0.7071037,0.5874596,1.5159438,-0.5002227,-1.6783625,-0.297414,-1.3792754,-1.819801,1.42183,-2.41726
exciting,0.14748539,-2.058355,-0.8906567,0.46726814,-1.5777595,-0.75827146,-1.9226813,-0.98002476,0.16837592,1.3052753,0.60919166,0.9232197,-0.13285127,1.4687648,1.2386768,0.5892916,2.6099832,0.3088126,0.14246719,-1.8504411,-1.0402327,-2.9285083,0.3141318,-1.0244116,-1.3974016,0.23330207,0.20814915,0.92401975,-0.36579654,2.3246875,0.73142123,1.2969483,-1.5084277,1.9341582,-0.2675278,-1.0279065,2.490306,0.33790764,-1.020813,-0.5818197,-0.92508477,-0.47033098,1.3948597,-1.6597012,-0.60031325,1.0388592,-1.123499,-1.4659215,-0.14232144,0.0071711233,1.4317173,1.0118815,-0.2640237,-0.35129774,-1.5797379,-1.4874575,-0.5467278,0.6197887,-0.36212042,-1.2003673,-0.7347412,1.7447044,0.46449915,0.044086568,-2.5197864,-1.5860178,2.8869364,0.8143482,-1.7662109,-0.012559839,-0.5976773,-0.62397504,1.5377115,0.62487847,-0.44053677,0.5215858,-0.4447665,0.4186675,-0.18424541,-0.62853307,0.75069684,-1.6524386,-0.41239122,1.8912816,-1.1299433,-0.72866017,0.33852145,0.49670458,0.1834726,0.8330601,0.40497696,-0.2800514,-1.1607661,-1.5085378,0.99739,0.4957627,-2.1342874,0.9567393,1.0951207,1.0574648,-0.75792104,0.84177536,0.3969882,1.9013275,0.1612547,-0.5394688,-0.7471534,1.5374062,-0.88831866,0.67326796,0.82497156,1.2654759,-0.6047589,-0.20158997,0.3246716,-2.114559,-0.10363729,0.58349824,1.4471732,-0.27974173,-2.38167,-0.88953584,0.38483182,-2.2425525,0.303629,-0.43761075,0.35444942,0.25809586,-0.40625188,-2.256277,1.7981429,0.17566343,0.54829884,-0.44666985,1.1812004,1.5125257,-0.713641,-1.5255541,-0.5669665,0.68631804,0.4430618,-0.79305154,0.29034752,0.12476437,-0.41142723,0.5449001,-3.081354,0.2831649,2.0352044,0.10858263
cheerful,-0.98009557,-2.3917177,0.77845365,-0.42998785,-1.8072143,-0.4626891,-0.21836635,-0.5385397,0.60243016,2.0601153,0.5638118,0.47529134,0.06142752,3.3167102,0.1658868,1.1669077,1.2938012,1.6089154,-0.07816665,-0.43282303,-0.31417736,-1.5394851,1.0609555,-2.2416587,-1.9994735,1.5320753,-0.0060818424,-0.7905312,-0.9417204,1.4147078,-0.6319044,1.3014443,-2.2751365,1.2861568,0.6876946,1.95827,3.6797829,-0.088363126,-2.871383,-0.20637725,-1.8116251,0.15551959,0.56511796,0.7916045,0.31140146,1.8485466,-0.6554457,-0.1496931,0.7787122,-1.2209772,1.4280733,0.29555795,1.6613592,0.77126884,-0.7987117,-1.7956338,-0.2948061,-0.62251765,-1.229661,-0.47354436,-0.28847295,0.9890336,-0.09970465,0.25781697,-0.4165154,-1.8440397,0.23690742,2.0061533,1.7094278,-0.033466894,-0.25532696,-1.9077414,1.4040647,-0.4370086,-1.400549,-0.8006027,-0.78663605,-0.6195203,-1.1598276,-1.3749096,0.6026415,-1.223535,-0.9024985,1.0147402,0.13546894,-0.50813717,1.4159514,0.19021644,-2.204956,1.9281625,0.53673255,-0.39671773,-0.31504327,-2.1009712,0.57325125,-0.26304254,-2.7253423,0.83122176,-0.6602965,0.04925045,-1.7563957,-1.489886,-0.8426809,3.2916746,-1.8578389,-0.9225032,0.2715016,1.1658525,1.0850388,-0.066728055,0.46409595,0.33461717,0.13465744,0.44611654,-1.820085,-2.0471473,-0.5962054,0.7496517,1.5913835,0.17319395,-1.0708697,-0.3012802,0.7638258,-2.46838,0.34754604,1.271647,0.55321294,0.6429084,-0.4964769,-0.9278418,0.30856523,0.1583819,0.59009606,0.93355656,3.250359,0.6069208,-0.45196587,-0.0440453,-0.865598,0.6589661,-0.067357406,-0.27638692,0.8903285,-0.0183029,-0.8926124,-0.85925627,-0.78420126,-0.5335482,2.8754303,0.53523827
meditation,1.1092563,0.26448783,1.5282849,0.14958946,-3.5748758,-0.23829685,-0.10345582,-0.8764974,-0.31146067,1.0945243,0.00894771,-0.53108186,1.2818805,2.798941,-0.56799954,2.4508584,3.1649733,0.26627675,0.9943716,-1.7181203,1.0034472,-1.0192561,-1.0784026,-1.5162046,-1.8089862,0.69261616,-1.608369,-0.10662553,-0.67201465,4.01263,0.31227005,2.1792548,-0.69834876,-0.28583255,-1.2888503,-2.3126237,2.2978258,1.1764954,-1.3857838,-0.80339235,-0.37770712,-0.1222713,-0.5405277,1.1161528,-0.6385196,1.7415407,0.10642518,1.7648576,1.9012418,-1.055199,0.65073955,0.4222769,0.9828503,-0.6109314,-0.88710856,-0.6707941,-1.0407156,-1.803259,1.4865212,0.6481713,-1.9198252,0.8418516,1.10323,0.5792293,-2.0663626,-1.4433438,2.0264347,1.3538364,-0.41781104,-1.2357645,-1.3882785,0.27701473,1.6328073,-0.5631827,0.073087536,-1.7440896,-0.9052889,-0.9114862,-0.07949718,1.0609154,-0.2616271,-0.04581918,1.1733729,0.45409963,-0.9694777,-0.39216116,-0.11894323,1.9052161,-0.12191644,2.2762618,-1.1655115,0.35882816,0.10080378,-1.8288451,1.3156613,0.181966,-2.0903485,-0.64189774,-1.1070133,1.1606045,-1.4695605,-1.2567025,0.44002497,3.6325688,-1.1306897,0.78044826,0.032020938,0.8360654,-1.7203832,1.7645602,-0.74011356,0.3834856,-0.0843257,-0.33709225,-0.57423604,0.30048805,1.1260512,-1.638778,0.7011955,0.36376938,-1.5704364,-1.2368069,0.6558565,-1.9030983,0.13591643,-0.8039728,0.43796754,-0.2935708,-1.7232805,-1.3710228,1.70518,0.35767606,-0.08817877,0.32922924,1.2156227,0.73711216,1.049228,-0.34537786,0.9313198,1.6863917,0.009937961,-1.6972989,0.3875484,0.7475078,-1.8365152,-1.1683078,-1.0710257,0.04668867,1.565783,0.11341217
bored,-3.6706908,-0.1094228,1.2616655,-1.5421395,-2.5952284,-0.108554244,-0.5600169,0.5091744,-1.3866674,0.9021563,1.4931014,1.2015072,0.8982617,1.9675983,-0.49464953,1.863018,0.21506624,0.79095465,-0.3616802,-0.82727367,0.34158617,0.7823641,-0.4120291,-0.6697949,-3.4604616,1.4077328,0.38525048,-0.11425178,-0.009202371,1.9265044,-0.3578992,1.8937455,0.5912921,2.868123,-1.7691872,1.9038911,3.2236137,-0.11253157,0.5193517,-0.37501255,0.50690126,-1.6189373,1.0032853,2.0238125,0.058651477,1.768863,-0.050349887,-3.020654,2.8149114,-1.7536666,1.7191533,0.80114263,-0.5588748,-0.2784108,0.6577308,0.57063377,-3.456784,1.059943,0.6833737,0.7023275,-1.5991304,-1.5776,2.5913439,-1.0985249,-2.6708112,-1.614115,1.4157246,0.63621026,1.1756288,1.7814593,-2.3747122,-0.22648107,0.5509312,-0.15619296,-0.05245291,-0.75581133,-0.6262203,0.5530366,-0.3148,-0.048950978,0.39084077,-0.3060463,0.41483593,0.7504877,-0.119616956,0.5124489,0.21187295,1.7868589,0.2108775,2.4415293,0.43260184,1.0764321,0.12742811,-1.828443,1.1371633,0.19521552,-1.5823239,2.2052755,1.797277,0.34830838,-1.6706203,0.7162934,-1.4745086,0.89307314,0.5582061,-2.0560246,-0.24009304,-0.40054807,-0.3475685,1.8878415,-0.26274765,0.7623368,0.8951738,0.86218786,-0.7743787,0.33749002,-0.6001331,0.32585427,0.947165,-0.40838584,-0.6037992,0.29901195,-1.2101794,-1.4247923,-0.18186261,1.3811047,-0.6559577,0.27018705,-1.2388933,-2.144553,2.0560267,-0.8010058,2.0405505,-0.10070051,2.0428302,2.1443183,-0.2604192,1.337188,0.7516038,2.0803072,0.0018794948,0.84445924,2.7170484,0.442968,-2.3974433,-0.06745825,0.29924414,1.0287452,2.7782648,-1.8081686
passionate,0.48455358,0.05494377,-0.39007777,-0.6641433,-2.225775,1.7608035,-0.46655598,0.85810673,-1.5005254,3.0243738,0.15149164,1.5017614,-0.3235246,2.9819534,0.24479121,3.196428,1.731836,0.35552147,1.3389801,-1.7934054,-1.1337087,-2.7440672,1.1361322,-2.0498626,-2.0457652,2.2096686,-1.5157549,-0.85010326,-0.92484576,1.7438598,1.4589922,0.47880325,0.34357837,0.44391897,0.4652727,-1.504238,0.6066642,1.2921524,-0.20577843,1.3845404,0.11099295,1.0904653,-0.48283166,0.048768193,-0.5669115,1.4925407,0.9413301,-0.73032326,1.0756764,-2.0007653,1.6413813,-1.9123893,0.8486662,-0.72462165,0.9463248,-0.543583,-0.74010676,-1.560048,0.21378899,-0.78697366,-0.2984898,0.15155004,0.595998,1.5102657,-1.7234445,-3.0909512,2.61614,0.8704833,0.33096465,-1.9641826,0.1832093,-0.61914086,1.7094983,-1.4954437,-0.044321913,0.40236667,0.056319635,0.7568422,-1.6475469,-1.0758044,-0.676102,-0.4309004,-0.78977007,-0.82724124,-0.8331769,-0.005555485,0.6126972,-0.35546637,-0.06502327,1.7230511,-0.66390693,-0.70576996,0.25278935,-0.9025154,-0.40069357,1.8417742,-0.5201467,0.62037456,-0.4504699,0.85729873,-2.2845366,-1.44407,-0.44637054,2.08402,-0.24046275,1.9172872,0.81606895,0.49803197,-0.046169225,1.0822587,-1.076297,-0.55936205,1.5423726,0.6502546,-1.0965725,-1.2780178,0.3021346,-0.50614303,2.3288827,-0.11970334,0.113152735,-0.64997625,2.1293142,-1.2054958,0.5630642,-1.1266723,1.306334,0.61737764,-1.5765148,-1.5120167,2.427708,0.48485267,-0.29702115,0.9643467,-0.058374014,1.1214278,0.3931917,-0.66007763,0.15693349,-0.63248,-1.2368448,0.11363679,0.7940508,0.51076204,-1.1216035,-0.0015064308,0.9423009,0.66181225,2.2076077,-0.55686575
sorrow,0.8587473,0.24214907,-0.7323025,-1.8860782,-1.8110864,1.6208302,-0.38346136,0.7495423,-0.26813325,-0.58972156,1.3006809,0.97630584,1.0558894,0.9416323,-0.48448554,0.5524176,-0.032594528,1.5313171,2.0324912,-1.6018938,-1.416948,-1.7698182,-0.7951258,-0.3820326,-3.2513669,2.362296,-0.6266094,-1.502685,-1.7985002,1.260097,1.9082211,-0.1239608,0.38114673,0.44221842,0.6165119,0.4054213,1.6874105,0.72243446,-1.0933878,0.057881884,-1.2055237,-0.20909345,-1.6834682,0.9354148,-0.6124978,2.252728,-0.90056396,-0.48661622,-0.47182474,-0.69688404,0.7554628,-0.07882721,1.1142117,0.23793153,-0.5962141,-0.36861527,-1.5975238,-1.3536589,0.30647215,-0.5895389,-0.06690843,1.1991879,0.7082589,0.09075149,-1.7864994,-1.1100415,2.623277,1.8094604,0.21792738,-0.47244507,-0.74895704,-2.9094062,0.5794037,0.03899258,-1.1775523,-0.042824175,0.9159047,0.28369248,-0.6251249,-1.3469043,-1.395699,-0.8140044,0.37373614,1.5174654,1.3480597,-0.34403738,1.1122986,0.04256092,-1.1880158,2.5776498,0.26451373,-1.2023715,-0.80810446,-1.189287,0.39301527,-0.20037039,-2.6486132,-0.18637627,0.06787184,0.74104816,-1.8037283,0.32300222,1.3194886,1.4823264,0.23118602,-0.3863527,0.4368997,0.345575,-1.4051663,0.26636302,0.12371827,1.4217966,0.47011274,1.0682626,-3.4211502,-1.7623438,1.9328425,0.7951557,0.050564732,-1.954843,-1.6949587,-0.6794799,-1.1725456,-3.2540307,1.2380112,0.4383225,2.1137865,-0.45430765,0.2013427,-1.9759967,0.5960909,1.4241277,1.2793828,0.44421807,1.7431238,-0.12306605,-1.489822,0.56655335,0.22153388,0.119487,-0.78001136,-0.08120471,2.2048447,1.2913053,-2.887347,-0.80542326,-0.55251116,-0.7200805,3.1604397,-0.5233546
frustrated,-0.76490587,-1.0412971,1.6950376,-1.6299922,-2.538737,1.416378,-0.19234824,-0.32576582,-0.23812993,1.4363127,0.47126353,1.4628935,0.15026551,1.3879075,0.62307954,0.5081049,0.26971892,-0.6359408,0.56307787,-2.6018648,-0.2418373,0.20716272,-0.34142292,0.10438427,-1.5533789,1.4017408,-1.4732511,0.780333,-0.49895528,1.0658717,1.0208153,1.1285263,-0.058598626,0.4060764,-0.48780954,0.24876922,1.8733386,0.33375776,-0.49987423,0.13461655,-1.7525369,0.0068548047,0.72770154,1.2171782,0.16495182,1.6832215,0.16140811,0.52934706,0.4420965,-1.2533747,1.6248499,1.0260864,0.2285103,0.55811745,-0.6747583,-0.9432901,0.058465715,-0.28445968,0.8767821,1.2401375,-0.60346586,0.987657,0.44685185,0.11320481,-1.0019817,-0.3834048,-0.63502693,1.5145994,0.56517035,0.7516736,0.1794792,-0.28528306,0.43883047,0.74196213,-0.2745322,-0.34293452,-1.0188224,0.020027842,-0.36226857,-0.61489356,-0.041379035,-0.4659812,1.343383,1.1517705,0.36925778,-0.42769673,1.2984079,0.14934513,-0.48814064,1.8783534,-0.7776215,0.113344304,-0.2102367,-0.50810224,-0.0028957797,0.78510976,-0.82234794,0.29430068,0.7311718,-0.388609,-1.5295097,-0.5079769,0.17542708,1.1313932,-1.8539652,-0.5209754,-0.10537508,-0.017836638,-0.793499,0.015391721,1.058263,0.23610556,0.34856406,0.28141755,-0.44965312,-0.5284755,0.17061463,0.5752166,0.42026284,-0.43352216,-0.8568199,0.3368699,0.95128614,-1.7540858,-0.32375884,1.9130297,-0.36232737,1.0481728,-0.46924654,-0.6861834,1.039197,0.32042745,0.52425027,-0.4947862,0.56422454,0.7286131,-1.2339307,1.1250604,-0.07540435,0.923776,-1.2510408,0.14414899,0.83671397,0.76357543,-0.66716623,0.32322866,0.8796115,0.20712453,1.3023189,-1.6080619
miserable,0.25600654,-1.4485104,0.13228105,0.8910296,-3.2816467,-0.3182704,0.7478847,-1.3110166,-1.4140753,1.3332955,-0.117543936,0.44546944,0.8687429,1.0306281,-0.013518279,2.212249,0.17212565,-0.17265688,-0.17737778,-0.25328058,-1.8038499,-2.3946788,-0.23738609,0.38251266,-2.4951644,0.7836633,-0.70338637,-1.3742672,-0.528474,2.435565,1.1547868,1.5184107,-0.52452,-0.012043741,-0.25766045,-0.21237864,3.1831765,-0.5411962,-0.6883927,-0.4611055,0.4707006,-0.62647617,-0.850809,0.95297986,0.39421842,2.504459,-0.38990664,-0.56091976,0.7423226,-0.39934254,0.66619617,-0.8088393,0.3227873,0.6460344,-2.8655012,-1.2115711,-0.7686698,0.23617262,0.30382425,-1.8456503,-1.909024,2.1544802,-0.12594086,0.10260348,-0.47441715,-2.6416519,1.697894,1.9302503,-0.52159303,-0.5655341,0.71146894,0.102394536,-0.28720477,-1.2663215,-1.3169138,-1.0836358,-0.24533938,-0.18684602,-0.84016174,1.0495538,-2.1798267,-0.5738344,0.529922,1.5203508,0.6304188,0.8408885,1.4224242,1.0704017,-2.0805902,1.9461081,-1.4215521,0.22178364,0.2122297,-0.94065064,-1.0778022,2.8067336,-1.4038218,1.4146967,0.68853444,-0.25625417,-2.53811,-0.6070455,-0.23712146,2.869788,-0.83713186,-1.5610334,-1.227629,0.01853041,-1.7606053,-0.047913834,-1.7292991,0.59994996,0.3995022,-0.112049155,-1.2993481,0.07670694,1.5186956,1.979647,0.9106112,-1.2524538,-1.6337936,-0.35339507,1.2928942,-1.5555701,1.5858563,-0.28660932,-0.099572286,2.1339824,-0.52733815,-0.5549625,0.576882,0.10691479,1.3208047,0.6774377,0.69591475,0.33729342,-2.3245718,1.5862273,-0.77889216,-0.07176762,0.033514228,-0.40113416,-0.19301046,0.66914684,-2.6538856,0.3908851,-1.920654,1.3458773,1.2670642,-0.5044505
hopeful,-0.861273,-0.058407262,-1.2014484,0.10322129,-0.4787196,0.7136063,-0.6281525,-0.7636413,-0.2878054,1.3971717,1.0142145,1.8889817,0.7164713,1.8023461,0.06654902,2.0612867,0.32780692,1.7135891,-0.009382463,-2.0371878,-0.22577728,-2.019069,0.8250307,-1.4957575,0.24395585,1.2671705,-1.010024,0.2688627,-0.04994062,0.90845644,1.7746567,0.4313692,-0.7753173,0.53518325,-1.6957636,-0.6865204,2.5259051,1.0897499,-2.1105914,-0.23311509,-2.0327618,0.58121467,0.7516982,0.8363943,-0.94825494,0.7437822,1.8549194,-2.2820003,0.71631956,-2.4334342,0.85501647,-1.517757,1.6427779,0.34537157,-1.2167903,-0.61161363,-0.760157,-0.6646266,-0.74989235,0.17123638,-0.49499065,1.8590099,1.118672,0.42315117,-1.7254688,-3.9089665,2.624237,-0.15961568,-0.94053286,0.16993617,-1.2066915,-2.3499541,0.9131761,0.022567337,0.93234867,0.8161568,0.38764504,1.0138302,-1.3254291,-0.5055319,-0.338301,-0.08063586,1.6281736,1.1374818,-0.098656766,0.052866608,1.5306157,-0.6284128,-0.39867735,1.3419815,-2.0325177,1.012228,1.0818489,-0.47031367,-0.4065561,1.83553,-2.403922,1.2772223,1.0828586,0.7545093,-1.2961752,-0.2148914,2.2409105,1.8091697,-1.7995776,-1.149306,1.0345452,1.5426167,-0.33207142,0.8832235,0.24617693,-0.6767834,2.2147276,-0.23001012,-0.4137455,-1.3310213,1.3019469,0.7777764,0.8844847,0.038522903,-0.96569026,-0.12323273,1.2102206,-1.6881411,0.89939046,-0.058063485,0.3533283,1.3938972,-0.44147035,-2.3202155,2.8914752,1.5283164,0.99515724,-1.443723,0.6170735,0.5444948,0.22253938,0.436079,-3.3060877,1.0917757,-0.40861762,0.718519,0.32018545,2.046677,-2.6072254,1.2701044,0.940329,-0.40305352,1.2560141,-1.153219
heartfelt,-0.3970201,-0.20283782,-0.23481438,-1.4462451,-1.6107124,-0.103639096,-0.3035053,-1.2294648,0.121075645,3.4697435,0.8634411,1.6308486,0.019552477,2.6785107,-0.14678945,1.4742515,1.8139759,-0.6945702,0.29445797,-1.1218354,-2.2224414,-2.7089725,-0.23365483,-1.769716,-1.5561755,1.988589,-0.5217258,-0.21439435,-0.35371357,2.2612534,-0.122897625,2.289095,-1.8310597,0.1092828,-1.5129088,0.29600966,1.4031713,0.8348936,-1.9658945,0.59577525,-0.7184684,0.7026943,-1.1115552,1.2655089,0.2404665,0.4968004,-0.7341318,-1.1018946,0.36957425,-0.93419206,-0.58244556,0.35073978,1.4954746,0.38988912,-1.0032481,-0.998649,-0.685811,-0.4650973,1.4833151,-0.6136991,-0.15491109,1.1424538,0.44860476,1.2755686,-1.6148034,-2.9272747,0.50654745,0.69203675,-0.66323847,-2.5385013,-1.3500879,0.046419684,-0.5449857,-0.53762,-0.7157497,0.35433874,-1.8338264,-0.4618054,-1.392303,0.8996452,-0.3891358,-1.8809421,1.484264,1.1272231,-0.1011999,0.06723825,2.5230465,-0.68404317,-0.09395375,1.7944006,-1.0792149,-0.25794294,-0.666441,-2.1266682,1.2136563,2.5237992,-1.9157919,0.7870154,-1.2438552,-0.23596215,-3.467173,0.014191649,-0.633965,2.751916,-1.2374285,1.0008863,1.7337588,1.0491415,-1.0575258,1.0012453,-0.119391255,2.60655,-0.7365702,0.52055025,-1.5794514,-1.5162617,0.94705445,1.1125591,0.8868969,-0.65502656,-0.07437606,-0.63181317,0.382454,-2.0817657,0.09710433,0.9354597,0.5689746,1.2962222,0.8111904,0.8151649,2.625562,1.5723209,1.0764012,-0.791882,0.3820429,1.7922162,-0.9417559,-1.2609965,-1.213944,-0.61655515,-1.5900017,-0.3371544,1.7864124,-0.17623183,-1.2215521,-0.17033966,-0.15664558,0.19649982,-0.4539316,0.37118366
interested,-0.11446613,0.95437694,-0.5426087,-1.2039207,-2.4637747,0.97566444,0.11626314,1.2999094,0.6488376,1.0395359,0.21671078,0.03435719,0.40425795,1.3750653,-0.013090836,1.3594077,0.45064342,0.17125227,0.60216683,-1.9340278,1.1119671,-0.30337998,1.0541471,-1.1300925,-1.6983927,0.83618426,-1.9247283,0.34384117,-0.76528513,0.22930966,-1.0885231,0.75995505,-1.0725789,-0.33171177,-1.0148007,0.9870331,2.9840355,0.9326394,-1.4870534,-0.48680088,1.0448784,-0.65930396,0.35911563,0.14803025,-0.64699715,2.5169542,0.46179363,-1.772615,0.97646534,-0.2853349,0.2976107,-0.8970302,1.2664331,0.26350614,-0.15509255,-1.2926112,-0.8264986,-0.74498844,0.39854616,-0.20486666,-0.2215244,1.0972723,-0.9332946,-0.7156868,-1.8526274,-2.944241,2.0923302,0.123212345,0.43341273,0.646021,-0.77141756,-0.69257474,-0.9570495,-0.2045134,-0.124731,-0.19834705,0.30568632,1.6486386,-1.838238,0.48052564,-0.4689702,-1.0418334,0.21867976,-0.8782811,0.46904385,0.49622783,-0.42848963,-0.11530203,1.2805384,2.808215,-0.5389129,-0.899518,-0.22539383,-1.9567895,-0.86749357,1.7948484,-0.652431,0.3449511,0.7148414,-0.10701856,-2.110534,0.2521745,0.6188502,0.31241083,-0.60507727,-0.7244649,0.62325144,1.4419789,-1.5248784,1.024541,-0.3874035,0.967113,0.3640919,1.3269392,-0.07946336,-1.2999216,2.6774287,0.18099512,1.3349578,-0.5009479,-2.510703,-0.4893818,1.0959872,-1.8101189,2.4520726,0.35132504,0.6869153,1.181414,-1.0109069,-0.85096526,2.9138565,-0.4188102,-0.056425758,-1.4462947,0.4393458,0.5754792,-0.6988877,1.0962936,-0.56463933,0.4787139,-1.3449204,0.6747351,1.6067548,1.4053088,-2.3453736,-0.004920589,0.31750384,-0.5453342,1.3920407,-1.2555939
comfort,-0.7722685,-1.0708573,-0.7123233,-1.5380856,-3.2768075,-0.3307406,-0.9883125,-0.26804343,-1.5283301,1.6607049,0.23036219,-0.8922539,0.5145659,2.0193799,-0.7640526,-0.8019204,1.8310257,0.5713504,0.622057,-2.42402,-1.4673581,-2.8447433,-0.7836376,-0.8257693,-1.6899784,1.4056481,-1.6252009,0.40895703,-3.9016335,0.9487186,1.0198884,1.3870561,-0.16056846,1.386143,0.21154226,-0.074802324,1.9995073,1.116611,-0.55318654,-1.598492,-0.0586925,1.0810848,-0.89704293,0.15446149,0.59884346,0.7128653,-0.018833458,-0.53067786,0.9284498,-1.0842595,0.48929614,-1.544265,0.6647743,-1.4513434,-0.67992103,-1.6674683,-1.7964739,-1.0639259,-0.13628359,-0.46004084,-0.7328151,-0.051082607,-0.65593225,0.7942501,-1.0564334,-2.0575268,2.920541,0.5167249,-1.9842176,-0.76509994,0.1486253,-2.49839,1.375888,-0.19041434,0.42645824,1.9384521,0.2966788,0.9688365,-1.2458594,-1.1147363,-0.5877823,-1.897436,1.695891,2.3986092,-0.15291888,1.5167819,1.8495357,-1.594248,-0.656812,0.6157294,-0.5204729,-0.74906033,-0.46024624,-1.0553018,0.6851968,2.2948096,-0.98698044,1.3168682,1.11724,-1.1976038,-2.4058564,0.33226988,-0.26357827,2.235928,-1.2665586,-1.9349601,0.8314608,1.1930494,-0.84370077,0.052715957,-0.73215926,-0.2486267,1.3398119,0.14170587,-2.0165408,-0.31287497,-0.7274249,-0.21260142,0.79671395,-1.2446718,-1.1783779,-0.33565828,0.648177,-2.789474,2.5853317,-0.34401315,2.5125434,0.8375257,0.79609305,-1.0970777,0.9895072,1.1506125,0.020386102,0.39263484,-0.12280389,-0.005940315,-2.547816,0.0640313,0.06660847,0.99913955,-0.17063469,0.3232735,1.2635012,0.9315699,-1.6854347,-0.44471574,-0.7124858,-1.546842,1.2610912,-0.9967843
ambition,-1.5190035,-1.0460229,0.055579174,-0.35889474,-0.3949189,0.49513498,-0.015884558,0.16538852,-0.69604963,0.22445896,0.3738459,-0.4515474,0.95640457,0.73964953,0.76805824,0.6979375,1.4580398,0.0076726065,-0.39389682,-0.34145328,0.022778425,-0.75248283,0.37345976,-0.30433333,0.33688602,1.5545923,-0.84466255,-0.27153093,0.043975294,0.15795363,-0.122885294,1.3238955,-0.5343113,0.5058829,0.97238886,-0.62361014,2.54148,0.09725097,0.8434613,0.12156343,-0.02849667,-0.52977324,0.8559139,0.9590172,-0.05867188,1.0234544,0.3648123,-0.58758706,0.28272334,-0.15878513,0.654137,-0.81244093,0.80045325,-0.44284996,-0.37197554,-0.1703554,-0.9096155,0.8588032,0.82442504,-0.13947204,-0.84590375,1.4944205,1.7849951,0.26427642,-1.331121,-0.17292494,0.39702252,-0.11457444,-0.37088358,-1.433045,-0.7577111,-0.6158321,1.6142395,0.24005952,0.20032586,-0.018644601,1.1160485,1.1147492,-0.18824787,0.021049444,-0.70109314,0.63853985,0.48407835,0.4844598,-0.8440846,0.20414087,-0.18322222,0.38926208,-0.4217881,1.1705768,-0.578672,0.4840745,-0.2334951,-1.2660023,0.98488826,0.73756576,0.12208146,0.7940038,-0.22055738,-0.42159778,-0.32032654,0.124419905,0.59849364,1.8337407,-0.96491265,-1.0537628,0.18894292,0.056146447,0.45448086,0.1696778,0.9582328,0.05286932,0.1506603,0.5353012,-0.5148492,-0.6321446,0.10013043,0.111699656,0.4243793,0.10324598,-0.999911,-0.7690829,0.3304031,-0.8398547,0.571675,1.0914289,0.3069621,2.0020885,-0.24379162,-0.5979286,-0.48014507,-0.10010963,-0.07164292,0.9520199,0.6459336,0.3580766,-0.24839798,0.20585501,-0.28289378,1.0056363,0.3277562,0.87077844,0.14334212,0.4972518,-0.6531936,-0.13074948,0.18067968,0.19804941,0.81240237,-0.21834406
