term,v0,v1,v2,v3,v4,v5,v6,v7,v8,v9,v10,v11,v12,v13,v14,v15,v16,v17,v18,v19,v20,v21,v22,v23,v24,v25,v26,v27,v28,v29,v30,v31,v32,v33,v34,v35,v36,v37,v38,v39,v40,v41,v42,v43,v44,v45,v46,v47,v48,v49,v50,v51,v52,v53,v54,v55,v56,v57,v58,v59,v60,v61,v62,v63,v64,v65,v66,v67,v68,v69,v70,v71,v72,v73,v74,v75,v76,v77,v78,v79,v80,v81,v82,v83,v84,v85,v86,v87,v88,v89,v90,v91,v92,v93,v94,v95,v96,v97,v98,v99,v100,v101,v102,v103,v104,v105,v106,v107,v108,v109,v110,v111,v112,v113,v114,v115,v116,v117,v118,v119,v120,v121,v122,v123,v124,v125,v126,v127,v128,v129,v130,v131,v132,v133,v134,v135,v136,v137,v138,v139,v140,v141,v142,v143,v144,v145,v146,v147,v148,v149
chill,-0.20692924,-0.9347146,0.06228974,-1.4950792,0.8657271,-1.7334288,0.3470223,-0.5222739,1.0452617,0.59691465,0.14638554,0.13039605,1.0080829,0.71996224,1.9100773,0.49801707,-1.03959,-0.5296569,1.2523994,0.636888,0.052739855,-0.94819057,-1.9652756,0.7661368,-0.8681851,-0.16984266,0.4091785,-1.4462776,-0.48820078,0.56763214,0.37740073,0.3048363,-0.8006127,0.0102395965,0.65579724,-0.12104507,-0.4962008,0.17479609,1.773104,1.7188094,0.57479125,-1.2819248,1.5415919,-2.1127775,0.94117653,-0.3857715,1.9951488,0.4865464,0.28248036,0.14718731,1.8101768,-0.63945353,-0.85285026,-0.9657635,-1.7650689,0.67799485,-0.42397574,0.09111657,1.9964149,1.2947984,-0.409804,0.65599394,-0.1380345,0.014502612,0.040972408,-0.6368069,0.88142794,-0.02253725,0.4993302,1.8661512,-0.4466746,0.5735911,0.54826504,-0.50326186,-0.2634269,0.09763523,0.022893628,0.3302408,0.16195713,-1.3526739,-0.60367656,-1.0282385,-0.49469596,-0.2770256,-0.5384973,-0.15428181,1.4151145,-1.2689164,-1.3536241,-1.2636713,0.10597838,-0.4949825,-0.46020555,-0.5310709,0.30952474,-0.6381773,-0.80888486,0.20131963,-0.34271613,-0.2120697,-1.4439229,1.9012119,0.73037416,-3.3632073,0.35603756,0.77228117,-0.29468387,0.98669815,-1.3257465,0.7948139,0.12092874,0.45037276,0.18772033,-0.48267338,0.08122055,-1.8739649,-1.3369168,-0.7481051,0.71204543,-0.6252722,-0.38210145,0.33614704,-0.4504546,0.5129834,-0.44705868,-0.6085991,-1.067749,0.44407344,-1.608026,-1.3079137,-2.1425476,-0.08154384,0.6513727,-0.0629967,1.4766648,0.5092269,-0.28375268,-0.069743715,2.2426655,1.8688982,2.128471,-0.40769354,0.47192985,1.1420857,-0.26350403,0.3491345,1.1944518,1.7891141,1.5654017,0.28629506
mellow,-0.03555352,-0.6201892,0.38628888,0.5719472,0.92915946,0.0151913725,1.3381711,0.064724445,1.0125048,0.45266253,-0.2563091,-1.4556038,0.7448757,1.3331407,1.8912147,-0.5770288,1.1115661,-1.0383697,-0.3181936,-0.18255869,0.8074197,-0.682486,0.2091673,1.0392914,-0.28554896,1.0296539,-1.5822495,-0.19355936,1.5331048,0.46106082,0.726429,0.07419961,-0.33795428,-1.3999417,0.54585296,0.25432658,-2.0148923,-0.85125554,1.1109856,0.66871744,0.11579164,-1.4958172,2.4974062,-1.4906617,-0.1605443,-1.4220537,1.8975466,1.0386025,0.832274,-0.5542426,2.406087,-0.24111329,-1.5645826,-0.10801329,-0.34484965,-0.4557249,0.35627007,-0.09243903,0.5668614,1.5436422,0.56956846,0.6512358,0.28714883,-0.18621397,0.034825843,-0.6461403,1.2554301,0.8023652,1.6042454,1.7279541,0.74528265,1.0465605,-0.09642254,0.06462903,0.58858913,-0.9563624,0.51198125,1.6143074,-0.87063813,-0.52089626,-0.27661616,-0.9730505,0.48216218,-0.040565394,-0.7153156,-1.3959057,1.0174785,-0.683605,0.04872376,-1.6048354,0.6470135,-1.0924999,-1.5592004,1.069272,0.5866474,0.8062129,-0.67479765,-0.24202974,-1.027973,0.3372328,-0.628376,-0.16111442,0.70228153,-3.0254838,-0.75428545,0.8722778,-0.34333608,0.51695883,-1.1117917,1.7778379,-0.6601712,-0.18717475,-0.82767504,-0.8428777,1.0041873,0.054410245,-0.7526901,-0.6475374,-0.14086288,1.0229788,-0.44565073,0.6103682,-0.40693322,-1.0346242,-1.815134,-0.07844456,-0.8936328,1.8034326,-1.5691183,-2.5127919,-1.1782889,0.14004625,0.7315206,-0.16153868,1.8626782,0.5826972,2.2729003,-0.07399479,1.4305863,0.05267719,0.6205695,0.40898877,-1.0306561,0.87490076,-0.19909985,0.78065753,0.84884876,0.72444636,-0.71704173,1.8519925
relax,-1.2319591,0.29592857,0.18923207,1.0987134,0.48375863,-1.3380504,0.78831726,1.2974594,0.7776745,1.0564281,1.3043141,1.0013813,0.16666277,2.057603,1.4874668,0.06058101,-1.0867167,-1.874163,-0.26086983,0.97135186,-0.9220258,-0.24761558,-1.0104105,1.4954249,0.09530872,0.84109235,-1.2822202,-0.3063367,-2.0290956,1.666609,0.95599145,-0.8503462,-0.84465843,-0.8917152,-1.2043514,-0.6931018,-1.6609557,0.38584444,1.1487863,-0.04030201,1.7249262,-1.6696297,1.8949004,-1.356717,0.30211934,-2.3579645,0.51156616,0.9629797,0.036573645,-0.3473723,1.6386564,-0.14797334,-0.35014606,0.19851694,0.43714267,-0.31708097,-0.94215614,2.656661,2.0566628,1.8692929,0.8058161,0.016239328,0.2778967,-2.0458713,0.0016180661,-0.20925781,1.6251104,0.55240947,0.25220567,1.8679667,1.2704601,0.9628912,1.6269451,0.6007357,0.2768188,0.11428209,1.4937539,0.6906712,-0.80806476,-0.39023086,-0.42026433,-2.2843623,1.2103721,-0.71405965,-1.0398885,-0.14635886,0.13620716,-0.032709602,-1.0312232,-0.41361952,1.1325101,0.81994015,-1.455032,1.1941456,1.2484852,-0.24445643,-0.8575219,0.44363216,-0.8204205,0.059746478,-0.62884367,1.6863457,1.0249882,-2.4621036,-0.3305964,0.20518167,-2.0284457,-1.2080891,-1.7009785,1.9487863,0.40288,-0.14248188,-1.1715134,0.79686964,1.825724,-1.9590415,-2.9105682,-0.45778975,-1.0860883,-1.0570803,0.11859084,1.641877,-0.75824875,0.93186116,-0.6362355,1.7680379,-2.091329,0.8071235,-2.0785625,-2.4263217,-0.18728969,0.33686844,2.7886996,1.0561848,1.6430652,-0.8144284,0.50145143,0.2042425,1.5301292,-0.792565,0.23590724,0.2551733,-1.3212394,1.5736692,-0.909533,-0.8427056,-0.8940651,-0.44245243,-0.44090283,1.42401
upbeat,-1.0642477,-1.3282566,0.8606172,0.6231329,0.69127756,-0.05339498,1.8564606,-1.0876473,2.4474552,2.6317513,-0.17066017,-1.3811904,0.01115049,1.4074701,1.1443148,0.017156148,-0.7138951,-2.0669076,1.1236123,0.5920811,-0.4677138,-0.83149165,-0.3036379,1.5833964,-0.4379589,-0.32657763,-0.07157595,-0.2747353,-0.9554363,-0.51765764,1.5694883,0.64227974,-0.66028965,-0.25872043,0.9623438,1.1318227,-1.994484,0.059798215,-0.3766698,1.1108881,0.26939335,-1.3739216,2.890601,-1.1551235,-0.2645518,-2.0565317,2.8668282,-1.3126903,1.5808952,0.21717705,2.1696515,-1.3752198,-0.49581203,-2.134945,-1.5651782,0.15083311,-1.0845573,-1.0153756,-0.42975494,0.9898331,0.28298694,0.8102313,-0.086459205,0.8287574,-0.45836347,-0.25724632,0.15927488,1.4337496,0.17209674,1.1915954,0.5605537,2.6195912,0.5362458,-0.27770644,-0.49076423,-1.254847,0.49176514,-0.7922336,-1.6538469,0.18465564,0.13974647,-1.7007481,0.49218038,-0.32355958,0.03140371,-0.6736209,0.29846752,2.3133683,-0.83041275,-0.89569765,0.4654494,-0.8429798,-1.6049018,1.4296262,1.3681138,1.5125567,1.0054706,1.051507,-1.1393108,-1.1447566,-0.6953039,1.3364499,-0.3570825,-2.347971,-1.2619526,0.33445716,-2.3666182,0.23711672,-1.4066595,1.034625,-0.5451838,1.7246498,1.1387424,0.2610579,0.9402069,-0.27545118,-1.6078905,-1.3585637,1.7039268,-0.32058966,-0.2076973,0.25632283,-0.70460945,0.11752175,-0.5122007,1.7607925,-1.3918523,1.6311244,-2.0049942,-0.35934934,-0.7777727,-0.43648517,1.4750875,-1.1213828,1.6729289,-1.0156609,-0.6854739,-0.85761535,-0.035311613,-0.6317563,0.82676303,0.547822,-0.50142884,0.49826628,-0.705042,-0.032251168,1.3096954,0.8208207,0.53064996,0.76125073
smooth,-0.8249566,-0.5712023,0.5500646,-1.4543276,1.9463377,-0.30966267,2.6581364,0.6607725,2.4500723,0.86458105,1.1407224,-0.8229162,1.0877008,0.2995301,1.729327,-0.54487544,0.5588781,-1.43258,-0.24403155,0.4100106,-0.03904962,-0.6806597,-0.6940692,1.3816639,0.9702478,0.045285206,-1.2458159,-0.09535379,-0.6408946,0.8433498,0.13895702,0.39513057,-0.54203117,-0.5893663,0.5015311,0.9207879,-0.46132457,1.3461586,0.80620795,0.44864726,-0.14259104,-0.91202027,1.738677,-0.29362875,0.60711074,-1.536395,1.1257046,0.5169209,-0.4278554,-0.73191226,1.5297427,-1.6499794,-0.69758946,-0.13606584,-1.1459721,-0.67065984,-0.44235092,-0.0143695325,-0.45912984,0.8623915,0.8971614,-0.32999316,-0.093909755,-1.052358,-0.11629725,-0.7151015,-0.29421252,1.4648308,0.82373834,0.8750874,0.6013796,1.5333569,1.8473604,-0.039881684,0.44329783,0.305875,0.54272103,0.62399393,-0.34051445,-1.2529685,0.5628285,-0.8105286,-0.21257778,-1.1599613,-0.057155456,-1.4830488,0.79579586,1.0096031,-0.7807137,-0.8277304,1.138682,-0.36835417,-1.2728152,1.027374,-0.44841373,-0.9778247,-0.16639394,1.0575432,-0.8380244,0.7050999,-2.4436758,1.2470889,0.49166948,-1.0370123,-0.11250082,0.1498137,-0.7222857,0.9493399,-2.2615354,1.6026468,0.26886034,-0.16897197,-0.4615801,-0.9469892,0.36033973,-0.2467878,-0.40373057,-2.1967642,0.6166515,-0.5133568,-0.6749295,0.4820566,0.61405253,1.5060192,-0.27250138,0.6844499,-2.1106033,1.6192242,-2.4535673,-1.9490998,1.0779265,0.17820743,1.685241,0.9968803,0.91531456,0.04967848,0.9642112,-0.18583989,0.25804114,0.21628065,1.9218358,-0.7654282,0.020387873,0.91210353,0.12769324,-1.3820348,0.6968839,0.65692616,0.6710877,1.9825397
sleep,0.17405161,-0.8535401,-1.5580745,1.3569328,0.7173675,0.7408793,0.83164215,-0.13763697,0.75873494,0.8301666,0.5174543,-1.013456,1.5213143,2.0604267,1.3889484,-0.922498,0.62007976,-1.8553766,0.46908438,0.58816844,-0.14331679,-1.8208272,0.37873027,2.596522,0.06508096,2.704196,-0.25525686,1.0453308,1.378007,0.4725898,0.5606191,-0.42589784,-0.05635474,-0.6078558,-0.08102734,0.635333,-1.0400748,1.3111571,-0.1802913,0.53966993,1.2112138,-0.41301662,1.2667427,-0.8834693,-1.4014812,-0.85788995,1.7116064,1.6858371,-0.55458647,-0.8127037,2.4429646,-1.5528165,-0.38727447,-0.06636638,-2.1759245,-0.19694643,0.10031096,-0.28300765,-0.21134417,1.3348975,-0.46217796,0.5804421,-0.13449825,-2.2388928,-0.21022063,-0.68128264,1.0450628,1.97358,0.9337104,1.2227665,0.86205596,1.1103815,0.3500478,-1.5923254,0.40583646,-0.5082332,0.6139886,-0.5709884,-1.3634789,0.40257344,0.2634806,-2.5277498,0.606993,1.8745375,0.7293098,-0.5946589,0.37253985,-1.1100308,-0.5973451,-0.0024973275,0.98595285,-0.9780076,-0.7529294,0.45222872,2.7498367,-0.6075768,-0.66203624,0.10697604,-1.170337,0.33101353,-1.2087532,0.577587,1.1629833,-2.6349666,-0.14812337,-0.06397546,0.14169192,1.1460975,-1.3593407,0.4007166,1.9601349,-0.6620207,0.6492777,-0.9085784,0.7639579,-0.51836026,-3.1633341,-1.0054184,0.56025505,-0.4072478,0.10958827,0.13048886,0.07526019,0.40821496,0.0664945,0.9412631,-1.5891747,2.1658263,-3.9625418,-1.030238,-0.3277463,-0.3256936,0.34335732,0.5364979,1.2709318,0.13356538,0.85044825,0.3052895,1.797983,0.8939131,0.44938588,0.6762608,-1.7549266,0.2675463,-2.0096908,-0.2742139,0.7748775,-0.85368973,2.338497,1.4398307
sexy,-0.57994354,-0.43982026,0.11381158,0.7027548,0.7866964,-0.4835302,0.53771734,1.0515132,1.245661,0.14766358,0.49405307,0.084350206,1.3105615,0.70183206,1.5970591,-0.083958626,-0.06272088,-1.1862131,-1.2550728,-0.2835077,0.76608545,-1.0796314,0.10482203,0.6248199,1.8000835,0.69064283,-0.050105657,1.3282576,-0.1909303,-1.2445226,-0.6049335,-0.88222754,-0.2641215,-1.2840713,0.064281456,0.36128825,0.6138303,1.8636055,1.1473988,1.302504,0.92039335,-1.0873008,3.0263197,-0.71903557,0.8595241,-0.8413472,-0.14976653,0.26151037,0.25722688,-0.49834448,1.8932564,-2.2186418,-0.38939843,-0.99712867,-1.7832514,0.8309219,-0.22035848,0.015312665,-0.8437995,1.1012838,0.11855119,-1.1269339,0.8060961,-1.1851447,-1.1968123,-1.1103872,0.072104804,-0.09907981,0.7776677,0.84673584,1.5407968,0.98739284,0.43476823,1.0187926,0.1255769,-1.2916459,0.0073249796,0.4784071,-0.1602281,-0.4356278,0.041591153,-0.46711743,1.501805,0.63811845,-1.3011222,0.17151943,1.1474019,0.9921794,0.9751377,-0.49026036,0.49601814,-1.2617592,-0.8604834,0.84871185,1.1186924,-1.2475679,0.0943086,0.3578253,-0.46166283,0.79776955,-1.2039956,0.68838984,-0.35622835,-3.0112462,-0.034223046,1.4954832,-0.59211695,0.94523466,-1.0133616,1.5137058,0.30817205,-0.4270338,-0.3154655,0.9000706,0.7965244,-1.3499997,-2.9853556,-1.3531735,0.5442116,0.76524895,-1.1540138,1.0052861,0.737126,-0.2064512,-1.40698,0.6365767,-0.789092,0.73489904,-1.2106491,-1.0426496,-1.38211,0.5124911,0.8427252,-0.30633417,0.89923775,0.18054037,1.1171995,-0.023227857,2.4549499,0.75770164,-0.487407,0.5901857,-0.354892,0.65357035,0.47280192,0.56306446,0.743784,0.6754907,0.5092823,1.7271445
happy,0.23449288,-0.5813238,0.97572803,-1.0395348,0.50673515,-0.5567703,1.179007,0.712268,2.4934058,-0.4547999,-0.7392547,0.48051682,-0.046084646,0.6513869,1.1072395,-0.029759336,0.09438935,-1.3114485,-0.35822344,0.76276594,-0.89291054,-2.5846417,-1.0672221,2.3333178,0.50272435,-0.4991877,-0.35201925,-0.0012489802,0.96365976,2.328438,0.0365067,-0.17220666,-0.6616349,1.1798948,1.3191978,-0.41739494,-0.7436221,0.335395,0.8928913,0.28456807,0.12790787,-0.65303993,1.1851935,-0.45892984,-0.35337406,-1.1566291,0.73870325,-0.25586376,-0.9459955,-0.54160225,1.1805439,-0.57479745,-0.6860522,-0.73845357,-1.2579509,-0.8093513,-1.1657792,0.006553253,0.5445702,0.9249604,-0.032305006,0.0005723607,0.17730731,0.38349605,-1.3784242,-0.8175478,0.6019913,0.93316984,1.7474376,2.365582,0.3116548,1.5643116,1.4765332,-0.32980525,0.07490765,-0.5668407,1.0986333,-0.89128834,-1.1139023,-2.3935394,-0.91732347,-2.0732274,1.1973253,1.1193438,0.8144719,-1.1964647,0.6091159,0.53679293,-0.7382837,-1.1559609,-0.20305768,-0.62201333,-0.462624,0.551809,0.96922606,-0.31278086,0.758705,0.5741815,-0.8844813,0.29464126,-1.3023115,0.30828956,0.52975005,-2.322163,-0.40916938,0.44391006,-0.069827996,0.65934706,-1.259071,0.58905035,0.5169101,0.6953004,-0.3122878,-0.24802826,0.7612134,-0.98504835,-1.3001871,-0.51689273,0.34720093,-0.708011,-0.56906563,0.5559448,-1.6402549,1.0749519,-0.010391506,-0.2276218,-0.809907,0.9523249,-1.6138303,-2.419644,-0.45593345,0.73704743,1.182396,-0.32491174,1.7400333,1.3762475,0.028954517,-0.9798559,1.1293766,-0.33431235,0.59008634,0.3938634,0.26255742,1.0011352,0.34392247,0.4674498,1.0138242,0.7952877,-0.6715229,1.1242988
party,-1.5193478,0.38280785,1.4240135,-0.41042802,0.86108714,-0.24550822,0.54889506,-0.02193567,1.8596758,-0.45198706,0.5096452,-0.95972526,0.51551807,1.0370377,0.79873097,0.4530329,0.91658884,-1.4544632,-0.21171486,-0.058977373,0.103815876,-1.0163558,-0.49219072,1.0780243,-0.5418211,-0.52837133,0.29429293,0.49532557,-0.07043872,1.1038108,0.38114816,0.79725975,0.22624925,0.5368398,-0.013564139,-0.11582301,0.37560406,-0.8385442,-0.030720718,1.2760433,1.2852801,-1.3274542,1.2732598,0.3899992,0.8624278,0.9285906,2.0418904,-1.0656857,-0.57283294,-0.5629615,0.505955,-1.3957535,-1.039145,-0.31297308,-1.1233625,0.6433304,-1.3124332,-0.43206808,1.6210877,0.585187,0.3738002,-0.105540626,0.47816142,-0.56841743,0.3371041,0.122622244,0.8025773,-0.00078417535,0.7704766,1.3320525,0.4886943,0.63382864,0.63312465,0.30116707,-0.06493166,-0.6822816,0.62320596,0.21436444,-0.6101018,-0.48066306,0.88968176,-0.19512582,0.5402654,0.33246437,-2.0487633,-0.86297524,1.3300427,0.0874534,-1.3745583,-0.41827872,-0.12901467,0.47244877,-0.55267537,0.27164468,0.098845616,0.2280332,-1.2327708,0.06284056,-2.0433543,0.10323086,-0.48728204,0.5951781,0.7529726,-2.4741921,-0.09464923,-0.21100466,-0.36365297,0.13523273,-1.6070368,1.238638,0.81743985,0.15921521,-0.22210038,0.54108614,0.789389,-0.8119178,-0.8963239,-1.0534117,0.9294765,-0.018852232,-0.56500924,0.6603216,-0.8057305,-0.017033553,-0.30919558,1.5038519,-1.319682,1.1443362,-1.5450712,-0.6490177,0.03808068,-0.50344425,0.8554134,0.07148006,0.04286659,1.574906,-0.4673115,-0.034769226,0.38554645,-0.9288591,0.41414478,-1.3337424,0.6134972,-0.26483917,0.08212622,-0.86411554,2.0263138,0.24761899,-0.57908803,1.3805279
moody,-1.2926464,0.16073473,-0.75889474,0.40680185,-0.015321018,-0.33920518,-0.19569908,0.7174924,2.2077742,1.5466455,1.9825277,-1.1553742,2.018518,2.3256238,1.9646997,-0.27182212,0.96516055,-0.7392421,0.049016867,-0.62263465,-0.38945588,-0.13075012,-0.6707913,0.8673282,0.032937944,-1.3762728,-0.5168074,0.40442455,-0.07708882,1.266056,1.0367992,-0.5539413,-0.52500427,1.0061895,0.9568176,1.336815,-0.047123373,0.85819113,0.2304028,0.7594728,-0.6421476,-0.96799487,1.4284235,0.090682335,0.71180576,-1.2486349,1.5449702,-1.0909115,1.175645,-1.0512872,2.351006,-1.5400783,-1.9790165,-0.53944147,-2.409788,-0.72717315,-0.7367397,-0.5622658,-0.76355374,1.4850106,0.17110123,0.79102963,-0.81519115,-1.0220915,-0.05128616,0.09093502,1.7948833,0.4645667,0.6664687,1.2498491,-0.18251598,1.8417699,2.0399108,0.993836,0.91691643,0.8401702,-0.3384803,-0.6430654,0.7623308,-0.3646551,0.55750185,-0.960774,-0.33860123,0.27455038,-0.23053953,0.07699368,0.77393794,-0.6180446,-2.3362105,0.12383439,0.6129798,-0.0744942,0.7269137,1.8610975,1.2935,-1.9557902,-0.34311584,1.0908513,-1.3376545,0.05388191,-0.96808714,0.81176615,1.3177184,-3.9968514,0.09488858,0.22110865,-0.25112078,1.2975768,-0.8646347,1.7316322,-1.0584135,0.6052145,1.2268914,0.17640115,0.5707136,-1.7564454,-1.540549,0.2170167,-1.093771,-1.0294813,-2.1134202,-0.05935039,-0.07397805,1.6181406,-0.27774152,0.24481302,-1.2664471,2.1377509,-1.5555917,-3.396325,0.8370345,1.4154756,1.3036801,0.8913202,2.2194605,0.63678527,0.56421214,0.75508654,1.1642479,0.16118695,0.62250227,-0.30752957,0.3100603,1.2667738,0.82114315,-0.7448966,-0.13671623,0.49964577,-1.1885831,1.2073487
romantic,-1.349583,-0.3295726,-0.11772359,-0.14896682,2.0691247,-1.8626676,0.47840264,0.9868327,1.4021225,1.8730619,0.60653543,-0.63993776,0.34667516,2.5576413,3.4165218,0.12838499,1.8363439,-0.9047399,0.98751515,0.19966987,-0.084805354,-0.9165184,-1.8901728,2.1103172,1.2492296,0.21365385,-0.7167074,-0.38573465,0.037991233,0.7567078,1.1217635,0.5584089,-0.66291726,-1.6983291,-1.3912885,-1.2241541,-0.25345138,-0.31593806,2.5876353,0.8378082,1.1655138,0.89524466,2.061807,0.73024106,0.31261456,-0.9099948,2.6095407,-0.75618386,1.3002496,-0.30356327,1.7425747,-2.1174235,-0.78009045,-1.0937495,-0.87625515,0.58512986,0.26602218,0.27904192,1.0605923,1.1877272,1.028555,-0.34216052,0.4404516,-0.5312192,0.31565902,-1.4732397,-0.65325916,1.0527258,0.41347277,2.3014314,-0.5345099,1.1720542,2.0763235,-0.51757306,0.8216617,-1.6666138,1.7641546,0.2341318,-1.3731918,-0.70129997,0.3472077,-1.3095393,-0.044657584,-0.28459373,-0.9389259,-0.2290568,1.2482353,0.39699167,-0.42852685,-0.3538235,0.90584606,-0.21815966,-0.5206724,0.27423215,1.4237256,0.5035432,-0.071617216,0.82378435,0.2432036,1.4869292,-3.3525956,0.67527026,0.28104597,-2.1354907,0.36096734,0.39470962,-1.3913794,0.71531254,-0.77223706,1.1874316,0.40802807,1.19975,0.23775561,-0.66285044,0.106070496,-0.92972475,-0.48654202,-0.07819064,-0.07194803,-0.19232224,-0.94865656,0.30301067,-0.24016939,0.2202211,-1.1925716,1.1188948,-2.6591668,0.48869678,-1.393934,-0.78050816,-0.08731415,-1.2547089,3.52229,-0.2689876,1.9859668,0.29618838,1.321498,0.79279536,1.193461,0.28186,1.7066035,-0.4206929,0.4962608,0.15761408,0.5406255,-0.1260142,1.5143957,1.0638049,-1.422013,0.681403
sweet,-1.0444211,-0.75189555,0.63909024,0.018206866,1.4223744,-0.19285853,0.8515037,-0.50529605,-0.2978127,0.4430113,0.8339786,-0.16564795,0.66736126,1.1583722,0.79741424,0.9962347,0.45810935,0.12856649,0.17175807,0.33647093,0.8397874,-1.2739761,-0.5368421,1.6410134,-0.12974949,0.64999956,-0.8728249,0.08102617,0.12796417,1.0224625,0.9942585,-0.09334279,-0.7554258,-0.3665705,-0.3403269,1.3534803,-1.082567,-0.493558,1.3654405,0.6181745,1.2097551,-0.6311317,0.94097036,-0.53836125,0.5479431,-0.30940434,2.1151352,0.5575714,-0.25372502,-0.8778809,0.49975958,-1.4518201,-0.7852625,-0.35687855,0.13478194,0.17403859,0.7056984,-0.20779565,1.285004,2.7724826,0.3983609,-0.4147571,1.3906473,-0.85233104,-1.6948239,-0.7876644,0.5910438,-0.5597001,0.40791246,2.5046804,-0.10047704,2.0264966,0.08564208,-0.4684801,-0.9644017,-1.1495048,0.00056199444,-0.11981038,0.63015145,0.91712224,-0.1808807,-1.4335887,1.0805688,-0.13005178,-0.4417949,-1.5434841,0.38011104,0.59088063,-0.07838277,-0.7263171,0.16022919,-0.88014084,-0.849367,0.62018853,1.2532032,1.026135,-0.32669348,1.1461272,-1.4987967,0.27159807,-0.097592086,0.2268446,-0.458561,-3.1934621,-1.0552496,0.18644284,-0.0159746,-0.06178638,-1.4943665,-0.38157243,0.74723405,1.2179784,-0.8832169,-0.10520013,0.42673615,-1.0905541,-1.3179256,-0.36661667,0.26306146,-0.6493627,0.13656913,1.0374621,0.19516656,0.7491941,-1.0184661,0.43280897,-1.2327358,-0.11890243,-1.9307091,-0.7458181,-0.48348808,-0.4303734,1.0850333,-0.5824923,1.851951,0.8003542,0.0045616543,1.7439055,0.8313719,0.18118864,1.0974488,-1.5054226,0.18097956,0.7346772,0.20232275,-1.4878683,1.2126536,0.79882014,0.11641324,0.9076682
dancing,-2.0805192,-0.49206766,-1.0363508,0.22185595,0.8940261,-0.53921145,-0.76912516,1.964337,0.6935038,0.28733054,-0.92325157,-1.7137638,0.21479753,0.30033627,1.7577296,0.76170605,0.5139607,-1.6270428,1.3365278,0.4128528,-0.94445264,-0.8676979,0.084082104,1.7063924,-0.9346912,-0.5870692,-0.70251447,0.35031956,-1.6068442,0.3423006,1.3350407,2.0243235,0.2690182,-0.35740536,-0.21645148,0.34738404,-0.61033976,-0.14573465,0.6803585,0.75522906,1.9002093,-0.2176272,1.9269356,-0.4943018,-0.6716877,-0.15926342,1.6406031,0.5936682,-1.3617818,0.45776752,0.39776117,-2.8774993,-0.4804356,-0.061135385,-0.91840863,0.6210589,-1.3567268,-0.20312425,0.6785196,1.7692953,-0.48677057,0.22811612,1.5629752,-0.70031756,-0.66759104,-0.5751445,-0.40101212,0.84286606,0.3347409,0.35327223,1.0873744,0.70409924,1.4068131,-1.0704272,-0.09182382,-0.7158899,0.81048167,0.14729835,0.20182411,-0.41604185,-0.7977535,-1.3754568,1.4228748,1.244754,-0.9301074,-1.213607,-1.104605,0.4802043,-1.9848619,-2.6305997,1.271653,-0.52262783,0.08791899,0.09835192,1.59015,1.4196858,-0.43168697,-1.4917849,-0.12785654,1.0932873,-1.4530594,0.6612053,1.3807572,-3.1790872,0.14422497,-0.3797697,0.052846782,1.499621,-0.8203593,2.4234378,-0.79721165,1.2236586,0.5795783,-0.24786395,0.24993242,-0.99284595,-0.69041246,-0.64431834,0.49414885,-0.29210892,-0.009267405,0.9476741,-0.92959887,0.5925746,-0.17890804,2.399086,-0.6921727,2.037763,-0.8867815,-1.8506756,0.92040616,-0.8242404,1.0329868,-1.1665319,1.1751825,0.57923573,-0.24560054,0.15168707,0.0477762,0.77712876,-0.6471777,0.5061462,-0.038273234,0.38733506,-0.26701504,0.9137669,1.4283527,-0.060956143,-1.5411611,2.456536
fun,-0.9559813,-1.0628012,-0.017324038,1.5172493,0.31471196,-1.3672063,-0.59356064,-0.7084735,1.2158475,-0.78861964,-0.92016375,0.3653663,1.7055521,0.6567055,0.76170915,0.4169078,0.3070773,-2.057986,-0.5636418,-0.66198665,0.36128345,-1.4616466,-1.5303726,0.91702753,-0.5579667,0.26075935,0.14698853,-0.2552321,-1.0432824,1.2918545,0.2200141,0.7926879,0.60605335,-0.5951028,0.72980404,1.4269344,-0.10424914,-1.0089192,0.3754666,0.2775561,2.1579294,-0.17130208,1.6908361,0.18422928,0.8088555,-0.20938377,1.9775531,-0.22822179,-1.2020912,-0.28773955,2.6742232,-1.044807,-0.7686421,1.3658665,-1.6118606,-0.2990776,-1.5874474,1.1737598,0.5779067,1.866977,0.45031714,0.6816593,-0.3310487,-0.44525486,0.010168132,0.07924804,2.100316,0.117519245,1.3610861,0.5785232,0.4015551,1.366859,0.45909357,-1.1796159,0.8008263,-0.94616264,0.066975,-0.51363397,-0.4048564,-1.2621253,-1.915286,-0.6429528,0.4313983,0.55667365,0.21086487,0.030423537,0.07502637,-0.7302799,0.24412265,-0.3631326,-0.5086249,0.6922414,0.3200879,1.1070096,0.74977314,-0.7845802,-0.7311447,0.020931643,-1.5375863,-0.8745793,-0.4701184,0.84831125,0.03570197,-3.1334634,-0.6304281,-0.3219071,-0.23359205,0.8377423,-1.996916,-0.09065676,-0.9786609,0.10181355,-1.4063057,0.0565396,0.6603845,-0.8454142,-1.0001863,-1.0307349,0.84644186,0.86444974,-0.9329987,1.3895979,-0.036548574,0.40633085,-1.3822397,-0.05664789,-2.5220182,1.4850869,-0.49371994,-1.4061992,0.047553897,1.1541224,1.1511528,-0.93150413,1.0864043,2.767895,1.0636646,0.5357766,2.0347111,-0.17414981,-0.6558648,1.0049955,-1.2401619,-0.29924795,-0.5220219,0.16362903,0.05191011,1.2628926,-0.44812465,2.6699188
uplifting,-1.8555434,-2.094024,-0.45014706,-0.9561774,0.98524094,1.3942701,0.38472858,-0.6108343,2.9450352,0.78503996,-0.94446826,0.07043524,0.13927662,0.13326809,1.2474273,-0.46034396,0.21580029,-2.0565083,-1.2443069,-1.1786869,-1.354972,-2.5719078,1.2669929,3.4084637,0.7226373,0.37115076,-0.45662645,-0.9918345,-0.014006278,0.056240935,-0.66394377,-0.54528546,1.5811259,0.06649947,1.030731,1.6410328,-1.6251028,0.08608534,1.5600804,2.755735,1.8547249,1.2373375,1.1590493,-0.36524737,-0.6688588,-0.100940615,2.6320286,0.8115605,-1.027605,1.2666737,1.3133879,-2.0356307,0.5363433,0.52653253,-0.59001195,0.36045495,-1.9820105,0.20843706,1.8660809,1.2669287,0.9555435,0.43094888,2.6681452,-0.6888091,0.7029693,-0.8714116,0.9103573,0.5768978,0.667174,0.34342608,0.94826907,2.294296,0.5921041,-0.5771698,-0.12715767,-0.9770738,1.7664033,0.8160935,-0.81679094,-0.37579355,-0.8496422,-0.6874665,1.8077826,0.77917147,-0.054214917,-0.37401772,1.42296,1.640652,-0.5294351,-1.2822412,0.16399926,-0.9013897,-0.5096146,1.7476449,0.85010594,-1.0795242,-2.4765275,0.19028345,-1.492684,-0.7091259,-0.62684435,2.5972812,0.3714196,-2.3172998,0.22170345,1.1659611,-1.2099415,1.3136075,-2.5600934,2.0513463,-0.40812337,1.1045922,-1.5374211,0.6204398,-0.36427435,-1.2533095,-2.295064,-1.1605868,1.3801374,0.8657074,-0.13969967,0.8545843,0.41729504,0.76924676,-1.053749,1.5557933,0.28465986,0.8829621,-2.2323484,-1.7244368,0.409722,-0.26096618,0.919811,1.1381949,2.7099319,1.3205823,-0.6878885,-0.7341705,0.39865026,-0.5839974,1.7028246,1.7325923,-1.4421682,0.17847224,0.19605422,-0.44584292,2.086274,2.758361,-0.45392776,1.4847095
pleasure,-1.663385,0.8954435,0.8687491,-0.3046999,-0.29555064,-0.71534336,0.8325842,1.5113258,1.2060018,0.37127256,-0.8875476,-0.24050671,-0.87113994,0.37113282,3.3235157,0.15047534,1.9731835,0.10556784,0.61039585,-0.4228268,-0.11338972,-0.49382687,1.3941077,2.074247,1.3758179,0.66433173,-0.6216238,2.4331038,-1.4993382,1.5716017,1.9670763,0.10348309,-1.2830417,0.62065333,1.4117136,0.99998397,-0.28023982,-0.80751157,0.56849617,2.6215034,-0.6742591,-0.78161407,0.6745528,0.23813047,0.41427645,-1.4356598,2.0185516,-0.63785064,2.311417,-0.20665912,3.1013415,-0.1161279,0.37651545,-0.7842887,-0.49869522,0.14767225,0.29788828,0.25189894,0.74116033,2.2705166,-1.3248827,0.23024659,1.1121322,-0.7097268,0.26339814,-0.8300034,1.4373869,1.0076996,0.19854723,1.6383493,1.9660072,1.2163475,-0.161399,-0.7856909,-1.7065866,-0.4914647,1.572755,-0.74722266,0.54796743,0.1221427,-1.989483,0.5828611,1.1113784,0.20606974,0.07375834,-0.15797462,1.1361688,0.2504529,-1.1136532,-0.71545744,0.92674285,-0.5786622,-2.359775,1.2760651,0.19659424,0.18174568,0.11784327,-2.814605,-0.4541209,1.1891941,0.71816635,2.3104956,0.6352542,-2.0458636,-2.656613,1.043486,-0.14192395,0.89489114,-2.9232562,1.6928449,-0.11225628,0.66589,-0.09432989,0.25958726,-1.2957528,-2.3686783,-0.47551176,-1.1966804,0.91860205,-0.6704944,-0.45895505,-0.5076149,-0.9751137,0.9849933,-2.2549825,-0.09884808,-2.273049,1.361916,-0.3252654,-2.142592,-0.7666065,-1.1658889,1.2204247,-1.037835,2.1315475,-0.5630646,-0.46507257,-0.9789889,2.2997947,-0.07612784,1.5242739,1.2460887,-2.1274507,0.17866535,0.21052949,-0.2911322,1.4980646,1.7398804,0.040481187,1.7714665
aggressive,-1.6515157,-0.8464422,1.6055465,0.83485603,-0.026076982,1.3693987,0.14383708,-1.1239349,0.16755594,2.2411041,-1.033363,0.33122855,-0.6860668,1.5941284,1.3314805,1.1723654,-1.2942604,-2.6002874,0.30190587,-0.81800336,-0.33525738,-1.0301036,0.61057717,0.041252498,0.1252319,0.07144473,-0.06786437,-0.9552451,-0.9673041,-0.70778716,1.9482085,-0.7981389,-1.3181529,-0.06631587,-0.13960348,0.5623937,0.097972736,-0.18915966,1.759142,2.382534,2.2226639,-0.86306584,2.351712,-1.5681053,-0.052199237,-0.25881544,1.0067849,0.8274984,-0.23945814,-1.3837765,0.897523,-0.84069604,-1.6205937,0.5027859,-0.9451794,-0.032117,-0.9055299,0.84089357,0.80457395,2.087291,-0.34634688,0.63833505,0.124780856,0.64984286,-0.12489562,0.23178291,0.29060796,0.35964435,1.4459003,1.6715504,0.7061885,0.95015854,1.3021864,-1.1178296,1.6227678,-0.061251108,2.3167667,0.5113933,-0.88155425,0.36342895,-0.2973618,-1.1510328,0.22102138,0.99886304,0.0504928,1.1908199,0.58722454,-0.4210151,0.047613204,0.9650775,0.36944172,-1.4164459,-1.6632735,1.7578713,0.9394207,-0.9148963,-0.94811404,0.17090136,-2.3108032,0.7287532,-0.9207856,2.3400571,-0.70321107,-2.855825,-0.15974866,1.1846869,-0.9674025,-0.22600263,-1.2992246,-0.22811162,-1.0755756,1.275753,-0.4721759,0.3204236,2.0323367,-1.3907834,-0.38423073,-3.115596,1.6498468,-0.38982052,-0.3337698,0.17824891,-0.62370586,-0.6874272,-2.6401505,1.3512378,-2.1915205,1.2362192,-1.7696542,-1.526947,0.5007472,-0.15117612,1.60704,1.4792224,2.4618628,0.4176305,0.91055447,-1.4436628,1.2252325,-1.1224622,0.18861483,0.781523,-1.3941604,0.012566377,-0.33126798,-0.4242256,0.7112032,-0.6896203,-1.0441399,0.9772711
angry,-0.41801068,-0.8640548,1.4173237,-0.14841855,0.8281209,-1.0423505,1.1172247,-0.32220206,0.9866688,0.8512599,0.022705417,0.6922857,1.645912,0.20753321,0.82544893,0.059908804,-0.07305666,-0.5984946,-0.24471007,1.0188882,-1.468007,0.22508323,-1.1885796,0.07882726,-0.45036805,-0.032445513,-0.48154703,-0.41331542,-0.5833036,-0.22571698,1.4854072,-0.29097533,0.75406736,-0.58575225,0.79123086,0.9250619,-0.66023606,0.45095938,-0.03918717,0.63481826,1.1955322,1.4420946,1.492383,-1.9733305,1.3323995,-0.51523507,2.611701,-0.5111335,0.6760994,0.58104044,1.6065757,-1.4233487,-1.8725574,-0.73056525,-1.1703185,0.59278345,1.3165373,1.5875367,1.3674748,0.4844555,0.42984694,0.15335962,-0.67569774,-0.5510673,-1.7144821,1.2808868,1.0551306,0.4225154,0.74391085,-0.031608682,-0.18980338,1.8286502,1.7706889,-0.6720556,0.52503383,0.42489383,0.68988043,1.0619859,-1.9699353,-0.3063589,-0.69281054,-1.3990188,1.1966804,-1.2600223,-1.0037901,-1.2061825,-0.36054763,1.4643961,-0.4673425,-0.36371747,0.77169037,0.656594,-0.93820536,0.25379795,1.7900429,-0.60877806,0.10447736,-0.24692406,-0.8344141,0.77664065,-1.0905328,2.1258843,-0.1181125,-2.5644653,0.7674534,0.34336412,-0.4005789,-0.12067635,-1.8760492,0.82903004,0.05060556,-0.32516667,-0.6952673,-0.057600774,1.5513926,-1.9919227,-0.36335012,-1.4858797,0.5018543,-1.7636322,-1.9731798,0.64627504,0.88529843,-1.1179711,0.13923526,0.5105958,-1.6511916,1.3983972,-1.6147344,-2.3525667,1.0493731,3.1983232,2.5239885,0.84742856,1.0115105,-0.44728607,1.1156743,0.20941742,0.21205568,-0.061136544,-0.571224,0.09625618,1.5113238,1.1051342,1.6380606,0.264482,2.028529,1.0887971,1.7239463,1.1801066
haunting,-0.3779762,-0.8437136,0.39591956,-2.0254924,-0.71190965,-0.17120498,0.80146945,-0.6905093,0.99863404,1.9613124,0.8516659,1.0582981,0.86788636,1.5180638,1.2748898,-0.11007108,0.3272977,-1.6685275,0.120202735,2.0735953,-0.4619883,-1.4026108,-1.4064821,2.4176903,0.7214475,0.28382045,-0.42916068,-0.4856609,-0.7233238,0.17432876,0.8725099,1.038397,0.80009705,0.7616894,-0.23785065,0.036978327,-0.95993066,-0.2854753,1.0979768,1.667209,0.27233583,-0.9634585,1.4053499,-1.4513046,0.34430432,-0.74470764,1.5932578,0.673943,-0.52729696,-1.7444783,3.6607215,-1.5497905,-1.3184011,-2.2516558,0.07868112,-0.5355783,0.277567,-0.19581448,1.8015306,2.1643858,1.153096,0.035654306,1.8938358,-1.0542874,-1.2664125,-0.6106266,0.7401507,1.6308706,0.1583135,2.0774243,1.461393,0.044606835,0.071614265,0.62786406,-0.056924995,-0.8537775,0.68854976,0.75274146,-0.93236285,-1.1719339,-0.022044944,-0.48156816,0.3383225,-0.28077862,-0.35717827,-0.37895748,0.6719445,-1.6319138,0.51782566,-1.5927768,1.6573642,-0.9214036,1.8401532,1.0665674,1.9328136,0.746118,-2.4035182,0.83941317,-1.2144009,-0.17529634,-1.7857319,0.13801253,-0.7430995,-3.116026,0.2585782,-0.26960775,-0.80957586,1.9196049,-0.60340977,0.6156811,-0.3041875,0.14363073,-0.50773525,1.6373225,0.5067177,-1.7887814,-2.2869453,-1.4396533,0.13673818,-1.089032,-0.85136104,-0.03572919,0.6639122,-1.6373678,-1.1442577,0.72853297,-2.3568316,0.3959565,-2.346212,-3.4756465,-0.26470155,-1.5566579,1.6032678,-0.18289651,3.080589,1.1578165,0.10539341,1.0667686,1.1134859,0.8552301,0.41057643,1.1363811,-1.4026027,0.05290884,-0.25503764,-0.11473967,0.356539,0.58068144,0.38889793,-0.129819
soothing,-1.5292563,-0.42152303,-0.86143684,-1.379663,-0.10335154,-1.0907772,2.3227494,-0.07650385,1.1698713,0.9762804,0.46978223,0.24146298,-0.12926471,0.9824635,2.1325946,0.7487173,0.32288447,-0.5121435,0.53426474,0.45450848,-0.6935825,-0.6873007,-0.18975091,0.6217227,0.83456296,-0.47249368,-2.1332722,0.808602,0.89679486,0.5500164,1.7527593,0.7562517,-1.1649601,-0.3088185,0.4879614,1.071251,-2.5736148,-0.6792702,1.8523709,-0.9697861,1.415828,0.3946635,2.4736962,-2.1169062,-0.26385537,-1.7951045,0.91836053,0.82127005,-1.0402536,-1.652612,0.8005926,-2.6868596,-1.4631101,-1.5127348,-1.5958492,1.0855808,-0.0830371,1.5528789,1.2602946,2.1152267,1.3934101,-1.5714228,2.6926513,-0.7846285,0.008893613,-0.34921795,0.3254331,0.80769074,0.4644123,1.4142398,1.0175067,0.87565064,1.9220228,-1.0345198,-0.52899486,0.20470291,-0.9111244,-0.56406,-1.0747423,-0.97004867,0.53828996,-0.9672102,1.0541137,0.5748708,-1.5101024,-0.32578883,0.2542589,0.75370616,0.7134428,-1.8051275,-0.22222087,-0.8682392,0.2181003,0.27920562,0.55270153,-1.1654351,0.36201316,0.96301776,-1.9571488,-0.8003778,-2.3958418,-0.10862532,-0.14157897,-0.98731065,-0.42308545,1.6409023,-0.87534195,1.1015866,-1.8749756,2.112036,-0.5170392,1.815528,-1.4546883,1.2179815,0.07703979,-1.6970359,-2.9492576,-2.3471763,0.9195628,-1.7015516,0.22106673,0.50692636,-0.11265892,-0.8816025,-0.6316735,2.0871775,-1.9186431,1.8993379,-2.8332002,-1.2927718,-1.2887796,-2.3083599,1.7224061,1.0290128,2.558164,2.0269132,1.7810787,0.46902952,-0.83011276,-0.019511573,0.70114,1.1065642,1.0644279,1.3904805,1.0805328,-1.2143205,0.46403524,1.6901828,0.63480484,3.0523047
peaceful,-0.54250634,-0.93077195,-0.85428375,-1.4497063,1.4869436,-0.31309164,1.179231,0.8524899,0.91352624,2.8294156,1.2770661,0.32647008,2.4676657,2.2826867,2.6510892,-0.6850392,1.7826669,-1.1986611,1.1539491,0.11817685,-0.6626604,-1.5557078,-1.0675436,2.4493012,0.51832294,-1.0183173,-2.9374948,0.40177804,-0.23431677,0.31640518,-0.8133494,-0.30906245,-0.09400222,0.2626562,0.9594638,1.3259317,-0.6716476,0.07706896,0.7153196,1.9512337,1.684392,0.39022416,1.0425211,-0.46821895,1.2364628,-2.7085388,0.17428182,-0.05260725,-0.23453018,-2.2298732,0.5546957,-1.5963216,-1.5518302,-0.06935447,-1.5534627,1.1418864,-0.5691737,-0.5023536,0.3776387,0.33117124,0.16722807,-2.099281,0.92047447,-1.1469665,-0.5766644,0.38517907,2.0340457,0.11727673,1.1898507,1.5617462,-1.4644911,0.608977,1.5859988,-0.8607448,0.020994414,0.08952111,-0.48956293,0.013472717,-0.7257665,1.1123567,0.73882204,-0.71832436,1.0524952,-0.16419192,2.3436532,-0.3556515,0.11083554,1.2673512,0.6008596,-1.6776193,-0.87721765,-0.16961348,-0.23734587,2.7401233,0.776151,-0.3805794,-0.5698005,1.0950148,-1.2761102,-0.37123057,-1.1398304,0.907406,0.5360314,-1.5148487,-1.1133475,-0.25688022,0.52673864,1.969567,-2.8527715,1.4096104,0.60644466,0.63097316,0.055698138,-1.214139,0.75383776,-0.29921478,-2.1405528,-0.8141958,1.2727966,-1.8478812,-1.2155641,0.62469155,0.34625608,1.6902311,-1.396505,-0.32180208,-3.0821507,0.85878617,-2.0215583,-1.5303998,-0.7791039,0.14301214,1.8702352,-0.9251728,2.765907,-0.57244104,0.7868419,0.064969726,0.4247805,-0.7792799,0.7903859,2.028465,0.79979485,1.6060613,-0.13217181,-0.8656773,1.795762,3.00069,1.5704461,2.3910007
joy,-1.511511,-1.0482315,0.687656,-0.40723124,1.593639,-1.9871252,1.2324708,-0.105074495,2.2560449,1.3837006,0.14503303,-0.7323864,0.17488848,1.684671,0.92506665,1.0598799,1.4939792,-1.2125709,-1.4702063,-1.0649239,0.5669092,-0.46994984,-0.63588613,0.87238234,0.4813726,-0.09904994,-1.9212912,0.010752313,-0.8732998,2.3338077,0.4780533,1.5709621,0.6319719,0.1427956,0.18482743,0.85258245,1.0513256,-2.7026968,-0.80459803,0.8137303,0.1141045,-0.33890367,1.3579032,-0.13551384,-0.27940223,0.078893386,0.43206832,2.4434457,-0.7334483,-0.902901,1.926719,-1.3671362,-1.1925566,1.0668496,-2.1736748,0.2078919,-1.200904,0.2615999,0.19596493,2.156093,0.6756377,0.45298427,0.7915225,-1.8266547,0.14200963,-2.173078,0.24422061,2.45383,2.5204496,1.8911306,-1.4750049,1.0227532,0.16898419,0.5238115,0.32981128,1.5026124,1.0524967,0.5967733,-1.5831317,-1.3111829,-0.62453413,-0.08016659,-0.6274543,0.5608212,0.21766856,-0.93368673,0.6936606,0.02943914,-0.6715609,-0.70142055,-1.1193645,-0.8964595,-0.14096223,1.569468,1.0931277,-2.1578808,0.11158624,-0.53876245,-2.0702767,-0.81745875,-0.40001115,1.0161312,0.04313888,-2.2807577,0.7290472,0.45735544,0.9742218,2.5207098,-0.46404594,2.127555,-0.4451887,0.816777,-0.67671156,1.3595212,-0.1517747,-2.4895585,-2.2124827,-1.6012107,1.0753341,-1.3093795,-0.90113056,0.8582459,0.46914315,0.04067196,-1.2271008,0.46538654,-1.9042895,2.0715652,-2.772469,-2.5433598,-1.2988343,-1.7853227,-0.18381867,0.40657786,1.616556,2.5415952,0.96216136,0.98205787,0.61863965,0.7464329,1.3494723,0.128006,-1.0292404,0.9334694,-1.1860338,0.8269134,0.16483402,1.1541884,0.42260394,0.28764677
nostalgia,0.12633108,-1.589132,0.19024149,-0.577715,0.5365353,-1.4222182,0.6290657,1.6675997,2.6414518,1.033926,-0.25646996,-0.29702678,0.8870081,1.2584314,0.5511906,-1.292292,-0.4351513,-0.24761827,-0.8387204,-0.34516418,-0.06765471,-0.82488436,-0.19077286,-0.29600638,0.5326176,-0.9260614,-1.4510758,0.62660396,-0.33064687,0.33775404,0.48161367,1.1996456,-0.80692726,-0.8776389,1.4485552,1.0338123,-0.32560045,-0.045693293,4.43678,1.6882534,1.5667188,0.4260147,1.1545445,-0.6834614,1.5924932,-1.2249628,2.3313444,0.19717097,-0.23359393,0.064909466,1.2420523,-1.660335,-0.7067445,-0.88304764,-1.3266002,-2.1034334,-1.2513078,1.0595732,0.64474887,1.4315226,-0.023683675,-0.72596306,-0.27557504,-0.823407,-0.59344006,-2.665463,0.63976973,-0.31548247,1.390624,2.2218418,-0.029211998,-0.6311857,2.223909,0.3921752,0.49208498,0.31682172,1.6086941,-0.35032624,-0.8146253,0.3590267,-1.0179425,-0.14798032,1.3707349,2.3861914,-0.36372572,-1.8893716,0.81718796,1.0378082,0.19600987,-1.6732745,0.73660564,1.3338666,-0.8071267,0.1842037,0.33984557,0.80667025,-1.9568559,-0.8344621,-2.2187457,-0.5402674,-1.1948721,1.221905,-0.1686057,-1.3832448,-1.1758199,1.0656883,-0.51358944,1.3857758,-1.3882104,1.8463714,-1.0101528,0.24026439,-0.72796273,-0.5422838,-0.15278465,-2.2863455,0.38608977,-0.60630965,-0.75082344,-1.2061708,-1.6553217,0.8891357,-1.8674027,0.20895627,-1.1260756,1.1007694,-2.5812142,0.56928545,-2.980084,-0.535391,-0.8150691,-1.0331357,1.840878,-1.7198492,2.0847244,0.66825044,0.35032204,-0.45092392,2.4794452,-0.95567864,1.0306928,1.3761268,0.8554705,-1.0836694,-0.6033119,0.28093576,-0.17835382,-0.21109071,0.13228582,2.3919814
funk,-0.07637562,-0.618422,0.25222823,-0.15512888,-0.15204364,-0.7586891,0.39621374,-0.72467417,1.3868208,0.30186656,0.11825517,-0.23702173,1.3323661,0.80123365,1.6168388,-0.25192365,0.61876196,-1.4074112,0.6796137,1.2730683,-1.3975236,-1.7567197,0.24631813,1.6438504,0.48551172,1.2048751,-0.36250532,-0.042306878,-1.029994,1.7546269,0.31861714,0.38354185,-0.08272248,-0.48748347,-0.15496309,0.47053126,-0.59849066,-0.3411051,-0.001766015,1.7918406,1.4206048,-0.3478052,2.3161263,-1.326231,2.1317894,-0.38114405,2.3651211,0.85871255,-0.61160004,-0.3021988,1.0293659,-1.5582693,-0.8249767,-0.37378523,-1.5174568,-0.62750363,-0.13089128,0.44296315,0.92580366,1.5494144,-1.2584938,-0.7372729,0.7194023,0.10881231,0.12268705,-0.43324068,0.87942296,-0.053087894,0.98024625,2.4984934,0.41836658,0.8205971,0.7379419,-1.0665048,0.38666612,-0.24728847,0.5230814,-0.7373425,0.62449074,-1.2298039,-0.14900896,-0.28735757,0.34859103,0.8494486,-1.0190908,-1.7224789,0.31696993,-0.460924,-0.94323504,-0.9232028,0.49921727,-0.38670716,-0.8360432,-0.25041324,1.0812277,-0.5509385,0.51454395,-0.51069677,-1.018944,0.7628214,-0.6102583,1.5563042,-0.5480706,-2.3047934,-0.6009597,0.44519013,-0.29227597,0.5165873,-1.619754,0.85614455,-0.8669745,0.6085174,-0.49359834,0.26368463,2.2254398,0.5793006,-1.7665368,-0.92263705,2.0564947,-0.28085437,-0.7068734,0.8391067,-0.8424143,-0.26635543,-1.2051299,1.2588594,-0.77953446,1.878594,-1.4425824,-1.5258472,-0.19746327,-0.7341448,0.7353893,-0.1087756,2.0760927,1.8927114,0.9337121,0.30695784,1.1929541,1.6166722,0.87733614,0.23540086,1.0287393,0.31604254,-0.21807414,-0.58758664,0.8013028,0.09339513,0.5967813,1.2258625
sad,-0.035650697,1.0484029,1.4314159,0.33807284,1.4459014,0.8370086,0.102991305,0.6202016,0.9474742,0.16177408,0.29813838,-0.45370746,2.4725301,1.8599609,1.1470176,1.4920908,0.7249802,-0.8316012,0.61431324,0.2947299,0.45078963,0.2729405,-0.57003945,0.58668566,-0.90798503,0.09706756,-1.3645065,0.36188632,-0.62865144,0.79361635,0.97257215,0.30918366,0.14550067,-0.23099753,-0.3935229,0.9216975,-0.33859155,-0.3687879,0.6215684,1.2413828,0.11443944,-0.58469754,1.1853408,-1.6861098,-0.3740587,-0.11728294,2.3605475,1.0071093,0.7743694,-1.0090467,1.6503391,-0.44937143,-2.49725,0.21253084,-2.3464038,0.64560974,-0.49185103,-0.27162102,0.619051,1.2599077,0.22089812,-0.45703012,1.0209419,0.1437,-0.3360604,-0.84181505,1.4592568,-0.06857946,0.9401532,1.0655581,1.0551312,-0.09011524,-0.0015990396,-0.15093476,2.7518027,-0.20913166,0.5135672,0.5553424,-1.4828926,-0.23156963,-0.1494863,-0.0066486425,-0.25327405,0.6877752,0.35343492,0.5192676,1.386981,-0.24225636,-0.8394109,0.6112907,0.008737491,0.4910696,-0.8524182,1.1850955,0.5315923,-0.7754088,0.8851653,0.87278897,-1.8525223,0.0679413,-0.6293651,1.2076132,-0.02333409,-2.6562884,-0.17933322,1.1806345,-1.6038876,0.68457466,-1.2468587,0.9379819,0.7599015,-0.01958212,-0.62203896,0.34800592,-0.42841658,-2.2896914,-1.8045017,-1.3560203,0.8331837,0.79903656,-1.4210976,0.82575154,1.2339697,-0.54976624,-0.4766606,0.9047705,-2.3030734,0.658367,-1.3619753,-1.8149693,-0.25046083,0.09545738,0.8579688,0.4625007,1.5061026,0.271884,1.1578858,1.7731414,0.65165246,1.6021708,0.82883114,-0.7280669,-0.72088546,1.9704741,-1.5190636,-0.8603219,0.5343803,0.44261804,1.7436994,1.5798646
dreamy,0.87625504,0.39918137,-0.3482296,-1.3081428,-0.044112094,-2.0712626,3.0154607,0.3195691,1.9710699,0.73913836,1.3190001,0.39366567,1.4417316,1.3174859,1.2513945,-1.2459562,0.17914419,-0.45465943,0.25132114,-1.3136345,-0.0016611879,-2.09066,-0.7369975,2.5683491,0.49613154,0.90559465,-0.33586144,0.20704831,-0.084335625,0.80013245,1.2893635,0.020574417,-0.26162592,-0.14810386,0.32497442,0.727859,-0.49846756,-0.120403774,1.5810546,1.3672223,0.45329788,0.15238427,0.7634064,-2.3095474,0.3788661,-2.9065495,0.33745515,0.44541383,0.11864609,-1.117693,1.9137754,-0.81363827,-1.220799,0.59190476,-1.7171267,-0.13278037,0.79594797,-0.06753085,0.9745164,0.6630513,-0.26173615,-0.81241465,0.68247616,-0.42107692,-0.64883274,-1.3782,0.20955856,1.2849824,-0.25322956,3.2264805,-0.98292404,0.4514415,2.3195093,0.15646347,-0.0037156553,0.0149053475,0.73756015,-0.8609096,-0.8160845,-0.23623775,-0.99988234,-0.9674783,-0.9820496,0.7859975,-0.36326957,-1.2830708,1.1122363,1.4772402,-0.28547943,-1.73215,-0.46093553,-0.8400696,0.30959046,0.7853306,0.18349347,1.0665667,1.2885861,-0.12126547,-0.818269,-0.69119316,-1.7086519,-0.5655459,-0.19557299,-1.8892889,-0.7146509,0.051358096,-1.5264633,-0.10533176,-0.4308654,0.3074971,0.14008802,0.9259956,-0.9376503,0.3415881,-1.8288436,-1.2342919,-2.537062,-2.574889,1.2823454,-2.4656122,-2.0879588,1.9140947,1.0049576,1.3495263,-0.28601265,-1.5119587,-3.4552066,1.1328906,-3.7040224,-2.443847,-0.45429736,-0.55513996,1.664772,0.037496194,2.805469,1.3708419,1.3556355,0.9589462,2.6368704,1.4036905,0.7040319,-1.0547241,-0.8563347,-0.6247634,-1.170977,0.004561006,-0.6151786,0.12822907,1.4497008,0.43597516
calm,-1.7354519,-0.17838998,0.64711463,-1.5175732,0.72306937,0.31870905,0.41275483,-0.41516137,0.33182114,1.7006423,-0.8656384,-0.31402797,2.8520513,1.9890642,0.5937365,0.1715721,0.3187214,-0.4178392,0.009633578,0.16325854,-2.1208925,-0.8605879,-1.9615148,0.29294708,0.61802024,0.48540905,-0.6887049,0.58584076,0.0105971135,0.34388945,0.9413556,0.9858934,-0.35593054,0.9359275,-0.57438505,0.5186944,-1.3825134,0.62911755,2.0962331,0.14604558,2.2316415,-1.0985204,2.8851788,-1.1353595,1.0370646,-0.0007316575,2.2225611,1.3002942,1.6122473,-1.3866266,2.024975,-1.2687113,-1.1617593,-1.6638395,-2.133811,-0.6960892,-1.3185123,-0.96321636,0.49029556,0.78727734,1.0328887,-1.2097424,0.75237405,-3.0390894,-1.3682293,-0.1803279,2.3956208,1.6268877,0.1544358,0.68904436,0.6574346,-0.0596965,0.39992017,-0.32550204,1.558993,-0.21955709,0.107868806,-0.40634736,-1.6256433,0.88704073,-0.77972543,-0.45210075,-0.31978002,1.0524181,0.14736083,-1.0719951,1.1809894,1.7311696,-0.69022024,0.31516936,-0.6045033,-0.7825737,-0.8035689,1.417994,1.066952,1.3306143,-0.24987361,1.0503376,-0.76073956,0.8842034,-2.1705527,0.26275444,0.21838345,-2.4909277,-0.6699292,0.6260218,0.2008755,0.079089284,-3.0609663,2.0033596,-0.16686793,0.26216003,-1.6505076,0.8676159,0.88734543,-0.70769715,-2.2105465,-1.8001181,-0.5045445,-1.6634305,-0.27494845,-1.6618861,0.63061255,1.4578497,0.29454422,-0.35991225,-2.5670478,0.4398963,-2.363935,-1.2226752,-0.3330735,-1.1225806,1.0247245,0.01650963,1.5161948,0.8831411,-0.6129885,-2.134204,1.1742359,-0.80743814,1.9811282,-1.3968126,-0.29557985,0.68911946,0.102197096,-0.6394621,2.1088617,1.8677751,0.124174446,1.3393378
melancholy,-1.489616,-0.6651479,-1.0381802,-0.35669833,2.2506447,1.5648113,1.7542733,1.1286101,0.54399014,0.9129936,2.1666515,0.20414431,0.7615018,2.6399853,1.9752228,0.35239175,-1.1633282,-1.2117755,-0.17222232,-0.2917848,0.44202963,-1.7783071,0.12577403,2.3708565,-0.31450072,1.4026254,-1.3078009,-1.0982488,0.9739778,0.6732344,1.0935898,0.6918961,0.84863424,-0.19042003,0.00066167227,1.3251704,0.053069115,0.8677914,1.7056427,0.8881597,1.3472992,-0.35763255,1.6207685,-0.88993037,-0.6783414,-1.7379667,-0.34756473,-1.3018957,0.2572311,-0.06346115,2.3270981,-0.4923879,-2.394559,-0.31086168,-0.05480908,1.3829844,0.80206966,-1.6821262,0.5058139,1.2982919,1.5855963,-1.3173965,0.7710953,-1.2896714,-0.034491625,0.40119174,1.7663484,0.22141135,0.41113955,1.797574,1.2188171,1.350369,1.9603748,0.12246188,1.446245,-1.2109345,1.7578701,0.7438328,-1.2443328,0.37374064,-0.28306207,-1.2903543,-0.727742,0.8476047,-0.057421125,-1.162022,1.0306505,-0.3874842,-1.9735,-0.833535,-0.4879728,-1.0997227,0.54012793,0.68592405,0.29876775,-0.45085663,-0.777127,-0.47032696,-0.6581284,0.8084191,-1.0610054,2.9094992,1.6006749,-3.350551,-0.23522882,0.6266908,0.5505298,0.94774735,-1.8177041,1.2028962,0.85912806,0.96877277,-0.69931155,0.23540267,-1.1214355,-0.39149597,-1.8100141,-2.0332396,-0.19305685,0.8334637,-0.80865604,0.336905,0.038199164,0.99895316,-1.8073201,0.075791895,-1.7514545,1.6713715,-1.6506766,-1.7271991,-0.77300376,0.36365965,1.6116802,0.62099385,1.6919963,-1.1350762,0.15726987,-0.14799707,0.65694374,-0.32888606,0.61166704,0.78092855,-1.0824063,0.30932307,0.55761474,-0.06205049,1.8813955,-0.23498066,-1.0096473,0.3623204
quirky,-1.5400234,-0.97985387,1.4318304,0.13496822,0.63100725,0.2692555,-0.29682732,0.1772444,1.442494,2.3739145,-0.23480244,0.95003414,0.93309665,2.0540783,2.9851332,0.6289712,0.18231936,-2.1821837,0.36192518,-1.8462454,-0.67080915,-2.611853,-0.6167298,1.2479551,0.66459,-0.070788056,-0.81456393,-0.07651321,0.47843164,3.0581934,0.12271466,0.30379832,-0.4998183,1.1874307,0.43038213,-0.27709028,-1.9166912,-0.07699932,-0.40861076,0.9647076,0.33638564,0.68150246,2.6454191,-0.9873863,1.403227,-2.2174575,2.7166436,-0.17696851,-0.5539735,-2.028131,1.6096765,-1.6874969,-0.6764802,-0.07647474,-1.5928847,-0.21232627,-1.6320995,0.23134036,-0.7395455,1.5629808,0.25509772,0.24042474,1.8223737,0.42188922,1.1383276,0.618045,0.56471926,1.4861921,0.23951751,2.359788,0.99701196,0.3203941,2.1382487,0.04052684,1.4846629,0.5065461,1.3301713,-0.536875,0.4353509,-0.68955743,1.2132463,-1.6734986,0.22562501,0.5306494,-0.07127695,-2.1006503,1.5367861,-0.3247528,-0.48139897,-0.3889834,0.9485774,0.68587554,-0.23609073,0.83866227,0.18827407,-0.4973542,0.23494837,0.44053575,-2.177278,-1.1589128,-1.7866611,2.6430128,2.709011,-2.8089085,-1.685002,-0.14067024,0.5912281,0.11474949,-2.6850777,0.25913292,1.0057012,0.5742615,-1.6082203,-1.0653163,0.37614527,-0.6096882,-1.8468257,-1.4899824,3.7560015,-0.8298915,0.3681379,1.1901246,-2.6717088,1.5166601,-1.7773243,0.8207656,-2.92122,1.3736988,-2.1242867,-1.0754349,-0.24096301,-0.92847085,0.044366203,0.90989304,1.4675022,0.15946971,-0.15392214,1.5912379,0.77035975,0.72746396,0.7501665,-0.33582538,-0.6905225,0.19437096,-0.6482174,0.27765542,0.12682013,-0.652293,0.10697608,2.6849403
desperate,1.5647537,-0.94705164,1.8712895,-0.6283286,0.89614594,1.5126375,0.9445504,1.8747876,1.791383,0.99835545,1.2976468,0.046531957,1.7734927,2.0153995,0.65520084,2.039213,1.5577215,-2.8876994,1.9363548,1.0487953,0.33451647,-1.3800946,-0.15997078,1.0178039,-0.9690098,-0.32231548,-0.7236815,-0.9761166,0.23548855,1.6238825,1.4065939,1.7296017,-0.29548958,-1.7258279,1.9249746,2.060165,-2.342357,0.08076999,0.9094184,0.53029096,1.2666756,-0.014970428,2.6930444,-1.4462955,1.354235,-1.9720536,1.4985234,0.93861055,-1.1547929,0.35230547,1.9737782,0.70407754,-2.152167,-0.5520988,0.66577476,-1.9397153,1.4925838,0.024787603,1.1941661,0.5350734,0.2758495,-0.22392872,-2.3620915,-0.24137668,-0.80790365,-0.46250936,1.0615615,1.847731,1.5910988,2.374612,0.5352835,1.6199834,0.7321526,-0.7663351,0.61050946,-0.45403618,0.005931573,1.7933521,-1.5185833,0.119394645,-0.7432338,-3.1193352,-0.92504996,2.62849,1.0702014,-1.6445677,0.71857405,-1.9269278,0.72694474,-1.1444744,1.9561017,-1.5291649,-1.5516062,1.4252484,1.6444579,-1.2706014,0.1680995,-0.9104515,-0.21316782,-0.18564461,-1.8643789,3.1021993,-0.444369,-3.9436698,0.042313095,-0.5205628,-0.8077477,0.054528736,0.7249655,1.161371,-1.0233092,0.9978338,0.2307037,1.7963064,0.7022971,-0.7620522,-0.44900817,-1.1759139,0.5585278,0.61154014,-3.14396,0.6066601,-1.408296,1.071142,-0.3650609,0.36708674,-1.3984311,3.13145,-2.0298119,-3.0772142,-0.90137506,0.7743697,1.9267687,0.5158253,1.5420989,-0.4656006,0.7099669,0.37466156,1.2571846,1.1161032,-0.6375971,-0.3460527,-0.40874857,-0.17779736,0.40059102,0.1469839,-0.46547815,1.4397702,-0.32458046,0.100451134
emotional,-0.030770967,-3.0139463,-0.06769438,-0.0640662,0.8333066,-0.80053616,1.6407974,-0.78374517,1.0499036,0.21234396,0.74483466,1.1047069,-0.108996764,-0.30266967,1.8980651,0.483139,0.16130443,-0.32457307,0.12833971,0.42824784,-0.46617305,-0.86446404,-1.094323,1.3347675,1.4085227,0.7706176,-1.0786632,-0.7544477,0.10806452,0.038837425,1.5167167,-0.058242653,1.1817714,-0.038060337,1.4505968,1.396161,-0.4035903,0.47898346,2.3036685,1.5212964,0.3678526,0.84249866,0.9674538,-2.1996515,1.6926134,-2.057605,0.9688703,0.97315884,-0.2836396,-1.1368331,2.3427184,-1.3800685,-0.11842141,0.5071669,0.53441423,-0.5228151,0.27575862,0.7702189,-0.13076106,1.408615,1.1281996,-0.89563644,1.2136775,-0.114296824,-1.1612878,-0.71650386,0.35545656,1.2439338,0.2150207,1.0371132,-0.60360664,2.064108,1.8854325,-0.40370315,1.9398661,-2.5430326,1.3099861,-0.30158874,0.18792124,-0.95419675,0.6233122,-0.54391897,1.6420066,-0.02155667,1.3763201,-0.14125833,1.8252379,-0.17136222,0.43839023,-0.96530914,0.8147091,1.0732036,-0.67498386,0.062675565,-0.21634252,-1.2422123,-1.0754981,0.6237592,-1.4497504,0.7968785,-2.4454746,1.8851702,0.83311814,-2.0997403,-0.010727794,1.0820702,0.5810394,0.57273906,-0.17282876,0.33883944,-0.60109,0.6004264,-0.3720284,-1.167748,-0.3552518,-0.71496475,-1.0280304,-0.9524213,0.8898027,0.42898276,0.14381644,0.8748776,0.531286,-0.33062646,-1.6315072,0.3875905,-2.0632005,2.782469,-2.2210548,-2.2844932,-1.3293731,-0.62869877,1.1307799,-0.4511446,2.6287904,-0.7910081,1.4964352,0.8444088,4.2687683,0.44732615,0.6303808,0.3282869,-1.1809402,-0.1403836,1.0676861,0.8317721,0.1758391,0.8357294,-0.029181156,-0.054811183
inspired,-0.3780447,-0.5512037,-0.72818923,-0.3934485,0.65421516,-0.3033092,2.5015316,-0.22213806,0.86529124,2.2006779,1.3435966,0.061662614,0.656243,0.35567486,-0.275938,-0.1385874,0.29476285,-2.7606893,-0.24223475,-0.13493112,-0.5703515,-0.25278297,-1.5648344,1.6791209,-0.47517052,0.8374192,0.03745303,0.8199903,0.046527803,0.4943024,0.6821956,0.9842651,0.90972227,0.3129532,-1.2590008,0.11538164,0.6727971,-1.1959933,0.36393377,0.76520866,2.4958441,-0.40831366,1.7093902,-0.50472385,-0.8486588,-1.0327388,1.8632121,0.41912255,-0.6540469,-1.5751623,1.5132749,-0.8067108,-0.45138535,0.50466156,-1.3486308,0.12469607,-0.044806104,0.28756845,-0.008410802,1.1857632,1.5089111,-0.84646606,-1.2918726,0.5444156,0.64378774,-0.44773722,-1.0896604,1.1358831,1.6375949,1.1487734,-0.46546116,1.020717,0.46354213,-0.36092827,1.2469457,-1.8025328,0.46078277,0.818538,0.4200356,-0.44850537,0.251336,0.11644554,0.7737308,0.3876278,-0.24869475,0.74996036,-0.3612635,0.14022614,0.8991137,-0.13680314,-0.71281815,1.0767378,0.585157,0.5425468,2.622612,0.25181177,-1.5601817,-0.21095893,-1.554566,-0.6796315,-1.1685966,-0.005933797,0.6364855,-2.1877267,-1.0369346,0.4876493,-0.70744836,1.4819889,0.09681822,1.339216,-0.38727525,-0.06910948,-0.22591698,0.21289109,0.60755837,0.6681936,-1.3271095,-1.899132,-0.32113695,-0.142481,-0.061621774,0.43060726,0.033341113,0.14259551,0.05574252,-1.1923131,-2.4201639,2.3680215,-2.1761267,-1.9742329,0.8453003,-0.08135856,0.054788772,0.30163237,-0.010869627,1.383055,1.9749397,1.2500502,-0.26475418,0.59631914,1.2615227,-0.34700623,0.0006176692,-0.029178249,-1.1591111,0.3534092,-0.44406995,0.78155214,-0.1582066,1.1066326
bittersweet,0.9440862,-1.2276412,0.15051802,0.21458182,0.10384017,0.40909624,1.1780506,1.1514299,0.5843669,0.9892087,0.10091439,0.28282386,1.4464382,1.2915924,2.776385,-0.73679495,1.4381437,-2.1935663,0.5987183,1.2892796,0.070642985,-1.0278153,-1.9227709,0.48052254,-1.4377545,-0.3431184,-2.4584637,-0.55209106,-0.1846723,1.4375342,0.6278367,1.2781392,1.409343,0.57666606,1.4992075,2.1670003,-1.0893065,-0.9620019,2.8037083,0.40636334,-0.00022248116,-1.1200655,1.2318085,-0.4337907,1.162772,-0.026704215,1.4098055,1.0551549,-0.2748484,0.4300838,2.234984,-0.21685451,-0.24009974,-1.4319596,-0.6045085,1.0685253,0.7570305,-0.59597117,1.8360738,1.8818693,0.86418146,-1.5260433,0.09861304,-0.5320368,0.57437694,0.1611555,1.2753612,0.8122557,1.6193492,1.1599067,1.5932049,0.948322,1.3601619,-1.3172961,-0.16541798,-1.6909624,0.059305202,-0.8477019,-2.0516949,0.38317472,-0.013380765,-0.5205549,-0.90863854,3.237765,0.25757343,-0.78979504,0.9713063,-0.47645396,0.15700266,-0.6129527,-0.079210415,-1.2668382,-1.4933348,1.0050986,1.5730444,-1.0240569,-0.8270427,-0.34596738,0.06158395,-0.46930987,-0.081778295,2.0685897,-0.6196399,-1.849533,-1.9635102,0.7420461,-0.026864992,-0.520874,-1.442283,1.8219566,0.71600956,-0.69291264,0.69842243,-0.06879385,-0.5801137,-1.66488,-2.1027224,-2.4104106,-0.08257506,-0.8374398,-1.0891092,0.3876527,1.4224128,-0.49915722,-0.92187256,1.4159659,-2.0585,0.50017667,-2.5075743,-1.0498254,-1.1242656,-1.2156243,0.99516445,-0.1336106,2.8709614,2.3788755,0.51268053,0.06582466,1.7177483,0.4537032,0.44687355,-0.35820946,-0.21712975,1.4413626,-0.1670907,0.3232808,1.6656008,1.4199085,1.912344,2.0626051
black,-0.29526132,-0.7632867,1.0799103,-0.15031503,0.68762237,-0.5151424,0.9476415,0.3973773,0.85514545,1.0818359,0.7556137,-0.2044521,0.8657523,0.48552567,0.931326,0.18070462,0.48304707,-1.4254102,0.28480047,-1.2067912,0.11025599,-0.40454257,-1.3048384,1.4890484,-0.22895704,0.8911786,-1.0121498,-0.21694666,-0.68267787,0.009406823,1.229854,0.5235375,0.09866084,0.052831292,0.8760021,0.87460446,-0.07241995,-0.27724367,0.9205842,0.18990393,0.15473469,-0.47260207,1.9271367,-0.55297977,1.6335626,-0.71013176,2.013876,0.802714,-0.4398089,0.46587723,0.5369249,0.020535672,-1.5670971,0.4877566,-0.9476954,0.9409805,-0.09855884,-0.23500875,0.41514573,0.44229898,0.1346554,0.034157787,0.4354829,-0.24949858,0.38310188,-0.3310749,-0.13499911,0.2525587,1.1349187,1.0260339,-0.5709534,0.09455057,1.9873555,-0.65561444,0.2208373,-0.22460523,0.75447977,0.119801834,0.22505732,-0.05963352,-1.1586273,-0.40547153,0.89340997,0.9598672,-0.9523543,-0.6577554,1.0518035,-0.21561947,-0.8616109,-0.93310666,0.4821724,-0.38374597,-1.2174048,0.8608279,1.1204022,0.7541607,-1.0947806,-1.1091485,-0.7813399,0.15970832,-0.43186378,1.4685518,0.0018597698,-2.521615,0.20847256,0.9884805,0.05597277,0.3206457,-0.5073804,0.75795096,-0.32951695,-0.21197005,-0.21032427,-0.22987372,-0.62927014,-0.9547043,-1.0667782,-0.79632753,0.2983638,0.014258974,-0.9497038,1.2982811,-0.36267936,0.47245598,-1.3133103,1.236066,-1.2335205,1.1708298,-1.5782521,-2.0605252,-0.69742215,0.7588512,0.40105748,0.09962458,1.3749009,0.02139865,0.04086094,0.6173799,1.0063078,0.8076527,0.23657945,-0.058425568,0.8139105,0.723384,0.57961726,0.5816559,1.1901536,0.15002362,0.32515916,1.5429448
depressive,0.25745732,-1.5230662,0.50208265,-0.56484634,1.382792,0.4168631,-0.10342451,-0.094080634,2.980742,1.642037,0.3699589,-2.0856078,0.850566,0.8227428,0.81320846,0.14903171,-1.5974174,0.100548096,-0.82674986,-1.4202011,-1.3123417,-2.7310412,-0.48486713,2.0689662,-0.08609454,0.14007391,-0.8068756,-0.15424593,-0.7646518,0.19072796,0.9646613,-1.0735003,0.07215149,-1.4468249,-1.2212297,-0.31121674,-0.70832694,0.41495684,1.2791973,0.36762273,0.8792225,-1.6021338,1.0027827,-1.2651558,1.0938544,-1.9198663,2.5790434,-0.9948351,-0.70944494,-0.2588636,0.37340528,0.0031914643,-2.1038625,0.27674758,-0.30715448,0.8696474,-0.73629045,0.57331103,-0.13533255,1.8951299,-0.52488035,2.037556,0.22936292,-0.38552818,2.320121,-0.51577765,0.7726261,-0.077548265,1.4314634,0.9653903,-0.039248765,0.38683748,1.4024225,0.1231017,1.5456657,-0.30004215,1.5461763,-0.3895149,-0.70882654,0.18377723,1.469809,-1.600406,2.080523,0.05800309,-1.1657046,-1.4225862,0.8151554,1.6446357,-1.9143144,-0.3736005,2.2410817,-1.3795718,-0.53996503,1.5350462,0.30400828,-1.7607236,0.29107714,0.3623525,-1.2963464,0.54884326,0.08205336,1.6955196,0.8453732,-2.8929863,0.074074365,1.2989211,-0.5920171,1.243543,-2.2998385,0.1891733,-1.4188248,-0.14617905,1.1575518,-0.24199131,-0.8829626,-1.4445113,-2.0146205,-0.28030065,1.5915921,-0.54855907,0.7004888,0.64010507,-0.7757718,0.467214,-0.5589711,1.5178543,-0.867702,0.63155174,-3.0692492,-2.0225067,-1.1604134,-0.6870038,1.7116724,0.7797738,2.7307363,-0.22840156,1.1863081,0.98259735,3.107507,0.96139586,1.563095,-0.8470898,-1.8412938,0.8666181,0.29270288,1.1258354,1.3425888,-0.7615274,-0.39542535,1.9983099
brutal,-0.580545,0.22641999,0.47036412,-0.04387325,2.5447056,1.1260042,-1.0229439,-0.20417725,0.83971214,0.027798608,-0.9004965,-0.576271,0.26131952,0.88723576,0.96349734,0.5993315,0.5122869,-1.1058334,0.7532081,-0.5704723,0.019081641,-2.464581,-2.2217019,2.8770757,-0.27724037,0.122668505,-0.21302924,0.52518976,-0.45969874,-0.27360544,0.7018791,1.0408235,-0.054165397,1.8148944,-0.082434624,0.9698426,1.8509053,-0.73611253,0.6278649,-0.34784257,1.4026879,0.17955625,1.4880532,-0.7213864,1.1453311,-1.0937036,2.314361,0.933147,0.52893585,-0.20526761,1.2668624,-0.8416948,-1.9452106,-0.03510645,-0.76421255,0.36115453,-0.4429151,0.36094487,1.8021328,1.9948788,1.0814452,0.023861174,-0.14655572,-0.348363,-0.38987577,0.55790347,1.6201499,0.052618906,1.9399781,1.6143962,-0.11933349,0.98192316,2.3289082,-1.6812849,1.1667477,0.23106992,0.952186,-0.14671639,-0.48751825,-1.2038935,0.25889415,-0.36156136,1.8996353,1.8050222,-0.6965105,-0.6282851,1.5288395,-1.8482518,-0.38926652,-1.5344049,-0.68569934,-0.49543476,-0.025097929,0.80483943,0.46947345,0.48701018,-1.5398574,-0.74618495,-1.1359013,1.8938661,-1.2560487,0.5329252,0.14834896,-4.009885,-2.29802,2.4743383,2.314455,0.9799807,-2.3702805,0.37820265,-0.08368468,0.1137199,0.01749348,-2.546306,-1.4304417,-0.5090122,-0.9366946,-1.3389719,0.3394593,-2.0357027,0.15618177,0.7593862,-0.5471831,0.75224894,-0.6612939,0.5721866,-1.4090528,1.2709885,-1.2065247,-2.194055,0.02162866,-0.9230539,-0.047418192,-0.36115372,2.1746588,1.4075949,0.68869025,0.30851716,1.2810911,0.2057982,1.8402822,-0.4801938,0.071291566,0.29152963,2.1690593,0.2752856,1.1523387,2.3280225,-0.27093834,2.7394557
trippy,-0.9402435,-0.8259157,-1.3805883,-1.4165367,0.3200474,-0.89738905,1.0912921,0.9179149,1.1804317,-1.7789018,0.81725776,-0.24955034,1.271505,0.36909398,0.535862,1.9197297,0.09333496,-1.6804954,-0.32017276,-0.58515275,-0.42000532,-0.7924631,-0.8915776,1.6983693,-0.018680284,0.7350188,-0.5446178,0.18340328,-0.4994931,1.7776195,-0.9608273,-0.58221024,-0.16490301,0.533045,1.3245404,-0.11133655,-1.5050397,-0.46999148,1.8869804,2.2742138,1.8524847,-0.648086,1.2038584,-0.685492,-0.3952306,-2.0886252,3.098442,1.734925,-0.5576509,-0.39711678,1.4174831,-1.3644185,0.56584305,-0.40015826,-1.6458179,-2.014318,-0.9544725,0.10313976,0.65509784,0.49167627,1.7057295,-0.25013563,0.9200377,-0.6565286,0.4566425,-1.9683349,0.710358,1.6959717,-0.34280035,2.7324045,0.81389254,-0.13445516,0.7775575,0.2966789,0.8537082,-0.5367633,-0.110028766,1.3953072,-1.0601069,0.44837245,0.48381445,-1.5905176,1.528079,0.41591492,1.6978067,-1.4526165,2.1422374,0.73008853,0.17658752,-0.73528814,-0.22879489,-1.3308159,-0.3728285,-0.65464133,0.9180344,1.3931371,-2.2770705,0.2776693,-0.23911995,1.1870689,-0.8169053,1.318953,0.71256745,-1.7772772,-1.230256,-0.3005597,-1.3909953,-1.2132351,0.50161505,1.4687388,-0.10821349,-0.15304479,-0.45798123,0.15986189,0.9410391,-1.1961315,-1.675975,-1.6926682,0.95136166,0.17099488,-1.4593351,0.4872271,-0.5776078,0.34900305,-1.9398835,0.86236984,-0.6525275,1.6086308,-2.9050052,-2.763137,-2.114169,-2.5772507,0.605232,-0.59875286,0.8067193,-1.0552588,-0.006859743,0.88760126,2.1398752,-1.0452517,0.11997716,-0.764878,0.6701915,1.2132543,0.7088049,1.0264931,0.91728336,0.8917187,-1.2867571,1.4517016
dark,-0.7157673,-1.1031464,1.5959078,-0.8612318,0.08537499,-0.83814967,1.2676173,0.9682985,0.71404874,0.6144166,0.8497246,0.48148763,1.1364561,1.4797356,1.4704185,0.5420087,0.22732776,-0.7571733,-0.2194425,0.9952935,0.30871183,-0.9830243,-0.44952515,2.4249482,-0.91732824,0.38891187,-0.48539826,0.1497357,-0.6895765,0.5629583,2.147743,-0.5385893,0.50437057,-0.43887347,-0.373819,-0.8260543,0.20585454,-0.98032707,1.569634,0.6532865,0.57089555,0.05708825,1.2387754,-1.1190464,0.22954223,-1.2276648,1.9359494,0.5248231,0.6710093,0.056791328,1.2080282,-2.0798926,-1.2602054,0.438753,-0.66766024,-1.1961391,0.6409607,0.5334284,-0.31106672,0.79065853,-0.3503829,-0.009228056,1.3258487,0.1521338,-1.746485,-1.5022607,0.81597865,1.4441106,0.6689869,0.695361,0.4388763,0.29183078,2.012818,-0.1853242,0.7206747,-1.4321797,-0.14493385,0.5037298,-1.4099925,-0.7737019,0.265789,-0.69787645,0.9147826,0.20939754,-0.038198944,-0.4382279,0.09496174,0.20994276,-0.32468507,-0.5597571,0.09573074,-0.6154351,0.62606066,0.77912104,0.19782597,0.0568719,-0.44937983,0.2550422,-0.66788584,0.7250386,-0.53935826,0.81461895,0.37955448,-2.8469799,-0.42218456,-0.30226392,0.6204943,0.091229685,-1.3032913,0.88648194,0.5550257,0.63640445,0.5304369,-0.94214565,0.5563717,-1.8413966,-1.3355954,-0.8370656,-0.33781767,-0.6616794,-0.13487992,-0.06971451,0.52415115,0.8307092,-1.3919265,-0.01201283,-1.5398917,1.3027452,-1.6469553,-0.9709387,-0.34819832,0.21231493,1.8030298,-1.1973389,1.6557559,1.8877844,1.2273276,-0.047765482,1.0736452,-0.75400996,-0.03496389,-0.52022886,-0.30533317,0.30030823,1.2957603,0.3926152,1.1848546,0.8879938,-0.3701818,1.4271364
lonely,0.069159254,-1.7436411,-0.27496803,-1.3999058,0.099518955,-0.5529978,0.2221997,0.8070958,0.34250337,0.9551108,1.265795,0.032836106,-0.15976557,1.3612034,2.1040316,0.26482108,1.228415,-1.7006623,-1.6226332,-0.27361497,-0.81339514,0.033902798,-0.5446046,1.1993781,0.24845317,0.6459803,-1.0759481,-0.10461079,-0.07734161,-1.041752,0.7432343,1.0543821,0.6706524,-0.8446933,0.64295673,0.6084131,-1.2988774,-1.9624013,0.86388737,0.46592516,1.1087475,-0.057803717,0.010435448,-0.5858508,-0.65964735,0.76980823,0.7331863,0.32162863,1.1247771,-0.25366217,2.3798828,-0.15447538,-3.2247963,-0.27699262,-0.77898484,-0.18269795,-0.79791504,-1.1903387,1.4367344,2.5325556,-0.6911905,0.7781131,-0.20074032,-1.9010078,0.1558582,-1.6155708,1.3610193,1.1945742,-0.19832984,1.6374711,0.5533752,1.6590387,1.2385281,-1.193996,1.0534346,-2.3033173,-0.22995514,0.6817206,-0.7624821,-0.54064536,-0.24031252,-0.6345407,1.4655648,-0.46251738,-1.2820892,-0.2237807,0.19943276,-0.8682927,0.16170368,0.96911114,-0.20200965,0.3681547,-1.6895913,-0.7636342,0.6239122,0.29808223,-0.17475511,-0.1315916,-2.300516,1.3838348,-1.4376459,-0.27368465,0.15322158,-1.5132319,-1.0882062,-0.73162836,0.04482782,0.9139565,-2.233851,2.046025,0.103332356,0.10750087,-1.0346888,2.3520544,-0.46057644,-0.20866087,-0.44332987,-1.4216965,1.331308,-1.4118634,-1.422713,0.5007655,-0.85181195,0.07442531,-1.5411267,0.27881265,-1.8343595,2.550926,-3.6276405,-2.205395,-0.6944501,-1.3210624,2.328551,0.31739482,1.1825786,0.93244207,1.325342,-0.24982172,1.0986456,-0.16442473,1.510097,0.5799937,0.39450803,3.4220328,0.94530463,-0.64701545,1.41976,2.0053594,0.41931608,2.059848
quiet,-0.586589,-2.4058595,-1.5068651,-0.8395333,-0.47706544,-1.5061712,-0.4403041,0.029521419,1.1261756,1.401561,1.0534418,-1.2913089,1.0943247,1.6758922,0.7371745,-0.20478763,-0.09853348,-1.5198823,1.060752,1.5907905,0.05048524,-1.6008569,-0.6364027,2.1965399,0.6332975,-0.052837647,-0.9404571,-1.3069837,0.7277468,2.3326335,0.5892916,-0.003254076,-0.41964102,-0.6738568,-0.8571319,1.4298968,-1.0170658,1.1816248,1.8222275,0.6970546,2.408127,0.74382365,0.6873475,-0.6924312,0.74290895,-0.07092212,0.76782906,1.655727,-1.3619795,-1.7639158,-0.05936381,-0.514705,-1.5451596,-0.34998754,0.37861437,0.9250305,-0.604628,0.40142944,1.6147678,0.016460039,1.225284,-0.3232973,-1.261056,-1.4362979,1.022438,-1.0685941,0.16816124,0.55302954,0.71685004,2.4889448,0.36001962,0.59681886,1.9262887,-0.47447354,0.8466076,0.84459376,1.1619598,1.8342308,0.2899745,-0.76003265,0.43588915,-1.126316,0.71563995,2.8101385,-0.38551822,-0.63435674,0.9578591,-0.5523135,-0.20910601,-0.11385491,-1.1374353,-1.5248797,0.072962545,1.3459474,1.2782704,-1.6980412,-0.8038429,0.13743801,-2.7893972,0.06847205,-0.72105604,0.6702188,-0.30811474,-2.1874063,-1.3205795,0.17178777,0.40643665,0.8165213,-1.6980101,2.9900472,0.8099881,0.24067824,0.40615642,0.5143636,-2.234617,-0.48115197,-2.6876538,-1.3310347,3.0776207,-1.1958778,-0.12228031,0.32571736,1.7694422,0.45164573,-1.5205005,0.2555147,-1.7686568,0.48977068,-2.867479,-2.0150106,-0.20573851,-1.1195499,1.9755739,0.56450444,2.081293,0.58384967,1.5309273,0.8059665,0.36892286,0.85214025,0.47565836,-0.44550756,0.035789095,1.079997,-0.71003795,-0.74804634,0.45989248,1.1655345,-0.14988971,1.6761676
tired,-1.5471792,-0.15250112,1.0093436,-0.09311364,0.68711007,0.2515925,1.6750027,0.90991056,0.9361235,-0.42716804,0.9528292,-0.9365124,0.26673707,2.273068,2.399874,0.79126173,-1.6877065,-3.5503988,1.5902954,-1.4576668,-0.18669859,-1.6448214,-1.0679317,3.1433265,0.37658346,0.29228437,-0.72195727,-1.6319027,-0.11593998,0.22150943,1.5356122,0.5085323,0.007091201,-0.6450853,0.9029913,1.4898546,-1.9616296,0.2985508,0.19234227,1.1462804,1.4767972,-0.6218506,-0.07125307,-1.68133,-0.7368811,-0.590189,0.94526684,3.32465,1.5583732,-2.463255,1.7832778,-1.9594585,-2.7307246,-0.6149966,-0.71087587,0.42339957,-0.5406167,0.16397648,0.17484622,2.0223198,0.21027756,-1.6543796,1.3139671,-0.8128923,0.91941917,0.651782,0.3195526,2.7963824,-2.4103255,1.8391595,1.7533865,3.3414087,0.47550055,-3.7137134,-0.83112127,-2.4693825,0.9787719,-0.7023277,-0.97414535,-2.4254975,1.5818473,-0.747038,0.1973248,0.5988379,-0.37551722,-0.06276468,2.466198,0.85792017,-1.257635,0.28574103,-0.099040024,-0.033614554,-1.229931,-0.08984988,1.2497735,-1.0899941,0.4785346,-2.9840744,-0.18457434,2.603948,-0.5886406,1.502847,1.1192093,-1.2890499,-0.297175,2.156792,-1.63396,1.0764018,-2.1021411,-0.4180229,-0.63192666,-0.78525865,-0.84577686,-0.04701201,0.455448,-1.5611042,-2.2944033,-1.7132086,1.1164303,-0.12823942,-0.5769105,-0.5933395,-1.9559308,0.65332806,-1.8928328,1.4775599,-2.7068195,1.5989685,-4.1854167,-2.1236935,0.06258592,-2.3432562,1.8603595,-0.19032031,1.0128467,-0.15695345,0.81573844,0.9485576,2.4427907,-0.7098319,-0.2846919,-0.96258855,-0.7147015,0.33174983,-1.3342949,0.34549385,2.4366632,-0.84001154,-0.051372997,0.914993
gloomy,-0.34299496,-2.6712022,1.2014241,-0.8530072,0.9478531,0.59206104,0.74183905,-0.9004994,0.9706941,1.31706,-0.62220687,-0.3077966,1.3033212,0.32367587,1.8101827,0.8559842,-0.088075005,-1.9191512,0.0669255,-0.134222,0.8273896,-0.57581675,-1.4762099,2.3733609,-0.26739317,-0.5910516,-1.0056825,-1.9505897,-0.71614724,0.9103468,-1.4580668,0.27590898,0.20427759,0.5706447,1.1527737,0.27868888,0.15218355,0.15877351,-0.41599247,1.4497163,-0.3545669,-0.68209743,1.3144902,-1.7347862,1.4848444,-0.8493101,2.0193145,0.18528345,-0.16670142,-0.24752314,0.41710144,-0.9871377,-0.9044708,-0.9094865,-1.1227611,0.4046197,-0.38487104,0.26868388,0.9903848,0.12540634,1.2168406,-0.087116525,0.21046883,0.0012942501,0.9444769,-2.057316,1.743927,1.6390458,1.3895838,1.3714819,0.6864049,0.112610854,0.79150385,-0.50625545,0.98881596,-0.7541139,-1.3021433,-0.5253708,-3.0064006,-0.9695938,0.35737517,-1.3168557,1.692637,0.19293337,1.2015837,-1.1839403,2.0150783,1.3046337,1.0419748,-0.60804474,2.5911202,-0.25603506,-0.27566856,0.51877385,2.011866,-1.4931526,-1.2603778,1.6885389,-2.879348,-0.025837561,-1.6420097,2.3429902,1.9490783,-2.8454728,1.4701335,-0.017981071,-1.4086139,0.3990145,-1.359757,1.3478147,0.5988764,-0.0103135025,0.5759684,0.7443771,0.66836363,-1.7112399,-0.9759051,-0.5271083,1.4472165,-1.85379,-0.34179568,0.23950759,0.32571054,0.43029168,-1.4877424,0.5556265,-1.1926572,0.7191041,-3.0263336,-2.4193888,0.33442503,0.7954633,1.626558,0.5096172,2.1676588,0.18802275,2.2592967,0.83474034,2.1794238,0.45118782,1.0859144,0.27037886,0.078222625,1.2864623,0.682901,0.34679216,-0.962602,0.7626177,-0.6117342,1.9104378
loud,-0.6718719,-1.433135,1.0775905,0.07652305,0.30588692,-1.9959762,0.34505746,-1.7524827,0.8592227,2.1580887,0.08335345,0.8107757,1.4713005,-0.49068674,2.1593444,0.25221404,1.4239401,-1.260163,0.15153332,0.25713024,-0.27907273,0.059629336,-0.29045972,1.2747198,-0.7623152,-0.2977048,-0.69792694,0.6143693,0.11963429,1.3079263,0.5965427,-0.9262265,-0.27082705,-0.71815264,-0.28041038,0.10904243,-0.9606595,0.34328848,-0.5803908,0.6547787,0.14741628,-0.99539816,2.1128647,-0.74995947,-0.31148213,0.012123223,1.9387193,-0.23579004,-0.45240134,-0.27199003,2.0280046,-2.069893,-1.6963227,-0.5379171,0.76213205,0.78507596,1.0107172,-0.1097358,1.1437465,0.4617493,1.0610322,-0.59983325,0.51130146,1.0392632,0.400968,-0.6129188,0.5732079,-0.6286357,0.9148752,3.0635002,0.64550734,1.8615105,1.25172,-0.29879224,0.11547507,0.33951685,0.58021617,1.815702,-0.045437966,-0.026880598,0.5285084,-0.24675119,0.7602195,0.069181465,-2.4783924,-0.042607717,-1.7892941,0.6187435,-1.711739,-0.117608905,0.7229186,-1.1625262,-1.7295852,0.545267,0.9628949,-0.08916972,0.7292539,0.23096009,-1.4866172,0.63460153,-0.5077902,-0.40713015,1.1768496,-3.3844435,-1.2150475,0.6427311,-0.0012654244,1.1235548,-1.4036465,0.06968786,0.16229434,2.63554,-0.06267695,0.92472744,0.009054073,-0.8761487,-1.3322167,-2.0147278,2.1685786,-0.3717517,-0.65414166,1.2805116,0.00049287727,0.031874716,-0.7971909,1.5053829,-2.5655093,2.4448142,-2.8430197,-2.4061022,0.69827783,1.2954378,1.4848065,-1.1529318,0.41466475,-0.25626248,1.7099129,0.3421119,1.1881399,0.8096928,0.74946564,-0.9962255,1.1857731,0.214132,-0.96315867,-0.8861253,-0.039372608,0.74226373,0.45246562,1.449097
bitter,-1.3937961,-1.1058289,-0.78946424,-0.24139367,0.48796174,-0.636176,1.5972233,0.6180991,1.5735731,0.05042226,0.35539046,-2.008752,1.6669544,1.0835593,0.49223465,-0.6131753,-0.93413776,-0.6252261,-1.0779723,0.71221375,-0.2070993,-1.2186804,-0.30923036,0.8364867,0.4429109,0.5801437,-1.6111788,0.046017278,-0.6945744,1.634776,1.1060784,0.33984447,1.6195878,-0.46058658,-0.33141145,1.9401401,0.17194468,-0.11663077,2.3439531,1.3814605,2.1454859,0.6900909,0.75324494,0.69560975,-0.80672705,-1.9494289,3.8154452,1.3053788,-1.5465064,-0.099799156,1.0829749,-1.5351797,-0.64913565,1.0143129,-0.3151345,0.023840198,-0.05885263,0.51908994,0.5662238,2.855813,0.39046124,-1.5781078,0.63055456,-0.60582143,-0.7259784,-0.07997114,0.33052996,-0.1700219,1.5562928,0.11361476,-0.009424616,-0.528943,1.377307,-0.9104353,1.4206272,0.4473656,-0.2182505,1.644452,-0.14652775,-0.61539185,0.5518072,-2.275377,1.155272,-0.024853317,-0.6539703,-2.23343,0.35333282,0.04263521,-0.11898252,-1.0313766,-1.9105791,-1.6455216,-0.33645004,0.77529675,-0.21990636,0.29916248,-0.54261714,1.3561525,-1.2364672,0.4361869,-0.5965241,1.4166793,-0.6639626,-3.2918696,-0.7829868,1.0065874,1.7204627,-0.16299424,-2.091546,0.4501807,-0.5498934,2.315161,0.32897475,0.066752434,0.30643168,-0.8004866,-0.3910361,-2.2192202,-0.25643942,-1.3882823,-1.1608362,0.51534534,1.6109579,0.16133952,-1.5882484,0.6848937,-2.3156722,2.0477219,-1.6386424,-1.2915516,-1.0867426,0.5662932,-0.18461682,-0.25571612,3.008623,-0.24088864,-0.18176831,-0.5991821,0.7845276,-0.34138113,0.31721696,-0.120851435,0.8036749,2.400619,0.58470017,-1.2055658,1.5032573,0.06368341,-0.4867416,1.7257336
longing,-0.5805709,-0.3701055,-0.71646535,1.2543359,1.3872267,0.85313845,1.5906599,-0.87494075,1.8196003,0.6457479,0.83154243,-1.1388329,1.4943229,2.4364808,1.3795661,0.08862328,1.9392747,-0.024966035,1.1802609,0.32664996,-0.03512485,0.4548228,-0.58214194,0.7542368,1.5405302,-1.2842574,-1.6164855,-0.23427941,0.4656983,1.4934119,1.2603137,-0.70074975,-1.1517363,-0.9542678,2.2882063,0.34657738,-0.26556337,0.09486382,1.6678293,0.79497445,1.1475005,-0.3223879,1.5612832,-0.51607984,0.40525293,-1.97871,1.4202577,1.3712561,0.45059016,-1.0890651,0.52514553,-0.39934474,-0.9928708,-0.5464733,-1.2791737,-0.5280639,1.4580865,0.21965119,0.8895948,2.1083035,0.2203144,-0.25394404,0.27188343,-2.141746,0.020324923,-1.879617,1.2205739,1.7351161,2.974878,1.5701059,0.83547676,-0.05176151,-0.66488224,-1.2545435,0.17874269,-0.8899173,-2.211451,0.16583976,-1.3832768,-0.62280434,-0.52653414,-1.4461513,1.6295621,0.7970242,-0.34072322,-1.5659356,2.0682287,-0.42365122,1.3341461,-0.35267147,1.8437815,0.08205532,-0.48246387,2.7691016,1.6720895,-0.991161,-1.5381802,0.37994555,-1.1067537,0.32261848,-0.5205384,1.1746007,-0.9608745,-2.993581,-0.075850144,0.26914614,-0.15254188,0.6263109,-1.4453695,1.9392163,0.30336756,0.13254507,0.959111,-0.30209944,-0.02197553,-1.912581,-1.6871632,-1.7066563,-0.18539912,-1.3013687,-1.9087297,1.2882861,0.54223573,-0.4283362,-0.3916387,-1.6970372,-1.7024353,-0.11468128,-0.982412,-2.7966163,-0.48901477,-1.4730146,1.1235751,0.33660442,2.4227374,1.7923509,2.0872397,0.7859006,0.5605987,-1.0578802,0.7761118,1.2883974,0.3211589,0.9701556,0.67189866,0.0025733067,1.8810878,0.19690208,0.074737206,0.51574516
hypnotic,-1.9374073,-1.5013047,0.10769563,-1.4837368,1.1931974,0.49267173,0.17831367,-0.012256791,0.6160451,0.6534908,1.846098,0.2479071,2.5427153,2.3695264,1.4261444,-1.1138175,0.32894236,-0.45739,-0.24239622,0.19692808,-1.214196,-1.408943,-0.24139048,1.8222669,0.65705454,-1.5371298,-2.0465357,0.75014454,-0.9465518,-1.154846,1.5909084,0.43224332,-1.5490621,-0.74398196,1.9690655,1.3247757,-0.4894053,-0.42068335,1.0812835,1.3180317,1.8051846,0.28687313,0.540764,-1.1619513,0.35828823,0.40194795,1.885569,0.7540936,-0.556766,0.31472588,1.962132,-0.5638504,-0.24022916,0.39770648,-1.1721241,-0.029635713,-0.77670324,0.4836549,0.017718853,0.42856294,-0.8177993,-0.30527464,2.1629117,-1.5235082,-0.16019946,-1.6931885,-0.64898056,0.32000884,-0.08858297,0.96281195,-1.2905947,0.018197589,-0.7569832,0.66573673,-0.45409265,0.90032756,0.77525294,-0.15511434,-1.1218283,0.5232929,0.6562198,-0.034219824,0.62374777,-0.054020394,0.417645,-0.8220145,1.818723,1.2116464,-0.33709806,-1.0543258,-0.33572623,-1.1524646,-0.54509443,1.1451471,0.04481711,-1.3216565,-3.9963422,-0.5471457,-2.7981048,-0.3593146,-1.4969792,2.3140824,-0.89586514,-1.6439959,-0.64681447,-2.0765958,-1.8403618,2.6006124,-1.7976236,2.2453532,0.19392422,0.030376358,-1.3215508,0.25032148,-1.5021816,-2.9675121,-3.0148568,-0.6539696,-0.5348427,-1.6151354,-2.0277815,1.7633587,1.6466544,0.70297134,-0.56009316,0.05807547,-2.874299,0.5244576,-2.5422404,-1.2378529,-1.2452674,-3.0718954,-0.09589304,0.96714085,2.8051376,0.04151313,0.41661197,1.1694319,1.6809942,-0.82080936,2.0752451,-1.3302091,0.20145957,1.1584901,-0.74579734,0.45692816,0.28037462,0.3302743,0.3603026,1.6898923
serious,-0.27336854,0.47671726,1.3695874,0.6474729,-1.1015472,-0.3988329,0.10127362,-0.28536382,2.2401814,0.5428774,1.8450067,-0.14657599,1.008202,0.9842133,1.0733722,1.4112533,0.28846252,-1.7946678,1.3455318,1.2807727,0.27518794,-1.8147407,-2.2451768,1.10954,-1.2257259,0.08030827,-1.6102601,1.1496849,-0.08527936,1.3621327,2.1744094,-1.5466385,-0.05193682,-1.5409694,1.8208376,0.7964989,-0.14622825,0.057719935,1.0661842,-0.46962687,2.3474782,-0.0889663,-0.11043344,-1.0507938,1.9686831,-0.5064781,3.6425877,0.17127006,-1.1030759,-0.19413944,2.8276122,-0.9603743,-2.1277256,-1.0891657,-1.7901101,-1.7238182,0.14638855,-0.66270435,0.95222896,-0.5919029,0.2784945,-2.0183055,-0.9882889,-0.7095868,-0.01872119,-1.4891813,0.45418584,-0.084372684,2.4822307,0.66995543,-1.3991709,0.57316476,1.490105,-1.7336153,0.7431689,0.90697205,-1.9058096,1.4472159,-0.13738912,0.20507956,0.85589033,-2.4380019,0.84672695,0.04629207,-1.4513644,-1.9265556,-0.18084627,0.2687974,-0.72927,-1.4602292,1.9842376,-1.7945384,-2.452689,-0.07090024,2.1462152,0.3098544,-2.069122,-0.06994506,-2.067411,-1.0110787,-0.71305275,0.675847,-1.0320003,-2.8085468,0.38225818,-0.32950836,-1.644738,0.54242134,-1.2098727,1.1214085,0.34114835,0.18975855,0.5141914,-1.1053511,0.600927,-0.9296677,-1.9945878,-0.6985939,0.5580787,0.5777329,-0.6650534,0.43257338,-0.063509755,-1.0761149,-1.5253668,0.32814232,-0.5243122,0.78165853,-3.0155592,-0.99921453,3.0185444,0.26153758,1.2298143,0.25064868,3.0121334,1.5309639,1.3500438,0.6348014,0.8319245,0.2555288,-0.022776537,-0.85996276,0.13234855,1.5860293,-0.46252108,-0.14832287,0.18950605,-1.5406576,-0.15348399,1.3006467
exciting,-0.24713326,-0.7489707,-0.38933188,-0.5497604,0.5547781,0.67613137,-0.85983795,-1.2918352,1.9387263,0.2117841,1.3679812,1.6624874,1.6368532,1.6553425,0.13918933,0.99868,-0.50597954,-0.50930816,0.36530212,-0.0025105418,0.14272508,-0.77438194,-1.6719303,1.8264467,1.0202457,0.040942866,-1.0090259,0.90343755,-1.1495128,2.251476,0.57211554,1.1982074,0.866447,0.34966728,1.160239,0.63864607,-0.39687288,1.1896318,1.1790507,1.8583556,1.5873803,-1.5206894,0.47734258,-1.2113068,1.268835,-2.9316423,2.4106317,0.7656268,0.3415833,1.1852304,1.2793393,-0.5477848,-2.7785342,-0.127507,-1.7398511,-1.1803784,-0.14424723,0.5710399,-0.3674223,0.1326593,1.6466918,0.32112348,-0.08154872,-1.9435698,-0.68012035,-0.87878615,1.0971396,0.6151954,0.89011,2.670059,-0.20705062,1.144648,2.1779764,0.17791767,0.63976604,-0.27918726,1.2172691,0.33555287,-0.04479936,-1.4192609,0.662957,-1.7308381,1.1636966,2.2556024,0.06053389,-1.0263256,0.95974714,0.531237,0.097085424,-1.7309257,-2.0852919,-1.0039465,-1.7976787,0.43416157,-0.26540062,-1.1672444,-1.7872266,1.0756801,-1.7055817,-0.45490354,-1.4625266,2.2729743,0.5882917,-2.0998483,0.11885544,-0.68451464,0.060568836,0.11230838,-2.1724281,1.2498099,-0.56794035,0.8366752,0.03412996,-0.26876122,-0.152076,0.22774833,-1.884914,0.542712,1.5382651,-0.82333124,-1.3702887,-0.79335195,1.3652596,-0.62920606,-0.9014097,-0.21196184,0.21828099,1.5231868,-2.6936464,-1.732069,-0.9678512,-1.3886528,0.8736499,-0.73426855,2.3033707,-0.4959616,1.1839077,-0.3430953,-0.23302138,-0.044285152,-0.6566791,0.47363508,-0.41690892,-0.7287013,0.15575461,0.42358088,-0.5086378,1.0513598,0.83608997,0.2290296
cheerful,-1.0759593,-1.4408482,0.33963078,-0.9490768,1.2876983,0.30475846,0.6979282,0.83738685,1.9985693,1.5916952,1.3164421,0.03709232,0.71895343,1.7656324,2.0429385,-0.334042,0.16578819,-0.6935283,-0.780327,-1.1640652,-0.5123169,-0.7400138,-1.1113474,2.7152238,0.2645924,-0.5517465,-2.1122863,0.8679438,-0.24392541,2.3508499,-1.0697038,2.0120928,-1.6003218,-0.9141068,1.7083963,-0.6586312,-1.2517344,-1.0095298,1.6803485,0.96218085,2.123356,-0.639708,2.5324128,0.27964482,-0.884637,-2.4568815,2.7551205,-0.9129109,-2.4737723,-0.1253762,0.74914455,-1.3109092,-1.7189614,0.0096622575,-2.664038,-0.84643,-0.69975394,-0.4091547,-0.46120426,1.5599177,-0.05982666,-0.7241982,1.357892,-2.3171155,-0.8564448,-1.6978861,1.2847173,0.9353132,1.7480947,0.6719733,-0.017128171,-0.028755972,0.613041,0.11598562,1.3411047,-0.044474103,1.3337637,0.0071072457,1.2044176,0.43207127,0.28204384,0.058880553,0.88788867,-0.086633876,1.7561101,-0.42442772,1.1322783,-0.6800133,-0.8683596,-0.58009416,0.41103452,-2.1915083,-1.3544707,0.5660323,1.0715728,0.023265956,-1.2677026,-0.4410086,-0.4761221,-0.57054055,-0.15676016,1.8928154,-0.6007239,-0.9576607,-0.9097052,1.0531163,0.25150764,1.1278182,-3.139147,1.8204954,0.04033018,1.5326833,-1.6106097,0.43578243,-0.673313,-0.57589746,-3.0075486,-1.3391123,1.4631426,1.1290685,0.10144676,1.1819806,-1.0393561,0.13718922,-0.61159605,0.8454849,-1.2958246,1.6418238,-1.234741,-0.72721696,0.59809715,-1.03234,1.4823798,-0.462478,1.2678514,0.24234751,-0.75208086,1.0703619,0.13864684,-0.9020624,-0.7351058,0.9277565,0.04441134,0.19351697,1.2186443,-0.5943106,2.0318563,-0.33786604,0.21782236,2.939006
meditation,-1.5365546,-2.5302215,-0.57891446,0.5685747,0.7040479,-0.6816078,0.99318016,1.7040582,1.7147007,-0.19888695,1.0992594,0.46150234,0.32160443,-0.2614386,1.2834855,0.7834063,-0.3906182,-1.9626689,0.0014903047,1.4453143,-0.7204794,-0.4856015,-2.5469465,0.188374,0.33077767,0.21184766,-1.9890118,-1.4412249,-1.8445139,3.0228367,1.3818054,0.5630679,1.8937521,-0.41821268,0.49470484,-0.22534655,-0.628177,1.3218031,0.30300522,1.0488738,1.1957909,-1.1943874,1.6369344,-0.65627575,1.7209159,-1.6309787,1.8337687,0.48704362,1.3580158,-1.1770085,3.2933517,-1.3108431,-0.9227907,-0.28021926,-2.56627,1.6751657,-0.747095,0.8356663,0.78264815,3.2356458,-0.7069982,-0.31017286,1.4504133,0.09463011,1.2143033,-2.2798386,1.16183,0.1308556,1.6671227,1.6024964,-0.36285728,0.84828055,1.4443861,-0.22436604,0.22169863,-1.821559,0.519814,0.32133406,-0.35794666,-0.18503205,0.8867795,-1.9944205,0.43186292,1.422055,0.38484532,-1.4824176,0.60056806,1.4220796,0.58789045,-1.1183822,-0.6174698,-0.87158847,-1.3121802,-0.12563676,2.7231257,-0.94923896,-0.53942734,0.49671298,-1.1927683,1.3722482,-0.99821514,0.931838,1.9458832,-1.6963193,-1.1104336,-0.44054508,0.7253878,-0.25017437,-2.689039,3.0903606,0.67706585,-0.3683009,1.0440539,0.7703742,0.41371194,-0.8498191,-2.0569487,-0.9735419,0.6958867,-2.0721686,0.3882161,1.1091568,0.6511404,0.9955491,-1.7161487,0.48596686,-1.2397206,1.5404084,-3.1988773,-2.0860267,0.40306765,-1.541281,2.0491908,-0.18751565,1.7276999,0.8283938,-0.26359588,0.33735067,1.3852916,0.38257477,-0.30522537,0.09820152,0.15491128,-0.2269036,1.2231793,1.5920973,1.505187,1.5127017,0.111584805,1.1984283
bored,-1.4723965,-0.68761426,0.003920931,-1.310477,2.2322004,-0.24372289,1.1954796,1.9484398,2.6124556,-0.770627,0.32889858,-1.6831759,0.55460125,1.6671271,0.2699282,1.5584235,1.1936036,-1.017859,1.0198213,-0.017891776,0.06186842,-1.1212274,-0.19731751,0.4252873,0.33486262,-1.8628883,-1.5167375,1.325501,0.11170321,-0.20621105,1.1118824,-0.567384,1.543129,-1.7864219,1.4454976,3.9701958,-0.93654287,-1.1528212,-0.15052271,0.2960252,2.2090394,2.2878973,2.5112193,-1.6429552,0.11062172,-0.051946677,2.2052712,3.1013546,-0.09215008,-2.0898185,0.56889105,0.27195248,-1.6142132,-2.0262563,0.0083318,1.5331227,1.644033,1.7963558,1.2258679,-0.80290467,0.44669938,-1.6510262,-0.11499658,-1.5314901,-0.12834871,1.1519533,1.557021,0.55239636,0.50446975,1.8300463,0.04884718,0.33502632,0.76673216,-0.5856108,0.3562694,0.27416912,0.07157151,-0.11262682,-0.9603421,-0.88579714,-0.3483253,-0.87399536,0.1553101,1.8827289,0.49618182,-0.67389786,2.2010481,-0.160177,-0.37397403,-0.64130783,0.48536596,0.83306885,0.65641254,0.7052469,2.14477,-1.2186935,-0.7949577,-2.0734131,-1.9402999,0.34286684,0.5191761,1.371991,0.5210894,-2.0807123,-1.5275744,3.1453736,-1.4683622,1.8167292,-1.0513102,0.92765695,-1.1315683,2.2638538,0.37017795,0.75983196,-0.15009768,-0.19637199,-2.4744022,-2.438857,-0.21298093,-0.36798194,-1.5058814,-0.32746533,-1.9966091,-0.65200204,-0.73698795,0.9380923,-0.56944937,2.8285809,-3.7691677,-2.490029,-0.5594898,-0.4616067,0.56071234,-0.9966049,2.3887324,0.20622164,2.5530763,0.43571705,2.03292,-2.2277396,0.87024224,-1.0357196,0.5318393,2.495172,-2.188941,0.29511595,1.8837057,-0.88464606,-0.2176933,0.47823396
passionate,0.97147584,-0.11468513,-2.509197,-0.86354136,-0.44773597,0.113065265,1.1750716,0.10981975,0.83550406,1.0289478,2.218587,-0.10952878,0.8695367,1.3395176,2.188057,0.184688,0.72379184,-0.64276713,0.30243325,-0.02994617,-1.3621451,-1.9153376,0.1333023,1.7920159,-0.6317636,-0.2231161,-1.4537315,0.8659368,-0.4233476,2.0855381,0.38440606,0.20952387,-0.10121042,0.04245974,-0.41728953,0.6253191,0.09695622,-0.63592964,1.2500217,2.0088985,0.5927564,-2.1310651,0.7701666,-0.99492127,1.229667,-1.0527389,0.39609078,1.6602312,-0.38614538,0.6006108,1.5855166,-0.40747523,-1.0999027,-1.641652,-1.5801076,0.8467238,0.49442628,0.6835273,1.067097,2.5245445,-0.8058152,-0.030612934,0.3509069,-0.60424334,-0.50927174,-1.0189401,-0.3348631,1.4226276,2.3053086,1.0741327,1.3933324,-1.4733009,1.4669409,-0.3185202,0.313842,-0.1276236,0.88739026,0.64693934,-1.6746233,-0.017412305,-0.7978076,-0.9899589,1.0029769,1.6666636,1.4170247,-1.3108637,1.5064071,-0.031790175,-0.0008449132,-1.6095724,-0.18196107,-0.10140225,-1.1829857,-1.194958,2.5582724,-0.3448724,0.34377,0.28441998,-1.9463102,1.1553627,1.3406112,1.8490053,-1.2561175,-3.6615922,-0.577601,0.50807387,1.456684,-0.07550102,-0.9846561,1.0261973,0.29972908,-0.20468383,-0.3046533,-0.33531183,-0.06156435,-2.076711,-2.0332625,-1.6460117,1.7758172,-1.2479621,-0.18243761,0.6464321,0.20528232,-0.7187091,-0.51944894,0.107578516,-1.7458509,0.41651765,-1.8271761,-2.2221777,-1.5508916,-1.2791167,1.1435086,0.026430257,2.7529085,1.4947026,0.918922,1.0730422,1.3892007,0.5512808,1.1100833,1.2843779,-0.066781595,1.8331168,0.021885695,1.6926483,1.5623717,-0.25441,1.0488386,0.7010604
sorrow,-1.2935168,-1.5654802,0.14466682,0.020481171,-0.115371734,1.2877414,0.81655836,-0.39239556,0.9103263,0.3988159,0.7718312,-1.3394189,-0.27951485,0.804088,2.665307,2.556534,0.6507958,-1.6298524,0.34886998,0.47203568,0.11656959,-2.0245438,-2.0820537,1.4360092,-0.28673884,-0.11031603,-0.95306724,-0.41449124,-0.726811,2.3804083,1.5195895,0.54398537,1.0279559,0.5884396,0.6314891,0.67585444,0.15089545,0.96914524,0.18012351,-1.249343,-0.22084394,-0.43397558,1.32198,-0.65131307,0.52609825,0.8782455,2.0201857,0.8443685,0.8620488,-0.7122463,1.5751089,-1.7193741,-1.3711137,-1.0911705,-0.7582467,-1.0185084,0.29814067,-1.4099625,1.0201197,2.1327736,0.76265323,-1.9359118,1.058231,-3.7461398,-0.84414035,-0.15515387,1.23414,2.7581933,2.4388306,1.0141652,0.80036724,2.0949833,1.4798671,-0.41401497,0.65129495,1.1774414,0.27551836,1.301196,0.50264835,-0.43271405,0.4038386,-0.093389764,0.7412563,0.48802856,0.15977672,-0.43119237,2.0764484,-1.1340169,-0.4167659,0.6651811,0.85878253,-2.130078,-2.0119493,1.8769438,0.8463972,-0.98067164,-0.8482952,0.12982875,-1.980486,0.1757596,0.5472054,1.7815515,1.0199531,-3.2443528,-0.17377661,0.85520357,1.2408588,1.2548182,-1.8122171,0.7379865,-0.38590646,0.24136388,-1.0359385,-0.40378177,-0.17739436,-1.450427,-1.3017907,-1.5625285,0.6133839,-0.7861969,-0.54105043,-1.1478361,0.0024660982,0.2859531,-1.8790095,0.059685454,-1.658526,0.61924684,-1.3847545,-3.0355628,0.51091987,-0.42024645,0.86552894,-0.043799,1.386098,0.67903125,0.5518495,0.14877877,0.95711505,-0.13374187,2.8208158,-0.027236948,-0.90000355,2.5582235,2.6811543,0.4916977,1.9479244,2.1689618,0.7966346,1.2006769
frustrated,-0.35575667,-0.84681886,-0.4052534,-0.43319726,1.1121733,0.30489084,0.24312836,0.042299986,1.0735589,1.2236471,0.7735147,-0.35898128,1.0988655,1.7078162,2.0130005,0.8871454,0.21196787,-0.9336527,0.975782,-0.14960824,-0.50336957,-0.63739216,-1.3469208,1.7865965,-1.4079826,-0.99645674,-1.7849126,0.6459521,-0.39581054,0.3518336,0.36128742,-0.8854243,-0.04425277,-0.6581901,-0.22299415,-0.5178023,0.7949514,0.72482944,1.6651115,1.2419193,-0.13071844,0.18592796,1.7455716,-1.2035476,-0.39394873,-0.621679,1.3904608,1.1329361,0.2302615,-0.73957723,0.05446689,-0.71802443,-0.1111866,0.4833148,-0.72564894,0.87599576,0.038140222,-0.82682306,0.23691678,0.79074997,-0.28920645,-1.688067,-0.22748561,0.06995593,-0.20857377,-0.50248367,1.4541298,0.47227332,-0.29293233,1.548314,0.5087129,0.5598474,1.7885635,-1.2343868,0.5975076,-0.09970281,0.3099596,-0.043067724,-0.39645988,-0.7889166,-0.47282788,-0.62721044,-0.31003067,0.4750193,0.51525694,-0.08781174,1.1011903,-0.31491265,0.20276494,0.19188443,-0.00061481324,-0.7310145,-0.71952456,1.1871504,0.2568634,-0.11290746,-1.0824835,-0.76885676,0.013213974,1.0188041,0.52800995,0.9588746,-0.2786205,-1.8096416,-0.60325557,1.2188724,-0.10181945,0.40312317,-0.87517637,0.5940136,0.24104854,-0.06113104,0.26968712,-0.13057218,0.9875599,-1.2913291,-1.9572119,-1.5981346,1.0366031,-0.001428073,-0.68740016,0.9078675,-1.0948833,-0.07356771,-1.2951643,1.1681429,-2.279317,1.2941006,-0.64019537,-1.8175793,0.09986991,-0.6042931,0.8740695,-0.5990429,0.3723995,-0.08534209,-0.24426411,-0.41569677,0.14283167,-0.5638346,0.7606086,-0.31983405,1.6119553,1.9979683,-0.13243914,0.2612302,2.2957823,0.6474015,0.26267204,1.1555642
miserable,-1.0527334,-2.4855206,0.009704174,1.114062,0.67673784,-0.6452034,1.172204,-0.34426102,1.6772543,1.4267614,0.40077707,0.4151741,1.4998759,2.6275764,-0.24482892,0.10665736,-0.33301547,-0.09351494,0.34226766,0.97125834,-0.16784869,-0.032047745,-0.6972515,1.070291,0.6624373,1.8479404,-0.72701526,1.4924778,0.9526343,2.2719946,1.9552763,1.9164146,-0.5827541,-0.9457942,0.79167056,0.4193748,0.335003,0.47068727,-0.5741573,0.54605246,0.08983738,0.4316137,0.6709781,0.025713978,-1.177365,-1.4362077,1.2889192,0.61930674,1.0561513,0.27018735,0.9278072,-0.3843188,-2.5829785,0.37270704,-1.6014311,-1.6476824,1.273251,0.97671825,1.3125013,0.97488827,1.2448814,-0.76957417,-0.087649085,-1.2213248,0.2063875,-0.5960107,1.0618553,2.5618777,1.7149457,1.7461265,0.5186635,0.94821155,1.2656975,-0.9922746,1.451595,-1.0229486,0.92595065,0.25917107,-1.5700061,-1.5622015,1.1673783,-1.8007325,-0.7474641,2.1237476,0.09418323,-0.6757526,0.45602864,1.3693917,-0.381965,-0.91340566,-0.12810317,-1.0990622,-2.2731092,2.4333527,1.5182201,-0.69625956,-0.4242349,-1.010316,-0.86953866,0.60266685,-0.8782544,1.9114693,-0.2686667,-2.0263994,-1.0397639,0.77157766,-0.7908478,0.6938999,-2.6381052,2.468226,-0.6499432,0.35137418,-0.49669546,-0.72664285,0.45176506,-2.0197074,0.24705426,-1.216377,0.8709579,0.77675885,-0.4411192,1.8441309,0.5289091,0.56218475,-2.1160781,0.55484515,-1.8400497,0.89597243,-3.0570464,-1.7388769,-0.55179405,-1.1220493,0.74512494,0.852076,1.1084329,-1.4229347,1.3340429,0.8825695,-0.8741963,0.9459633,0.46624166,0.6277138,-0.0055987393,-0.84638983,0.5931427,0.786587,1.0734205,-0.25695512,-0.3952221,0.65545386
hopeful,1.3032854,-2.0646012,0.09969077,-0.67148125,0.8443314,0.601294,0.1502738,-0.32986906,0.88619685,1.314072,-0.008351554,-0.2709857,2.1640444,1.8011957,1.4972954,-1.1008625,-0.23035142,-1.0868341,0.17299804,-0.22613296,-0.78483224,-1.0879889,-0.17916128,3.578781,-0.98825985,0.037705485,-1.8601552,1.422861,0.18367147,1.367193,2.0661771,0.16305943,0.22777963,-0.23548263,0.41708222,1.7159433,-0.91365916,0.2785195,2.8706841,2.2527292,1.0298976,0.22604056,1.2887446,0.46952513,0.58368266,-1.0260948,2.285822,1.4348357,-0.16601634,0.743731,1.9462343,-0.2555069,-0.869085,0.7932999,0.022160208,1.0855291,-0.38086542,-0.5651682,0.2522318,1.1356537,0.053564567,-0.9499955,0.28160992,-1.0688692,0.35688075,-0.97416365,-0.38913006,2.7467916,-0.23527987,2.2178702,-0.04754618,0.9723304,0.5586801,-0.2143515,0.99636424,-1.2315637,1.1369745,1.2161832,-2.3164217,-1.5987209,-2.5166883,-1.0527345,2.4199693,1.7888432,1.0162157,-0.5375112,0.16008592,-0.79031897,0.21475495,-0.69871026,-0.35475928,-1.042669,-1.0672666,0.43945098,0.94771516,-0.44570297,-0.53643525,-0.99589247,-1.473378,0.59477854,-1.3356764,1.2387773,-0.096610725,-3.010112,0.13072927,-0.44688693,-0.36046118,0.4052589,-2.0489326,0.8764829,-0.8800231,1.1631233,-1.3771664,1.019595,0.6729043,-1.5578383,-1.0304912,-0.100123525,0.94276106,-1.0158205,-1.9828026,0.33625978,1.2664746,1.1658442,-1.7915994,0.9192522,-3.122254,2.057896,-2.7641609,-2.5806794,-2.4325602,-0.2276531,1.3015298,0.13363326,1.9123299,1.5934597,-1.0141802,0.44602308,-0.07618557,-0.72581196,0.9077157,-0.19852549,0.07941963,1.289473,1.1876659,1.4827987,0.8850258,2.397302,-0.4096158,1.2428926
heartfelt,1.7713985,-0.37173477,-0.70607096,-1.1960529,0.017212315,-0.30524868,1.1886921,-0.18353397,0.63189703,1.5563296,1.3800544,-0.1354714,2.6451397,1.6061665,2.9694293,-1.2578921,1.5423145,-1.4537933,0.00851544,0.016070291,0.31765103,-0.35387775,-0.80464846,1.7778714,-0.32534066,-1.9332489,-1.4224464,0.15236656,-0.43598515,2.443511,1.5638353,-1.7534883,-0.62116635,1.0602744,0.16860722,1.2743989,-1.539494,-1.4945343,2.842125,0.83759224,0.97289824,-0.14104809,1.3218725,0.94486403,1.3099344,-2.077431,2.2017274,-0.40960094,-1.7687508,-0.69689924,3.260362,-1.4228203,0.56414074,1.8313837,-1.0504323,-0.03880328,-0.14054449,-0.56945044,0.24675545,0.860779,0.27817392,-0.8985537,1.2901171,-0.8473836,0.6341483,0.1613143,0.07197749,0.8547699,0.35603192,1.1850041,0.01573248,0.44642198,2.1268935,-0.46974406,1.2883556,-0.2481789,0.7474497,1.5333865,-0.39558044,-0.038810275,0.55994576,-0.25578976,0.28293267,0.16789754,-0.92429215,-1.9420757,1.1343006,-0.16551818,-0.41217053,-2.0662918,-1.4967278,0.26033726,0.12250403,0.6668181,1.37076,0.83565605,-0.65105927,0.15618329,-0.9708345,0.14178845,-0.5029037,3.0921216,0.5681857,-4.83231,-0.6419992,-1.0183429,1.4086038,1.4344559,-1.9685253,0.8997249,1.4368755,0.906559,0.1263462,-1.8049456,-1.1134278,-1.5473067,-0.38701585,-0.357969,1.4062772,0.41973853,-2.1275923,0.7328069,-0.29810885,-0.14333847,-2.0738237,-1.8966397,-2.0315673,0.7639343,-2.244205,-3.1430883,-0.4437633,-0.24061,0.20862578,-0.4834451,2.5494664,0.39039147,0.6164977,1.2218571,1.7554034,-0.15298156,0.17356503,1.1861906,1.6702298,1.2237817,-0.46714485,0.19980648,0.3186596,1.3742566,-0.17668048,1.5904843
interested,-1.3418629,-1.1470021,0.2035138,0.42615014,1.3083044,0.2734492,-1.0826082,1.7055268,0.4548102,-1.6081098,0.88839585,0.5613171,3.142863,1.7053944,2.310154,0.7041556,0.22355436,-1.6281614,0.7435326,-0.18592806,-0.49394274,-0.7114635,-0.47832495,1.5703241,1.579713,0.93445754,-2.0797305,1.5935873,0.3526154,1.7006079,2.3526797,0.4828787,-0.9927234,0.34943283,1.4916229,0.8816917,0.11168413,-0.64445484,0.4716616,-0.22820473,1.9235996,-0.2081791,2.2572515,-0.85297745,1.6540426,-0.7588283,1.9301939,1.0188282,0.1530395,-0.76060355,1.4924042,-0.25821593,-2.2616346,-0.907754,-1.1458104,-0.037206512,0.23255861,0.8237225,0.34658608,0.08860772,-1.09619,0.91314065,0.45958975,-1.0010413,0.085618176,0.077995375,0.63590634,-0.4687889,-0.044058267,1.5647331,-0.3269223,1.1989486,1.6535721,-1.9775809,0.068917,-1.6487234,0.89512086,1.7634407,-1.1744576,-1.5884736,-0.25688794,-0.6755645,-0.047899675,1.6238048,-1.992132,-1.3796806,1.4882609,-0.14134143,-0.41211233,-0.24214983,1.0328424,-0.88804793,-0.90459317,1.0728167,0.90254515,-1.1063378,-0.8523427,-0.7981778,-1.0340551,0.8177056,-0.18806842,0.47654465,-0.81559163,-1.7429034,-0.9488319,-0.11319066,0.6439491,-0.031946532,-1.7568102,2.0403936,-0.18995571,2.400453,0.21781677,0.82238364,-1.4562988,-0.9070423,-1.0380294,0.016278105,1.2101271,-0.72054225,-1.38833,0.04643672,0.107411765,-0.49366546,-1.2818657,1.0102569,-2.125014,0.5991987,-1.2974253,-1.9044197,-0.6841134,0.25460002,0.3360551,0.2986022,1.4355482,-0.07484512,1.5325016,-1.4930279,1.8350971,-0.66765636,0.17213333,-0.5744867,-1.0327835,1.1356078,-0.68759537,0.3281577,0.82988924,0.8615984,0.15416157,0.5698488
comfort,-0.2697232,0.043109357,0.8696451,-1.1570063,-0.75184596,1.8909329,2.084164,-0.1259659,-0.18372044,1.2553568,0.6113975,-0.19987516,0.8587071,2.5864174,3.2829528,0.065327816,0.9883967,-1.2028177,-0.2583674,-1.1595846,-1.2893896,-0.4024338,-2.7730916,0.7018947,-1.3198609,0.30985233,-1.185259,-0.7217562,-0.12853147,2.4314792,1.4922514,0.7609715,0.25403672,-0.6656916,1.8525444,0.036165215,-0.45121747,1.7714971,-0.24693668,0.1501715,0.4117951,-1.5093917,1.2519109,-1.9788045,-0.35715583,-2.9493053,1.8090138,0.9561639,0.8227538,-1.6091622,1.9241619,-1.2965133,-2.2460372,-0.099659465,-1.572262,-1.8697181,0.08692485,0.7437434,1.0305358,1.502423,0.008465742,0.34243193,-1.1755332,-1.6332327,-1.1506823,0.12877242,0.2792784,1.6066866,0.81331646,1.3911934,0.8484341,1.8531482,1.1211317,-1.2806216,-1.5765666,0.24431418,0.3029233,-0.06370335,-0.31594393,-0.07029958,1.2240689,-1.623119,0.08779849,1.406728,-0.10817663,-1.6860949,0.8354543,-0.26044297,1.0465128,0.4256501,0.5940894,-0.21565549,-2.10887,1.7690047,-0.23507698,-0.40465763,-0.6411614,-0.18847114,-1.2939432,0.04496861,0.010359693,1.9372208,1.1484536,-3.4222465,-0.6057839,-0.70721525,0.3110584,0.58024305,-3.1782048,1.6340759,-0.22594246,-1.4267843,0.6698269,-1.0661839,1.8063174,-1.7899078,-0.49253178,-1.0123944,0.76156014,-0.33153477,-1.1770893,0.20616664,1.2426466,-0.8344436,-0.6320913,0.17036903,-1.8170769,1.5730836,-1.8302474,-2.2609751,1.1388538,0.8548757,2.3681986,-0.68785644,-0.059844006,0.6063805,1.5754834,-0.25660068,-0.32788238,-0.68504924,-0.2062519,-0.87418556,-0.5397829,-0.1002913,0.887119,-0.014096331,0.40292412,1.3615962,0.63342535,1.6695838
ambition,-0.31839925,-0.80483866,1.3503631,-0.54718286,2.0287216,-0.5073891,-0.24469316,-0.31301656,1.287878,0.83221644,0.1820001,-0.31300405,0.4352453,0.87305766,-0.031408556,-0.87027127,-0.17217621,-0.85343283,-0.63520855,0.6165546,-0.31982058,-0.062920846,-0.70215076,1.0840114,0.67357856,-0.23764457,-0.5616193,0.48994988,-0.32818067,0.021461153,1.0555296,0.5994347,-0.24779725,-0.35137996,0.27423105,0.80266035,0.10825964,0.26174012,0.3017726,0.65009475,0.95174587,0.08582081,0.9561901,-0.5834455,0.6599983,0.019499797,0.4780559,0.55303127,0.22777133,0.3923606,1.7001138,-1.0603597,-0.849533,0.24670039,-0.7273475,0.53710115,-0.37916812,0.07770645,-0.09416455,0.6479063,-0.8073144,-0.68544185,-0.1546294,-0.5817821,-1.1697205,-1.3417357,1.3064609,0.33191717,0.64070785,0.3693394,-0.3379137,0.30817682,0.36560196,-0.83153844,0.105463244,0.06613386,0.71592355,-1.9610759,-0.24404424,-0.82979065,-0.16267054,-0.024372779,0.98033005,-0.2627796,-0.3650034,-0.19847415,0.5760657,0.16544825,0.49421504,-0.7530256,-0.91567147,-0.105969995,0.11609116,0.32169208,0.3822859,0.52297676,-0.07820963,-0.11383089,-0.7787585,0.06104292,0.14268677,-0.008633651,0.560912,-1.0287541,-0.9468117,0.23182346,-0.4512302,0.360652,-0.7454759,0.424414,-1.1073065,0.31275386,-0.08991499,1.136486,0.8266452,-0.48428288,-1.582132,-1.1694252,0.16004366,-0.02163485,-0.20295736,0.047158986,-0.17042264,-0.4996052,-2.2776916,0.6168132,-0.5794508,0.97445554,-2.2087452,-0.62024236,0.747618,0.22107443,1.628955,-0.022951439,0.8581937,0.51894885,0.5786678,-0.37582126,-0.13336094,0.39481023,1.0928133,-0.08716767,-0.13711114,0.045476798,-0.0030591048,-0.7061021,0.21919906,0.4292093,1.2136464,1.07037
optimistic,-0.4685994,-1.2846755,1.1462524,-0.32351416,3.0071006,0.74696916,0.81566197,0.122973815,3.075991,2.2983553,-0.16090935,-1.311931,1.1412473,0.33408296,1.4848666,-1.6803726,-0.29808828,-0.9760594,-0.95321786,-0.32296064,0.4858826,-2.3642268,-1.3357549,1.6370488,0.3231085,-1.0139672,-1.9552504,0.3503299,-0.5260648,-1.2455808,-1.1917319,-1.099054,2.305019,-0.36144102,1.4395963,0.54721993,-0.5618408,-0.3137968,0.44031003,1.2082825,0.78921515,-1.4538169,2.8528972,0.3717243,2.6074796,-1.2149225,2.4814587,0.12344968,-0.18362385,0.51289326,1.1812575,1.0914986,0.8848326,0.22862284,-1.020602,1.0113219,-0.6954486,0.37708846,0.064601295,1.0859805,-0.23155327,-1.6158302,1.4050354,-2.500045,-0.5868756,-1.1809984,1.0689892,2.5181587,1.103742,1.02459,2.2205164,1.017011,2.0090847,-0.61210465,1.798495,-0.31295726,-0.13559027,-0.68088835,-1.1056037,0.23629683,0.38918093,0.28017777,2.0198004,1.2285757,0.017321251,-2.9417784,1.3748865,0.0059998184,0.093075536,-0.6892238,-0.2079451,1.7330122,-0.89455426,2.2931616,1.9314203,-0.2187884,-0.7950945,-0.008170391,-1.9765004,0.8652696,0.6305189,0.8733234,-0.864321,-1.9941154,0.23907678,0.20946075,0.13697065,1.2734708,-3.50911,2.0785913,0.3528372,-0.3990101,-1.3015621,0.89110875,0.19894795,-0.34164158,-0.48925748,-0.26223427,1.1368331,-0.67780054,0.15758409,1.1595294,0.15995151,-0.45281717,-1.171069,1.4673537,-2.5347965,1.0929,-1.9567655,-3.461209,-1.4701773,0.51300913,2.08529,-0.72277105,2.5205154,0.64989364,0.9398585,-0.53496003,1.5194808,-0.76202655,0.21261397,-0.071026616,1.7005479,1.4858732,-0.024658563,0.16873544,0.7091965,-0.6177528,0.2240412,1.6533608
