term,v0,v1,v2,v3,v4,v5,v6,v7,v8,v9,v10,v11,v12,v13,v14,v15,v16,v17,v18,v19,v20,v21,v22,v23,v24,v25,v26,v27,v28,v29,v30,v31,v32,v33,v34,v35,v36,v37,v38,v39,v40,v41,v42,v43,v44,v45,v46,v47,v48,v49,v50,v51,v52,v53,v54,v55,v56,v57,v58,v59,v60,v61,v62,v63,v64,v65,v66,v67,v68,v69,v70,v71,v72,v73,v74,v75,v76,v77,v78,v79,v80,v81,v82,v83,v84,v85,v86,v87,v88,v89,v90,v91,v92,v93,v94,v95,v96,v97,v98,v99,v100,v101,v102,v103,v104,v105,v106,v107,v108,v109,v110,v111,v112,v113,v114,v115,v116,v117,v118,v119,v120,v121,v122,v123,v124,v125,v126,v127,v128,v129,v130,v131,v132,v133,v134,v135,v136,v137,v138,v139,v140,v141,v142,v143,v144,v145,v146,v147,v148,v149
chill,0.25397575,-0.13431165,-0.027838511,-0.10077998,-0.21096994,0.047015533,-0.12009768,-0.5237995,-0.063813955,-0.03627622,0.26822582,-0.1133131,0.7679572,0.046567332,0.06828031,0.33587727,0.38297996,-0.02902307,-0.12876989,-0.048221476,-0.21698593,-0.11643099,-0.01679104,-0.85796875,0.26639885,0.103914805,-0.31139657,-0.03846711,0.00510333,0.45026535,-0.44985113,0.5876166,0.50791734,-0.104104154,-0.40296316,-0.5545358,0.22015187,0.1155756,-0.25142938,0.22871943,0.18232965,0.18449815,-0.06652562,-0.010825808,0.18246531,0.2120058,-0.011533941,-0.61608475,-0.005511491,-0.2579627,-0.11713333,-0.25530174,0.23615028,-0.030410321,0.02209694,-0.7624907,-0.17193471,0.39940202,0.24125193,0.13236317,-0.31144008,-0.26119742,0.1692649,-0.19525827,-0.5341304,0.25011835,-0.7219655,-0.113359526,-0.39341825,-0.39292866,0.16770594,0.04468056,0.4155045,0.055521067,-0.23279119,-0.26545405,-0.3490506,0.113509186,0.22935274,-0.045663316,-0.120808944,0.4635389,-0.10884283,0.6466717,-0.009186687,0.4271339,0.35865533,0.39504242,0.26669592,-0.19032115,0.110163614,-0.1654135,0.4232485,0.2161058,-0.43292174,0.047309488,-0.07941838,-0.19308376,0.067658454,-0.17643467,-0.54952276,0.10388764,0.68548757,-0.28380167,0.07405344,-0.2625991,0.13771574,0.4293067,-0.07206324,0.2393798,0.08051994,0.15057464,-0.20840855,-0.09348284,0.06828538,0.31425238,-0.06485303,-0.44145647,0.6648669,0.13778196,0.59045994,-0.32664916,-0.058816694,0.18560104,-0.22513293,0.121044286,-0.30022642,-0.13753992,-0.18784064,-0.23370807,0.48282817,-0.58870256,-0.2471706,-0.5256268,0.68834156,0.07966276,-0.14789866,0.06672792,0.66554725,0.08431105,0.2519489,-0.2742087,-0.05322434,0.5184011,0.47762856,-0.02446853,-0.54717726,0.44458407,-0.3592306,0.18879741
mellow,-0.3033091,0.059454273,-0.19093783,0.1244361,0.17808492,0.098297544,0.11086491,-0.39780188,-0.28295618,0.50924665,-0.3100199,0.14066367,-0.24609372,0.0065194992,0.21700339,0.3669498,-0.63383496,0.087851405,0.8206396,-0.48910308,0.12301441,-0.32150587,-0.22085476,-0.509513,0.51505303,0.40639132,-0.5262811,-0.47673035,-0.61273056,0.10961024,-0.44742814,0.6340686,0.17210673,0.0982883,-0.14014103,-0.6072487,-0.43813008,-0.38689905,-0.4148489,0.15306067,0.037594244,0.29264995,-0.30596694,0.028200317,0.5302719,-0.027397156,-0.2933038,-0.6572255,0.16398117,0.23331128,-0.4015126,-0.40487078,0.43835044,0.016099716,-0.19828737,-0.2532114,-0.064525,0.3048657,-0.017107565,0.46882004,-0.49262694,-0.4567715,0.2225776,-0.24526522,0.23617503,0.01940047,0.4413407,-0.020554336,-0.27159527,-0.7319475,0.20425415,-0.40838182,0.22063814,-0.01753152,-0.14587611,0.0018054295,-0.23718508,0.23192464,0.2578288,0.33926722,-0.47324935,0.04776268,-0.33569965,0.038969092,-0.19808924,0.2047599,0.17110324,-0.60153013,0.4281168,0.021492764,0.76532835,0.14283349,-0.17560284,0.40791592,0.092916854,0.00023939853,-0.31227106,-0.73386574,0.024210585,-0.40865457,0.0036191687,0.44505545,0.047679584,0.14906108,-0.40704814,-0.14415134,-0.43758357,-0.27665108,0.09936862,0.5159908,-0.03818294,-0.26620135,0.34693867,-0.22993197,0.28367597,-0.26046437,0.17140636,-0.17328915,0.42049757,0.074564695,0.07745203,-0.039540216,-0.51968026,0.032388225,0.08782452,-0.17904998,-0.46101606,0.037184916,0.008126197,-0.03155156,0.6177357,-0.3278643,0.15674831,0.17697413,0.32174975,0.037292298,-0.21035981,0.36194274,0.21441184,-0.26801336,0.2627137,0.10464359,0.48009267,0.08850328,0.59492594,-0.09673899,-0.26434195,0.4544001,-0.4340368,-0.69385076
relax,0.13896845,0.29583427,0.04940063,-0.15551062,0.17318027,0.0028963762,0.2383124,-0.6319922,0.11757818,0.22305115,-0.017501988,0.009351804,0.6417436,0.074071065,-0.32652375,0.20089412,0.24745247,-0.029345619,-0.47507724,0.057322677,0.14255641,-0.034045007,-0.09152732,-0.99781114,-0.030020464,-0.2263875,0.017555665,-0.02781315,-0.17041937,0.61599106,-0.16794297,0.54554594,0.29762307,-0.0526131,-0.4361202,-0.70447624,0.04887677,-0.02402234,-0.4726107,-0.25189716,0.19994697,-0.021835104,0.2276908,0.38792673,-0.23412132,-0.07887383,0.23311284,-0.11013542,0.5397296,0.28229308,-0.14780802,-0.16683854,0.001133639,0.029680382,0.39217407,0.062010117,-0.17907214,0.5164875,0.651219,0.124712124,-0.8087357,0.122947335,0.06341668,-0.07702786,-0.2257755,-0.32924,0.12445628,-0.35561228,-0.31534636,-0.72252,-0.19151977,0.39902437,-0.114855096,0.07127026,-0.3834993,-0.009713719,-0.10978242,-0.1691674,0.1280997,0.18753763,-0.15471627,0.19197473,0.10877895,0.37993133,-0.52308697,0.3055352,0.500901,-0.33202383,-0.045320187,-0.17906438,0.2081331,0.07183176,0.2803202,0.62566036,-0.056131158,0.32982525,0.2672836,0.06979668,-0.42665207,0.7067631,-0.25220045,0.46146327,0.2501284,0.14395453,-0.12829636,-0.11875671,0.32012948,-0.31235617,-0.0542253,0.081259094,-0.08567105,0.46882775,0.11585712,-0.21429914,-0.09737789,0.37651148,-0.38847962,-0.047227688,-0.030796362,0.7426963,0.18459739,-0.29547125,-0.3437376,-0.09886321,-0.26425472,-0.22379668,-0.018675994,0.38628352,-0.758372,-0.27601784,0.3872493,-0.44725218,0.2802093,-0.030791335,0.48208678,-0.24576686,-0.043208685,-0.1643647,0.24596119,-0.05481601,0.08292375,0.05465208,0.36522725,0.27680904,0.07659818,0.06774193,-0.6122944,0.4197416,0.05786148,0.050355416
upbeat,-0.24527597,0.17262165,-0.040336013,-0.110002026,0.48001504,0.13047153,-0.06488932,-0.1277415,-0.35938135,0.27112117,-0.23877747,0.42266154,0.49787578,0.07228592,0.4367948,-0.24732515,0.64087427,-0.03045506,0.45239446,-0.11072891,-0.11036564,-0.4164773,-0.46789882,-0.615204,-0.0033032026,-0.25563827,-0.39026436,-0.42062524,0.010718827,0.3293113,0.24888162,0.8670451,-0.4264468,0.09571724,0.025028085,-0.3056231,0.34007543,-0.19830154,-0.077786416,0.0099076,-0.0005427985,0.24668545,-0.3498569,0.5360813,0.13516206,-0.31857333,-0.08673616,-1.1046444,0.24431443,0.16601151,0.06444891,-0.015581692,-0.19688061,-0.45029044,0.14591041,-0.54105616,-0.2882658,-0.14351001,-0.1875084,0.20815662,-0.015822414,-0.39401424,0.33596113,-0.19789445,0.74582255,-0.21969292,0.35834518,-0.07994211,-0.3724752,-0.06701572,0.043585137,0.13246317,0.08461755,-0.068843655,-0.101560734,-0.5063148,0.24406283,-0.36041462,0.17390105,0.31878248,0.24297045,-0.07306052,-0.3390541,0.55221516,-0.2850755,0.39436415,-0.12807557,0.22156158,0.74336666,0.22225742,-0.07676613,0.48838085,0.49726912,0.30003846,-0.26355138,0.31230447,0.08320011,-0.070487455,-0.050215896,0.05085501,-0.2945077,0.036711525,0.21045355,0.2872773,-0.1747417,-0.24372897,0.057618838,0.16274928,-0.2965176,-0.06803172,-0.13869584,0.1669042,0.30190894,-0.23201928,0.24477598,0.027867565,-0.33088157,-0.5320794,0.13943969,-0.22055925,0.56092244,-0.378277,0.5969893,-0.4444509,0.30932707,0.05019134,-0.35954478,0.34325188,0.1064641,-0.08428615,-0.13495271,0.26582858,-0.05985166,0.1739359,0.5203368,0.05441892,-0.25619942,0.03316946,0.2572308,-0.23438637,0.26626933,-0.32632503,-0.090447545,-0.34830505,-0.24378571,0.052912563,-0.7780726,0.5389778,-0.12874095,-0.28618804
smooth,-0.36709648,0.13056594,-0.1500823,-0.26948604,0.30712503,-0.67453724,-0.45193234,-0.48534778,-0.4141855,0.57002795,-0.16031575,-0.3192612,0.8391076,0.32476562,-0.05182286,0.77402014,-0.0060858177,-0.03997301,-0.36440182,-0.35448948,0.5822033,-0.23022203,-0.2137698,-0.36664358,-0.3104005,0.05175003,-0.4387018,0.30124438,-0.51197445,0.50907916,-0.28532776,0.5351489,0.1923159,0.018079596,-0.1309485,-0.74453974,-0.00962253,0.08651577,-0.03993,-0.42178646,0.25712284,0.47774318,-0.09197204,0.123025194,0.3152993,0.32163405,-0.115794495,-0.6901629,-0.11006823,0.25925523,-0.5090027,-0.1302952,0.36016172,-0.080575384,-0.39956206,0.20151672,0.72672236,-0.42681444,0.1760603,0.12734269,-0.5212952,0.4309348,0.2552367,-0.02727061,-0.2422704,-0.37553936,0.32195425,-0.10631656,0.071103945,-0.33895692,0.13180667,-0.16663967,0.36880112,-0.19263801,-0.23253599,0.10548996,-0.0479156,0.029497081,0.86857295,0.00452599,0.35019314,0.2636192,-0.1190865,0.42516047,-0.4144375,0.19143966,0.9924984,-0.09884798,1.331007,-0.19670005,0.20772603,-0.62199086,-0.24489406,0.83715826,0.10279841,0.15663439,-0.13034104,-0.33157945,-0.26443025,0.055660017,0.11248883,-0.058570024,0.6183373,-0.15251261,-0.5832839,-0.32345238,-0.121838704,-0.49168375,-0.6105666,0.17704928,-0.37189665,-0.03709183,-0.10467157,-0.19881852,0.50439185,0.4707122,-0.25947323,-0.09781191,-0.62698257,0.57997626,0.14206597,-0.40181237,-0.07221196,0.11727987,0.21055172,-0.4784615,-0.037697587,0.61785066,-0.042340677,-0.10850658,0.46360397,-0.40274584,-0.38405907,-0.31428644,0.021951623,-0.2287398,-0.5207024,0.8171743,0.0939918,-0.90857285,0.3567026,0.24165787,-0.5196107,0.39135757,0.3701078,-0.81141657,-0.050271615,0.15721986,0.15849239,0.34936413
sleep,0.04722494,0.5461631,0.14009488,-0.02022391,0.15031701,0.45904848,-0.071359195,-0.027738294,0.08058933,0.8965192,0.59777355,0.4709419,0.38129926,-0.37496698,0.33006534,0.08701835,-0.022726165,0.117200084,0.24216613,-0.016994238,-0.8237462,0.008924953,-0.1190115,-1.311411,0.111297965,0.6604776,-0.7744794,0.20813394,0.04527085,0.6014462,-0.33003902,0.9561551,0.28152987,-0.2474881,0.14472464,-0.62421435,-0.3396287,-0.7000429,-0.25981468,0.043548938,-0.03755656,-0.17215827,0.5515004,-0.32679957,0.21706806,-0.44016075,0.97194076,0.0669698,0.042977843,0.191787,-0.19742876,-0.35514185,0.4323971,0.53166085,0.12309515,-0.33337322,0.9291681,0.5257378,0.16416506,0.74196005,-0.28478158,-0.029222641,0.5232023,0.027168533,-0.17152268,-0.8646149,0.14751223,-0.49356127,0.24382108,-0.5453906,-0.8266863,-0.1593144,-0.2542401,-0.2081123,0.16304626,-0.15379538,0.1726326,-0.11610973,-0.6646277,0.6172425,0.8277342,-0.43529013,0.3499328,-0.01553966,-0.60241055,0.7692672,-0.4275859,0.053604297,0.076357745,0.2769997,0.025703304,-0.026604218,0.026297318,0.7926136,-0.075641744,-0.009182851,0.9678632,-0.45696688,0.019028125,-0.07827071,-0.37215874,0.053711075,0.059090313,0.1551776,-0.4727275,-0.099500656,-0.5704729,-0.09713637,-0.14576724,0.23483768,-0.7767364,0.34446895,-0.377012,0.28131032,-0.46337873,0.39803043,-0.11377486,-0.04869091,-0.1092704,0.18784435,-0.26195213,-0.6316865,0.078799374,-0.4557517,-0.37610322,0.0120872,-0.36110324,-0.20477195,-0.69977665,0.10414367,0.6181133,-0.3941895,-0.28099862,0.47495332,-0.28682253,-0.42738175,0.08023178,-0.12848426,0.3723796,0.31820086,-0.447396,-0.7490226,-0.045589544,0.21726143,0.27697685,-0.5752337,-0.38421717,0.0455772,-0.32965636,-0.087474436
sexy,0.20210026,0.41746786,-0.3318977,0.24852279,-0.047387294,-0.58226824,-0.42119196,-0.06332811,-0.8074473,0.86250806,-0.1824385,-0.45284694,0.17537177,-0.19401677,0.38617092,0.5047128,0.13416676,-0.5274706,-0.37989122,0.16690852,-0.0312958,0.25253606,-0.48645064,-0.27765915,-0.33761933,0.117059514,-0.36092713,0.28283155,-0.11397796,0.55086803,-0.7268521,0.49090043,-0.1270169,-0.33872488,0.14621644,-0.2006047,0.34755376,-0.17738299,-0.18717186,0.0329715,0.3605481,0.18731768,0.22478326,-0.3305416,0.54745275,0.17081325,0.56396216,-0.50937897,-0.15031575,-0.5059975,-0.6549559,-0.17227682,0.17537661,0.030083768,-0.28111824,-0.17059317,-0.14886916,-0.16552903,0.0989313,0.522702,0.036948044,0.045711197,0.011432756,0.026652852,0.10626407,-0.08266727,-0.068152666,-0.37347046,0.20033553,-0.2557422,-0.012161289,-0.07664716,0.18796742,-0.19420314,0.34240133,-0.16425158,-0.29679906,-0.19893587,0.11320804,0.47235912,-0.24732132,-0.17034253,0.19464646,0.30398926,-0.5884298,0.5792066,0.50109947,-0.15182684,0.556494,-0.13839391,-0.103917025,0.30055484,0.28452912,0.64386535,-0.11096645,-0.1756683,-0.06569337,-0.36002213,-0.06874146,0.34206817,-0.1807759,-0.3605874,-0.19614992,0.26073566,0.15646589,0.14868715,-0.578491,-0.41171578,-0.10637439,0.07360646,-0.28876743,0.07382723,-0.05405279,-0.023248635,-0.08043683,-0.15290016,-0.5489845,0.1073084,-0.0017150786,0.21832392,0.30840394,-0.31069684,-0.9941756,-0.7047794,-0.7391326,-0.2650101,-0.08539245,0.5438405,-0.10222538,0.5254589,-0.12868337,-0.12559521,-0.10920453,-0.33488777,0.10471578,0.07772136,-0.70552367,-0.06147556,0.008982206,-0.08903303,0.72571605,0.21542732,0.20750934,0.17621987,0.3135764,0.18021877,-0.7023258,0.04292718,-0.3381478,-0.388369
happy,-0.09387916,-0.38341713,-0.18597873,-0.100422636,0.03534529,0.32633707,-0.055464774,-0.18800834,-0.09974139,-0.13511969,0.107718475,0.13079281,0.76860327,-0.09688381,-0.13304278,0.23818626,-0.16576111,0.4147448,-0.04451566,-0.16975673,-0.037690867,-0.41573596,-0.5904428,-0.3744673,0.00795293,-0.17332952,-0.49016607,-0.29262105,-0.05148505,-0.23523575,0.4137799,0.6407676,0.5464626,-0.60144204,-0.033782527,-0.34277278,-0.42005607,-0.15524687,0.08381083,-0.042429578,0.05639789,0.49830005,-0.16859838,0.25267002,0.39199534,-0.083510265,0.31786263,-0.8924381,-0.18947966,-0.106561065,0.46548936,-0.20750944,0.21219622,-0.7297467,-0.22731236,-0.57609177,-0.038984645,-0.29077077,0.6232083,0.5510535,0.12245002,-0.06983571,0.08407951,-0.20542684,0.16577715,0.2685743,0.27869746,-0.005467363,-0.47470918,-0.56765497,-0.39340314,-0.2277602,0.20697236,-0.033363964,0.12641047,-0.36718842,0.16919479,-0.20548767,-0.037233043,0.4787081,0.041632887,-0.63655376,-0.2980831,0.23423569,0.23656309,-0.22439958,-0.106833495,-0.0077484045,-0.08414837,0.49047452,0.24709913,0.2346717,0.13786866,0.5003527,-0.5474661,0.124393284,0.24664147,0.48956096,-0.7224944,-0.13847478,-0.72066563,-0.5663026,-0.14452721,0.088114105,-0.44753304,-0.42626002,-0.39233539,-0.41196832,0.18887764,-0.041493785,-0.96264756,-0.26971593,-0.02215639,0.39397442,0.08229137,0.40948394,-0.3396048,-0.54518926,0.50868106,-0.046335496,0.79703015,0.04450752,0.4517416,-0.68986106,-0.04954352,-0.2340274,-0.4042492,0.09781475,-0.6500619,0.33226672,-0.4390121,-0.631493,0.22730763,-0.06066723,0.41537377,0.3810666,-0.752401,-0.07909541,0.6158677,-0.24532261,0.39166737,-0.024485061,0.09806519,-0.11257732,-0.52671117,-1.2575253,-0.49134538,-0.018436898,-0.518973,-0.34971204
party,-0.23883817,-0.24575715,-0.19729388,-0.13586749,-0.61158985,0.042857274,0.27904567,-0.2964478,-0.3783248,0.65096,-0.14558072,-0.11177654,0.35135597,-0.12828068,0.48371378,0.22120228,0.23929892,-0.34656382,0.017759565,-0.11035806,0.67813146,-0.55082333,-0.39293838,-0.47142762,0.25344685,0.6119515,0.0052441424,-0.060636066,-0.40582037,0.58447015,-0.54660946,0.39621854,-0.3860221,-0.4038301,-0.18157853,0.09749103,-0.20308861,-0.47349608,-0.34508404,0.13610817,0.11619062,0.6473495,-0.22087802,0.32381216,0.39007244,-0.12364946,0.42379957,-0.71481544,0.2829386,-0.30956385,-0.21323112,0.047884725,-0.65518457,-0.61817944,0.29264265,-0.61953723,0.014228093,0.18257193,-0.34130016,0.27125415,-0.76761764,0.03719694,0.057791248,0.8440448,0.34301022,-0.050551463,-0.0052828356,-0.44863835,0.15774016,-0.61758417,0.3091375,0.018426092,0.5975051,-0.18859057,0.1632756,-0.34368613,-0.0047857366,0.00078514207,0.00557155,0.23141506,-0.07368398,-0.22910914,-0.17693365,0.45125547,-0.22102162,0.06207754,-0.12565872,-0.26592886,0.2076764,0.18964095,-0.11945226,0.41511792,0.64611787,0.20843445,-0.4353169,0.08048905,-0.05259342,0.37719235,-0.86789626,0.12257386,0.20150243,-0.3194817,-0.46766502,0.09001528,-0.13996431,-0.39754423,-0.1271793,-0.4377593,0.3138889,0.0016547703,0.5394195,-0.3717928,-0.20723493,-0.0482172,-0.2653276,-0.27154848,0.23222798,0.20341912,-0.10115853,-0.8098471,-0.12401696,0.41428956,0.28721908,-0.0886498,-0.088522814,-0.3100061,-0.03887843,0.35777315,-0.120415635,0.36954394,0.29114693,-1.215124,-0.03311918,0.48791075,0.021942,0.66713876,-0.011829105,-0.2594669,0.324594,0.015371418,-0.5796596,0.53078777,0.60822093,-0.29455897,0.7093997,-0.28056413,-0.5535844,0.166776,0.29626125,-0.4388029
moody,-0.14323442,0.16337241,-0.09692022,0.064790286,0.007315015,0.3562263,0.273298,-0.092605814,-0.9679265,-0.23326129,0.082912005,0.19577059,0.11398504,-0.22041075,0.3155316,-0.18499592,0.095019504,0.0032352752,0.18224017,0.033317108,0.10394721,-0.014531662,-1.0726367,-0.79935616,-0.23277275,0.19931938,-0.547645,0.25434688,-0.6431115,0.58655137,-0.29133844,0.34878278,0.4059894,-0.030970654,-0.015620843,-0.26190802,0.5777046,-0.26717526,0.10853069,-0.028273154,0.3523757,0.7241621,0.19136868,0.26918927,0.24910305,0.17626749,0.371858,-0.7008935,-0.12430658,0.20313072,0.14481229,0.037116613,0.55585724,0.20757432,0.21015166,-0.41178274,0.17916211,0.47854412,-0.17833287,0.035615563,-0.31100142,-0.15308292,0.8987514,-0.33238003,-0.2652978,-0.3870629,0.17057842,0.29295173,-0.013797654,-0.6386487,-0.0807934,0.46304682,0.37457153,0.1446253,-0.31515387,0.12654278,-0.06663937,0.054310124,0.65065515,-0.078527294,0.4803827,0.3617869,-0.060098246,0.6155758,-0.3559285,-0.14525086,0.33721092,0.31146365,0.2227096,-0.344352,-0.61148685,-0.08204506,0.35668176,0.84674454,0.26884583,0.30514643,-0.19921765,0.10512966,-0.31834164,0.18980679,0.14323933,0.47801527,-0.16707155,0.2296843,0.11234035,-0.27407768,-0.30251372,0.13165574,-0.49325937,0.30119163,-0.40826362,-0.04147589,0.34963572,-0.505599,-0.5543839,-0.15157332,0.72146654,-0.08002552,0.13698517,0.12900919,0.18876512,0.013806485,0.606098,-0.3438435,-0.017007617,-0.09831477,-0.031550787,-0.5798481,-0.34145734,-0.013950563,0.7300537,-0.23749441,-0.5313517,-0.09751656,0.016315848,0.0011539825,-0.18077861,-0.4368946,0.3570364,0.8047011,0.92600685,-0.47222131,-0.19572976,0.08746353,0.08287459,0.16711232,-0.9063292,0.2896425,-0.12185478,-0.01803739
romantic,0.13704433,-0.040462375,-0.43881044,-0.209489,-0.19071425,0.19187866,-0.083923966,-0.13735768,-0.09132468,0.11809789,0.11624001,-0.06445006,0.38436565,0.17111263,0.0264284,0.28726232,0.2540145,-0.09438146,-0.4203355,-0.16250104,0.019506255,0.26406997,-0.5477073,-0.45327845,0.23027351,-0.060217846,0.04595998,-0.68161374,0.2775866,0.4019186,0.5442721,0.6612594,0.19793338,-0.018863125,-0.1942531,-0.5230775,0.2945851,-0.21718392,0.1922954,-0.22519821,0.31118473,0.364739,0.13875236,0.19237912,-0.24262011,0.45522696,-0.21479967,-0.45105663,0.7148467,-0.55831844,0.064344764,0.24456172,0.9010441,0.33069894,-0.09162733,0.4297895,0.03588412,0.13051736,0.25293684,0.0736689,-0.60392314,-0.7389723,0.18301588,-0.46065387,0.027719477,-0.41383788,0.21314098,0.30561987,-0.09863153,0.06315217,-0.052586883,-0.07087093,0.21855561,-0.12366536,-0.2688005,-0.45067322,-0.22257724,0.28426728,0.5804173,0.2651131,-0.072742045,0.21276349,0.81713694,0.025882198,-0.3463842,0.2038032,-0.21632917,-0.30021018,0.6014357,-0.29391244,0.07703178,0.59404486,-0.10319757,0.4997259,0.36349207,-0.42774993,0.03780692,-0.117421106,-0.30698287,-0.17455398,-0.0076455106,0.29549715,0.4516019,-0.11640825,0.5261793,-0.39166644,-0.54964817,-0.4157013,-0.5401242,-0.015985416,-0.35506174,-0.5609045,0.10214871,-0.08274007,-0.06051545,0.4036397,-0.35387394,-0.43003115,-0.41246644,-0.096367106,0.034946796,-0.42141902,0.12824649,-0.6362982,-0.16613849,-0.038630616,-0.15545635,0.10398855,-0.79102516,-0.3108339,-0.6258115,-0.34766057,-0.122429885,0.5004396,0.7539153,-0.3524342,0.14667474,0.3754872,0.31592575,0.37686887,0.3992077,0.23535822,-0.26913533,0.2759268,0.1639091,-0.019347534,-0.56515396,0.10268783,0.16789222,-0.4652488
sweet,-0.48324865,0.14676048,0.1620024,0.020376874,-0.1293711,-0.07238514,-0.29024816,0.037309177,-0.10251206,0.70717037,-0.018868903,-0.32042322,0.7617149,0.1011285,0.0044127144,-0.047567375,-0.025133194,0.119374074,0.2830244,-0.76603884,-0.50887436,-0.13071589,-0.5882787,-0.5961351,-0.5341953,0.49331552,-1.0861369,-0.5697965,-0.1512511,0.23937717,-0.50536937,0.8915393,0.15498978,-0.097921215,0.5229791,-1.1469668,-0.24968284,-0.19358331,0.1999091,-0.2729927,0.16824877,0.06946214,0.1773678,-0.102621056,0.1493547,-0.054508135,0.45354372,-0.21563645,0.7269174,-0.10850444,0.12573144,-0.39285856,0.528606,-0.4343016,-0.0041946573,0.10282979,0.6514054,-0.3375413,0.22945555,0.66587096,0.04815105,0.01829341,-0.007886683,0.15768594,-0.75278926,-0.17196654,0.49898598,0.08006551,0.25028506,-0.3530944,0.022062473,0.34568378,0.43806952,-0.128159,-0.10388436,0.3197613,0.048883636,0.38940474,0.49122548,-0.27641785,0.10912078,-0.017925281,-0.2556338,-0.415722,-0.8428183,-0.022765042,0.34696266,0.060670733,-0.46543646,0.38712874,0.23715737,-0.06856777,0.2706486,0.11576353,-0.20496505,0.21954621,-0.018235851,-0.115742065,0.3970891,-0.031719085,-0.5184646,0.417443,0.48579782,-0.80792725,0.09201452,0.40395248,-0.40855724,-0.2711537,0.3440259,-0.5600843,-0.043948006,0.29858065,-0.50773865,0.09766172,-0.3305116,0.45432183,-0.053814422,-0.6095292,-0.039102394,0.22893336,0.2103752,-0.57758635,0.21717879,-0.56503934,0.0034191574,-0.24389133,-0.28511682,0.3523444,0.15970041,-0.109601974,-0.5478705,-0.45104975,-0.115965836,0.37217098,0.7270653,-1.0245914,0.08071506,0.039581317,0.04245109,-0.3538392,0.010748002,0.5018605,-0.037649795,-0.38293117,0.026138833,0.87681985,-0.9378492,-0.09305801,0.18557134,-0.10571566
dancing,0.7611933,0.7856275,-0.3343385,-0.5686112,0.27618402,0.109314874,0.464404,-0.03253172,-0.56565535,-0.18341902,0.39414683,-0.7401757,0.94375515,0.5493479,-0.23315287,0.19777922,0.75906533,0.28646412,0.4732126,-0.23237565,0.5267813,0.019573815,-0.3241284,-0.38756964,0.20639786,-0.03706243,-0.6784983,0.82728785,0.6391371,0.48068008,0.44552666,1.0831563,0.94315994,-0.09700039,0.5499449,-0.43199706,-0.43011606,-0.55018395,0.14571403,-0.18757594,0.09128805,-0.027122393,0.3761708,-0.39091763,0.3942292,0.14287521,0.23620227,-0.84909993,0.5142509,0.40071958,-1.1269305,0.48342147,-0.7868175,0.6419175,0.55023503,-0.43220484,0.5560304,-0.048047606,0.2904404,0.69156533,0.04863718,-0.2876537,-0.43031898,0.10124456,-0.3185736,-0.16068761,0.34369776,0.26411164,-0.11307104,-0.16367379,-0.6283713,0.18555064,0.3457502,-0.1733355,-0.018064234,0.42750996,-0.25536403,-0.09418939,-0.08216684,0.5614359,1.0843936,-0.19175565,0.1699278,0.9702282,-0.24399461,0.61953086,0.38854122,0.9364513,0.7317734,-0.22521852,0.21832824,0.39454058,0.60580707,0.583788,0.18689735,-0.25683826,-0.14174497,0.036584906,-0.55096966,0.42850536,0.119500846,-0.035765048,-0.28670567,0.34796008,0.8982668,-0.62942463,0.0052553327,-0.34673497,-0.06944109,-0.18865675,-0.2524629,-0.8772027,-0.3079597,0.6634006,-0.7844932,-0.39624345,-0.45786488,-0.96076965,-0.04614496,-0.85537374,0.36313662,0.7951615,0.74338853,-0.2173389,-0.5184252,0.5750426,-0.50378317,0.06148962,0.19465908,-0.08914312,0.060958657,-0.5370558,0.12777315,0.5868969,-0.3005797,-0.30664286,-0.24031186,-0.19540764,0.36903632,-0.77362597,0.044799417,0.47760853,0.28133413,-0.75824237,-0.47216,-0.07398645,0.14543381,0.15787676,-0.7907828,-0.1573153
fun,-0.06489672,-0.029192846,-0.63623923,0.22990853,0.13596447,0.10365605,-0.23285487,0.12467283,-0.51877743,0.3677349,0.12711924,-0.025924087,0.27495265,0.01344834,0.68976134,-0.52783287,-0.27464375,0.12773757,0.061653428,0.03796686,-0.36321348,-0.7897746,-0.58815,-0.8158361,0.07945987,0.07394177,-0.4215655,-0.010474709,0.7808537,-0.12036028,0.11057375,0.677559,-0.20776847,-0.11420378,0.15563187,-0.22447217,0.29907018,0.13700862,-0.63970596,-0.09670568,0.011083489,0.75364757,0.46811202,0.34381187,0.07605302,0.097659834,0.14707547,-0.91998553,0.05287071,-0.19339791,-0.19521552,0.0846076,-0.6313612,-0.24952723,0.4049323,-0.66519797,-0.16843991,-0.047913693,-0.051089145,0.35932866,-0.3876838,0.5246324,0.20027757,-0.044803713,0.61632067,0.02035268,0.21365878,0.121784166,-0.08193501,-0.19131991,-0.22432376,0.46740738,-0.24351048,-0.13512911,0.16580486,-0.2106409,-0.20595528,0.45165664,0.2992601,0.18875742,0.07548583,0.10974862,-0.45358488,0.38615906,-0.5820355,-0.034430437,0.11846241,-0.11083136,0.3255219,0.5226131,-0.09848345,0.042660784,0.34604403,0.66561973,0.0169353,-0.03722283,0.25094947,-0.23418267,0.35331067,-0.0565391,0.22919804,-0.13509308,-0.22876662,0.5567824,-0.071088985,-0.124933735,-0.005938712,0.30185083,0.024564154,0.10299598,-0.6252828,0.2753672,-0.19218396,0.08063527,0.35571572,-0.15933079,-0.2893544,-0.45189548,-0.34440228,0.37227088,0.0453605,0.086157106,-0.18439028,-0.5483911,0.10075474,0.4041472,-0.2268099,0.50716823,-0.079171464,0.26470903,0.26400906,-0.52500695,0.11119758,0.13638914,-0.019864205,-0.054674514,-0.31923255,-0.15425889,-0.069250345,-0.12203968,0.35608566,0.48743546,0.2737763,-0.22198017,-0.0246588,-0.38169792,-0.6640394,0.44453904,-0.16653156,-0.16046868
uplifting,-0.3010202,-0.50281584,-0.16480792,-0.068348125,0.093711376,0.77456665,-0.12451252,0.1903054,0.06924228,0.28092456,-0.21596989,0.07452218,0.3914903,0.09040887,-0.11582723,0.20642513,-0.048012666,-0.055488884,0.5274986,0.34846008,-0.17278141,-0.22867644,-0.04210494,-0.46903312,0.004503685,0.29033047,-0.32543007,-0.3247074,-0.21665458,0.039788578,-0.11823935,0.9601162,0.19588695,-0.40858224,0.019526003,-0.44918734,0.059464503,0.17285739,0.24420492,0.18495965,0.020191016,0.9218533,0.43271244,-0.12694125,0.44821802,0.16800989,0.4087475,-0.4086115,0.40267098,-0.066804536,-0.49591118,0.21446842,-0.38618392,0.40577173,0.46352875,-0.011476302,-0.15741123,0.29300287,0.056665756,0.42167988,-0.45631763,-0.44989482,-0.04973728,0.08681832,0.56962097,-0.06034553,0.37691027,0.07856006,-0.5532838,-0.3833483,-0.2319699,-0.013705917,-0.03568214,-0.37916306,-0.34993088,-0.24996345,0.013918587,0.07466983,-0.35138592,0.06903276,-0.16968004,-0.2866344,-0.058195647,0.08832176,0.0042938315,-0.59845215,0.5166847,-0.107636705,0.29446486,0.64974266,0.013245104,-0.60664904,-0.18746465,0.2870554,-0.12978773,-0.16807808,0.13574986,-0.007451393,0.070507914,0.1509423,-0.1472655,-0.04659873,0.08391782,0.7341081,0.0053589414,-0.2927665,-0.2695528,0.11408851,-0.38967752,0.37563717,0.2871147,0.4712382,0.6701161,-0.16445424,0.3663643,-0.47207808,0.005799835,-0.42167532,0.35838595,0.43407628,0.7498215,-0.3595021,-0.10326457,-0.8398418,0.17496252,-0.40774286,-0.7653318,0.46985886,-0.04137601,-0.20462176,-0.2841157,-0.21580921,0.046276327,0.18931173,0.15657443,-0.07813971,0.14138591,-0.4381816,0.123836085,-0.28830254,0.23854676,-0.22708777,0.05805375,0.042638283,0.3080919,-0.1820526,-0.8028589,0.2965708,-0.2769808,-0.5704409
pleasure,-0.21536958,-0.12927267,-0.009774791,-0.27864173,-0.06809833,-0.1405417,-0.650911,0.030204734,-0.45561114,0.21406734,0.50185496,-0.41239682,0.4775854,0.027178796,0.49206707,-0.09402879,0.5303512,-0.04604983,0.14320752,-0.33370784,0.43150568,-0.7571544,-0.91801935,-0.49546626,0.2964317,-0.001787343,0.029125245,-0.27620098,0.31310093,0.063508146,-0.24523352,0.4271182,-0.30392224,0.023465626,0.17308342,-0.8430666,0.2134727,-0.079768494,-0.35066965,0.70598215,0.7992593,-0.12764531,0.44471604,0.61616653,-0.2500156,-1.1959897,-0.72317594,0.158137,0.37775517,-0.071757704,-0.30558956,0.19872484,-0.36258188,0.6062061,0.3731013,-0.3318883,-0.23003972,0.08532304,0.24656469,0.41752732,-0.32238418,0.271169,0.07414766,-0.059609108,-0.20120041,-0.4049741,-0.04821015,-0.14747044,-0.6255809,-0.39960632,0.07775492,-0.016853446,0.2056988,-0.2750749,-0.1697517,0.041673206,-0.15670945,0.18457158,0.31610024,-0.16817491,0.17502254,-0.197008,0.7542,0.09643118,-0.10340043,0.21753263,0.37876004,-0.021159079,0.20227186,0.2590654,0.13202444,0.61508554,0.4836586,0.06241479,-0.033152696,-0.6418836,-0.13020529,-0.42307332,0.2792114,0.6400461,-0.33060175,0.016159955,-0.09330865,0.12759456,0.15780851,0.19256097,-0.58437705,-0.019902788,-0.41079298,0.20320018,0.14387856,0.17968234,0.0897748,-0.29046145,0.06267039,-0.1946763,0.5522076,0.6637025,-0.23271984,-0.023239465,-0.20174755,0.21246536,0.3673726,-0.7711,0.17340633,-0.30415976,-0.14101341,1.0147614,-0.79479665,-0.30119267,0.11375401,-0.17451645,-0.34808412,0.24211764,0.13278565,0.3310307,-0.05513932,0.48283157,0.1727385,-0.21110524,0.7115597,0.043394536,-0.5838337,-0.08312207,-0.25856534,-0.5960154,-1.020552,-0.1252627,0.062832735,-0.51147866
aggressive,-0.053731155,-0.19809239,0.17401128,0.43088156,0.37556943,0.25880748,0.057125475,-0.08541088,-0.121643215,-0.20998292,0.03808235,-0.54793066,0.13281673,-0.5662149,0.27662507,0.63811165,-0.28112945,0.04094122,0.6323091,-0.23482344,-0.0072990144,0.05372161,-0.221755,-0.22830491,-0.93741834,0.2793137,-0.6746408,0.21215859,0.11703518,-1.0380397,-0.30144262,0.66373205,0.23085156,0.34366816,-0.08336285,-0.23282212,0.48211965,-0.21116334,0.1800667,0.18609144,0.19910313,0.08922158,0.85879475,0.15669127,0.22492413,0.34362477,0.21146978,-0.9357806,-0.15782319,-0.38704103,-0.57424045,-0.56813586,-0.13937189,-0.013419611,-0.3225917,0.3595146,-0.0029446,0.78512335,-0.0727488,-0.38263765,-0.032471314,-0.72536695,-0.15838493,-0.31101897,0.735168,-0.12956783,0.06425718,-0.58425,-0.05986191,-0.56246394,-0.028654084,0.0032819628,0.59846807,0.15100089,0.40822762,-0.17781827,0.43455607,0.08854776,0.035400506,0.4480747,0.15872942,0.16763976,0.0057543996,0.05338907,0.5878767,0.03774896,-0.2156626,0.43597662,0.19788477,0.12348395,0.1465177,0.5260301,0.66077703,0.86035734,-0.71821785,-0.24595904,0.12499273,-0.5440025,-0.41008532,-0.24021766,-0.46446806,-0.43542624,0.11557105,0.30963176,0.15205361,-0.2780452,-0.29211292,-0.07918823,-0.51337963,0.088522494,0.13776973,-0.301803,0.0008439947,-0.8005544,-0.4433636,-0.34069023,0.27857304,0.473551,-0.039826166,0.47826475,0.56434256,-0.14036039,0.010328699,-0.8869046,0.23233213,0.124986336,-0.037501097,0.6151229,-0.31140664,-0.039945766,0.16090651,-0.08297224,0.19164613,0.12131542,0.394182,0.32949758,0.04764691,-0.06216205,-0.76394814,0.14508624,0.15596312,0.48976266,0.03005519,-0.38939396,0.6871835,0.04398438,-0.3050445,-0.31593037,-0.28531715,-0.30559123
angry,0.13066776,-0.26164287,0.15015866,0.47217724,0.06495208,0.24886008,0.08957142,-0.58659357,-0.22670202,-0.11694998,0.22107,-0.18065538,-0.19711047,-0.075962044,0.3521936,-0.18493733,0.13721126,0.33195058,0.6024209,-0.05260507,-0.012877663,-0.2802261,-0.646972,-0.53369683,-0.28120166,-0.5558995,-0.26454,0.12211158,-0.568976,-0.30493122,-0.23720197,0.40706968,0.48045388,-0.115879536,-0.13095362,-0.034427643,0.240752,-0.24240074,0.13739073,-0.062250227,0.15468097,0.35151795,0.2818872,0.657898,0.08364657,0.52410394,0.46028543,-0.67845815,0.059749328,0.07753471,0.32864583,-0.40471026,0.0063037146,-0.0167375,-0.08385126,0.291506,-0.0025736692,0.48821476,-0.060468357,-0.022041807,-0.051263448,-0.22178331,0.35318458,-0.49398202,0.16563667,0.12791984,0.47896296,-0.09971426,0.2177379,0.06117294,-0.3233832,-0.1317212,0.09912652,0.07502743,0.064846374,-0.44235188,0.27459577,0.018490335,-0.14279062,0.16766194,-0.10176277,0.5688295,0.67612684,0.80959654,-0.23825055,0.24024715,0.22471765,0.52651525,0.23134123,0.38138598,-0.08062479,0.33097348,0.29535693,0.6280655,-0.083817445,-0.3994411,0.4357985,-0.12796223,-0.35731763,0.09808501,0.2504856,0.41728267,0.17986976,0.17901959,0.099076815,0.55236787,-0.22777162,-0.19884317,0.21288922,-0.32572582,-0.36821616,0.08173527,-0.6142543,-0.25339618,0.08145395,0.18387748,0.21461359,0.25257146,0.11955508,-0.109284334,0.06318545,-0.086778805,0.62155247,-0.342908,-0.3679426,-0.1376048,-0.13022514,1.0546759,-0.76591086,0.24175882,0.09846327,-0.44206685,0.3916935,-0.037295416,0.94942355,-0.1331723,-0.46837333,0.70264655,-0.23127146,-0.13134888,0.31880096,-0.5705512,0.33628052,-0.5232613,0.44035006,-0.025359124,-0.17605828,0.5036408,-0.30429426,0.3134794
haunting,-0.5063,0.21600795,-0.4908998,0.16311914,0.2532206,0.18332225,0.274039,0.041488007,-0.21481508,0.40077993,-0.23407051,0.34209958,0.04028887,-0.2825344,-0.18503048,0.40017977,0.7077493,0.5476621,0.4600443,0.2267309,-0.0083942525,0.11041747,-1.0107031,-0.59516317,-0.0020111701,-0.5381448,-0.2851004,-0.14428453,0.20774327,0.24397112,-0.2351647,0.5319895,0.39772102,-0.13242446,-0.1802547,-0.8795466,1.0534245,-0.5126756,0.12825498,-0.18861008,-0.01595192,0.38926518,0.09023535,-0.089838706,-0.026653381,0.28551057,0.1454371,0.05181858,0.68231237,-0.67923266,-0.15115342,0.117684,0.63781947,-0.07774792,-0.30291358,0.43158543,0.2089421,0.12936518,-0.24618326,0.8095438,-0.51837957,0.08036093,-0.14759286,-0.15159541,-0.19564618,0.034782566,-0.06531955,-0.60211784,-0.5666613,-0.67484576,-0.5516359,-0.13405105,0.39706427,0.037719388,-0.36274555,-0.13815354,-0.25353703,0.110201046,0.21762313,-0.23731571,0.06276115,-0.2076537,-0.16820283,0.29062808,-0.4344457,0.15511282,0.3076607,0.51908493,0.17965841,0.078342505,0.28550124,0.18803467,0.15621619,0.16217645,-0.41607782,0.0016060459,-0.49480522,-0.23086995,-0.025520414,-0.04240679,-0.31878474,0.27098668,0.34436116,-0.35065126,-0.120979875,0.08221633,0.07279264,-0.24291453,0.1660799,0.13872567,0.015876563,-0.08602556,-0.21373443,-0.57633966,0.020951506,-0.09306241,0.3746005,0.30146858,-0.000511049,0.3042771,0.17504802,0.09359534,-0.09762799,-0.09697007,0.14642495,-0.29036087,-0.24076146,0.32664508,0.007379022,-0.08978046,0.15982914,0.3627847,-0.024901563,0.08470445,0.4796669,-0.29165527,0.19490135,0.20448938,0.5610444,0.17326862,0.5918611,0.25812703,0.4356677,-0.044316657,-0.2618238,-0.34183282,-0.13213259,0.57474774,-0.03782032,-0.47769806
soothing,-0.8183665,0.33345714,-0.29877648,0.250044,0.11313417,0.60847604,-0.22755139,-0.09284422,-0.028789949,0.46642983,-0.18468888,0.25150916,0.4078863,-0.084646896,-0.23999752,0.035333086,0.5551583,0.15860984,-0.035537172,-0.22091633,-0.20145524,0.7564773,-0.3529115,-0.51142853,0.057516553,-0.19691718,-0.18467729,-0.4256586,-0.29063857,0.0808132,-0.24805264,0.119595684,0.3804776,-0.36586112,-0.14639674,-0.8265866,0.39096788,-0.24404053,-0.46165016,-0.106409594,0.0096264295,0.71419585,0.06461325,0.25791773,-0.30335936,0.5938567,0.14275542,-0.48587254,0.3552966,-0.13570112,-0.4841623,-0.37035215,0.12182177,-0.103850834,-0.10860532,0.10913999,0.2977025,0.27759677,0.33762172,0.45680845,-0.51853377,-0.40223768,0.25050434,0.00811733,-0.85045135,0.008212329,0.46464258,-0.81395537,-0.32198614,-0.44477123,-0.9653351,0.082950726,0.58416927,-0.09835705,0.05365058,-0.30864447,0.08248078,0.1371522,0.6520943,-0.11690506,-0.2175925,0.22176997,-0.016475359,-0.002737612,-0.17550512,0.122896664,0.4040752,0.36903507,0.3917667,-0.40598837,0.363798,-0.19890183,0.3171379,0.004655574,0.2910239,0.21954547,0.02529425,-0.58590364,0.31534475,0.13705984,0.25139734,0.42935368,0.70614535,0.15591203,-0.086535,-0.4545075,0.2461278,-0.6372526,0.16345526,0.12629509,-0.43207672,0.047908593,-0.13648564,-0.26711679,-0.12358918,0.2124918,0.14711839,-0.049402375,0.08752298,0.091488995,0.36505044,-0.20184238,0.3180476,-0.15625045,0.0030402474,-0.43547893,0.22478293,0.33864486,0.07302866,-0.21338147,0.034007866,-0.19956398,-0.105286226,0.35168186,1.0186495,-0.75221,0.21891539,-0.17927933,0.13502824,-0.35143465,0.40933344,0.013343061,0.31441635,-0.024741428,0.2891649,0.6636022,-0.2598869,0.41697124,-0.20743996,-0.3777312
peaceful,-0.65554196,-0.09937853,-0.41394106,-0.4073355,-0.6074272,0.40897423,-0.07834323,-0.58871645,-0.2446975,0.26903713,-0.33895245,0.21552934,0.7191712,0.22705549,-0.6385513,0.4011715,0.45675844,0.5863064,-0.3063726,-0.0477881,0.10187657,0.32039928,-0.30975148,-0.09204531,-0.18406913,0.34360322,-0.75071186,-0.33882406,0.16907601,0.34196135,-0.22793645,0.84393257,-0.03823586,-0.4413474,0.18691774,-0.18141,0.43147397,-0.5294115,0.106912896,-0.102988504,-0.17059903,0.11395885,0.24701025,-0.05928577,-0.47506252,0.45803386,-0.008898428,-0.13203594,0.5010157,0.5350456,-0.56336814,0.29891396,-0.07949147,0.41864458,-0.2272567,-0.11495944,0.14464319,0.15163755,0.3566978,0.3128118,-0.62440974,-0.2640674,-0.0057133865,-0.087093055,-0.6276737,-0.28369817,0.16684848,-0.60052514,-0.0020881868,-0.93552303,-0.4172198,0.57901967,0.16711786,-0.057786148,0.25278172,-0.112846196,-0.3019206,-0.10748634,0.283035,0.3481064,-0.022402529,-0.37136218,0.016851168,-0.17677104,-0.31554687,0.65723085,-0.069940425,-0.13408569,0.22828576,0.225133,-0.15146126,-0.038814254,0.25099608,-0.11421511,-0.4667232,-0.42235288,-0.062165033,0.2875259,0.008971214,-0.1823836,0.24510495,0.47657153,0.5854234,0.1951588,-0.15360503,-0.8882377,-0.3584556,0.114237204,0.023897255,0.19198859,-0.36554196,-0.43996245,0.53851074,-0.60288525,0.4728853,0.03545763,0.33939636,-0.10417657,-0.5101911,0.07790554,-0.047633175,-0.5400732,0.30034655,-0.5880308,-0.18244517,0.07183633,-0.17774807,0.37839478,-0.41224268,-0.5037391,0.22551078,-0.2668076,0.23277524,-0.29667065,0.5901105,-0.7328644,0.49598894,-0.04332037,0.6656995,-0.20386651,0.15009089,0.20462708,-0.042020828,0.41577804,-0.2861469,-0.3971848,-0.19092666,0.5950391,-0.15415986,-0.08599351
joy,0.27411035,-0.40388268,-0.2869347,-0.0081872875,-0.1702755,1.4499725,-0.15223807,-0.7566744,-0.93231124,-0.29149926,0.59095544,-0.1750212,0.32200652,-0.01596983,-0.45138308,0.5179105,-0.7427015,1.1415459,0.64663625,-0.75924826,0.63589936,-0.68358326,-1.1471874,-1.5167966,-0.23120849,-0.3454625,0.25044912,-0.4842717,1.3946764,0.04629813,0.033488885,0.114322186,0.9457126,-0.08456178,0.49030763,-0.12984473,0.5199681,-0.041234624,0.011515892,0.5398448,-0.37134963,0.40521464,-0.18315995,-0.42452726,0.862145,0.057469692,0.4291717,-0.45394143,0.690988,0.10961827,-0.056722257,-0.0771106,-0.5150513,-0.033779636,-0.3716987,-0.48883876,1.098379,-0.48540723,0.3878553,0.026700228,-0.13314936,0.024670132,0.36182433,0.25646526,-0.063949406,-0.14583398,0.6263371,0.5160592,0.17040032,-0.82104194,-0.078254454,-0.4819549,-0.11684158,-0.31651348,0.15820493,-0.0916526,0.41537276,-0.042416982,0.26198053,-0.4431688,-0.13549483,-0.24187905,0.3587898,0.088274196,-0.13547437,0.06897077,-0.7540194,-0.21232414,0.60678136,0.54903066,0.29226634,-0.2505925,0.055940103,0.49407327,-0.6990966,0.3677827,-0.534592,0.33690238,-0.7321946,-0.27730817,-0.40351114,0.21531759,0.26186514,0.12484432,0.28007302,-0.20199649,-0.6086077,-0.18238774,0.090776615,-0.55644,0.098370574,0.6733054,0.65710324,0.29594433,-0.24128483,0.5709547,-0.17712872,-0.3281259,0.7145866,-0.39678773,0.07439379,-0.1517407,-0.02563438,-0.38596714,0.3814943,-0.91017705,-0.55809265,0.7346172,-0.6262006,-0.25072855,1.075004,-1.0919604,0.40682894,-0.6074152,0.0034558834,0.22131893,0.4014924,-0.018999457,0.45586815,-0.82697684,-0.19859102,0.43718776,-0.42298585,-0.07427184,-0.8663078,-0.28752398,-0.54069227,-0.40716657,0.5315798,-0.3454197
nostalgia,-0.5708179,-0.089462325,-0.28704453,-0.15182725,-0.15158553,-0.1341144,0.20147467,-0.5687925,0.090999074,0.089218274,-0.30687383,0.18540679,0.15966076,0.663029,0.118834965,0.10636435,0.45166174,0.024298223,0.01263331,-0.1052275,0.41228756,-0.49563432,-0.44265062,-0.18614149,-0.7460123,0.16263495,0.083600946,-0.02881357,-0.07773743,0.8816502,-0.48531175,0.29393747,0.1270677,-0.046407077,0.056758232,-0.4623048,-0.06548372,-0.55363804,0.54326546,0.05337877,0.053804055,-0.16971296,-0.1101131,0.33569455,-0.042375486,-0.06436517,-0.17125499,0.007401615,0.09146505,-0.19034015,-0.24471813,0.22339284,-0.38032562,0.17181538,0.0915082,-0.20891427,0.57082665,0.4820305,0.17790769,0.30423334,-0.45581385,0.17934348,0.3691811,-0.42014393,-0.061914317,-0.24682118,0.4229517,0.048459478,-0.31374308,-0.29505554,-0.37582615,-0.17581785,-0.46910244,-0.19112164,0.28161988,-0.45649427,-0.08564269,0.26596016,0.38635713,0.05726937,0.38516334,0.47365683,-0.12601359,-0.18407588,-0.5202652,-0.4108853,-0.24410123,0.27190542,0.1588239,-0.080318555,-0.5764946,-0.08247938,0.04012385,0.18914278,-0.50190306,0.13736384,-0.2600787,-0.14490071,0.016133657,-0.20895158,-0.4343833,0.24991287,-0.16575566,0.19330102,0.032724395,0.07687641,0.10914176,0.08161191,-0.44769016,-0.24074078,-0.48625237,-0.19657294,0.11439334,-0.70393866,0.2238671,-0.1777212,-0.35958192,-0.17769551,0.053240016,-0.3373146,0.053484503,-0.31414518,0.23675622,-0.1551314,0.4240109,-0.027748046,-0.06663517,0.35959667,-0.08101456,-0.34976247,0.39593962,-0.6357791,0.30238602,-0.44827676,0.46442014,0.09304566,-0.061178256,0.3976654,0.48947975,-0.7357742,0.30056474,0.10186345,0.073892154,-0.013729249,0.09744065,-0.3036647,-0.2491449,-0.1542555,-0.41473398,-0.37467563
funk,0.06919213,-0.33297613,-0.031600256,0.1868705,0.22274138,-0.700179,-0.51269895,-0.21999426,-0.7227897,0.13730547,-0.009318065,0.14746091,0.14880869,0.39125618,1.0466846,0.24489763,0.39369756,-0.24020073,-0.37021372,-0.16130257,0.112945415,-0.20787229,-0.527588,-0.2617032,-0.6513022,-0.3999042,0.048522536,-0.10911981,0.20048423,0.6215122,0.36111364,0.6128774,-0.21496324,-0.23795132,0.52273893,0.68892676,-0.170583,0.15802567,-0.13977797,0.49136466,0.22893514,0.07258738,0.07934098,-0.3237747,0.374334,0.09595543,0.60643315,-0.7419943,0.031739336,0.32844508,-0.19117674,0.11370441,0.51664484,0.14707515,0.20020345,0.027253605,0.39525872,0.11730506,0.284015,-0.09765736,0.3226536,-0.17569222,0.3873999,-0.20705943,-0.33161503,-0.09229317,-0.012691819,0.53408396,-0.17116067,-0.03611581,0.31408194,0.32460362,1.2041322,-0.37418604,-0.12387858,-0.074386716,0.46153358,0.1548582,0.067014955,0.74105537,-0.51631016,0.5521554,0.014625397,1.2948574,0.5849082,-0.20821515,-0.12197134,0.26749825,0.39575183,0.34887078,0.097934835,0.08163316,-0.01540295,0.02524663,0.34549764,-0.19406725,-0.3800307,0.13407798,0.23822579,-0.24317485,0.023056203,-0.10492602,-0.47323442,0.5217427,-0.41578025,-0.34292337,-0.69490397,-0.26280892,-0.5012122,-0.02289819,0.014955598,-0.35661727,0.11666517,-0.8729417,0.0694437,0.28466952,-0.25210807,-0.2302218,0.33953962,0.6466863,0.5124164,-0.17386942,-0.3833544,-0.5156482,-0.041712068,-0.7606215,-0.17345357,0.26936632,-0.074444294,-0.408421,-0.036309812,-0.71863186,0.19407067,0.5168341,0.21305491,0.03571182,-0.05270784,0.717835,0.112889,-0.28513202,-0.83201516,0.21038438,0.005783815,-0.4731963,0.7318788,-0.53274703,-0.19535397,0.61435956,-0.021255804,-0.38424775
sad,-0.3020502,0.11970942,0.07102332,0.029188028,0.033682372,0.30148816,0.17401585,-0.07655761,-0.038195446,-0.200981,0.06287844,-0.13668604,0.38707197,-0.044441838,-0.051704712,0.045341134,-0.06676806,0.1568926,-0.3792872,-0.1676297,-0.44838962,-0.17994252,-0.4870506,-0.87610126,-0.026514972,-0.13748497,-0.7900363,0.029003808,-1.0021052,0.06559255,-0.10404067,0.18683559,0.91508144,-0.38600054,-0.26184586,-0.14257671,0.5434052,-0.5411405,0.4707784,-0.25863662,-0.036776867,0.29457456,0.32976404,0.15529287,0.06129457,0.09577935,0.50980425,-0.1307654,-0.075067885,-0.35635695,-0.07432829,0.17981878,0.84378755,0.29529455,0.11202042,-0.23729329,0.39513868,0.20604776,-0.20592496,0.3717597,-0.63499343,0.021533623,-0.31050712,-0.22774848,0.4121504,-0.2580712,0.37224838,-0.018187892,-0.05844196,-0.4592514,-0.14793698,0.056405112,-0.3082419,-0.23842938,0.13702324,-0.2798125,0.10693587,0.14873289,0.4112783,0.09005574,-0.5662607,-0.6113151,0.08485429,-0.0001939095,-0.18915883,0.018598545,-0.022536876,0.4723052,0.063041605,0.049596842,0.23654735,0.4877827,0.21261686,1.0919936,-0.13316081,-0.3534276,0.13581601,0.06808277,-0.31609365,-0.46175987,-0.37129048,-0.13222551,0.09298816,-0.17021541,-0.2669371,0.1257178,-0.5267539,-0.083836675,0.24510263,-0.042576585,-0.6418695,-0.27132973,0.047216922,-0.21985085,0.106718674,0.4192649,0.38157266,-0.030395174,-0.11718694,0.23417552,0.33186698,0.116694786,0.06375699,0.0074843774,-0.20027088,0.020579942,-0.21280187,0.71432936,-0.42145038,0.08944488,0.06141326,-0.26555368,0.05610446,0.3210858,0.19753905,0.3011831,-0.2941275,0.29406363,0.81494576,0.06580244,0.7702173,-0.6079814,0.057697862,0.03514276,0.062134806,0.16582751,-0.5927884,0.46388727,0.117643066,-0.40761042
dreamy,-0.5011717,0.16546124,-0.25302106,-0.16364145,0.16351622,0.01632033,0.31178144,-0.27351385,0.08428379,0.90437627,0.12669319,0.5987595,0.7385431,0.47460264,-0.40219316,0.24475232,-0.095708266,0.15931973,0.06112253,0.17766796,-0.47463045,0.41728532,-0.30309334,-0.74179363,-0.33418113,-0.16102737,-0.6775185,0.022698008,0.3479431,0.59489816,0.3651384,0.72565305,0.4312282,-0.28543898,-0.1014569,-0.6415736,0.5134979,-0.27963376,0.3805757,0.21852216,-0.10115255,0.47675195,-0.02162597,0.41254306,0.16486023,0.15632206,0.1589393,-0.5756867,0.43863642,-0.03305375,-0.06772513,-0.010744143,0.1514292,0.30692497,-0.3114402,-0.12652469,0.43846115,0.16549943,0.24591172,0.6210777,-0.094042554,-0.17570873,0.03477173,0.06608105,-0.19816394,-0.14975502,0.24780308,-0.58470374,-0.078177005,-0.04278823,-0.441661,-0.100413874,0.26660696,0.22512807,0.18453436,-0.078665785,-0.005280629,-0.16316687,0.07229015,-0.19778699,-0.48697498,0.24914093,-0.44230476,0.020352023,-0.55613214,-0.26482144,0.3334685,0.5186937,0.29161343,0.12623487,0.08031261,0.15825292,0.13467972,0.26152158,0.2860786,0.3568524,-0.23070705,-0.40204942,0.20923191,-0.040284675,-0.4528312,0.6454637,0.15433908,-0.16160607,-0.25616753,-0.54242253,0.15406278,-0.4608093,0.09226168,0.58257514,0.2939576,0.011621336,0.2731546,-0.13421345,0.2541748,0.11860101,-0.034945928,0.22436154,0.060451567,0.25660887,0.099676654,0.3539697,-0.024393296,-0.24235755,0.28930593,-0.21714312,-0.063551955,0.08944558,-0.31447336,-0.22902076,0.11865768,-0.44328204,0.2343343,-0.2020375,0.08349032,-0.48400113,0.1580615,-0.14520057,0.14173937,-0.049276058,0.29114276,0.11608766,-0.24161766,0.28593352,0.0956796,-0.07528413,-0.5256173,0.4176337,-0.3280925,-0.16893749
calm,-0.278603,0.52768666,0.13169304,-0.4947401,0.17636722,0.49386054,0.10134836,-0.09526633,-0.19989394,0.6456374,-0.32456103,-0.3139931,0.5663244,0.2448811,-0.1953877,0.5204254,0.073834464,0.5835309,0.529389,-0.14583081,-0.21151347,0.37961307,-0.72681415,-0.63773525,-0.18675657,-0.11311624,0.041740447,-0.2800247,-0.1435363,-0.12301004,-0.18614084,0.77745944,0.22300431,-0.23755407,-0.5595552,-0.53796,0.2787185,0.13314103,-0.21943006,-0.023642499,0.008326352,0.4601825,0.06641009,0.47700438,-0.3917209,-0.032075286,-0.08064216,0.14984491,-0.08647725,-0.012887892,-0.30584228,0.08407844,0.6372226,0.37304166,-0.032775953,-0.24532574,0.32422495,-0.016155675,0.15359698,0.3489149,-1.2677659,-0.25406033,-0.01994016,-0.21094285,-0.48735464,0.17603512,0.34117126,-0.58740646,-0.21472834,-0.34132904,0.17279288,0.16800575,0.8064667,-0.6883936,-0.21934344,-0.24605313,0.10670365,0.20504795,0.24285409,0.35383946,-0.15345336,-0.121585,-0.2793651,0.11354443,-0.5848924,0.24773414,-0.00040249666,-0.22966927,0.016453486,0.031390816,0.06467958,-0.174592,0.47878703,0.45450515,-0.2610778,0.119867094,0.2003925,-0.0073712575,0.014917226,-0.16329482,0.29006806,0.53973657,0.45227754,0.20961265,-0.21772072,-0.5373243,-0.31781706,-0.10377832,0.09159346,0.12622479,-0.014967906,-0.19146937,-0.20984209,-0.17966282,0.38477603,0.25381482,0.29999292,-0.06781994,0.16594352,0.4668022,-0.22688231,-0.13988559,0.28297684,-0.33723503,-0.81471467,-0.16911122,0.5388831,0.70950264,-0.4873951,-0.3272529,-0.06508985,-0.562491,0.023731198,0.35807002,0.9144733,-0.44176283,-0.17419547,-0.05467329,0.32101953,0.2560029,-0.045641918,0.26934367,0.18429482,0.17253257,0.35625035,-0.2245685,-0.41085267,0.17365302,-0.22456643,-0.2316683
melancholy,-0.29490563,0.2880689,-0.0323491,0.1991376,0.3332185,0.22327496,0.2620745,-0.5612899,-0.32987267,0.40992025,0.3174855,0.040372346,-0.13994376,0.15975869,-0.5407989,0.29764208,0.34093055,-0.031182297,-0.22953522,-0.50421536,-0.100268625,-0.16027369,-0.74515396,-0.93485796,-0.469426,0.16337782,-0.614367,-0.17556217,-0.17552109,0.30401194,-0.1272328,0.61390907,0.41202217,-0.22969307,0.3470416,-0.3675978,0.45970896,-0.48468286,0.10412265,0.27047557,-0.33681607,0.21951881,0.035430107,0.01639206,0.39650032,0.20004456,0.222455,-0.15436588,0.43400854,-0.63949746,-0.10707772,0.30806068,0.43165666,0.2746229,0.29603174,-0.1865786,0.50191814,0.17830196,0.47086748,0.31422147,-0.52603805,0.074649,0.3382424,0.29096898,0.0506401,-0.08187226,0.15185238,-0.121663064,-0.07266612,-0.12812194,-0.49396408,0.039615862,0.55827117,0.1931112,0.120848045,-0.33442578,0.35535625,0.24942374,0.20173626,-0.24214415,0.2522217,-0.1910838,0.11323268,-0.2283723,-0.39932537,0.040231183,0.31630927,0.11641378,0.10745542,-0.32399166,-0.23364885,0.23205633,0.013556152,0.20949346,-0.25736928,0.013555622,-0.26989782,-0.34352723,0.33739236,-0.4503668,-0.49069613,0.43818077,0.59243405,-0.24708374,-0.17655683,-0.59072685,0.11379965,-0.39705393,0.236635,0.1436416,0.082830034,-0.5384633,0.26648647,-0.90260124,0.26514667,0.30213982,0.12768494,0.050723016,-0.061573256,0.23506002,0.39143828,-0.11211369,-0.53001916,-0.41989204,0.10979908,-0.44484267,0.49949363,-0.05227591,-0.5033347,-0.17666617,-0.1056315,-0.2928892,-0.30231723,0.08741285,-0.087877706,-0.16165262,-0.18917294,0.08616287,0.4120844,-0.037387997,0.32596016,0.21348134,0.2991818,0.041455276,-0.013375535,-0.19605684,-0.42081052,0.2718595,-0.43573532,-0.24395296
quirky,-0.24251041,0.15117735,0.062480457,0.4151164,-0.4145504,0.47969157,0.07822339,-0.1338796,-0.31882194,0.16179045,0.202778,0.4180106,0.075467825,-0.16694315,0.54264826,-0.040288318,0.18694767,-0.19302134,0.026840549,0.0063132336,0.06547828,-0.33752218,-0.64279354,-0.9338729,-0.44240767,0.5316715,-0.676999,0.29711908,0.22590779,0.7014998,0.23263307,0.9776166,0.2933137,0.49940273,-0.34370795,-0.25236028,0.61581767,0.0381604,0.20919578,-0.088816814,-0.13237242,0.1344719,0.27321473,0.06642617,-0.14256176,-0.09257814,0.14896864,-1.2608755,0.6715775,0.15791678,-0.269262,-0.78254664,0.15372455,-0.3415508,-0.499331,-0.8879593,-0.04753306,0.07220104,0.17332022,0.051438745,0.17341316,0.07227802,0.34224468,0.008735492,-0.11291908,0.10611743,0.37493712,-0.24338676,-0.58257514,-0.42579183,-0.6610843,-0.1536078,0.15330875,-0.040287502,0.5777276,-0.28288,0.109344654,0.6702352,0.11146014,-0.42178622,-0.004512367,0.0036332582,0.008776546,0.8026752,-0.17647745,-0.37003615,-0.22992729,-0.30055448,0.6804993,0.6354661,-0.74366724,0.40467378,0.22685775,0.29614308,-0.29426208,0.5053777,-0.06057511,-0.05356209,-0.3104553,0.045236867,-0.37962365,-0.16209105,-0.52869576,-0.23555477,-0.44323683,-0.50161105,-0.12830573,-0.06828101,0.37345296,0.39441782,-0.5432648,0.35684842,-0.0047547366,-0.09735437,-0.046565812,0.11233318,-0.03750091,-0.20039319,0.21151668,-0.1415367,0.28442007,0.3583437,-0.23357274,-0.3642447,-0.029570244,0.40495378,-0.31263226,0.8939357,-0.3873156,-0.48696357,0.49366418,0.08831607,-0.34324136,0.6135296,-0.02837181,-0.010692393,-0.2082,-0.04868533,0.22055097,0.055705946,0.26040775,0.16002424,-0.49655297,0.13231984,-0.063978106,0.37811485,-0.46057868,0.521527,0.36752984,-0.19684021
desperate,0.38363343,-0.2108883,-0.25409704,-0.36984986,0.30011457,-0.18023628,0.2587085,-0.24853416,0.32814714,0.61963016,0.16472535,-0.59242254,0.40949562,-0.2610126,0.060866404,0.055904154,-0.12364724,0.30869347,0.021589898,-0.23523852,-0.9823886,-0.70884186,-0.053171173,-0.91607505,0.4710588,-0.1400994,-0.27484518,-0.018587258,-0.33845195,0.3423601,-0.16482466,-0.10610425,0.7476904,0.7415427,0.063173786,-0.745469,-0.20320077,0.2997873,1.0433733,-0.04805486,-0.26242498,-0.60221773,0.22422232,0.97871935,0.23493673,0.773844,0.19039604,-1.4782178,0.89941436,-0.38342205,-0.7085123,0.00288871,0.22477083,0.4038,0.64102864,0.39518902,0.90062577,0.84993434,1.1063912,-0.45931876,0.31517822,0.16890289,1.1759173,-0.05592696,0.49213442,-0.7877618,0.43197152,-0.16297278,-0.51891017,-0.21565244,-0.24113034,-0.122544155,0.5633562,0.020456929,-0.188504,-0.39817426,-0.72253984,0.5222905,0.22219355,-0.55325675,-0.18160212,0.07672815,0.22633475,-1.2337598,-0.30577362,-0.42341393,0.5810459,0.33050755,0.11220776,0.40005127,0.0037365074,-0.009309448,0.04127801,-0.45406225,-0.5877929,-0.15304156,-0.24675532,-0.75259215,-1.1773621,-0.39734566,-0.007706488,0.3131052,-0.88063216,0.4685217,-0.04459021,-0.305833,-1.3074334,0.4886475,-0.21343653,-0.15530497,-0.5727993,-0.04869854,0.55919516,-0.38472936,-0.042951573,-0.53271276,-0.14668556,-0.79357266,0.39546624,0.054499485,-0.5158348,0.5630589,-1.3165463,-0.5767359,-0.34879234,-0.56275135,0.49606258,0.25364023,-0.3258064,0.5086074,0.77985084,0.3436176,0.77969134,0.8720255,0.91525996,-0.26379633,-0.30635095,0.60002184,0.21872316,0.63083416,1.5435579,-0.24782377,0.4955044,0.24799274,-0.25666392,0.40416363,-0.35781753,-0.32972908,-0.13257241,-0.62824893
emotional,0.21145554,0.52710426,0.025343807,-0.27570915,-0.023157386,0.18573518,0.18844098,-0.061466042,0.10686435,0.41677764,0.17576881,-0.26944435,0.5568133,0.32131553,-0.2863431,0.2325788,0.18844125,0.2701003,0.2103415,-0.2539918,0.35961235,0.4026438,-0.4564187,-0.3511272,-0.5087613,0.009846791,-0.94199026,-0.6602795,-0.4479571,0.12929864,-0.3323483,0.19897614,0.35672197,0.40633142,-0.26157382,0.09137056,0.29518554,-0.41438863,0.19601671,0.2497271,0.34831536,0.26821685,0.19568753,-0.038858134,-0.022469005,-0.06044384,0.5138368,-0.19703925,0.47499797,-0.16212073,-0.22287433,-0.052899517,0.54937327,0.3022352,-0.25355092,0.3445438,-0.14008561,0.25637168,0.30215007,-0.101293504,-0.392347,0.23620561,0.43937093,-0.13918099,-0.15146871,0.102361314,0.16646029,-0.55550426,-0.40669706,-0.37684315,-0.39832538,-0.46031672,0.037775908,0.40108052,0.07523215,-0.22379369,-0.074648164,-0.42152822,-0.112785675,-0.010287474,0.104166985,0.111620925,0.34863374,-0.076997824,-0.55794334,0.00276549,0.7820806,0.08881874,0.30492803,-0.10376113,-0.32814264,0.27509627,0.08955657,0.367316,-0.20777416,-0.47656193,-0.05483138,0.4454843,-0.15895467,0.04357485,-0.25274843,-0.3043559,0.8288944,0.38286868,0.09227143,-0.29936507,-0.5609553,0.51452994,-0.13173236,-0.37514248,-0.13426185,-0.8476006,0.24877161,-0.50831175,0.5617629,0.33609092,0.38956037,0.14021957,-0.146075,-0.11166137,0.21725734,-0.32157826,-0.15806659,-0.7210856,0.1613287,-0.42811844,-0.79177386,0.32311958,-0.828757,0.19074437,0.21189769,-0.09639191,-0.11684957,-0.60203207,0.14327711,-0.21510242,0.2034969,-0.08879308,0.41000256,-0.23332281,-0.15114482,0.19814739,0.32860553,-0.10796088,-0.26786295,-0.35827598,-0.21944396,0.10111618,-0.2770502,-0.122911416
inspired,-1.2355809,-0.21728016,-0.27666205,0.035426643,0.13318376,-0.97177655,-0.17128016,-0.25807932,0.12211995,-0.0699486,0.21880479,-0.117185384,0.60063314,-0.28116557,1.5624928,0.09911309,0.23715158,-0.13568722,-0.6778905,0.0721279,-0.5476883,0.054679476,-0.019722028,-0.8503709,-0.96153367,0.37365755,-0.33625764,0.20751268,0.5875112,0.37638518,1.5025411,1.0515924,0.28391567,-0.4236085,-0.18884577,0.094029754,-0.23412654,0.21312085,0.6513394,1.0528882,-0.055123903,-0.51662356,-0.28331986,-1.0179162,0.5363352,0.41671365,0.91042095,-1.4269218,0.40345836,0.3214104,0.11873564,0.6631836,1.0289726,-0.32927758,-0.20404874,-0.33181417,-0.4988262,0.22258075,-0.021032382,-0.5149699,0.34883377,-1.0499144,0.5558334,-0.45244208,-0.16381083,-0.5936682,-0.40586057,0.6331183,-0.7987033,-0.11098377,-0.6397394,-0.98690575,0.7854821,0.19212279,-0.6091435,-0.09187054,0.8672137,0.38309902,-0.06820135,0.5416885,-1.6118616,0.89452577,0.85622925,-0.5866573,-1.1119263,0.108888954,0.7053022,0.6624041,0.93250674,0.31117722,0.61454326,0.95444137,0.82989067,0.7230069,-0.81141514,0.0220906,-0.23102754,-0.44795984,-0.20652615,0.03924272,0.04044536,-0.3694382,-0.112215176,0.888681,0.9443456,-0.1732343,-0.6833882,-0.3580218,0.3021509,1.333755,0.5351143,-0.47175026,0.14391987,-0.2341556,-0.589441,0.06998907,-0.8448717,-0.3519872,0.0030167268,-1.0760311,-0.03384948,0.26035124,0.341618,-0.70943147,0.121228516,0.49619317,0.6876948,-0.49460486,0.55821776,0.35654256,-0.49824926,-0.16250339,0.43115586,0.36351073,-0.2360703,0.08353494,0.39148858,-0.009655964,0.17283368,-0.059531037,-0.34515956,-1.0989801,0.61138713,0.45240572,1.2002312,-0.2936052,-0.20875737,0.024792118,1.105417,-0.40394545
bittersweet,-0.2547277,-0.13584116,-0.2762148,-0.22433558,0.1964386,0.7387662,-0.28918487,-0.354882,0.25484368,0.7755757,-0.40283644,0.36652243,-0.31194368,0.30191004,0.2069404,0.2738445,-0.21136406,0.0870689,0.49908477,-0.08586406,-0.30477232,-0.18134238,-0.9353923,-0.5130087,-0.41469416,-0.18251117,0.11421458,-0.5944107,-0.48317176,0.66093326,-0.25442082,0.36566082,0.30555406,0.3812715,-0.2063015,-0.40937832,-0.13979343,-0.6351866,-0.3703037,-0.0921159,0.26856104,-0.45924056,0.0603887,0.15584491,0.20682845,0.0076874658,0.034068875,-0.49193382,0.8199488,-0.26319602,0.057122774,0.17818876,0.16349132,0.36314547,-0.29481402,0.45960313,0.549767,-0.2919665,0.6628532,-0.020282824,-0.11285465,-0.072769895,0.32220882,-0.2669746,0.23837209,-0.5346073,0.6296422,0.38542014,-0.33440825,-0.21880016,-0.043650225,-0.30255845,0.040104516,-0.0908618,-0.01587891,0.18507986,-0.03495987,0.15889464,0.11329822,0.36661762,0.11705688,0.078373946,0.17057598,-0.12509575,-0.32262334,-0.05872025,0.54358137,0.07867511,0.1675963,0.425747,0.07284354,-0.062139217,-0.09088163,0.7202827,-0.07047828,-0.27346596,-0.8789736,-0.48805737,0.13371955,0.43896312,-0.4295631,0.33290464,0.080694005,-0.3981253,0.0407776,0.14921567,-0.59360963,0.0388865,-0.13662387,0.05553538,-0.33140326,-0.36370003,0.42971644,-0.06594816,0.53220665,-0.102304235,0.38955122,-0.23281552,0.33748782,-0.113839455,-0.12654369,0.35051575,-0.0023805099,-0.18946241,0.04575035,0.29131654,-0.33646706,-0.48356366,-0.33599576,0.062275853,0.34980452,0.32676065,0.36054105,0.35233527,0.4284003,0.17003071,-0.37569183,0.08992864,0.54155463,-0.19198273,0.11227969,-0.20697865,-0.026449958,0.12812042,-0.31926492,-0.032256134,-0.81216836,0.30441728,-0.5773756,-0.29833245
black,-0.099621825,-0.37183583,-0.24754097,-0.016240822,-0.79145896,0.5262358,0.148224,-0.13996378,0.78368384,0.7669733,-0.3482092,-0.35048753,0.3989595,0.21254362,0.49610904,0.34753275,0.20330442,-0.38461825,-0.17761087,-0.34230024,-0.22097461,0.6347849,-0.46185806,-0.07196355,0.1545362,-0.7968074,0.16735879,-0.14821106,-0.22643693,0.2020848,-0.66136575,0.66768575,0.5592793,-0.31151915,0.2993594,-0.2033301,0.24772765,-0.42039263,-0.39270055,0.8492786,0.5478878,0.4592352,-0.12931742,-0.8531724,1.0365201,0.62227577,-0.3758283,-1.1074656,-0.6679973,-0.36646605,-0.37512028,-0.61513394,-0.20344867,0.7299147,0.37230977,-0.70500785,0.9264619,0.49091223,0.38374805,0.44025525,-0.025149459,-0.31474775,0.0222217,-0.23104896,0.030214895,-0.24686722,0.22695075,0.42349693,0.07879001,-0.17653151,-0.43230262,-0.6792477,0.16532744,1.0854336,-0.078177564,0.022631709,0.5830983,0.47523087,0.24363191,0.81323457,0.25912866,0.35742018,0.31765622,0.21561183,-0.4102261,-0.24635011,-0.18766321,-0.28548744,0.51602095,0.142196,0.3015143,0.8659219,-0.109182015,0.16598298,-0.6876109,-0.44356197,-0.16698973,-0.056623198,-0.6441613,0.34284905,-0.9076109,0.1208353,-0.581539,-0.29555073,-0.018819181,0.11552998,0.32178235,-0.402488,0.4224818,-0.7269934,-0.026993351,-0.13003725,-0.61841583,-0.5977781,0.21790884,-0.141277,-0.0840747,0.32470217,-0.66661435,1.4177347,0.008304244,0.060044404,0.40022334,-0.6656859,0.04151734,-1.2796303,-0.23772432,0.92108655,0.98476726,0.17459768,0.8048822,0.097740136,0.09698678,0.66886014,0.06613676,-0.39172864,0.31312394,0.38622904,-0.22859505,0.5564998,0.60621786,0.09374051,0.11528957,-0.33040842,-0.3062736,-0.061914586,-0.9495236,0.25686246,-0.053728856,0.8374593
depressive,-0.058463894,-0.19043513,0.43964484,-0.1541141,0.20928274,0.42255607,-0.3119107,-0.6699282,0.38704193,0.7090377,-0.044775683,-0.5384177,0.5039659,0.6760321,-0.32639077,0.42086697,-0.33117154,0.55950075,-0.08194926,-0.13894945,-0.37905523,0.20433018,-1.0205272,-0.30930883,-0.15047736,0.033760186,-0.35219955,0.296644,-0.690764,0.29906082,-0.32311696,0.5410292,0.2275414,0.4380782,0.25029752,0.14437445,0.58308417,-0.64948344,-0.25274402,-0.12707648,0.2536139,0.15263973,0.54474115,0.14268398,0.45209017,-0.05183303,0.012764941,-0.7626832,-0.17342977,-0.2683799,-0.073620066,0.13068344,0.7745814,-0.22619504,0.7463272,-0.22123857,0.75270814,0.35657114,-0.6053484,0.23625334,-0.7046657,-0.07951699,0.124847546,-0.43712917,-0.11803297,-0.13400514,0.27156785,-0.44742322,-0.49864906,-0.19931103,-0.7805501,-0.15826395,0.37484607,0.33932135,-0.3455272,0.36559996,0.05826953,-0.50225925,-0.01136585,0.09539407,-0.36988255,-0.059789233,0.38160604,0.29921037,0.10280564,-0.7148027,-0.053551484,0.34981012,-0.22500318,0.74468684,-0.1419819,-0.10134483,-0.018129043,1.3280413,-0.027491134,-0.850153,0.10496648,-0.40371957,-0.9909003,0.9688559,-0.52761143,0.2104685,-0.46314466,0.21318276,-0.18022543,0.050331265,0.095196635,0.5611794,0.2312653,-0.026313247,0.25681883,-0.18571042,-0.25741196,-0.52611184,-0.16696452,-0.37576914,0.1427268,-0.07278733,-0.9357569,0.10211785,-0.19512878,-0.046721116,0.25590262,0.055982307,0.16012603,-0.7581556,-0.3616384,0.3380387,-0.24903464,-0.121919595,0.12003425,-0.41403124,-0.04909067,0.65308625,0.3215934,-0.00018826191,-0.5382414,0.32483906,-0.36721545,0.33556283,0.70880395,0.18749866,0.4004053,0.9267394,-0.08972896,0.09316503,-1.0812368,1.0615277,-0.092664815,0.0096546635
brutal,-0.579442,-0.11382304,-0.04425925,-0.5713305,-0.5604583,0.59541696,0.05537124,-0.0931305,-0.5476868,0.20529927,0.29375705,0.12014275,0.7734039,0.9012007,0.8265439,0.045179676,0.3699849,0.39616722,-0.036608167,0.10323449,-0.19226912,-0.40250424,-1.0027881,0.09972167,-0.3166293,-0.29925993,-0.42784333,0.57749355,-0.22048807,-0.8541657,0.0044853203,0.3040919,0.29744115,-0.23863786,0.112587206,-0.033322316,0.11094072,-0.059209414,0.44953308,0.18985772,0.06840105,0.23637415,0.011284328,-0.22389056,0.6863088,0.72312236,-0.09161602,-0.37137392,0.33872056,0.089924015,0.15517475,-0.012694491,0.30146846,-0.18647425,1.1849002,0.036996067,0.33439675,-0.11937921,0.52162045,-0.56740797,-0.014124365,0.51162535,0.12412484,-0.29279113,-0.42445934,0.39201602,-0.004817262,-0.19953169,0.4138709,-0.13850881,-0.63890994,0.55675656,0.8678804,-0.15965952,-0.045129735,-0.17404824,0.66505736,0.3612262,-0.02253396,0.15178709,0.17373388,0.22004005,0.45979935,-0.27621567,-0.47413635,-0.072876856,0.07572394,-0.18785043,0.37177184,-0.058395814,0.28456512,0.29000673,0.08494243,0.68441933,-0.5812942,-0.5799493,0.18856448,-0.3703741,-0.11803368,-0.018710611,-0.7837818,0.6117886,-0.05455203,0.686733,0.39551944,-0.18688613,0.0225168,0.116414614,-0.7608827,-0.93133664,0.53510004,-0.19162892,-0.58886206,-0.9168272,0.15323713,0.5301821,1.1168495,0.3169197,-0.6077789,0.8616339,-0.15526006,-0.062763624,0.4291936,-1.1934516,1.2001817,-0.463168,-0.25983843,0.51101065,0.61331916,-0.6906948,0.14055564,0.3952461,0.6937155,0.3019719,0.65516305,-0.4340071,-0.6566525,-0.14878236,0.49162936,-0.31535313,0.69532895,0.21428809,0.83994985,-0.95771927,0.04356167,-0.94926775,-0.6260368,-0.08386943,-0.95037514,0.5003098
trippy,-0.2871371,-0.02280725,-0.49103528,-0.40454996,-0.67842793,0.08254905,-0.46533746,0.1458333,0.036223296,0.72355604,-0.3421253,-0.561425,0.15979183,0.42237377,-0.099927135,0.3474274,0.016046394,0.34022412,0.29278755,0.6622517,0.03491541,-0.5457287,-0.4435074,-0.847305,-0.7754849,0.02571738,-1.2553567,-0.115914494,-0.09898509,0.41562906,-0.09694088,0.6742448,0.04486935,0.095349185,0.11418794,0.06292625,-0.31093794,-0.27847567,-0.27645856,0.41037196,0.31669152,0.53673905,-0.2550473,0.32875147,0.3958178,0.2970406,0.070600204,-0.45025176,0.99600905,0.2616039,-0.10064209,-0.5112271,0.25609022,0.36889157,0.24629496,0.0720794,-0.055624366,-0.07317414,0.110496774,0.3308195,-0.06250746,0.31176886,0.5554683,0.16754399,-0.8236836,0.51291543,0.45812008,-0.10384161,-0.4307883,-0.2439702,-0.54004395,0.6843714,0.4872697,-0.19021368,-0.21698986,-0.6363395,-0.21929827,-0.09898149,-0.14314122,0.52419204,-0.26745975,0.27725458,-0.064304724,0.13044046,-0.27025217,-0.1186267,-0.06633658,0.5506889,-0.023736324,0.73027647,-0.3154047,-0.6587172,-0.24078709,0.63772696,-0.35273352,0.18289898,-0.15282203,0.10535646,-0.2668805,0.19488253,0.17144567,0.12922609,-0.5588099,-0.5396172,0.05403562,0.007541521,-0.19021319,0.1703242,-0.12037502,0.2992515,0.04059482,-0.6053458,0.29653993,-0.07460212,-0.12347364,0.13672292,0.01605611,-0.14061664,0.36674133,0.22740385,0.06357482,0.35805094,0.25332898,-0.4346527,0.31036034,-0.12650746,-0.097486645,-0.3770386,-0.4699779,0.010150058,0.1841563,0.3074818,-0.37972522,-0.42862317,0.47536442,-0.07720581,0.15158886,0.088365465,-0.14373003,-0.28130174,0.3466353,0.10890687,0.13082641,0.070441805,0.02009511,-0.2962445,0.025908973,0.47024494,-0.18288064,0.25111735
dark,-0.27880815,-0.04175735,0.017828664,0.3806028,0.16954915,0.27111554,0.8215233,-0.3856082,-0.5422073,0.28396553,-0.13132493,-0.54958403,0.42624837,0.5202282,0.37142184,0.8498647,-0.4847266,0.62230027,-0.48748517,0.5974906,0.41510493,0.6304947,-0.78703237,-1.2756464,-0.5533479,-0.50230825,-0.80092156,-0.39664486,-0.21668,0.40391678,0.14999624,0.11780619,-0.37272683,-0.08920938,0.36938074,0.28836665,0.98688644,-0.45821166,-0.3468355,0.6052828,-0.50376934,0.042051543,0.2059537,0.3360324,0.4758297,0.4105034,-0.2796592,-0.99363,0.7059291,-0.6928815,-0.062402736,0.60439396,0.0714241,0.6247401,0.72009754,0.42382342,0.5754639,0.32934156,-0.30361864,0.532777,0.20715587,-0.36168945,-0.17037244,-0.3577481,-0.9217593,0.23568657,0.18042915,0.42467028,-0.47407538,-0.35745975,-0.1373191,-0.28667232,-0.10818569,-0.18140024,-0.061879415,-0.35506427,-0.26877365,-0.16363104,-0.2822488,0.7447747,0.5360564,0.066688746,0.37257183,-0.11069734,-0.23413792,-0.09571078,0.5426995,-0.27006394,0.4149775,-0.62366676,-0.119649775,0.27824414,0.34916198,0.13561958,-0.28356618,0.03472441,-0.3505868,-0.19493796,-0.30638653,0.15275472,-0.3331932,-0.13214733,-0.53135616,0.34946635,-0.24888416,0.18625376,-0.16158107,-0.13916376,-0.0050131544,0.22330058,-0.091296874,-0.05509401,-0.6225186,-0.5994429,0.34108698,0.4173468,0.6219024,-0.5760047,-0.591212,0.3403383,-0.20476946,0.8595987,0.0633839,-1.0121187,-0.041690312,-0.034474116,-0.733174,-0.41288608,-0.3781868,0.44034287,0.03956088,-0.27382967,0.03583087,0.81282026,0.33961418,-0.43862393,0.03602148,0.08155042,0.2368472,-0.043714195,0.64183825,-0.5299676,0.5057647,0.8699732,0.4480203,-0.052987166,-0.0068475064,0.21303082,-0.4156193,-0.38752085
lonely,0.0995645,-0.50143075,-0.10996422,-0.43841144,0.17270984,0.0022079176,0.638155,-0.007954895,-0.48258662,0.000629697,0.06523104,0.04635433,0.22540095,-0.47896165,-0.43602917,0.5270354,-0.25705826,0.9536084,0.186651,-0.28673476,-0.6824967,-0.0024760654,-0.98573244,-0.520322,0.2401639,-0.49237606,0.012512665,-0.63092077,-0.93415403,0.0012367507,-0.27647412,0.9791553,0.38574573,0.20915014,0.2817026,-0.757917,-0.11366299,-0.07955712,-0.57147706,-0.06602636,0.098026596,0.24062672,0.17954305,0.1565048,0.128355,0.2843951,0.5075674,-0.3965898,0.77258366,0.11038677,-0.7293024,-0.03438984,0.369718,-0.8569761,-0.6433704,0.20011266,0.5737716,0.38410544,-0.44036195,0.54383165,-0.82587206,-0.40256646,0.4355536,-0.58890575,-0.09890588,-0.39279824,0.74023944,0.088938065,0.75700843,0.043653253,-0.657848,-0.13077344,0.4040063,-0.0077346913,-0.016188,-0.15865242,0.38316554,-0.323335,0.3069128,0.06924629,0.20822833,0.9186473,0.582386,-0.4579405,-0.54489297,0.65579367,-0.5156182,1.124605,0.29885012,0.082992055,-0.14794633,0.4872549,0.64931923,0.40224028,0.2522786,0.42393306,0.39780545,-0.15916115,-0.6083981,-0.5173373,-0.19954193,0.9819598,0.16037169,-1.1651999,-0.050559368,-0.14735976,-0.035343066,0.30407834,0.11128045,-0.091056585,-0.2935364,-0.4944496,0.40634003,0.31842482,-0.025409374,-0.16381004,-0.37340814,0.92977315,-0.2205872,-0.16770062,0.08312262,0.10433736,-0.13352835,-0.11639196,-0.3812371,-0.06179687,-0.14882314,0.20060258,-0.9453518,0.21376765,0.5921327,-1.1093073,-0.21151772,0.33056563,0.93537873,-0.015633957,-0.25974432,-0.12680367,0.53446174,-0.5636295,0.9754208,0.1723061,0.43741575,0.0896055,-0.01385555,-0.06527516,0.17038555,-0.19583614,-0.51651305,-0.4421212
quiet,-0.19563119,0.080169044,0.2428401,-0.12761888,0.14034206,1.0813552,0.042016555,-0.21739973,0.063306876,0.4402566,0.75748,0.3507202,0.66132843,0.39272842,-0.3775299,0.73474836,0.3753714,-0.019579848,0.416087,0.01104978,-0.049805634,0.47176588,-0.6672743,-0.3800168,-0.12760428,-0.33828643,-0.29224837,-0.38313156,-0.35534862,0.34671316,-0.1959188,0.8469537,-0.7734503,-0.23016278,-0.12901752,-0.42070416,0.34243736,-0.32059377,0.9527619,0.21308592,-0.35269707,0.73656094,0.15890682,-0.36904943,-0.20730913,0.034119565,0.69267905,-0.17569691,-0.050241534,-0.49623278,-0.25044546,1.0930241,0.54305446,0.39338422,-0.25962642,0.75979817,0.26870105,-0.22168279,0.53578365,0.11380927,-0.1631173,0.2781065,-0.14529741,0.31493044,-0.4218931,-0.5516049,-0.2943491,-0.9480444,0.06683299,-0.34676328,-0.36528832,-0.41429517,0.727134,-0.46863243,-0.32247365,0.12459995,0.32270837,0.2603444,0.65047175,-0.13713141,0.09012845,0.27034107,-0.25737798,0.52367836,-0.30665898,0.071257144,0.2901534,0.10221211,0.47839025,-0.15482827,1.0518994,0.24107517,0.55668205,0.34785444,-0.3402541,0.034404155,0.041391104,-0.26094392,-0.0538307,-0.39635587,-0.048375145,0.5644562,0.25210887,-0.3244789,-0.05311505,0.10755817,-0.4493781,-0.69906366,-0.4223667,0.25676864,-0.31770945,-0.02561376,0.2842228,-0.5874961,0.05393457,-0.48368663,-0.24529848,0.54820424,-0.024560696,-0.49199817,0.6349438,-0.18744537,-0.41030803,-0.2533352,0.18795137,0.17482357,-0.17977546,0.0013046212,-0.17285742,-0.66693723,0.57752585,-0.6835768,0.42128444,0.5387434,0.57684183,-0.4343745,-0.06066784,0.1163759,-0.08661096,-0.92551017,-0.200524,-0.8568358,0.3523351,1.2040902,-0.016463744,-0.46541807,0.2083679,-0.072626404,-0.44916075,-0.5058197
tired,0.25412747,1.1950232,0.8733862,-0.3449595,-0.3579458,0.34980425,0.12815644,-1.0143156,-1.0859421,0.67043644,0.7950328,-0.53090405,1.0398415,-0.3982851,0.30498633,0.79257125,-0.025379157,1.0901389,-0.22447035,0.007785583,-0.7536683,0.016996237,-0.66143423,-0.14989866,-0.07364898,-0.49698862,-1.0844926,-0.6513485,-0.4866592,-0.31464338,-0.21421552,2.015122,0.9842285,-0.27616575,-0.65988654,-1.1195678,0.19667673,-0.743123,-0.4672839,0.05911727,1.2080034,-0.22684409,0.1708809,-0.6539204,0.7853038,0.6535501,0.6632438,1.117958,0.55624926,-1.0057687,0.10372864,0.34601098,0.77174294,-0.37035903,0.5517856,-0.19348629,-0.91238785,-0.024158834,0.3124445,0.1765048,-0.4401836,0.38061434,0.35805547,0.43270946,0.46059763,-0.9645316,1.1698533,-1.221624,0.1200338,-0.39506432,-1.265266,-0.97957593,-0.42410642,-0.53425026,0.4242737,1.0331674,1.0174757,-0.31737757,0.3219927,1.2804844,0.9890007,0.9006378,0.6796328,0.52378476,-0.40620148,0.906169,-0.23448244,0.5081199,-0.21091159,0.6299766,0.27306983,0.3371753,0.22489217,1.3335056,-0.26669404,-0.297371,0.86493176,-0.19854997,0.0059226225,0.49840862,0.3752191,0.26906297,0.546022,0.35690978,-0.8781959,-0.5703818,0.020868175,0.5818784,0.022078417,0.6857981,0.40317708,-0.5901813,-0.3412547,0.47135162,-0.5380989,0.61722547,0.98574996,-0.12521365,0.4603721,0.26201135,-0.2957471,0.3223642,0.14545602,-0.89051205,-0.37446448,-0.4166312,-0.89458776,0.8116803,-0.27369776,-0.005602617,-0.26499432,-0.35978413,0.076092854,0.9699177,-0.43015775,-0.8023122,-0.29503804,0.47888213,1.2140617,0.34708643,-0.7052823,-0.32503167,0.2998072,0.16856152,1.1692374,-1.6215718,-0.4022696,0.42051464,-0.90982383,-0.27241123
gloomy,-0.8946314,0.25099936,-0.30892918,0.2562526,0.25488186,0.084180765,-0.20486522,-0.38297784,-0.25581565,0.783005,0.09408285,0.30947718,0.3591999,0.07194832,0.37221536,-0.017570917,-0.18008892,1.0803621,0.25855777,0.019718647,0.77701735,0.35736686,-0.9094028,-1.381584,0.040620994,-0.23386104,-0.2306032,0.13010657,-0.40053037,0.4310584,-0.42369866,-0.111403555,0.19767348,-0.3291143,0.01814958,0.5135833,0.1498443,0.14045909,-0.16237412,0.23718584,0.10363603,-0.37911987,0.17228377,-0.2516226,0.35408694,0.83721936,0.42925385,-0.8619135,0.85690165,0.16114108,-0.34728572,0.13699685,0.07320255,-0.19725026,-0.13164614,0.8503368,1.0506724,0.42724642,0.62278396,0.59280354,-0.5546454,0.016677534,-0.59018385,-0.48072538,0.05860457,-0.40808767,0.13907678,-0.057426,-0.010307782,-0.38437733,-0.5932554,-0.13216513,0.8684479,0.28685525,-0.19975923,-0.6621346,-0.0942006,0.1739309,0.60236895,0.60570383,0.7605864,-0.33556634,0.08809057,0.5354938,-0.35726905,-0.9602176,-0.14958839,0.2812874,0.21401112,-0.21558489,0.52909714,-0.3191175,0.0022272428,0.63835526,-0.27039388,-0.8722018,0.048867922,-0.6554965,-0.106175914,0.36727035,0.2073339,0.20363182,0.154435,-0.11038471,0.23982127,-0.05280584,-0.81152844,0.59970313,0.15549703,-0.6963604,-0.34614426,-0.4531078,0.07678275,-0.3692541,-0.1571581,0.34868178,0.3774299,0.14811432,-0.14185034,-0.461657,-0.3006223,0.17041458,0.28098172,-0.14963095,-0.16377544,-0.6717152,0.3795575,-0.6231194,0.20878859,-0.060165294,0.6557152,-0.030590352,-0.32279962,0.20198217,0.022724936,-0.3399923,-0.15565953,0.21559507,0.62955445,0.102472566,0.17467777,-0.15956376,0.40952042,-0.66513485,-0.059500735,0.16115515,-0.1663797,0.54556733,-0.44639647,0.17211956
loud,0.01264439,0.3189448,0.37346926,0.14001678,-0.35259792,0.47605133,-0.69376516,0.1724634,-0.11668399,0.26756978,0.9018576,-0.19289976,0.5656388,0.20721446,0.47892284,0.54630107,0.067458384,-0.15934336,0.33224776,-0.6267089,0.2565308,0.4712487,-0.7237825,-0.8433503,-0.39105085,0.05949499,-0.052046593,-0.034456696,-0.01717836,-0.28689054,0.26710284,0.7469419,-0.40936953,0.20125727,0.6290337,-0.063195765,0.32684734,0.21515042,0.7565775,0.37181422,-0.19217688,0.23394321,-0.024264699,0.17027834,0.0102653075,0.41558123,0.57905406,-0.33093533,-0.2992014,-0.653177,0.086842164,0.027141025,-0.53434,0.08536536,0.07606001,0.06640535,0.8751055,-0.47970325,-0.27833304,-0.19475994,0.4958527,-0.27399188,0.19978635,-0.030560933,0.89721125,-0.18932544,-0.43255433,-0.16039075,-0.5921142,-0.36858115,-0.1722253,-0.09413452,0.27532804,-0.35484657,0.81742126,-0.20584957,-0.28671396,-0.08917115,0.061853927,-0.50833696,0.17450589,0.3725353,0.4453597,0.3390403,-0.35037896,0.55439264,-0.22090465,0.7781659,0.28556535,0.75236267,0.48072296,0.23724674,0.5702228,0.23056987,-1.0965962,-0.009298045,0.5624157,-0.37763792,0.21912578,-0.08832988,0.27055535,-0.2673546,0.4569804,0.32375932,0.06698143,0.07180807,-0.083112754,-0.10026084,0.01131294,-0.019546365,-0.93839157,0.9650171,-0.33699644,-0.18398263,0.22210275,0.29484937,0.58538353,0.25238794,-0.005647951,-0.33940154,0.43675563,-0.1736744,-0.15429558,-0.398451,0.16993314,0.3283472,0.15219007,0.5108708,0.15188187,-0.3105454,0.30117065,-0.8683836,0.59608597,0.49139833,1.2835305,-0.42522892,0.3286177,0.8984064,-0.078686535,-0.33982798,-0.014189318,-0.34727576,-0.1820517,-0.010231907,0.5366558,-0.42944083,-0.11686039,-0.12067626,-0.059407435,-0.49205565
bitter,-0.40954518,0.25652155,-0.36904246,0.27010384,-0.110283986,0.33735493,0.43348444,-0.2706421,-0.08874429,0.4820143,-0.061149884,0.22173977,0.07014036,-0.20224473,0.4435591,-0.104621984,-0.2409916,-0.20347704,0.32045946,0.015598192,-0.7703351,-0.6456887,-0.5941149,-1.3950484,-0.66874385,-0.11437348,-0.77079403,-0.2794357,-0.84688747,-0.37546962,0.07599731,-0.12229068,0.23086837,0.35690603,-0.21117686,-0.24797978,-0.055546317,-0.3146401,1.0051666,-0.77152944,0.06254689,0.32317522,0.487536,0.11799275,0.88652223,0.008806725,0.26884666,-0.21442308,0.17849123,-0.5136109,-0.28492263,-0.2676952,0.118550934,-0.23146263,-0.15566188,0.090856515,1.6712042,0.3557126,0.50341004,0.11391262,0.6432403,-0.041060127,0.37731346,0.4748294,-0.42785084,-0.059344605,0.5305723,0.3651586,0.11060739,-0.830796,-0.085927434,0.19332655,0.35388714,0.4267563,0.07371987,0.011404038,0.07861706,-0.009452975,0.14327212,0.29284504,0.3686784,0.6742,0.033283196,-0.0028320036,-0.4903653,-0.27355787,-0.75806075,0.820127,-0.09586957,0.21456748,-0.38776287,0.19059986,0.1687562,0.8481431,-0.0963,-0.5060672,-0.09221792,-0.36465475,0.5591305,-0.08152644,-0.07183032,0.85623896,0.5674818,-0.32046497,0.07285423,0.29912594,-0.48224017,0.017171755,0.20608664,0.39009488,-0.024599163,-0.6075496,-0.30184853,0.1732799,0.50528395,-0.046960685,-0.41805777,-0.66974735,0.0849317,-0.3964188,-0.040165503,-0.13018312,0.6350713,-0.63170975,-0.8198466,0.42504755,-0.3572635,0.152156,0.15512352,-0.56025314,0.51892686,-0.29514277,0.64959127,0.138263,-0.026449393,-0.26090813,-0.5407842,-0.60373044,-0.18711857,0.46670705,-0.0011705001,0.69271076,-0.18661891,-0.20730874,0.094303034,-0.10768181,-0.9857472,0.23519525,-0.34676108,-0.26128232
longing,-0.123068996,-0.22150043,-0.6452552,0.063705355,0.1878006,0.49221808,-0.3187661,-0.92544013,-0.026491724,0.5807071,0.12755615,0.046896026,0.8003776,-0.00011825694,0.26455024,0.0027487446,-0.26667777,0.30753592,-0.34361303,-0.09773907,-0.053589705,0.051283162,-0.3163562,-0.6340374,0.30077562,-0.22389239,-0.1336597,-0.64570576,-0.26250973,0.43106034,-0.43241686,-0.20424522,0.29098573,0.37775156,0.5620464,-0.48303956,0.36496672,-0.50285375,0.2157371,0.13054356,-0.05604321,0.17980269,0.45695406,0.6452452,0.26257262,0.8289276,-0.10976105,0.37400967,1.0281249,-0.34038404,-0.09371621,-0.22849126,0.06122383,0.60002625,-0.18071418,0.4017716,0.7590382,-0.34674388,0.1058676,0.18127745,-0.2463605,-0.20279883,0.35573626,0.15456748,-0.037630588,-0.1370208,0.6116086,-0.39359775,0.54908127,-0.06929748,-0.40800044,0.3215846,0.12800299,-0.34442893,-0.13163543,-0.27394965,0.2076959,0.31338656,-0.16693485,-0.015061381,-0.11828863,0.08183419,-0.088716544,0.25371623,-0.065652065,0.18511413,0.34068382,0.17412327,0.7526128,-0.08615559,-0.027301304,-0.13128549,0.21575074,0.6620934,-0.22868356,-0.22112969,-0.13501567,0.009921211,0.058506597,-0.6033775,-0.2126108,0.14298975,0.24638903,0.51269025,0.8181646,-0.50937074,0.15059914,0.081450075,0.08088262,0.1515408,0.27562344,0.056944367,0.1321848,0.16774626,0.46902347,0.09122799,0.42970547,-0.11792008,0.4416432,-0.16353133,-0.076552935,-0.00079894037,0.1217631,-0.4338819,0.0940633,-0.48933217,-0.01791076,0.6725303,-0.30652913,-0.6723879,0.45948097,0.17396566,0.020911159,0.030760778,-0.33562672,-0.13483751,-0.31858155,0.012432385,0.2470222,-0.042896595,0.44645017,-0.39663744,0.6439939,-0.030230567,-0.53402424,0.095584944,-0.5893759,0.34030837,-0.31523207,-0.17653835
hypnotic,-0.48126122,0.42154577,-0.52743125,-0.3112468,-0.21008359,0.36960676,-0.1566962,-0.087672316,-0.14620554,0.54215866,0.19209082,-0.109896675,0.1039708,0.42071754,0.1300899,0.47877562,0.44341952,0.20970048,0.11664159,0.20557114,-0.13580306,0.14185452,-0.15717751,-0.48039475,-0.75200015,0.16472368,-0.45413354,-0.33818862,-0.05057779,0.31705895,-0.14991368,0.97689134,0.053089064,-0.084316656,0.028685037,0.07680012,0.3192883,-0.481338,0.37181655,-0.0051282374,0.25574422,0.10341357,0.15427527,0.38792908,0.26995003,0.36757264,-0.09204259,-0.8510893,0.34748572,0.19084835,-0.4870305,0.35830745,-0.21908878,0.2869583,-0.21610071,-0.12250057,-0.21304393,0.2986022,0.4241759,0.61730915,-0.5844752,-0.05877224,-0.047110192,0.5130788,-0.8004381,0.018286522,0.28735173,-0.22017421,-0.3740821,-0.111832276,-0.73065984,0.3536321,0.26428303,0.08906979,-0.27255136,-0.15293463,-0.27457544,0.32355618,-0.47756368,-0.17580694,0.034934703,-0.13337986,0.24913827,0.10072211,-0.019791612,0.0008468673,0.04149553,0.27126664,0.05570544,0.3044171,-0.29076976,-0.11240545,0.038153812,0.036136325,-0.533131,-0.26774678,-0.7707162,-0.07095255,0.24214713,0.3178714,-0.023483813,-0.03310695,-0.13313419,-0.17596608,0.21001342,-0.4127949,-0.08761055,0.4749939,0.16279592,0.009638334,-0.17511617,-0.12316314,-0.06652339,-0.3607811,-0.05279633,0.16175535,0.39859352,0.07509189,0.28082955,0.07821917,-0.16384812,-0.15823747,-0.3923157,-0.73693025,0.4573495,-0.031186871,-0.5624644,0.33089107,0.43998814,-0.57175785,0.42660785,0.154289,-0.07792413,0.050432928,0.24921149,-0.08499341,-0.1748345,-0.18529843,0.5487431,0.19128576,0.48154262,0.30080578,0.13404676,0.17920382,0.27395153,-0.11125015,-0.6313957,0.14699031,-0.061247602,0.0058294763
serious,-0.46928504,0.28767258,-0.66983396,0.32947853,-0.5070162,-0.18393077,-0.50151247,-0.06683223,-0.32343113,0.77419215,0.524134,0.43265295,0.26841578,0.36640742,-0.1965582,-0.9005173,0.60956323,0.33897117,-0.35352957,0.39255896,-0.57393897,-0.43685222,-0.5972785,-0.9716148,0.21112156,-0.3709986,-0.76051617,-0.24715288,-0.23133676,0.2846383,-0.569554,1.3494817,-0.38557774,-0.6984111,-0.55960846,0.589985,0.31605446,0.6224626,-0.26504827,1.3890003,-0.028344885,0.6170468,-0.09528149,-0.6388712,1.3662196,-0.36236992,0.7396173,-0.36151218,0.1456548,0.41545293,-0.022999581,-0.7937804,-0.96111137,0.035578556,0.19382824,-0.33382845,0.020963294,-0.3765374,0.34322125,0.49656144,-0.7614297,0.54305696,-0.6683084,-1.1956025,0.49778,-1.1393485,1.0324187,-0.1044429,-0.13174702,0.18116777,0.4629541,0.44030452,-0.049722545,-1.1015483,-0.25218463,-0.7164569,-0.07981904,0.6624345,0.0644386,-0.3700888,-0.7828649,0.98825353,-1.1544453,-0.19424447,-1.2028557,0.9530648,0.13409783,0.55995446,-0.070116274,1.2771451,-0.058215432,-0.04877546,-0.046119962,0.7643043,0.13355044,0.31314027,-0.99333847,-0.4068459,0.494605,0.42461875,-0.1342708,-0.39429736,-1.0522999,-0.18533118,0.44279322,0.005199588,-0.49155837,0.14085697,0.097471185,-0.2716711,-0.29224867,-0.14626959,-0.67016345,-0.10207781,-0.828069,-0.2925606,-0.55532926,-0.33501852,-0.5717335,-0.14446996,0.22723868,0.25125122,-0.17171597,-0.65484464,1.5423269,-0.087396525,-0.5641483,0.21419667,-0.1415168,0.84627527,0.6102749,-0.53924835,0.9027423,0.012808694,0.032544106,-0.25321952,-0.31360188,0.22020224,0.2683334,-0.04707571,-0.12477402,-0.88774663,0.62874615,-1.3010185,0.017761404,-0.17887175,-1.3481666,0.19106351,-0.6460538,-0.15549687
exciting,-0.00079957134,0.2644729,-0.2724604,0.08410874,-0.13648407,1.5025115,-0.29915673,-0.47388718,0.45303592,0.04516231,0.8553033,0.14174812,0.7314473,-0.048461415,-0.21988848,-0.23829432,0.5500816,0.3769824,0.3020306,-0.013072488,0.13926323,0.5318513,-0.38007954,-0.37955835,-0.22727071,-0.43237805,-0.38128507,-0.40874374,0.5371199,0.80498755,-0.45779818,0.92063934,-0.27897796,-0.23713058,0.10829944,-0.84048516,-0.011597106,-0.04451083,0.67935705,-0.09137745,-0.68789494,0.6443055,-0.49734873,-0.13284464,0.17475612,0.28044382,-0.22834797,-0.25950524,0.28979248,0.24371926,-0.3819212,0.24795775,-0.35310832,-0.5489447,-0.8903618,-0.41453233,0.0026836153,0.06558675,0.07961149,0.41730848,-0.5898191,0.08043896,0.514054,-0.54316366,-0.9006447,0.040604316,1.0013095,-0.13781781,-0.34283593,-0.36706525,-0.19643627,-0.15693453,0.10221442,-0.27446297,0.17341687,-0.7746135,0.03018861,0.6243233,0.49292967,0.42429462,0.5357794,0.13668652,-0.4698698,0.45256582,0.22189794,0.23615032,-0.48399046,0.255566,-0.09647261,0.14355354,-0.40017107,0.3699334,0.3035165,0.10240085,-0.5824441,0.15709479,-0.04054803,-0.050003406,-0.7938532,-0.21795958,0.9175927,-0.47215295,-0.4540678,0.057639033,0.35105205,-0.31600544,-0.23365703,0.280021,0.5285215,-0.45487183,0.3334951,-0.184632,-0.28544778,-0.85433763,0.18754345,0.12688787,0.56930697,0.3694696,-0.15830587,-0.31748644,-0.31039327,0.48502788,-0.0863304,-0.0762184,0.115618095,-0.27000085,-0.06346661,0.29264018,0.31583786,-0.9203639,0.2966579,-0.29918644,0.6726323,0.33275446,0.60769385,0.17368105,0.047470838,0.6813802,0.08107486,-0.627604,0.27352905,-0.056545407,-0.057836913,0.375653,0.253534,-0.6142431,-0.534369,0.24824533,-0.6179324,0.08383384
cheerful,-0.9350262,0.08391328,-0.35882652,-0.5633076,-0.48473948,0.28886747,-0.358532,-0.057700813,-0.08872372,0.37621573,0.1193831,-0.08330989,0.4935339,-0.04643343,0.17328459,-0.17615378,-0.13045542,0.50053835,-0.21040756,-0.02342316,-0.36941335,-0.4850372,-0.30334553,-0.6149071,-0.45789266,-0.1424333,0.15190272,0.030571649,0.1141275,0.27857238,-0.4556575,0.8160831,-0.43743995,-0.29480493,0.30553228,-0.59329855,-0.3444687,-0.32631952,0.22339156,0.2508817,0.20897491,0.8959686,-0.5446022,0.24245292,0.40056536,-0.134821,-0.046162568,-0.3052781,0.69820833,0.04788354,0.0403374,0.2834841,-0.23114769,0.3029068,-0.44639906,-0.5502585,0.06769976,-0.021529566,0.30744547,0.33347762,-0.0005486881,-0.53543496,-0.27297908,-0.47591582,-0.05151666,-0.2444791,1.0557885,0.14786968,-0.33682522,-0.040815167,-0.17302562,0.20206226,0.6168205,0.13451973,-0.3272904,-0.6656805,-0.24999589,-0.092690274,0.489965,-0.022518136,0.19724183,0.35617092,0.27901566,0.31845546,-0.18734834,-0.34418592,0.24055812,0.66607803,0.26957437,0.7979607,0.2173162,0.11111722,0.260635,0.18951258,-0.1338108,0.09335234,0.2128742,-0.4498497,0.1153165,0.117779255,0.07957668,-0.051430628,-0.14282331,0.45456213,0.39496437,-0.111482784,-0.08463833,0.008041808,0.32444245,-0.13999443,-0.5515308,-0.17417876,0.41042873,-0.052901525,0.43122265,0.035814237,-0.8465599,-0.22629829,-0.39268333,-0.46633646,0.042086255,0.26609585,0.594108,-0.5529631,0.37712172,-0.24366257,-0.32307753,0.432434,-0.06805716,-0.22692738,-0.11400003,0.37784922,-0.14167678,-0.171081,0.36560214,0.33808824,0.3662871,0.038023323,0.14244844,-0.4391604,-0.015131589,-0.21076366,-0.054602657,-0.10568289,0.158411,-0.23665625,-0.67185736,-0.20654471,-0.28053293,-0.0034146556
meditation,-0.51148367,0.3465916,-1.1980984,0.23035102,-0.46472573,-0.08380467,-0.57799846,-0.8672101,1.1787337,0.7407499,-0.5304367,-0.03231484,0.76976246,0.42046005,-0.52719617,0.3306835,0.62177205,0.07667324,-0.6226236,-0.09763889,0.19169177,0.7816398,-0.40163803,-0.5356099,-0.24078935,-0.023649516,-0.4364143,-0.667198,0.2631486,0.17101896,0.06769096,1.0173241,0.12096416,-0.2630351,0.030543203,-0.61442983,0.11746105,-0.85613567,-0.56566435,0.11375841,-0.63134253,-0.4129876,0.6367185,0.12301184,0.19971022,-0.30433002,0.31283468,-0.1477792,0.5699987,0.4010197,-0.3969806,0.37441292,0.1770093,0.4703328,0.1484839,0.0025611504,0.6082536,0.3845926,0.5273377,-0.1929773,-0.9700532,0.29767793,0.1651143,-0.006251511,-0.5574391,-0.3674291,0.70019233,-0.34746304,-0.13194272,-1.2542434,-0.52688086,-0.5207987,0.6500918,-0.39856303,-0.521348,-1.148511,0.16381766,0.38871837,-0.653241,0.9880546,-0.36926356,0.5737433,0.3412218,0.029090995,0.27221292,0.80025977,-0.28671438,-0.2713245,0.062742464,-0.8209094,0.39488968,-0.2585364,0.19539802,0.19396706,-0.3871646,-0.13065489,-0.47272295,-0.9394455,-0.47836474,-0.0474904,0.354164,0.79969484,-0.25746796,0.22057915,0.18551898,-0.74477947,0.09617877,0.7197124,-0.41277608,0.4545303,0.2464743,-0.34961748,0.19240423,-0.15787461,0.78291947,0.3188328,-0.40939447,-0.12541106,0.45302355,0.45515344,-0.00022301188,-0.16566925,-0.541422,-0.61667,0.1810918,-0.63167757,0.4602689,0.6229326,-0.30052853,-0.8246442,0.5606003,-0.0058726943,0.22451225,-0.2851926,0.6272242,0.11735029,0.3736395,-0.17849988,-0.57685834,0.36125124,0.6437635,-0.5226983,-0.005199307,0.13292344,-0.37250745,-0.62627995,-0.33428755,0.26549307,-0.013712605,-0.36687416
bored,-0.22490975,0.0153104905,-0.059911456,0.13389364,-0.2961925,0.101740606,0.17021595,-0.41689637,-0.7191902,0.63516176,0.23221946,-0.73563683,0.9935678,0.17658167,1.0522133,0.7436915,-1.544419,0.093017414,-0.8402095,-1.0976355,0.15291505,-1.109262,-0.64221275,-0.07415217,0.81641203,0.54585624,-1.5856022,-0.38014793,0.3620205,-1.2117093,0.18823487,0.95621216,0.635852,0.3582457,0.42685577,-0.61652535,-0.08891358,-0.013045535,0.10278975,0.9342917,0.76711,-0.7445878,0.23507147,1.1612003,0.7898167,0.7021544,0.06642182,-0.22756217,-0.17616913,-0.9830837,1.0778842,0.29503953,0.05937984,-0.5968555,1.0343938,-1.2333553,1.0606192,0.1104968,0.8426356,-0.31991795,-0.3162068,-0.27997762,0.76627177,-0.1348426,0.60205746,0.051641013,1.3186797,-0.5768828,-0.2832602,0.08820753,-0.3930643,0.28660735,0.34453312,0.009476768,0.04319836,0.627844,-0.6293385,-0.3426021,0.6169128,0.8751408,1.2806575,-0.3277034,1.0895035,-0.61718774,-1.1592143,1.0852395,-0.5929186,0.22423631,1.0103722,1.0187039,0.3065199,0.516612,0.5332369,0.47299853,0.22526446,-0.012750059,-0.6082125,-0.74599206,-0.43373027,-0.42908943,-0.335577,-0.2779567,0.21003464,-0.25936937,1.5721312,-1.1247119,-0.8343847,0.3289999,-0.25737143,1.0324852,0.7520379,-0.30844095,-0.24063165,1.1614302,-0.02956847,0.71502686,0.4223002,-0.30707195,-0.6887187,0.31980482,0.17823064,0.3418525,0.39794493,0.3732504,0.20168874,-0.9249341,0.09954591,0.9535301,0.5334605,0.3839756,1.030623,0.5870702,0.09326733,1.03018,-0.05600394,-0.16357006,0.05650261,-0.73455036,2.8203065,0.6833506,0.26136056,-0.167688,0.58086836,0.068193,0.83086514,-2.0012898,-0.3991959,0.70341194,-0.82774585,-0.04974573
passionate,-0.1252965,-0.069900006,-0.25219673,-0.55123824,0.19260967,0.19265056,-0.29731783,-0.3123056,-0.23211552,0.6757378,-0.10533574,0.42587703,-0.14864497,-0.029430874,-0.017045397,0.88119626,-0.25509745,0.033534236,0.55047333,0.048357982,-0.27281967,-0.371766,-0.59856457,-0.11788691,-0.49993747,-0.1525219,-0.10478343,0.7310677,0.37794337,-0.037428036,-0.23346469,0.6688094,-0.29397076,0.35692433,0.23020281,-0.59235036,0.577152,-0.068233795,0.033506364,-0.14876713,0.27302933,-0.044191223,0.5426529,0.21620733,0.41552672,0.24492721,0.004060134,-0.4817628,0.28939268,-0.1858268,-0.18458416,0.3912221,0.44288886,0.011303955,-0.53464144,0.7020047,0.9143211,0.23529519,0.56496537,-0.19296621,0.16651817,-0.07839441,0.5154192,0.4365278,-0.2119828,-0.27342772,0.21764308,0.0571722,-0.41850334,-0.74221104,-0.30053338,0.0613041,0.022772478,-0.22535715,-0.41313264,-0.23930915,-0.07607049,0.18190229,-0.21161287,0.21626869,0.06276063,0.35811248,0.046635687,0.15235136,-0.5717538,0.26374444,0.41730097,-0.026300648,0.25035122,0.24406715,0.20319664,0.06370414,-0.272838,0.7158861,-0.08079085,-0.952449,-0.46803018,0.1053566,0.22030653,0.31321964,-0.039008427,0.21812937,0.27600682,0.4547487,0.055028193,-0.12868685,-0.5006119,0.042742405,-0.02780599,0.30835468,0.30634657,-0.42623523,0.66181076,-0.056410927,0.7271349,0.53208435,-0.113452055,0.090675645,0.3182129,-0.20814818,-0.025458077,0.08793747,0.0960035,-0.9756872,-0.27325305,0.024032626,-0.14756842,-0.017386295,-0.47513112,-0.6632208,0.1406152,0.47328648,0.61966056,-0.039701425,0.7919242,0.38844755,0.52205825,0.41931418,-0.10294499,0.24517687,0.1058198,-0.313964,-0.43881425,0.16734575,0.053320102,0.0037996988,-0.7579701,-0.04653665,-0.37737986,0.05365308
sorrow,-0.30678663,-0.16616109,-0.44701788,0.22189818,-0.014191385,0.61260754,0.4176054,-0.75424236,0.07990392,0.48798886,-0.18925503,-0.32776657,0.628888,-0.16532423,-0.55077136,0.5686647,-0.8403109,1.0055906,0.6000808,-0.40250802,-0.9933844,-0.6924882,-1.0891275,-0.6156633,-0.17559035,0.31264994,-0.53771764,0.292242,-0.59895337,-0.5680566,-0.43005002,0.28892782,-0.52054155,0.2924924,0.036095966,-0.50159526,1.1381501,0.053209256,0.88221467,0.7668663,-0.20580123,-0.3930999,0.3148345,-0.40481964,0.44682646,0.03447713,-0.47438124,-0.07373077,0.27776727,-0.65618795,0.25807646,0.32127658,-0.00813131,0.43785825,0.18245511,0.6996045,1.017303,0.24533242,0.4970648,-0.20641768,-0.72044736,0.05080756,-0.17728159,0.41650993,-0.05327535,-0.41728038,0.44608992,0.9184332,0.9063453,-0.4806654,-0.2430882,0.6366078,0.8727037,-0.5747117,-0.81882155,-1.616387,0.18364155,-0.24375167,-0.38132346,-0.3937253,-0.13958386,-0.0837133,0.0015183215,0.27872854,-0.34231046,0.33831352,-0.030496573,0.06834582,-0.08987734,-0.12942882,0.13731314,-0.51890326,0.13288201,0.7912387,-0.5344337,-0.114432395,-0.12590492,-0.22809687,-0.51965183,-0.07695599,-1.1456541,0.040004432,0.17124777,0.8481627,0.73086363,0.84614015,-0.9479631,0.47845665,0.4855225,0.10281932,0.04096266,-0.8282118,-0.42496055,-0.47816622,-0.25088826,0.07442337,0.763905,0.06609964,-0.03126322,-0.025964415,-0.39408195,0.34953052,-0.07845872,-1.5653373,0.3425024,-0.6164522,0.27388778,0.77458096,-0.3808341,0.027476646,0.009159532,-0.18915893,0.13642527,0.3180967,0.14987624,-0.49211407,0.44429368,-0.45707783,0.70829874,0.15131037,-0.3534258,-0.4043602,0.53660315,0.19911948,-0.42499468,-0.54514605,-0.54402506,-0.7945865,0.0934548,-0.016647028
frustrated,-0.37836796,0.36371088,0.73656636,0.26358256,0.88263196,1.0965608,0.39252865,0.026640162,-0.34484875,0.82913774,-0.445278,0.73255557,2.2833545,0.2986125,0.18173622,0.9883651,1.1221694,1.3139153,1.5635285,-0.09747518,0.74567235,0.30937222,-1.4760852,-1.5369992,-0.1454588,-0.928642,-1.1152726,-0.99239224,0.1521956,0.5867029,-0.18609762,1.2285942,0.20246527,1.0966444,0.40660197,-1.0600133,0.42031577,-1.0246301,0.05353717,1.2187964,1.1215465,0.24491559,0.58487296,0.4402449,1.1923429,0.08355313,-0.4054994,0.5137541,-0.26797497,0.70874393,0.05118845,-0.5711357,0.35360664,0.92240995,-0.72658956,0.8608784,0.48190728,0.008077987,-0.9521516,0.15495436,-0.23845117,0.3878252,0.187224,-0.41932687,0.4681393,-0.85999614,-0.82538426,0.16812141,0.20032175,-0.39713517,0.66153437,-0.26843342,0.3001249,0.6852729,-0.46130395,-1.1049991,-0.45981938,-1.1328257,-0.12771659,0.61980754,0.9929265,-0.63802505,0.025886817,-0.07642761,-0.863322,0.13106626,1.9520422,0.33154672,0.924506,-0.13234435,-0.019092765,-0.18998697,0.326875,0.39827582,0.98952055,-0.6048997,-0.53424835,-0.8928332,0.6193105,-0.036064543,-0.55597377,-0.30529281,-0.8864737,-0.43781048,1.1006565,-0.6240696,-0.80938214,-0.12974824,-0.2824899,0.04698146,0.2278448,0.21906279,-0.32674548,-0.09218895,0.718517,-0.6289892,-0.51333463,0.49820113,-1.0289146,1.0468266,0.12741618,0.40339518,0.7964555,-0.4231055,-0.28359818,-0.25490522,-1.2729017,1.3137146,1.4669048,-1.4062548,-0.27995417,0.663571,0.09138001,0.0261061,-0.06263754,0.0012237543,-0.033361614,0.92277634,-0.847319,-0.16327089,-0.22184475,-1.0097437,-0.39647013,0.81431305,0.07933977,-0.8032118,-0.41539288,0.69792086,-1.0028814,-0.11063637
miserable,-0.26502627,0.039735924,-0.17800356,0.34223014,-0.22564931,0.6464612,0.22309533,-0.15735829,-0.44243383,0.57577103,0.19909093,-0.2887429,0.6839991,-0.19343872,-0.58561015,0.602949,0.36712542,0.0010203565,-0.47383097,-0.7695112,0.375748,-1.2810695,-0.62232816,-0.09226768,0.22178435,0.28650373,-0.040958107,-0.46970785,-0.8107469,0.37484202,0.19111529,0.26114175,-0.13857943,0.47936437,-0.51921356,0.040209554,1.0545542,-0.080162115,0.19281046,0.029832335,-0.38460654,-0.17731892,1.3026928,0.010486434,-0.22110626,0.43761528,0.4895379,-0.13865472,0.5952918,-0.47444794,-0.4170114,0.07894157,0.14297558,-0.16169177,-0.2147664,0.6499205,0.93441355,-0.14885345,-0.2029544,-0.77700704,-0.46436033,-0.24455793,0.41774082,0.13215356,-0.18406801,-0.6621744,1.1982673,1.3271698,-1.2970483,-0.74613434,-0.30597574,0.3585183,-0.005395791,0.15553729,-0.22349352,-1.8496431,0.2145701,0.57339233,-0.06956458,0.3800469,-0.30754033,-0.46606147,0.7350665,0.30385044,-0.12526217,-0.61741936,-0.26999867,-0.13788024,-0.107445836,-0.4175373,0.15853184,1.2718716,0.25658065,-0.36377373,-0.65002793,0.7717066,-0.13459213,0.9553182,-0.68618155,-0.21037778,0.102123156,1.1962745,0.16619286,-0.04666021,0.66305864,-0.5525044,-1.1385373,-0.105279066,0.22355922,0.4807986,0.3545953,-0.3912432,0.3017414,0.1627144,-0.37566748,-0.37865388,0.24322408,-0.09042889,0.6280043,-0.090757094,0.18994537,-0.88203347,0.4896537,0.33387053,0.5412116,-0.8639709,0.25987372,0.5123139,-0.62521386,0.9967139,0.16881607,-0.17644265,0.34882408,0.54066294,0.81603444,0.33486736,-0.38459122,-0.0026528067,0.7969684,-0.2338741,0.27835375,-0.7998804,0.3687869,-0.6320172,0.39892012,0.32188874,-0.57658595,1.1792426,-0.09407379,-1.2865243
hopeful,-0.24310283,-0.27394986,0.0938781,0.39238226,0.30881476,0.64074403,0.31295088,-0.19104484,-0.28698394,0.38806355,-0.053081293,0.3964639,0.44240612,0.013713397,-0.2903584,0.08557707,0.26602194,0.4494042,0.016810864,-0.17443857,-0.32307956,-0.02372176,-0.454087,-0.45089328,-0.22309548,0.113338836,-0.6961327,-0.06467314,-0.45937082,0.2357817,-0.010709378,0.2781753,0.26614815,-0.5929864,0.31080708,-0.28425774,0.60372967,-0.02529713,0.5193408,0.12636587,0.14077371,0.72809505,0.042804256,0.6240386,-0.05226867,-0.23042952,0.26755112,-0.45088542,-0.0031923063,-0.20282872,-0.25144935,0.07266663,0.17297596,0.19379814,0.04301585,0.15953505,0.68069375,0.043490827,0.3591173,0.23186521,-0.38215825,-0.2674007,0.94533026,-0.29393506,0.18186982,0.020937642,0.082250424,-0.67434025,0.57923037,-0.38471955,-0.33321172,-0.088673666,0.23112024,0.20690766,-0.22333221,-0.65239435,0.36180383,0.28766498,0.1665322,-0.52151585,-0.16587003,-0.26816773,0.15369539,0.5162346,-0.6314282,-0.081062965,0.5569972,0.102629654,0.20996988,0.48858303,0.10874384,0.24431585,0.8100711,0.17255113,0.08079125,-0.44186237,-0.12502931,-0.33184582,0.23627742,-0.22609545,-0.00046325638,0.7847362,0.6633922,0.23746449,0.20774244,-0.33686423,-0.11810095,-0.032513045,-0.17501976,0.7356037,0.14783332,-0.4504407,-0.09372375,-0.29252312,0.070296556,0.12081442,-0.29536444,-0.22796749,-0.6081347,0.38814306,0.3858194,0.21731375,0.28235105,-0.07675561,0.33163762,0.04210063,0.17283602,0.65573865,-0.08288164,-0.008983458,-0.2974142,-0.4296616,0.5289262,-0.26565197,0.40843022,-0.45210764,0.5453161,0.061805815,0.37414178,0.013382555,0.37836736,0.018479653,-0.40439665,0.43738046,-0.22966844,0.23297714,-0.80140734,0.29777095,-0.23733696,-0.5725284
heartfelt,-0.27925253,-0.10837701,-1.2563889,-0.37984157,-0.1474526,0.2033577,0.09766871,0.21057104,-0.3081389,0.3314357,0.35418913,-0.1357812,-0.14392221,0.01019558,0.32369238,0.41905728,0.548119,0.48760018,-0.326532,0.3316986,-0.5326193,0.17544003,-0.8866792,-0.29231623,-0.1365832,-0.25106633,-0.013267995,-0.30411005,-0.110558234,0.6580264,-0.46612942,0.13023584,0.17571136,0.1747204,0.6263749,-0.67795783,0.23422496,-0.57354575,0.49888,-0.06207,0.043725688,0.5310478,0.47939634,0.08481182,-0.5140234,-0.5654065,0.4487418,-0.34296116,0.18350948,-0.0409153,0.18190765,0.30687848,0.3225751,-0.19745225,-0.26520222,0.5010802,0.8724833,-0.045228533,0.6485472,-0.18200614,-0.36792725,0.19318712,0.48234275,-0.3971706,-0.30277708,-0.9043051,-0.6469387,-0.18832026,-0.012830196,-0.26700535,-0.18159565,0.05562967,-0.23846942,0.42487806,0.079691246,-0.59247655,-0.0013672851,0.44057417,0.47514382,0.1837634,0.27082127,-0.061401527,0.124040864,-0.15006427,-0.8166891,0.07563519,0.13091685,0.4168983,0.5188921,0.25030056,-0.5768222,0.20568457,0.116792,0.013908554,0.038307324,0.016693857,-0.6574757,-0.07712789,-0.030366128,0.24338874,0.031308282,0.29709473,0.63345367,-0.013354586,-0.058074534,0.33701923,-0.74418855,0.6951053,-0.21086864,0.4956293,-0.8644298,-0.49139208,0.25471184,-0.69836825,0.5566999,-0.16532624,-0.56745374,-0.060646735,-0.30005044,0.05647793,0.06768409,-0.14426993,-0.11636625,-0.21126015,0.35927078,0.14947662,-0.33579823,0.3090255,-0.1252681,-0.12900473,0.21899049,0.017985357,-0.10152947,-0.040952373,0.57935107,-0.03737058,0.19822924,0.6217653,0.85227054,-0.20749596,0.029973892,0.089010924,0.5275913,0.41298947,-0.321775,0.08512708,-1.1843816,0.4217786,-0.2391015,-0.22818424
interested,1.0055145,0.012992083,0.34980786,-0.05925208,-0.020224623,0.79091823,-0.37983763,-0.085072786,-1.1096364,1.1000905,0.10601424,-0.22591038,0.0874666,-0.14525972,0.45461872,-0.29504153,-0.19596532,-0.18849695,-0.8332494,-0.2132757,0.14358687,0.08977472,-1.3158458,-1.2567148,0.07320405,-0.58212465,-0.6220222,0.27170205,-0.8940166,-0.1466768,0.021898597,0.28049034,0.34329015,-0.46998006,-0.0073494897,-0.124743216,0.35381323,-0.09464731,-0.07715055,0.37805915,0.240621,0.24381185,0.06546129,0.6722686,-0.06736159,1.2125648,0.9972975,0.18998833,0.69871736,-0.021921191,-0.6028587,-0.35082045,0.67013496,0.49814078,-0.24030313,0.3202696,0.4834432,-0.01606633,-0.03185025,-0.45529932,-0.1318709,0.41590995,0.10777893,-0.28062686,-0.17771596,0.015555117,0.47238907,-0.8803043,0.2486475,-0.33456677,0.95681304,-0.24016786,0.6286282,0.58050734,0.32945743,-0.7601955,-0.09917777,-0.47563466,0.31878683,1.0943261,-0.81727016,-1.141229,0.22014205,0.09629673,0.120505705,0.934145,-0.62272155,0.94849217,0.97634965,0.8608732,-0.76421624,0.6347042,1.1326501,0.65159947,-0.3763775,0.34609762,1.1323078,0.37368563,0.2870567,0.43063083,0.02729171,0.06298921,-0.83008677,0.8963349,0.28191146,-0.7636014,-1.7388681,0.5954373,-0.08453716,0.37499598,-0.27261603,-0.07596484,-0.011696836,0.29878908,0.30482864,0.23765509,0.14340295,0.31283596,-0.33060938,-1.1114746,-0.12451565,0.8543545,0.8604191,-0.40915853,0.51385283,0.6180912,0.67965996,1.1999031,0.2879841,-0.056129985,0.11291375,-0.29370812,0.1648194,-0.025302421,1.4533672,-0.2285249,0.3428246,-0.18699759,0.27396405,-0.16572067,0.083571784,0.45169827,-0.8323069,0.7091276,0.0956674,-1.1996816,-0.54921734,0.2664035,-0.7843611,-0.97980064
